{"learner":{"attributes":{},"feature_names":[],"feature_types":[],"gradient_booster":{"model":{"gbtree_model_param":{"num_parallel_tree":"1","num_trees":"1150"},"iteration_indptr":[0,5,10,15,20,25,30,35,40,45,50,55,60,65,70,75,80,85,90,95,100,105,110,115,120,125,130,135,140,145,150,155,160,165,170,175,180,185,190,195,200,205,210,215,220,225,230,235,240,245,250,255,260,265,270,275,280,285,290,295,300,305,310,315,320,325,330,335,340,345,350,355,360,365,370,375,380,385,390,395,400,405,410,415,420,425,430,435,440,445,450,455,460,465,470,475,480,485,490,495,500,505,510,515,520,525,530,535,540,545,550,555,560,565,570,575,580,585,590,595,600,605,610,615,620,625,630,635,640,645,650,655,660,665,670,675,680,685,690,695,700,705,710,715,720,725,730,735,740,745,750,755,760,765,770,775,780,785,790,795,800,805,810,815,820,825,830,835,840,845,850,855,860,865,870,875,880,885,890,895,900,905,910,915,920,925,930,935,940,945,950,955,960,965,970,975,980,985,990,995,1000,1005,1010,1015,1020,1025,1030,1035,1040,1045,1050,1055,1060,1065,1070,1075,1080,1085,1090,1095,1100,1105,1110,1115,1120,1125,1130,1135,1140,1145,1150],"tree_info":[0,1,2,3,4,0,1,2,3,4,0,1,2,3,4,0,1,2,3,4,0,1,2,3,4,0,1,2,3,4,0,1,2,3,4,0,1,2,3,4,0,1,2,3,4,0,1,2,3,4,0,1,2,3,4,0,1,2,3,4,0,1,2,3,4,0,1,2,3,4,0,1,2,3,4,0,1,2,3,4,0,1,2,3,4,0,1,2,3,4,0,1,2,3,4,0,1,2,3,4,0,1,2,3,4,0,1,2,3,4,0,1,2,3,4,0,1,2,3,4,0,1,2,3,4,0,1,2,3,4,0,1,2,3,4,0,1,2,3,4,0,1,2,3,4,0,1,2,3,4,0,1,2,3,4,0,1,2,3,4,0,1,2,3,4,0,1,2,3,4,0,1,2,3,4,0,1,2,3,4,0,1,2,3,4,0,1,2,3,4,0,1,2,3,4,0,1,2,3,4,0,1,2,3,4,0,1,2,3,4,0,1,2,3,4,0,1,2,3,4,0,1,2,3,4,0,1,2,3,4,0,1,2,3,4,0,1,2,3,4,0,1,2,3,4,0,1,2,3,4,0,1,2,3,4,0,1,2,3,4,0,1,2,3,4,0,1,2,3,4,0,1,2,3,4,0,1,2,3,4,0,1,2,3,4,0,1,2,3,4,0,1,2,3,4,0,1,2,3,4,0,1,2,3,4,0,1,2,3,4,0,1,2,3,4,0,1,2,3,4,0,1,2,3,4,0,1,2,3,4,0,1,2,3,4,0,1,2,3,4,0,1,2,3,4,0,1,2,3,4,0,1,2,3,4,0,1,2,3,4,0,1,2,3,4,0,1,2,3,4,0,1,2,3,4,0,1,2,3,4,0,1,2,3,4,0,1,2,3,4,0,1,2,3,4,0,1,2,3,4,0,1,2,3,4,0,1,2,3,4,0,1,2,3,4,0,1,2,3,4,0,1,2,3,4,0,1,2,3,4,0,1,2,3,4,0,1,2,3,4,0,1,2,3,4,0,1,2,3,4,0,1,2,3,4,0,1,2,3,4,0,1,2,3,4,0,1,2,3,4,0,1,2,3,4,0,1,2,3,4,0,1,2,3,4,0,1,2,3,4,0,1,2,3,4,0,1,2,3,4,0,1,2,3,4,0,1,2,3,4,0,1,2,3,4,0,1,2,3,4,0,1,2,3,4,0,1,2,3,4,0,1,2,3,4,0,1,2,3,4,0,1,2,3,4,0,1,2,3,4,0,1,2,3,4,0,1,2,3,4,0,1,2,3,4,0,1,2,3,4,0,1,2,3,4,0,1,2,3,4,0,1,2,3,4,0,1,2,3,4,0,1,2,3,4,0,1,2,3,4,0,1,2,3,4,0,1,2,3,4,0,1,2,3,4,0,1,2,3,4,0,1,2,3,4,0,1,2,3,4,0,1,2,3,4,0,1,2,3,4,0,1,2,3,4,0,1,2,3,4,0,1,2,3,4,0,1,2,3,4,0,1,2,3,4,0,1,2,3,4,0,1,2,3,4,0,1,2,3,4,0,1,2,3,4,0,1,2,3,4,0,1,2,3,4,0,1,2,3,4,0,1,2,3,4,0,1,2,3,4,0,1,2,3,4,0,1,2,3,4,0,1,2,3,4,0,1,2,3,4,0,1,2,3,4,0,1,2,3,4,0,1,2,3,4,0,1,2,3,4,0,1,2,3,4,0,1,2,3,4,0,1,2,3,4,0,1,2,3,4,0,1,2,3,4,0,1,2,3,4,0,1,2,3,4,0,1,2,3,4,0,1,2,3,4,0,1,2,3,4,0,1,2,3,4,0,1,2,3,4,0,1,2,3,4,0,1,2,3,4,0,1,2,3,4,0,1,2,3,4,0,1,2,3,4,0,1,2,3,4,0,1,2,3,4,0,1,2,3,4,0,1,2,3,4,0,1,2,3,4,0,1,2,3,4,0,1,2,3,4,0,1,2,3,4,0,1,2,3,4,0,1,2,3,4,0,1,2,3,4,0,1,2,3,4,0,1,2,3,4,0,1,2,3,4,0,1,2,3,4,0,1,2,3,4,0,1,2,3,4,0,1,2,3,4,0,1,2,3,4,0,1,2,3,4,0,1,2,3,4,0,1,2,3,4,0,1,2,3,4,0,1,2,3,4,0,1,2,3,4,0,1,2,3,4,0,1,2,3,4,0,1,2,3,4,0,1,2,3,4,0,1,2,3,4,0,1,2,3,4,0,1,2,3,4,0,1,2,3,4,0,1,2,3,4,0,1,2,3,4,0,1,2,3,4,0,1,2,3,4,0,1,2,3,4,0,1,2,3,4,0,1,2,3,4,0,1,2,3,4,0,1,2,3,4,0,1,2,3,4,0,1,2,3,4,0,1,2,3,4,0,1,2,3,4,0,1,2,3,4,0,1,2,3,4,0,1,2,3,4,0,1,2,3,4,0,1,2,3,4,0,1,2,3,4,0,1,2,3,4,0,1,2,3,4,0,1,2,3,4,0,1,2,3,4,0,1,2,3,4,0,1,2,3,4,0,1,2,3,4,0,1,2,3,4,0,1,2,3,4,0,1,2,3,4,0,1,2,3,4],"trees":[{"base_weights":[2.274304E0,3.3243483E-1,2.333549E0,-4.4901064E-1,1.3825363E0,2.4154885E0,1.7742282E0,-1.6915077E-1,7.261904E-2,6.586576E-1,1.3473895E-1,1.3656716E-1,7.400495E-1,5.5987877E-1,-6.630435E-2],"categories":[],"categories_nodes":[],"categories_segments":[],"categories_sizes":[],"default_left":[0,1,1,1,1,0,1,0,0,0,0,0,0,0,0],"id":0,"left_children":[1,3,5,7,9,11,13,-1,-1,-1,-1,-1,-1,-1,-1],"loss_changes":[1.6769385E2,3.715375E1,6.0831543E1,2.0385566E0,1.3109947E1,2.5442383E1,2.3075684E1,0E0,0E0,0E0,0E0,0E0,0E0,0E0,0E0],"parents":[2147483647,0,0,1,1,2,2,3,3,4,4,5,5,6,6],"right_children":[2,4,6,8,10,12,14,-1,-1,-1,-1,-1,-1,-1,-1],"split_conditions":[4.09624E-1,2.3378558E-2,5.6643408E-2,5.600458E-2,4.111061E-2,3.8942158E-1,1.8247917E-1,-1.6915077E-1,7.261904E-2,6.586576E-1,1.3473895E-1,1.3656716E-1,7.400495E-1,5.5987877E-1,-6.630435E-2],"split_indices":[2788,344,1727,2203,423,4454,1475,0,0,0,0,0,0,0,0],"split_type":[0,0,0,0,0,0,0,0,0,0,0,0,0,0,0],"sum_hessian":[1.4633601E3,4.3520004E1,1.4198401E3,2.5280003E1,1.8240002E1,1.2355201E3,1.8432E2,2.2080002E1,3.2000003E0,9.280001E0,8.960001E0,7.0400004E0,1.2284801E3,1.7888002E2,5.4400005E0],"tree_param":{"num_deleted":"0","num_feature":"5000","num_nodes":"15","size_leaf_vector":"1"}},{"base_weights":[-5.947046E-1,3.3387572E-1,-6.020828E-1,-3.0441398E-2,-6.120835E-1,-1.0830134E-1,3.1257764E-1,-1.871054E-1,1.605263E-1],"categories":[],"categories_nodes":[],"categories_segments":[],"categories_sizes":[],"default_left":[0,0,0,0,1,0,0,0,0],"id":1,"left_children":[1,-1,3,5,7,-1,-1,-1,-1],"loss_changes":[1.9019287E1,0E0,8.369385E0,9.367261E0,2.5828247E0,0E0,0E0,0E0,0E0],"parents":[2147483647,0,0,2,2,3,3,4,4],"right_children":[2,-1,4,6,8,-1,-1,-1,-1],"split_conditions":[3.8942158E-1,3.3387572E-1,1.1890658E-1,2.58312E-2,1.8465379E-1,-1.0830134E-1,3.1257764E-1,-1.871054E-1,1.605263E-1],"split_indices":[4454,0,2788,2864,282,0,0,0,0],"split_type":[0,0,0,0,0,0,0,0,0],"sum_hessian":[1.4720001E3,5.76E0,1.4662401E3,2.5280003E1,1.4409601E3,1.9840002E1,5.4400005E0,1.43968E3,1.2800001E0],"tree_param":{"num_deleted":"0","num_feature":"5000","num_nodes":"9","size_leaf_vector":"1"}},{"base_weights":[-5.906835E-1,6.613102E-1,-6.183339E-1,1.0189573E0,-1.6691543E-1,-6.203963E-1,-0E0,-1.4149484E-1,3.751337E-1,2.6754387E-2,-1.8943176E-1,2.3461537E-1,-1.4523809E-1],"categories":[],"categories_nodes":[],"categories_segments":[],"categories_sizes":[],"default_left":[0,1,1,0,0,0,0,0,0,0,0,0,0],"id":2,"left_children":[1,3,5,7,-1,9,11,-1,-1,-1,-1,-1,-1],"loss_changes":[5.1478943E1,1.454502E1,1.8413696E0,8.4924755E0,0E0,7.5897217E-1,2.4908423E0,0E0,0E0,0E0,0E0,0E0,0E0],"parents":[2147483647,0,0,1,1,2,2,3,3,5,5,6,6],"right_children":[2,4,6,8,-1,10,12,-1,-1,-1,-1,-1,-1],"split_conditions":[1.3037288E-1,7.134282E-2,1.8293184E-1,3.141274E-2,-1.6691543E-1,1.7736818E-1,5.1139392E-2,-1.4149484E-1,3.751337E-1,2.6754387E-2,-1.8943176E-1,2.3461537E-1,-1.4523809E-1],"split_indices":[2788,4526,4119,4469,0,465,54,0,0,0,0,0,0],"split_type":[0,0,0,0,0,0,0,0,0,0,0,0,0],"sum_hessian":[1.4742401E3,3.1360003E1,1.4428801E3,2.4320002E1,7.0400004E0,1.4380801E3,4.8E0,2.88E0,2.1440002E1,1.2800001E0,1.4368E3,1.6000001E0,3.2000003E0],"tree_param":{"num_deleted":"0","num_feature":"5000","num_nodes":"13","size_leaf_vector":"1"}},{"base_weights":[-6.137477E-1,4.5197737E-1,-6.1845857E-1,-1.4149484E-1,1.1904762E0,2.3461537E-1,-6.204926E-1,1.17307685E-1,4.6923074E-1,1.17307685E-1,-1.896642E-1],"categories":[],"categories_nodes":[],"categories_segments":[],"categories_sizes":[],"default_left":[0,0,0,0,0,0,0,0,0,0,0],"id":3,"left_children":[1,3,5,-1,7,-1,9,-1,-1,-1,-1],"loss_changes":[7.6972656E0,5.3411045E0,4.630371E0,0E0,5.8608055E-1,0E0,2.2443237E0,0E0,0E0,0E0,0E0],"parents":[2147483647,0,0,1,1,2,2,4,4,6,6],"right_children":[2,4,6,-1,8,-1,10,-1,-1,-1,-1],"split_conditions":[9.168331E-2,5.2412726E-2,2.0631734E-1,-1.4149484E-1,2.5332402E-2,2.3461537E-1,1.7624982E-1,1.17307685E-1,4.6923074E-1,1.17307685E-1,-1.896642E-1],"split_indices":[2788,1280,449,0,741,0,366,0,0,0,0],"split_type":[0,0,0,0,0,0,0,0,0,0,0],"sum_hessian":[1.4764801E3,6.0800004E0,1.4704001E3,2.88E0,3.2000003E0,1.6000001E0,1.4688E3,1.6000001E0,1.6000001E0,1.6000001E0,1.4672001E3],"tree_param":{"num_deleted":"0","num_feature":"5000","num_nodes":"11","size_leaf_vector":"1"}},{"base_weights":[-4.8327336E-1,-5.732355E-1,1.1917098E-1,-5.800829E-1,1.2403101E0,-1.11779876E-1,7.090374E-1,4.280702E-1,-1.7786351E-1,-0E0,5.483146E-1,1.796634E-1,-8.820064E-2,-1.6691543E-1,2.7668774E-1],"categories":[],"categories_nodes":[],"categories_segments":[],"categories_sizes":[],"default_left":[1,1,1,0,1,1,0,0,0,0,0,0,0,0,0],"id":4,"left_children":[1,3,5,7,9,11,13,-1,-1,-1,-1,-1,-1,-1,-1],"loss_changes":[8.0230316E1,1.6702545E1,2.6371681E1,8.646515E0,3.5676336E0,1.7521957E1,1.404755E1,0E0,0E0,0E0,0E0,0E0,0E0,0E0,0E0],"parents":[2147483647,0,0,1,1,2,2,3,3,4,4,5,5,6,6],"right_children":[2,4,6,8,10,12,14,-1,-1,-1,-1,-1,-1,-1,-1],"split_conditions":[5.6643408E-2,1.491059E-1,8.858498E-2,5.938507E-1,5.4055836E-2,7.078618E-2,2.703016E-1,4.280702E-1,-1.7786351E-1,-0E0,5.483146E-1,1.796634E-1,-8.820064E-2,-1.6691543E-1,2.7668774E-1],"split_indices":[1727,2788,2497,587,423,580,1361,0,0,0,0,0,0,0,0],"split_type":[0,0,0,0,0,0,0,0,0,0,0,0,0,0,0],"sum_hessian":[1.4780801E3,1.2860801E3,1.9200002E2,1.28192E3,4.1600003E0,1.3856001E2,5.3440002E1,1.2800001E0,1.2806401E3,1.6000001E0,2.5600002E0,2.7520002E1,1.1104001E2,7.0400004E0,4.64E1],"tree_param":{"num_deleted":"0","num_feature":"5000","num_nodes":"15","size_leaf_vector":"1"}},{"base_weights":[1.1929041E0,1.2176151E0,3.2422057E-1,1.2242665E0,5.496839E-2,-3.8292155E-1,7.655571E-1,3.7550578E-1,6.4979956E-2,3.9963764E-1,-1.2930274E-1,-1.494344E-1,1.5527292E-1,2.6410406E-2,3.534447E-1],"categories":[],"categories_nodes":[],"categories_segments":[],"categories_sizes":[],"default_left":[0,1,1,1,0,0,0,0,0,0,0,0,0,0,0],"id":5,"left_children":[1,3,5,7,9,11,13,-1,-1,-1,-1,-1,-1,-1,-1],"loss_changes":[4.566626E1,1.6064697E1,1.9241238E1,1.4209961E1,8.318823E0,2.5404844E0,9.970737E0,0E0,0E0,0E0,0E0,0E0,0E0,0E0,0E0],"parents":[2147483647,0,0,1,1,2,2,3,3,4,4,5,5,6,6],"right_children":[2,4,6,8,10,12,14,-1,-1,-1,-1,-1,-1,-1,-1],"split_conditions":[5.2202336E-2,1.6446312E-1,2.2670932E-2,2.0589796E-1,1.0088734E-1,1.5293501E-1,2.7052274E-1,3.7550578E-1,6.4979956E-2,3.9963764E-1,-1.2930274E-1,-1.494344E-1,1.5527292E-1,2.6410406E-2,3.534447E-1],"split_indices":[3595,1475,344,1260,310,2994,3952,0,0,0,0,0,0,0,0],"split_type":[0,0,0,0,0,0,0,0,0,0,0,0,0,0,0],"sum_hessian":[2.1447688E3,2.0850547E3,5.9713997E1,2.0731414E3,1.1913343E1,2.2997715E1,3.671628E1,2.0588752E3,1.4266161E1,2.8105056E0,9.1028385E0,2.0936419E1,2.0612972E0,1.3914351E1,2.2801931E1],"tree_param":{"num_deleted":"0","num_feature":"5000","num_nodes":"15","size_leaf_vector":"1"}},{"base_weights":[-5.530196E-1,2.4532731E-1,-5.6370336E-1,-2.843943E-3,-5.7519555E-1,-9.9137634E-2,2.814708E-1,2.0773743E-1,-1.759516E-1],"categories":[],"categories_nodes":[],"categories_segments":[],"categories_sizes":[],"default_left":[0,0,0,1,0,0,0,0,0],"id":6,"left_children":[1,-1,3,5,7,-1,-1,-1,-1],"loss_changes":[1.7921844E1,0E0,7.705597E0,7.76068E0,2.8879395E0,0E0,0E0,0E0,0E0],"parents":[2147483647,0,0,2,2,3,3,4,4],"right_children":[2,-1,4,6,8,-1,-1,-1,-1],"split_conditions":[3.8942158E-1,2.4532731E-1,1.1649534E-1,8.2791135E-2,2.1928991E-1,-9.9137634E-2,2.814708E-1,2.0773743E-1,-1.759516E-1],"split_indices":[4454,0,2788,258,804,0,0,0,0],"split_type":[0,0,0,0,0,0,0,0,0],"sum_hessian":[1.2035684E3,8.819068E0,1.1947493E3,2.4014307E1,1.170735E3,1.829533E1,5.718977E0,1.0372785E0,1.1696976E3],"tree_param":{"num_deleted":"0","num_feature":"5000","num_nodes":"9","size_leaf_vector":"1"}},{"base_weights":[-5.4916257E-1,4.928317E-1,-5.810069E-1,-3.7264398E-1,7.7498156E-1,-5.842987E-1,-1.5779996E-1,-1.7279379E-1,1.8002059E-1,3.9047047E-1,1.0471243E-1,-1.8849503E-2,-1.7871207E-1,1.9437735E-1,-1.23756684E-1],"categories":[],"categories_nodes":[],"categories_segments":[],"categories_sizes":[],"default_left":[0,0,1,1,0,0,0,0,0,0,0,0,0,0,0],"id":7,"left_children":[1,3,5,7,9,11,13,-1,-1,-1,-1,-1,-1,-1,-1],"loss_changes":[4.048358E1,9.193476E0,1.5461121E0,2.1342316E0,5.629038E0,9.6487427E-1,2.3181326E0,0E0,0E0,0E0,0E0,0E0,0E0,0E0,0E0],"parents":[2147483647,0,0,1,1,2,2,3,3,4,4,5,5,6,6],"right_children":[2,4,6,8,10,12,14,-1,-1,-1,-1,-1,-1,-1,-1],"split_conditions":[1.3037288E-1,8.7586746E-2,1.5885033E-1,1.0097447E-1,2.3007536E-2,1.4961427E-1,5.1139392E-2,-1.7279379E-1,1.8002059E-1,3.9047047E-1,1.0471243E-1,-1.8849503E-2,-1.7871207E-1,1.9437735E-1,-1.23756684E-1],"split_indices":[2788,175,2439,1248,3715,2788,54,0,0,0,0,0,0,0,0],"split_type":[0,0,0,0,0,0,0,0,0,0,0,0,0,0,0],"sum_hessian":[1.2104312E3,3.5465637E1,1.1749655E3,8.640562E0,2.6825077E1,1.165519E3,9.44639E0,7.53489E0,1.1056721E0,1.1453377E1,1.53717E1,3.7734776E0,1.1617456E3,1.8723526E0,7.574037E0],"tree_param":{"num_deleted":"0","num_feature":"5000","num_nodes":"15","size_leaf_vector":"1"}},{"base_weights":[-5.7916087E-1,3.6288646E-1,-5.8465344E-1,-1.365892E-1,8.996341E-1,1.2862109E-1,-5.8622986E-1,4.3553668E-1,-1.0640866E-1,-1.7905416E-1,6.0511377E-2],"categories":[],"categories_nodes":[],"categories_segments":[],"categories_sizes":[],"default_left":[0,0,0,0,0,0,1,0,0,0,0],"id":8,"left_children":[1,3,5,-1,7,-1,9,-1,-1,-1,-1],"loss_changes":[6.458374E0,3.7163815E0,2.151825E0,0E0,3.7395973E0,0E0,9.002075E-1,0E0,0E0,0E0,0E0],"parents":[2147483647,0,0,1,1,2,2,4,4,6,6],"right_children":[2,4,6,-1,8,-1,10,-1,-1,-1,-1],"split_conditions":[9.168331E-2,2.908608E-2,2.0631734E-1,-1.365892E-1,2.9296102E-2,1.2862109E-1,2.0474678E-1,4.3553668E-1,-1.0640866E-1,-1.7905416E-1,6.0511377E-2],"split_indices":[2994,3164,449,0,1727,0,3944,0,0,0,0],"split_type":[0,0,0,0,0,0,0,0,0,0,0],"sum_hessian":[1.2061693E3,6.614569E0,1.1995548E3,2.700821E0,3.9137483E0,1.4592938E0,1.1980955E3,2.6489835E0,1.2647648E0,1.1970764E3,1.0190104E0],"tree_param":{"num_deleted":"0","num_feature":"5000","num_nodes":"11","size_leaf_vector":"1"}},{"base_weights":[-4.303681E-1,-5.243066E-1,9.41581E-2,-5.310201E-1,8.210219E-1,-2.0060779E-1,3.585354E-1,-1.6310911E-1,5.04356E-1,3.5571948E-1,-1.057119E-1,1.2892117E-1,-1.1510768E-1,1.6741347E-1,-3.2681707E-2],"categories":[],"categories_nodes":[],"categories_segments":[],"categories_sizes":[],"default_left":[1,1,1,1,0,1,1,0,0,0,0,0,0,0,0],"id":9,"left_children":[1,3,5,7,9,11,13,-1,-1,-1,-1,-1,-1,-1,-1],"loss_changes":[6.113829E1,9.934235E0,1.4813112E1,9.493683E0,2.667739E0,1.0086124E1,8.930764E0,0E0,0E0,0E0,0E0,0E0,0E0,0E0,0E0],"parents":[2147483647,0,0,1,1,2,2,3,3,4,4,5,5,6,6],"right_children":[2,4,6,8,10,12,14,-1,-1,-1,-1,-1,-1,-1,-1],"split_conditions":[5.6643408E-2,1.5122128E-1,7.090531E-2,2.6344344E-1,6.231026E-2,5.6243036E-2,8.357005E-2,-1.6310911E-1,5.04356E-1,3.5571948E-1,-1.057119E-1,1.2892117E-1,-1.1510768E-1,1.6741347E-1,-3.2681707E-2],"split_indices":[1727,3243,4273,906,1287,4307,2959,0,0,0,0,0,0,0,0],"split_type":[0,0,0,0,0,0,0,0,0,0,0,0,0,0,0],"sum_hessian":[1.2387999E3,1.0506392E3,1.8816075E2,1.0460245E3,4.614616E0,8.908131E1,9.907945E1,1.0449794E3,1.0451522E0,3.5623446E0,1.0522714E0,1.9376684E1,6.970462E1,7.020345E1,2.8875998E1],"tree_param":{"num_deleted":"0","num_feature":"5000","num_nodes":"15","size_leaf_vector":"1"}},{"base_weights":[8.6983126E-1,-1.1574049E-1,8.8078964E-1,-4.9787888E-1,5.5828685E-1,9.031349E-1,6.0319585E-1,6.0152438E-2,-1.6920517E-1,2.376745E-1,-1.4345549E-1,2.7611962E-1,-1.4328887E-1,2.1338658E-1,-3.8771564E-3],"categories":[],"categories_nodes":[],"categories_segments":[],"categories_sizes":[],"default_left":[0,1,1,0,0,1,0,0,0,0,0,0,0,0,0],"id":10,"left_children":[1,3,5,7,9,11,13,-1,-1,-1,-1,-1,-1,-1,-1],"loss_changes":[2.4506104E1,6.905685E0,1.3317871E1,7.7971554E-1,2.58987E0,6.5968018E0,1.0076477E1,0E0,0E0,0E0,0E0,0E0,0E0,0E0,0E0],"parents":[2147483647,0,0,1,1,2,2,3,3,4,4,5,5,6,6],"right_children":[2,4,6,8,10,12,14,-1,-1,-1,-1,-1,-1,-1,-1],"split_conditions":[1.1952899E-1,2.2670932E-2,7.090531E-2,6.52563E-2,2.7786149E-2,1.991859E-1,9.0027265E-2,6.0152438E-2,-1.6920517E-1,2.376745E-1,-1.4345549E-1,2.7611962E-1,-1.4328887E-1,2.1338658E-1,-3.8771564E-3],"split_indices":[2994,344,4273,665,1984,188,2150,0,0,0,0,0,0,0,0],"split_type":[0,0,0,0,0,0,0,0,0,0,0,0,0,0,0],"sum_hessian":[2.2585942E3,2.4731575E1,2.2338628E3,1.595006E1,8.781515E0,2.0653562E3,1.6850662E2,1.0200965E0,1.4929963E1,7.428199E0,1.3533163E0,2.062429E3,2.927207E0,1.4557768E2,2.2928928E1],"tree_param":{"num_deleted":"0","num_feature":"5000","num_nodes":"15","size_leaf_vector":"1"}},{"base_weights":[-5.227389E-1,1.8739662E-1,-5.340006E-1,6.489981E-2,-5.490546E-1,-7.687226E-2,2.5780132E-1,-1.2597128E-2,-1.6932565E-1],"categories":[],"categories_nodes":[],"categories_segments":[],"categories_sizes":[],"default_left":[0,0,0,0,0,0,0,0,0],"id":11,"left_children":[1,-1,3,5,7,-1,-1,-1,-1],"loss_changes":[1.2994598E1,0E0,8.870483E0,6.376764E0,2.9436035E0,0E0,0E0,0E0,0E0],"parents":[2147483647,0,0,2,2,3,3,4,4],"right_children":[2,-1,4,6,8,-1,-1,-1,-1],"split_conditions":[3.8942158E-1,1.8739662E-1,1.1890658E-1,2.58312E-2,1.5885033E-1,-7.687226E-2,2.5780132E-1,-1.2597128E-2,-1.6932565E-1],"split_indices":[4454,0,2788,2864,2418,0,0,0,0],"split_type":[0,0,0,0,0,0,0,0,0],"sum_hessian":[9.8808044E2,9.164238E0,9.789162E2,2.3921646E1,9.5499457E2,1.7493616E1,6.4280305E0,1.145012E1,9.4354443E2],"tree_param":{"num_deleted":"0","num_feature":"5000","num_nodes":"9","size_leaf_vector":"1"}},{"base_weights":[-5.202385E-1,3.505598E-1,-5.579711E-1,5.461577E-1,-1.5932858E-1,-5.630418E-1,-2.8942201E-2,2.1321538E-1,-4.4700228E-2,6.0822662E-2,-1.7205259E-1,1.5792647E-1,-1.4700353E-1],"categories":[],"categories_nodes":[],"categories_segments":[],"categories_sizes":[],"default_left":[0,1,1,1,0,0,0,0,0,0,0,0,0],"id":12,"left_children":[1,3,5,7,-1,9,11,-1,-1,-1,-1,-1,-1],"loss_changes":[3.257791E1,7.3789744E0,2.5186768E0,3.749259E0,0E0,8.7249756E-1,2.7328725E0,0E0,0E0,0E0,0E0,0E0,0E0],"parents":[2147483647,0,0,1,1,2,2,3,3,5,5,6,6],"right_children":[2,4,6,8,-1,10,12,-1,-1,-1,-1,-1,-1],"split_conditions":[1.4961427E-1,7.134282E-2,1.5885033E-1,2.5702318E-2,-1.5932858E-1,1.912207E-1,8.119708E-2,2.1321538E-1,-4.4700228E-2,6.0822662E-2,-1.7205259E-1,1.5792647E-1,-1.4700353E-1],"split_indices":[2788,4526,2440,95,0,884,1122,0,0,0,0,0,0],"split_type":[0,0,0,0,0,0,0,0,0,0,0,0,0],"sum_hessian":[9.845365E2,4.0544914E1,9.439916E2,3.3428978E1,7.115938E0,9.3496576E2,9.025852E0,2.7376713E1,6.052264E0,1.0443122E0,9.3392145E2,4.02521E0,5.000642E0],"tree_param":{"num_deleted":"0","num_feature":"5000","num_nodes":"13","size_leaf_vector":"1"}},{"base_weights":[-5.533852E-1,1.4197475E-1,-5.616873E-1,-2.760192E-1,6.8337035E-1,4.099625E-1,-5.644946E-1,1.4028561E-1,-1.4866914E-1,3.025812E-1,-9.236683E-2,-1.0404144E-1,2.8019327E-1,6.0888898E-2,-1.7248772E-1],"categories":[],"categories_nodes":[],"categories_segments":[],"categories_sizes":[],"default_left":[0,1,0,0,1,0,0,0,0,0,0,0,0,0,0],"id":13,"left_children":[1,3,5,7,9,11,13,-1,-1,-1,-1,-1,-1,-1,-1],"loss_changes":[5.705841E0,2.971334E0,2.8589783E0,1.414754E0,2.0190675E0,1.5950148E0,8.757324E-1,0E0,0E0,0E0,0E0,0E0,0E0,0E0,0E0],"parents":[2147483647,0,0,1,1,2,2,3,3,4,4,5,5,6,6],"right_children":[2,4,6,8,10,12,14,-1,-1,-1,-1,-1,-1,-1,-1],"split_conditions":[3.1813405E-2,2.1136124E-2,2.0631734E-1,5.4969043E-2,4.720552E-2,3.804658E-2,1.716704E-1,1.4028561E-1,-1.4866914E-1,3.025812E-1,-9.236683E-2,-1.0404144E-1,2.8019327E-1,6.0888898E-2,-1.7248772E-1],"split_indices":[4044,308,449,1255,271,423,3729,0,0,0,0,0,0,0,0],"split_type":[0,0,0,0,0,0,0,0,0,0,0,0,0,0,0],"sum_hessian":[9.7356335E2,1.1296552E1,9.622668E2,6.6513963E0,4.645156E0,2.3543897E0,9.599124E2,1.221996E0,5.4294004E0,3.5332556E0,1.1119001E0,1.0837333E0,1.2706565E0,1.0437928E0,9.5886865E2],"tree_param":{"num_deleted":"0","num_feature":"5000","num_nodes":"15","size_leaf_vector":"1"}},{"base_weights":[-3.813486E-1,-4.8875323E-1,1.1846907E-1,4.24391E-1,-4.931854E-1,-4.8979715E-1,2.4050657E-1,-1.5177141E-1,4.1052473E-1,-1.6815254E-1,1.8398364E-1,2.3779301E-2,2.2060753E-1],"categories":[],"categories_nodes":[],"categories_segments":[],"categories_sizes":[],"default_left":[1,0,0,0,1,1,1,0,0,0,0,0,0],"id":14,"left_children":[1,3,5,-1,7,9,11,-1,-1,-1,-1,-1,-1],"loss_changes":[5.6359436E1,7.8818207E0,1.394799E1,0E0,7.687729E0,2.4483209E0,1.2173803E1,0E0,0E0,0E0,0E0,0E0,0E0],"parents":[2147483647,0,0,1,1,2,2,4,4,5,5,6,6],"right_children":[2,4,6,-1,8,10,12,-1,-1,-1,-1,-1,-1],"split_conditions":[5.6643408E-2,5.938507E-1,2.703016E-1,4.24391E-1,2.6344344E-1,1.3437271E-1,9.0567E-2,-1.5177141E-1,4.1052473E-1,-1.6815254E-1,1.8398364E-1,2.3779301E-2,2.2060753E-1],"split_indices":[4252,587,1361,0,906,433,1889,0,0,0,0,0,0],"split_type":[0,0,0,0,0,0,0,0,0,0,0,0,0],"sum_hessian":[1.047783E3,8.624708E2,1.8531213E2,1.2923423E0,8.6117847E2,3.0463041E1,1.548491E2,8.598388E2,1.3396901E0,2.9308939E1,1.154103E0,1.1671613E2,3.813296E1],"tree_param":{"num_deleted":"0","num_feature":"5000","num_nodes":"13","size_leaf_vector":"1"}},{"base_weights":[7.010628E-1,7.3460454E-1,4.4211778E-1,7.39107E-1,6.584187E-2,-3.662729E-1,5.0455517E-1,2.2599758E-1,-2.0806074E-1,2.198107E-1,-6.7871556E-2,-1.3944298E-1,1.0635916E-1,1.6236968E-1,-1.2430189E-1],"categories":[],"categories_nodes":[],"categories_segments":[],"categories_sizes":[],"default_left":[0,1,1,1,0,0,1,0,0,0,0,0,0,0,0],"id":15,"left_children":[1,3,5,7,9,11,13,-1,-1,-1,-1,-1,-1,-1,-1],"loss_changes":[1.8332397E1,5.6729736E0,1.2745136E1,5.5181885E0,2.7674067E0,1.3569245E0,6.0860596E0,0E0,0E0,0E0,0E0,0E0,0E0,0E0,0E0],"parents":[2147483647,0,0,1,1,2,2,3,3,4,4,5,5,6,6],"right_children":[2,4,6,8,10,12,14,-1,-1,-1,-1,-1,-1,-1,-1],"split_conditions":[4.4668827E-2,1.458495E-1,2.185192E-2,2.6344344E-1,8.405462E-2,3.3853013E-2,1.4030811E-1,2.2599758E-1,-2.0806074E-1,2.198107E-1,-6.7871556E-2,-1.3944298E-1,1.0635916E-1,1.6236968E-1,-1.2430189E-1],"split_indices":[1130,2335,344,906,430,3715,3897,0,0,0,0,0,0,0,0],"split_type":[0,0,0,0,0,0,0,0,0,0,0,0,0,0,0],"sum_hessian":[2.1470762E3,1.8992274E3,2.4784859E2,1.886422E3,1.2805518E1,1.7421562E1,2.3042703E2,1.884423E3,1.9989519E0,3.4566977E0,9.348821E0,1.5776068E1,1.6454943E0,2.2401454E2,6.4124928E0],"tree_param":{"num_deleted":"0","num_feature":"5000","num_nodes":"15","size_leaf_vector":"1"}},{"base_weights":[-4.9998578E-1,1.9973715E-1,-5.1356465E-1,2.213995E-1,-5.2543336E-1,-3.7789743E-2,3.5317883E-1,1.3803583E-1,-1.6137682E-1],"categories":[],"categories_nodes":[],"categories_segments":[],"categories_sizes":[],"default_left":[0,0,0,1,0,0,0,0,0],"id":16,"left_children":[1,-1,3,5,7,-1,-1,-1,-1],"loss_changes":[1.2777603E1,0E0,6.9613495E0,4.403912E0,3.0130157E0,0E0,0E0,0E0,0E0],"parents":[2147483647,0,0,2,2,3,3,4,4],"right_children":[2,-1,4,6,8,-1,-1,-1,-1],"split_conditions":[3.8942158E-1,1.9973715E-1,1.1454597E-1,9.741062E-2,1.482817E-1,-3.7789743E-2,3.5317883E-1,1.3803583E-1,-1.6137682E-1],"split_indices":[4827,0,2170,4375,965,0,0,0,0],"split_type":[0,0,0,0,0,0,0,0,0],"sum_hessian":[7.9236255E2,8.659482E0,7.8370306E2,1.2174073E1,7.71529E2,9.52867E0,2.6454036E0,2.427824E0,7.691012E2],"tree_param":{"num_deleted":"0","num_feature":"5000","num_nodes":"9","size_leaf_vector":"1"}},{"base_weights":[-4.9513158E-1,2.856238E-1,-5.3645283E-1,-3.838505E-1,4.7114775E-1,-5.426437E-1,3.9810415E-2,1.3956478E-1,-1.7027082E-1,-1.3713983E-1,1.761427E-1,-1.659089E-1,6.558603E-2,1.6478653E-1,-1.373535E-1],"categories":[],"categories_nodes":[],"categories_segments":[],"categories_sizes":[],"default_left":[0,0,1,0,0,1,0,0,0,0,0,0,0,0,0],"id":17,"left_children":[1,3,5,7,9,11,13,-1,-1,-1,-1,-1,-1,-1,-1],"loss_changes":[2.5929474E1,5.2499003E0,2.7299805E0,1.6359981E0,3.4335904E0,8.681488E-1,2.451264E0,0E0,0E0,0E0,0E0,0E0,0E0,0E0,0E0],"parents":[2147483647,0,0,1,1,2,2,3,3,4,4,5,5,6,6],"right_children":[2,4,6,8,10,12,14,-1,-1,-1,-1,-1,-1,-1,-1],"split_conditions":[1.3037288E-1,8.7586746E-2,1.5885033E-1,9.5858015E-2,3.141274E-2,1.7767209E-1,8.119708E-2,1.3956478E-1,-1.7027082E-1,-1.3713983E-1,1.761427E-1,-1.659089E-1,6.558603E-2,1.6478653E-1,-1.373535E-1],"split_indices":[2788,175,2439,935,4469,981,1122,0,0,0,0,0,0,0,0],"split_type":[0,0,0,0,0,0,0,0,0,0,0,0,0,0,0],"sum_hessian":[7.979718E2,3.9812447E1,7.5815936E2,8.406843E0,3.1405603E1,7.5015857E2,8.000781E0,1.1646357E0,7.2422075E0,2.9180796E0,2.8487522E1,7.491357E2,1.0229167E0,3.9080927E0,4.092688E0],"tree_param":{"num_deleted":"0","num_feature":"5000","num_nodes":"15","size_leaf_vector":"1"}},{"base_weights":[-5.326009E-1,1.874705E-1,-5.433923E-1,-2.0741788E-1,5.967721E-1,-5.456225E-1,6.778799E-2,-1.429081E-1,1.7917357E-1,-9.267791E-2,2.5908718E-1,6.4925306E-2,-1.6680762E-1],"categories":[],"categories_nodes":[],"categories_segments":[],"categories_sizes":[],"default_left":[0,0,1,1,0,0,0,0,0,0,0,0,0],"id":18,"left_children":[1,3,5,7,9,11,-1,-1,-1,-1,-1,-1,-1],"loss_changes":[6.2035065E0,2.1178753E0,1.4427032E0,1.7326672E0,1.6955743E0,8.7039185E-1,0E0,0E0,0E0,0E0,0E0,0E0,0E0],"parents":[2147483647,0,0,1,1,2,2,3,3,4,4,5,5],"right_children":[2,4,6,8,10,12,-1,-1,-1,-1,-1,-1,-1],"split_conditions":[3.1813405E-2,2.5158882E-2,1.5994087E-1,1.06311664E-1,7.1171604E-2,1.8704978E-1,6.778799E-2,-1.429081E-1,1.7917357E-1,-9.267791E-2,2.5908718E-1,6.4925306E-2,-1.6680762E-1],"split_indices":[4044,3241,449,16,418,305,0,0,0,0,0,0,0],"split_type":[0,0,0,0,0,0,0,0,0,0,0,0,0],"sum_hessian":[7.8422125E2,1.1337522E1,7.728837E2,6.0214E0,5.3161216E0,7.7092554E2,1.9581978E0,4.8414187E0,1.1799812E0,1.1203961E0,4.1957254E0,1.028142E0,7.698974E2],"tree_param":{"num_deleted":"0","num_feature":"5000","num_nodes":"13","size_leaf_vector":"1"}},{"base_weights":[-3.351602E-1,-4.5632422E-1,1.2054642E-1,-4.6606886E-1,8.408329E-1,-4.4038057E-1,2.1214983E-1,-1.4414725E-1,2.6446918E-1,3.524068E-1,-1.3274705E-3,-1.5633957E-1,1.9446117E-1,8.337134E-2,-1.6652626E-1],"categories":[],"categories_nodes":[],"categories_segments":[],"categories_sizes":[],"default_left":[1,1,0,1,1,1,0,0,0,0,0,0,0,0,0],"id":19,"left_children":[1,3,5,7,9,11,13,-1,-1,-1,-1,-1,-1,-1,-1],"loss_changes":[4.8366463E1,9.131409E0,9.57695E0,6.403427E0,1.4706147E0,2.368867E0,7.5417585E0,0E0,0E0,0E0,0E0,0E0,0E0,0E0,0E0],"parents":[2147483647,0,0,1,1,2,2,3,3,4,4,5,5,6,6],"right_children":[2,4,6,8,10,12,14,-1,-1,-1,-1,-1,-1,-1,-1],"split_conditions":[5.4628618E-2,1.4777562E-1,2.703016E-1,1.7706323E-1,5.7372935E-2,1.5119496E-1,6.319244E-2,-1.4414725E-1,2.6446918E-1,3.524068E-1,-1.3274705E-3,-1.5633957E-1,1.9446117E-1,8.337134E-2,-1.6652626E-1],"split_indices":[4488,490,1361,2367,1852,759,2547,0,0,0,0,0,0,0,0],"split_type":[0,0,0,0,0,0,0,0,0,0,0,0,0,0,0],"sum_hessian":[8.73966E2,6.9039996E2,1.8356604E2,6.8588806E2,4.5119066E0,2.5234835E1,1.583312E2,6.8317957E2,2.708463E0,3.020518E0,1.4913886E0,2.4142128E1,1.0927049E0,1.4709662E2,1.1234577E1],"tree_param":{"num_deleted":"0","num_feature":"5000","num_nodes":"15","size_leaf_vector":"1"}},{"base_weights":[5.9908676E-1,6.414598E-1,3.7988025E-1,6.4515495E-1,-3.5790586E-1,4.8873466E-1,-1.1595462E-3,1.9733058E-1,-2.9393846E-1,1.6748917E-1,-2.9638574E-1,1.566745E-1,-8.477975E-2,7.37296E-2,-8.5021E-2],"categories":[],"categories_nodes":[],"categories_segments":[],"categories_sizes":[],"default_left":[0,1,0,1,0,1,0,0,0,0,0,0,0,0,0],"id":20,"left_children":[1,3,5,7,9,11,13,-1,-1,-1,-1,-1,-1,-1,-1],"loss_changes":[1.7608032E1,6.1730957E0,1.3015587E1,5.3461304E0,4.19236E0,4.81192E0,4.835851E0,0E0,0E0,0E0,0E0,0E0,0E0,0E0,0E0],"parents":[2147483647,0,0,1,1,2,2,3,3,4,4,5,5,6,6],"right_children":[2,4,6,8,10,12,14,-1,-1,-1,-1,-1,-1,-1,-1],"split_conditions":[4.2681493E-2,1.4023623E-1,8.653309E-2,2.2821365E-1,1.3894418E-1,1.8247917E-1,4.823896E-2,1.9733058E-1,-2.9393846E-1,1.6748917E-1,-2.9638574E-1,1.566745E-1,-8.477975E-2,7.37296E-2,-8.5021E-2],"split_indices":[1130,1698,2174,1333,83,1475,4469,0,0,0,0,0,0,0,0],"split_type":[0,0,0,0,0,0,0,0,0,0,0,0,0,0,0],"sum_hessian":[1.9209187E3,1.6081364E3,3.1278238E2,1.6025653E3,5.571059E0,2.4306236E2,6.9720024E1,1.6013413E3,1.2240409E0,2.2910786E0,3.279981E0,2.3572084E2,7.3415136E0,3.7253063E1,3.2466957E1],"tree_param":{"num_deleted":"0","num_feature":"5000","num_nodes":"15","size_leaf_vector":"1"}},{"base_weights":[-4.7741428E-1,-4.905842E-1,3.1349757E-1,5.667847E-2,-5.104401E-1,1.4781603E-1,-1.0638276E-1,-1.3252147E-1,1.3801531E-1,-1.5668254E-1,2.1297799E-1],"categories":[],"categories_nodes":[],"categories_segments":[],"categories_sizes":[],"default_left":[1,0,0,1,1,0,0,0,0,0,0],"id":21,"left_children":[1,3,5,7,9,-1,-1,-1,-1,-1,-1],"loss_changes":[6.7678986E0,6.8200684E0,1.4170431E0,4.625818E0,2.7451324E0,0E0,0E0,0E0,0E0,0E0,0E0],"parents":[2147483647,0,0,1,1,2,2,3,3,4,4],"right_children":[2,4,6,8,10,-1,-1,-1,-1,-1,-1],"split_conditions":[1.5572816E-1,1.1890658E-1,4.204528E-2,2.619554E-2,1.9144066E-1,1.4781603E-1,-1.0638276E-1,-1.3252147E-1,1.3801531E-1,-1.5668254E-1,2.1297799E-1],"split_indices":[2576,2788,346,741,1363,0,0,0,0,0,0],"split_type":[0,0,0,0,0,0,0,0,0,0,0],"sum_hessian":[6.3397864E2,6.239683E2,1.00103245E1,2.178137E1,6.0218695E2,8.167876E0,1.8424485E0,9.676453E0,1.2104917E1,6.011341E2,1.0528277E0],"tree_param":{"num_deleted":"0","num_feature":"5000","num_nodes":"11","size_leaf_vector":"1"}},{"base_weights":[-4.799707E-1,1.6762805E-1,-5.233376E-1,-4.4273698E-1,3.125506E-1,-5.293984E-1,-1.3813258E-2,1.7684288E-2,-1.6024442E-1,2.2930828E-1,3.459852E-2,6.3407354E-2,-1.6197188E-1,1.6201338E-1,-9.061314E-2],"categories":[],"categories_nodes":[],"categories_segments":[],"categories_sizes":[],"default_left":[0,0,1,0,0,0,1,0,0,0,0,0,0,0,0],"id":22,"left_children":[1,3,5,7,9,11,13,-1,-1,-1,-1,-1,-1,-1,-1],"loss_changes":[1.811203E1,3.7684174E0,1.8509369E0,3.7347817E-1,2.866691E0,8.368683E-1,1.4084342E0,0E0,0E0,0E0,0E0,0E0,0E0,0E0,0E0],"parents":[2147483647,0,0,1,1,2,2,3,3,4,4,5,5,6,6],"right_children":[2,4,6,8,10,12,14,-1,-1,-1,-1,-1,-1,-1,-1],"split_conditions":[1.4961427E-1,1.0491965E-1,1.5885033E-1,6.4829454E-2,3.2667976E-2,1.929089E-1,3.6244757E-2,1.7684288E-2,-1.6024442E-1,2.2930828E-1,3.459852E-2,6.3407354E-2,-1.6197188E-1,1.6201338E-1,-9.061314E-2],"split_indices":[2788,175,2439,3643,4340,884,308,0,0,0,0,0,0,0,0],"split_type":[0,0,0,0,0,0,0,0,0,0,0,0,0,0,0],"sum_hessian":[6.4079095E2,4.0037964E1,6.00753E2,7.2880707E0,3.2749893E1,5.936525E2,7.1004896E0,1.0748963E0,6.2131743E0,9.348802E0,2.3401089E1,1.0520482E0,5.9260046E2,2.1291103E0,4.9713793E0],"tree_param":{"num_deleted":"0","num_feature":"5000","num_nodes":"15","size_leaf_vector":"1"}},{"base_weights":[-5.162421E-1,1.9809265E-1,-5.27551E-1,-5.1848073E-2,2.3847051E-1,-5.31632E-1,1.206805E-1,1.4208065E-1,-1.3705531E-1,-1.6264519E-1,6.7224614E-2],"categories":[],"categories_nodes":[],"categories_segments":[],"categories_sizes":[],"default_left":[0,1,1,0,0,1,0,0,0,0,0],"id":23,"left_children":[1,3,5,7,-1,9,-1,-1,-1,-1,-1],"loss_changes":[5.0997314E0,1.5527163E0,2.5048676E0,1.895681E0,0E0,8.616791E-1,0E0,0E0,0E0,0E0,0E0],"parents":[2147483647,0,0,1,1,2,2,3,3,5,5],"right_children":[2,4,6,8,-1,10,-1,-1,-1,-1,-1],"split_conditions":[3.1813405E-2,7.3306456E-2,1.5994087E-1,7.2156504E-2,2.3847051E-1,2.0319852E-1,1.206805E-1,1.4208065E-1,-1.3705531E-1,-1.6264519E-1,6.7224614E-2],"split_indices":[4044,1442,449,505,0,3965,0,0,0,0,0],"split_type":[0,0,0,0,0,0,0,0,0,0,0],"sum_hessian":[6.1734973E2,9.36378E0,6.0798596E2,7.1946306E0,2.1691494E0,6.057325E2,2.2534363E0,3.0503051E0,4.1443257E0,6.0471204E2,1.0204867E0],"tree_param":{"num_deleted":"0","num_feature":"5000","num_nodes":"11","size_leaf_vector":"1"}},{"base_weights":[-2.9085782E-1,-4.4292262E-1,1.5186061E-1,-4.5399266E-1,6.937113E-1,-4.7032058E-1,2.5936496E-1,-1.4008147E-1,3.4762698E-1,5.7956032E-2,3.4099123E-1,-1.637115E-1,1.7521137E-1,1.0133857E-1,-1.6858959E-1],"categories":[],"categories_nodes":[],"categories_segments":[],"categories_sizes":[],"default_left":[1,1,0,1,0,1,0,0,0,0,0,0,0,0,0],"id":24,"left_children":[1,3,5,7,9,11,13,-1,-1,-1,-1,-1,-1,-1,-1],"loss_changes":[5.0222427E1,7.295616E0,1.2911878E1,5.16156E0,1.015703E0,2.2885332E0,9.873597E0,0E0,0E0,0E0,0E0,0E0,0E0,0E0,0E0],"parents":[2147483647,0,0,1,1,2,2,3,3,4,4,5,5,6,6],"right_children":[2,4,6,8,10,12,14,-1,-1,-1,-1,-1,-1,-1,-1],"split_conditions":[6.199442E-2,1.4777562E-1,2.6461193E-1,1.6095573E-1,4.7004893E-2,1.5119496E-1,7.454787E-2,-1.4008147E-1,3.4762698E-1,5.7956032E-2,3.4099123E-1,-1.637115E-1,1.7521137E-1,1.0133857E-1,-1.6858959E-1],"split_indices":[1287,490,2739,1333,670,759,3669,0,0,0,0,0,0,0,0],"split_type":[0,0,0,0,0,0,0,0,0,0,0,0,0,0,0],"sum_hessian":[7.4400525E2,5.5378937E2,1.9021588E2,5.4904266E2,4.7467165E0,2.7527225E1,1.6268864E2,5.479355E2,1.107166E0,2.8322783E0,1.9144382E0,2.6338587E1,1.1886386E0,1.4983124E2,1.2857412E1],"tree_param":{"num_deleted":"0","num_feature":"5000","num_nodes":"15","size_leaf_vector":"1"}},{"base_weights":[5.200227E-1,5.7440263E-1,3.286112E-1,5.7707036E-1,-2.375335E-1,-3.2042724E-1,3.666156E-1,1.7690825E-1,-1.9772558E-1,1.6464655E-1,-1.721227E-1,1.1689881E-1,-2.1496028E-1],"categories":[],"categories_nodes":[],"categories_segments":[],"categories_sizes":[],"default_left":[0,1,1,1,0,0,1,0,0,0,0,0,0],"id":25,"left_children":[1,3,5,7,-1,9,11,-1,-1,-1,-1,-1,-1],"loss_changes":[1.700003E1,5.0870056E0,9.187E0,5.0232544E0,0E0,4.6842194E0,6.478218E0,0E0,0E0,0E0,0E0,0E0,0E0],"parents":[2147483647,0,0,1,1,2,2,3,3,5,5,6,6],"right_children":[2,4,6,8,-1,10,12,-1,-1,-1,-1,-1,-1],"split_conditions":[4.091002E-2,2.6344344E-1,2.3290405E-2,2.0156969E-1,-2.375335E-1,2.5006577E-2,1.2055984E-1,1.7690825E-1,-1.9772558E-1,1.6464655E-1,-1.721227E-1,1.1689881E-1,-2.1496028E-1],"split_indices":[293,906,597,4014,0,2789,1719,0,0,0,0,0,0],"split_type":[0,0,0,0,0,0,0,0,0,0,0,0,0],"sum_hessian":[1.650351E3,1.2836619E3,3.6668903E2,1.2817087E3,1.9532174E0,1.987266E1,3.4681638E2,1.2791488E3,2.5598516E0,4.121875E0,1.5750786E1,3.4213873E2,4.6776385E0],"tree_param":{"num_deleted":"0","num_feature":"5000","num_nodes":"13","size_leaf_vector":"1"}},{"base_weights":[-4.5110965E-1,-4.7301683E-1,4.1926757E-1,3.362501E-1,-4.7990674E-1,1.6239785E-1,-9.407518E-2,-1.4865425E-1,2.9704955E-1],"categories":[],"categories_nodes":[],"categories_segments":[],"categories_sizes":[],"default_left":[1,0,0,0,1,0,0,0,0],"id":26,"left_children":[1,3,5,-1,7,-1,-1,-1,-1],"loss_changes":[9.9326935E0,5.939766E0,1.2402823E0,0E0,5.882286E0,0E0,0E0,0E0,0E0],"parents":[2147483647,0,0,1,1,2,2,4,4],"right_children":[2,4,6,-1,8,-1,-1,-1,-1],"split_conditions":[1.5572816E-1,2.4242978E-1,4.204528E-2,3.362501E-1,1.6565277E-1,1.6239785E-1,-9.407518E-2,-1.4865425E-1,2.9704955E-1],"split_indices":[2576,2136,346,0,1257,0,0,0,0],"split_type":[0,0,0,0,0,0,0,0,0],"sum_hessian":[5.0952136E2,4.9745703E2,1.20643425E1,1.4736522E0,4.9598337E2,1.0672688E1,1.3916548E0,4.9410452E2,1.878844E0],"tree_param":{"num_deleted":"0","num_feature":"5000","num_nodes":"9","size_leaf_vector":"1"}},{"base_weights":[-4.5413762E-1,1.887682E-1,-5.077159E-1,3.205317E-1,-3.6864123E-1,-5.1754063E-1,2.335054E-1,1.3352105E-1,-1.4096221E-1,1.554022E-1,-1.9443274E-1,-1.5849912E-1,7.111412E-2,1.9032998E-1,-1.1631462E-1],"categories":[],"categories_nodes":[],"categories_segments":[],"categories_sizes":[],"default_left":[0,1,1,1,0,1,0,0,0,0,0,0,0,0,0],"id":27,"left_children":[1,3,5,7,9,11,13,-1,-1,-1,-1,-1,-1,-1,-1],"loss_changes":[1.7686752E1,3.0570574E0,3.5557327E0,3.2213125E0,2.240756E0,8.6548615E-1,1.8850334E0,0E0,0E0,0E0,0E0,0E0,0E0,0E0,0E0],"parents":[2147483647,0,0,1,1,2,2,3,3,4,4,5,5,6,6],"right_children":[2,4,6,8,10,12,14,-1,-1,-1,-1,-1,-1,-1,-1],"split_conditions":[1.4961427E-1,8.145748E-2,1.5885033E-1,7.30575E-2,6.729855E-2,1.7493457E-1,4.0185284E-2,1.3352105E-1,-1.4096221E-1,1.554022E-1,-1.9443274E-1,-1.5849912E-1,7.111412E-2,1.9032998E-1,-1.1631462E-1],"split_indices":[2788,2393,2440,4526,1952,882,95,0,0,0,0,0,0,0,0],"split_type":[0,0,0,0,0,0,0,0,0,0,0,0,0,0,0],"sum_hessian":[5.0968463E2,3.9014256E1,4.7067038E2,3.1898804E1,7.1154532E0,4.6481113E2,5.859247E0,2.8126398E1,3.7724056E0,1.4579501E0,5.657503E0,4.638038E2,1.0073333E0,3.5742044E0,2.2850428E0],"tree_param":{"num_deleted":"0","num_feature":"5000","num_nodes":"15","size_leaf_vector":"1"}},{"base_weights":[-5.028392E-1,3.9152097E-2,-5.2020997E-1,-2.9188454E-1,4.1596377E-1,-5.223031E-1,7.099225E-2,-1.4540875E-1,8.3622776E-2,1.7940743E-1,-9.309566E-2,6.434906E-2,-1.5993768E-1],"categories":[],"categories_nodes":[],"categories_segments":[],"categories_sizes":[],"default_left":[0,0,1,1,0,0,0,0,0,0,0,0,0],"id":28,"left_children":[1,3,5,7,9,11,-1,-1,-1,-1,-1,-1,-1],"loss_changes":[4.6146774E0,2.1277401E0,8.6691284E-1,1.0881927E0,1.1652459E0,8.3132935E-1,0E0,0E0,0E0,0E0,0E0,0E0,0E0],"parents":[2147483647,0,0,1,1,2,2,3,3,4,4,5,5],"right_children":[2,4,6,8,10,12,-1,-1,-1,-1,-1,-1,-1],"split_conditions":[1.1367475E-1,2.988587E-2,1.7575866E-1,9.850824E-2,3.6009483E-2,2.3738743E-1,7.099225E-2,-1.4540875E-1,8.3622776E-2,1.7940743E-1,-9.309566E-2,6.434906E-2,-1.5993768E-1],"split_indices":[2788,4935,2925,4375,1727,491,0,0,0,0,0,0,0],"split_type":[0,0,0,0,0,0,0,0,0,0,0,0,0],"sum_hessian":[4.8698816E2,1.5084265E1,4.719039E2,8.149845E0,6.9344196E0,4.7090118E2,1.0026915E0,6.262412E0,1.8874333E0,5.7462983E0,1.1881211E0,1.0496111E0,4.698516E2],"tree_param":{"num_deleted":"0","num_feature":"5000","num_nodes":"13","size_leaf_vector":"1"}},{"base_weights":[-2.4158561E-1,-4.3896833E-1,9.3266994E-2,2.131356E-1,-4.4610915E-1,-4.6186498E-1,1.8271561E-1,-1.3824868E-1,1.8642405E-1,-1.5930462E-1,2.0552036E-1,8.0745205E-2,-1.3314421E-1],"categories":[],"categories_nodes":[],"categories_segments":[],"categories_sizes":[],"default_left":[1,0,0,0,1,1,0,0,0,0,0,0,0],"id":29,"left_children":[1,3,5,-1,7,9,11,-1,-1,-1,-1,-1,-1],"loss_changes":[4.181991E1,3.544258E0,1.1765808E1,0E0,3.2771149E0,2.6124458E0,1.0442734E1,0E0,0E0,0E0,0E0,0E0,0E0],"parents":[2147483647,0,0,1,1,2,2,4,4,5,5,6,6],"right_children":[2,4,6,-1,8,10,12,-1,-1,-1,-1,-1,-1],"split_conditions":[5.5527046E-2,1.6535348E-1,1.1864755E-1,2.131356E-1,1.4283942E-1,1.2477507E-1,7.3746055E-2,-1.3824868E-1,1.8642405E-1,-1.5930462E-1,2.0552036E-1,8.0745205E-2,-1.3314421E-1],"split_indices":[1287,4681,2739,0,331,3302,4252,0,0,0,0,0,0],"split_type":[0,0,0,0,0,0,0,0,0,0,0,0,0],"sum_hessian":[6.3111334E2,3.968655E2,2.3424786E2,1.8711271E0,3.949944E2,3.1928871E1,2.02319E2,3.929031E2,2.0912597E0,3.0828209E1,1.1006631E0,1.7916089E2,2.3158112E1],"tree_param":{"num_deleted":"0","num_feature":"5000","num_nodes":"13","size_leaf_vector":"1"}},{"base_weights":[4.6243107E-1,5.0553405E-1,2.0488551E-1,5.564624E-1,3.956941E-1,3.3058152E-1,-9.504824E-2,1.7080764E-1,-1.84271E-1,1.23901874E-1,-2.630566E-1,6.47875E-2,1.8991798E-1,-1.99088E-1,4.297193E-3],"categories":[],"categories_nodes":[],"categories_segments":[],"categories_sizes":[],"default_left":[0,1,0,1,1,0,0,0,0,0,0,0,0,0,0],"id":30,"left_children":[1,3,5,7,9,11,13,-1,-1,-1,-1,-1,-1,-1,-1],"loss_changes":[1.5466431E1,6.4971313E0,7.6757402E0,3.72052E0,5.44149E0,4.807185E0,3.7011151E0,0E0,0E0,0E0,0E0,0E0,0E0,0E0,0E0],"parents":[2147483647,0,0,1,1,2,2,3,3,4,4,5,5,6,6],"right_children":[2,4,6,8,10,12,14,-1,-1,-1,-1,-1,-1,-1,-1],"split_conditions":[4.46408E-2,5.0974566E-2,8.871889E-2,1.6353655E-1,1.991859E-1,7.976429E-2,1.1917568E-1,1.7080764E-1,-1.84271E-1,1.23901874E-1,-2.630566E-1,6.47875E-2,1.8991798E-1,-1.99088E-1,4.297193E-3],"split_indices":[3244,4273,2150,2408,188,4273,3952,0,0,0,0,0,0,0,0],"split_type":[0,0,0,0,0,0,0,0,0,0,0,0,0,0,0],"sum_hessian":[1.4015784E3,1.1998138E3,2.0176453E2,8.169575E2,3.8285623E2,1.421079E2,5.965664E1,8.149734E2,1.9841373E0,3.8034665E2,2.5095844E0,1.0240797E2,3.969992E1,8.948458E0,5.0708183E1],"tree_param":{"num_deleted":"0","num_feature":"5000","num_nodes":"15","size_leaf_vector":"1"}},{"base_weights":[-4.2371953E-1,-4.506006E-1,5.003702E-1,6.354759E-2,-4.8223248E-1,1.8791923E-1,-8.801316E-2,-3.4562793E-2,2.732759E-1,1.2694362E-1,-1.4940216E-1],"categories":[],"categories_nodes":[],"categories_segments":[],"categories_sizes":[],"default_left":[1,0,1,1,0,0,0,0,0,0,0],"id":31,"left_children":[1,3,5,7,9,-1,-1,-1,-1,-1,-1],"loss_changes":[1.0416382E1,6.522751E0,1.280144E0,3.6379147E0,2.7759705E0,0E0,0E0,0E0,0E0,0E0,0E0],"parents":[2147483647,0,0,1,1,2,2,3,3,4,4],"right_children":[2,4,6,8,10,-1,-1,-1,-1,-1,-1],"split_conditions":[1.5572816E-1,1.3846739E-1,1.6765013E-1,6.867072E-2,1.3110699E-1,1.8791923E-1,-8.801316E-2,-3.4562793E-2,2.732759E-1,1.2694362E-1,-1.4940216E-1],"split_indices":[2576,2788,821,2875,2418,0,0,0,0,0,0],"split_type":[0,0,0,0,0,0,0,0,0,0,0],"sum_hessian":[4.0925366E2,3.981832E2,1.1070459E1,2.3019104E1,3.751641E2,9.844977E0,1.225482E0,1.9697786E1,3.3213177E0,2.700325E0,3.7246378E2],"tree_param":{"num_deleted":"0","num_feature":"5000","num_nodes":"11","size_leaf_vector":"1"}},{"base_weights":[-4.3915883E-1,1.3431244E-1,-4.9532583E-1,2.2697915E-1,-1.544251E-1,-5.0734645E-1,1.4322792E-1,1.0793895E-1,-9.782033E-2,-3.8732816E-2,-1.5721902E-1,1.3355169E-1,-1.1403334E-1],"categories":[],"categories_nodes":[],"categories_segments":[],"categories_sizes":[],"default_left":[0,1,1,1,0,0,0,0,0,0,0,0,0],"id":32,"left_children":[1,3,5,7,-1,9,11,-1,-1,-1,-1,-1,-1],"loss_changes":[1.3144745E1,2.3117938E0,2.91288E0,2.4088736E0,0E0,1.0576782E0,1.3242236E0,0E0,0E0,0E0,0E0,0E0,0E0],"parents":[2147483647,0,0,1,1,2,2,3,3,5,5,6,6],"right_children":[2,4,6,8,-1,10,12,-1,-1,-1,-1,-1,-1],"split_conditions":[1.4961427E-1,8.2791135E-2,1.5885033E-1,8.145748E-2,-1.544251E-1,1.278569E-1,8.119708E-2,1.0793895E-1,-9.782033E-2,-3.8732816E-2,-1.5721902E-1,1.3355169E-1,-1.1403334E-1],"split_indices":[2788,258,2439,2393,0,1159,1122,0,0,0,0,0,0],"split_type":[0,0,0,0,0,0,0,0,0,0,0,0,0],"sum_hessian":[4.0502747E2,3.600646E1,3.69021E2,3.2020382E1,3.986079E0,3.624043E2,6.616704E0,2.6283537E1,5.736844E0,7.9281187E0,3.544762E2,4.3126135E0,2.3040905E0],"tree_param":{"num_deleted":"0","num_feature":"5000","num_nodes":"13","size_leaf_vector":"1"}},{"base_weights":[-4.9015152E-1,2.6897508E-1,-5.072945E-1,3.513528E-3,2.643761E-1,-5.117324E-1,7.108913E-2,1.1296142E-1,-1.2429554E-1,-1.5688539E-1,7.217282E-2],"categories":[],"categories_nodes":[],"categories_segments":[],"categories_sizes":[],"default_left":[0,1,1,0,0,1,0,0,0,0,0],"id":33,"left_children":[1,3,5,7,-1,9,-1,-1,-1,-1,-1],"loss_changes":[5.1502E0,1.4509249E0,1.3583221E0,1.2590255E0,0E0,8.6460876E-1,0E0,0E0,0E0,0E0,0E0],"parents":[2147483647,0,0,1,1,2,2,3,3,5,5],"right_children":[2,4,6,8,-1,10,-1,-1,-1,-1,-1],"split_conditions":[3.1813405E-2,7.3306456E-2,1.449271E-1,7.2156504E-2,2.643761E-1,2.0612374E-1,7.108913E-2,1.1296142E-1,-1.2429554E-1,-1.5688539E-1,7.217282E-2],"split_indices":[4044,219,1108,505,0,573,0,0,0,0,0],"split_type":[0,0,0,0,0,0,0,0,0,0,0],"sum_hessian":[3.8426776E2,8.161675E0,3.761061E2,6.348542E0,1.8131329E0,3.741721E2,1.9340107E0,3.4068737E0,2.9416687E0,3.7316537E2,1.0067095E0],"tree_param":{"num_deleted":"0","num_feature":"5000","num_nodes":"11","size_leaf_vector":"1"}},{"base_weights":[-1.8725428E-1,-4.194617E-1,1.1765889E-1,-4.305025E-1,2.684267E-1,1.8242173E-1,-1.633227E-1,-1.3659911E-1,6.228978E-2,-1.3057502E-1,7.943797E-2],"categories":[],"categories_nodes":[],"categories_segments":[],"categories_sizes":[],"default_left":[1,1,0,1,0,1,0,0,0,0,0],"id":34,"left_children":[1,3,5,7,-1,9,-1,-1,-1,-1,-1],"loss_changes":[3.8576485E1,4.814148E0,1.0081402E1,3.477005E0,0E0,1.0377032E1,0E0,0E0,0E0,0E0,0E0],"parents":[2147483647,0,0,1,1,2,2,3,3,5,5],"right_children":[2,4,6,8,-1,10,-1,-1,-1,-1,-1],"split_conditions":[5.576904E-2,1.4777562E-1,5.630815E-2,1.08076595E-1,2.684267E-1,4.8262365E-2,-1.633227E-1,-1.3659911E-1,6.228978E-2,-1.3057502E-1,7.943797E-2],"split_indices":[4273,490,836,83,0,1727,0,0,0,0,0],"split_type":[0,0,0,0,0,0,0,0,0,0,0],"sum_hessian":[5.4314465E2,3.0811966E2,2.35025E2,3.0618707E2,1.932597E0,2.144789E2,2.0546097E1,2.9832074E2,7.866333E0,2.3797003E1,1.906819E2],"tree_param":{"num_deleted":"0","num_feature":"5000","num_nodes":"11","size_leaf_vector":"1"}},{"base_weights":[4.110675E-1,4.7764024E-1,2.3191616E-1,4.8181292E-1,-7.1710265E-1,-2.1046673E-1,2.7605286E-1,-2.2586833E-1,1.4806329E-1,8.9490846E-2,-3.825242E-1,2.907975E-2,-2.2061655E-1,9.321424E-2,-9.621213E-2],"categories":[],"categories_nodes":[],"categories_segments":[],"categories_sizes":[],"default_left":[0,1,0,0,0,1,1,0,0,0,0,0,0,0,0],"id":35,"left_children":[1,3,5,7,9,11,13,-1,-1,-1,-1,-1,-1,-1,-1],"loss_changes":[1.4161362E1,4.690216E0,6.4262695E0,4.2268677E0,2.2322752E0,4.798533E0,5.290621E0,0E0,0E0,0E0,0E0,0E0,0E0,0E0,0E0],"parents":[2147483647,0,0,1,1,2,2,3,3,4,4,5,5,6,6],"right_children":[2,4,6,8,10,12,14,-1,-1,-1,-1,-1,-1,-1,-1],"split_conditions":[4.091002E-2,1.6924526E-1,7.81342E-2,5.779376E-1,3.589043E-2,5.4390386E-2,2.1015224E-1,-2.2586833E-1,1.4806329E-1,8.9490846E-2,-3.825242E-1,2.907975E-2,-2.2061655E-1,9.321424E-2,-9.621213E-2],"split_indices":[293,1333,3606,1983,156,1287,1260,0,0,0,0,0,0,0,0],"split_type":[0,0,0,0,0,0,0,0,0,0,0,0,0,0,0],"sum_hessian":[1.195662E3,8.705127E2,3.2514923E2,8.6807764E2,2.4350595E0,2.9155424E1,2.959938E2,1.9765565E0,8.661011E2,1.0025082E0,1.4325513E0,1.8774641E1,1.0380783E1,2.823626E2,1.363122E1],"tree_param":{"num_deleted":"0","num_feature":"5000","num_nodes":"15","size_leaf_vector":"1"}},{"base_weights":[-3.9585775E-1,-4.2412603E-1,1.1713344E-1,2.4807507E-1,-4.4980115E-1,-2.5265727E-2,4.7894633E-1,-1.4074974E-1,2.7872017E-1],"categories":[],"categories_nodes":[],"categories_segments":[],"categories_sizes":[],"default_left":[1,0,0,1,1,0,0,0,0],"id":36,"left_children":[1,3,-1,5,7,-1,-1,-1,-1],"loss_changes":[7.38562E0,5.576233E0,0E0,5.5090404E0,5.2821426E0,0E0,0E0,0E0,0E0],"parents":[2147483647,0,0,1,1,3,3,4,4],"right_children":[2,4,-1,6,8,-1,-1,-1,-1],"split_conditions":[1.5572816E-1,1.0968027E-1,1.1713344E-1,3.636075E-2,1.6565277E-1,-2.5265727E-2,4.7894633E-1,-1.4074974E-1,2.7872017E-1],"split_indices":[2576,4170,0,3164,1257,0,0,0,0],"split_type":[0,0,0,0,0,0,0,0,0],"sum_hessian":[3.2661353E2,3.156294E2,1.0984111E1,1.1293431E1,3.0433597E2,9.782534E0,1.5108974E0,3.0240878E2,1.9271827E0],"tree_param":{"num_deleted":"0","num_feature":"5000","num_nodes":"9","size_leaf_vector":"1"}},{"base_weights":[-4.1702878E-1,1.0388084E-1,-4.8579776E-1,-6.314351E-2,4.736913E-1,-4.9789307E-1,9.877672E-2,4.5942165E-2,-1.0942128E-1,2.0100607E-1,-5.5647764E-2,-1.7523503E-2,-1.5502784E-1,1.0877942E-1,-1.0798031E-1],"categories":[],"categories_nodes":[],"categories_segments":[],"categories_sizes":[],"default_left":[0,0,1,0,1,0,0,0,0,0,0,0,0,0,0],"id":37,"left_children":[1,3,5,7,9,11,13,-1,-1,-1,-1,-1,-1,-1,-1],"loss_changes":[1.1714226E1,2.4262114E0,2.0841293E0,1.7986898E0,1.6024611E0,1.262497E0,9.049591E-1,0E0,0E0,0E0,0E0,0E0,0E0,0E0,0E0],"parents":[2147483647,0,0,1,1,2,2,3,3,4,4,5,5,6,6],"right_children":[2,4,6,8,10,12,14,-1,-1,-1,-1,-1,-1,-1,-1],"split_conditions":[1.4961427E-1,3.324364E-2,1.5885033E-1,2.9532231E-2,4.63594E-2,1.278569E-1,4.0185284E-2,4.5942165E-2,-1.0942128E-1,2.0100607E-1,-5.5647764E-2,-1.7523503E-2,-1.5502784E-1,1.0877942E-1,-1.0798031E-1],"split_indices":[2788,766,2439,961,1227,1159,95,0,0,0,0,0,0,0,0],"split_type":[0,0,0,0,0,0,0,0,0,0,0,0,0,0,0],"sum_hessian":[3.2459937E2,3.7795593E1,2.8680377E2,2.6607574E1,1.1188017E1,2.8113513E2,5.6686234E0,1.5725875E1,1.08817E1,8.720322E0,2.4676952E0,6.6326337E0,2.745025E2,3.7470317E0,1.9215919E0],"tree_param":{"num_deleted":"0","num_feature":"5000","num_nodes":"15","size_leaf_vector":"1"}},{"base_weights":[-4.7546545E-1,2.3696189E-1,-4.9564758E-1,-1.0174644E-1,4.104112E-1,-5.035005E-1,1.18903376E-1,-8.572255E-2,1.7254718E-1,7.232844E-2,-1.5459031E-1],"categories":[],"categories_nodes":[],"categories_segments":[],"categories_sizes":[],"default_left":[0,0,1,0,0,0,0,0,0,0,0],"id":38,"left_children":[1,3,5,-1,7,9,-1,-1,-1,-1,-1],"loss_changes":[4.5004196E0,1.0349118E0,2.2598648E0,0E0,9.54499E-1,8.51738E-1,0E0,0E0,0E0,0E0,0E0],"parents":[2147483647,0,0,1,1,2,2,4,4,5,5],"right_children":[2,4,6,-1,8,10,-1,-1,-1,-1,-1],"split_conditions":[3.1813405E-2,2.205469E-2,1.449271E-1,-1.0174644E-1,7.763745E-2,2.5274804E-1,1.18903376E-1,-8.572255E-2,1.7254718E-1,7.232844E-2,-1.5459031E-1],"split_indices":[4044,95,1108,0,418,1851,0,0,0,0,0],"split_type":[0,0,0,0,0,0,0,0,0,0,0],"sum_hessian":[3.0383173E2,8.074134E0,2.9575757E2,1.6670665E0,6.407068E0,2.9358533E2,2.1722534E0,1.0266911E0,5.380377E0,1.008847E0,2.9257648E2],"tree_param":{"num_deleted":"0","num_feature":"5000","num_nodes":"11","size_leaf_vector":"1"}},{"base_weights":[-1.5505603E-1,-3.8523015E-1,1.1211158E-1,2.5548396E-1,-3.962302E-1,1.086149E0,7.211447E-2,-1.2526987E-1,1.7011248E-1,4.8644128E-1,-1.10655166E-1,6.163681E-3,2.4399921E-1],"categories":[],"categories_nodes":[],"categories_segments":[],"categories_sizes":[],"default_left":[1,0,1,0,1,0,1,0,0,0,0,0,0],"id":39,"left_children":[1,3,5,-1,7,9,11,-1,-1,-1,-1,-1,-1],"loss_changes":[2.9099485E1,3.7492714E0,8.471188E0,0E0,3.7190514E0,6.9068403E0,7.9883957E0,0E0,0E0,0E0,0E0,0E0,0E0],"parents":[2147483647,0,0,1,1,2,2,4,4,5,5,6,6],"right_children":[2,4,6,-1,8,10,12,-1,-1,-1,-1,-1,-1],"split_conditions":[5.5527046E-2,1.6535348E-1,3.521406E-2,2.5548396E-1,1.4777562E-1,8.95689E-2,1.9917852E-1,-1.2526987E-1,1.7011248E-1,4.8644128E-1,-1.10655166E-1,6.163681E-3,2.4399921E-1],"split_indices":[1287,4681,4510,0,490,430,1260,0,0,0,0,0,0],"split_type":[0,0,0,0,0,0,0,0,0,0,0,0,0],"sum_hessian":[4.7149796E2,2.5304716E2,2.1845079E2,1.5859464E0,2.5146123E2,7.584801E0,2.1086598E2,2.4825967E2,3.2015529E0,5.539214E0,2.0455868E0,1.977893E2,1.3076686E1],"tree_param":{"num_deleted":"0","num_feature":"5000","num_nodes":"13","size_leaf_vector":"1"}},{"base_weights":[3.5605127E-1,4.282619E-1,1.3559069E-1,4.3533584E-1,-5.978134E-1,7.191495E-2,5.193825E-1,-7.23261E-2,1.3563487E-1,1.17169105E-1,-3.2831725E-1,7.861567E-3,1.957046E-1,1.7383066E-1,-1.4090925E-1],"categories":[],"categories_nodes":[],"categories_segments":[],"categories_sizes":[],"default_left":[0,1,1,0,0,1,1,0,0,0,0,0,0,0,0],"id":40,"left_children":[1,3,5,7,9,11,13,-1,-1,-1,-1,-1,-1,-1,-1],"loss_changes":[1.5940918E1,5.7516937E0,6.0581136E0,4.8429413E0,3.0463016E0,5.637629E0,2.0162716E0,0E0,0E0,0E0,0E0,0E0,0E0,0E0,0E0],"parents":[2147483647,0,0,1,1,2,2,3,3,4,4,5,5,6,6],"right_children":[2,4,6,8,10,12,14,-1,-1,-1,-1,-1,-1,-1,-1],"split_conditions":[4.2681493E-2,1.4023623E-1,6.968103E-2,3.8942158E-1,1.3894418E-1,7.3468E-2,1.4388548E-1,-7.23261E-2,1.3563487E-1,1.17169105E-1,-3.2831725E-1,7.861567E-3,1.957046E-1,1.7383066E-1,-1.4090925E-1],"split_indices":[1130,1698,1361,4827,83,2242,3181,0,0,0,0,0,0,0,0],"split_type":[0,0,0,0,0,0,0,0,0,0,0,0,0,0,0],"sum_hessian":[1.00398737E3,7.55564E2,2.4842339E2,7.5096246E2,4.6015344E0,2.1409053E2,3.433285E1,9.98438E0,7.409781E2,1.5725873E0,3.028947E0,1.990186E2,1.5071921E1,3.3049606E1,1.283244E0],"tree_param":{"num_deleted":"0","num_feature":"5000","num_nodes":"15","size_leaf_vector":"1"}},{"base_weights":[-3.71802E-1,-4.0928313E-1,4.5560357E-1,2.6269355E-1,-4.4139454E-1,1.6650908E-1,-8.015319E-2,-5.265136E-2,2.7061617E-1,-1.3882329E-1,2.3694205E-1],"categories":[],"categories_nodes":[],"categories_segments":[],"categories_sizes":[],"default_left":[1,0,0,1,1,0,0,0,0,0,0],"id":41,"left_children":[1,3,5,7,9,-1,-1,-1,-1,-1,-1],"loss_changes":[8.482853E0,5.649746E0,9.26492E-1,3.5036666E0,4.46389E0,0E0,0E0,0E0,0E0,0E0,0E0],"parents":[2147483647,0,0,1,1,2,2,3,3,4,4],"right_children":[2,4,6,8,10,-1,-1,-1,-1,-1,-1],"split_conditions":[1.5572816E-1,1.3130803E-1,4.204528E-2,3.8385138E-2,1.6565277E-1,1.6650908E-1,-8.015319E-2,-5.265136E-2,2.7061617E-1,-1.3882329E-1,2.3694205E-1],"split_indices":[2576,2170,346,4603,1257,0,0,0,0,0,0],"split_type":[0,0,0,0,0,0,0,0,0,0,0],"sum_hessian":[2.6652063E2,2.5545403E2,1.1066625E1,1.1323021E1,2.44131E2,1.004384E1,1.0227841E0,7.0988197E0,4.224201E0,2.4202303E2,2.1079779E0],"tree_param":{"num_deleted":"0","num_feature":"5000","num_nodes":"11","size_leaf_vector":"1"}},{"base_weights":[-4.0179986E-1,5.8003653E-2,-4.7418484E-1,-6.973967E-2,5.631928E-1,-4.934081E-1,2.1643224E-1,4.3396316E-2,-1.7687693E-1,2.2807875E-1,-8.913767E-2,-1.5183417E-1,7.347288E-2,1.4963542E-1,-1.04199946E-1],"categories":[],"categories_nodes":[],"categories_segments":[],"categories_sizes":[],"default_left":[0,1,1,0,1,1,0,0,0,0,0,0,0,0,0],"id":42,"left_children":[1,3,5,7,9,11,13,-1,-1,-1,-1,-1,-1,-1,-1],"loss_changes":[8.843575E0,2.4218116E0,3.1464996E0,3.3662884E0,1.4126539E0,8.420944E-1,1.22272E0,0E0,0E0,0E0,0E0,0E0,0E0,0E0,0E0],"parents":[2147483647,0,0,1,1,2,2,3,3,4,4,5,5,6,6],"right_children":[2,4,6,8,10,12,14,-1,-1,-1,-1,-1,-1,-1,-1],"split_conditions":[1.4961427E-1,4.625433E-2,1.5885033E-1,2.4568696E-2,7.8023575E-2,1.3419503E-1,7.8789406E-2,4.3396316E-2,-1.7687693E-1,2.2807875E-1,-8.913767E-2,-1.5183417E-1,7.347288E-2,1.4963542E-1,-1.04199946E-1],"split_indices":[2994,1364,2418,3715,683,882,4697,0,0,0,0,0,0,0,0],"split_type":[0,0,0,0,0,0,0,0,0,0,0,0,0,0,0],"sum_hessian":[2.6388303E2,3.591875E1,2.2796426E2,2.935734E1,6.561413E0,2.2206856E2,5.8957057E0,2.1248144E1,8.109195E0,5.5002847E0,1.0611281E0,2.2106331E2,1.0052428E0,4.034485E0,1.8612207E0],"tree_param":{"num_deleted":"0","num_feature":"5000","num_nodes":"15","size_leaf_vector":"1"}},{"base_weights":[-4.6285707E-1,2.4921713E-2,-4.9905685E-1,2.0355596E-1,-1.3047504E-1,-5.034648E-1,7.3555365E-2,-4.4313144E-2,2.2625324E-1,7.292312E-2,-1.5491052E-1],"categories":[],"categories_nodes":[],"categories_segments":[],"categories_sizes":[],"default_left":[1,1,1,1,0,0,0,0,0,0,0],"id":43,"left_children":[1,3,5,7,-1,9,-1,-1,-1,-1,-1],"loss_changes":[4.2625275E0,1.5088634E0,8.526802E-1,2.602161E0,0E0,8.56781E-1,0E0,0E0,0E0,0E0,0E0],"parents":[2147483647,0,0,1,1,2,2,3,3,5,5],"right_children":[2,4,6,8,-1,10,-1,-1,-1,-1,-1],"split_conditions":[2.0977003E-2,2.6658142E-2,1.7100626E-1,2.784736E-2,-1.3047504E-1,2.3786657E-1,7.3555365E-2,-4.4313144E-2,2.2625324E-1,7.292312E-2,-1.5491052E-1],"split_indices":[344,1497,4119,2352,0,1851,0,0,0,0,0],"split_type":[0,0,0,0,0,0,0,0,0,0,0],"sum_hessian":[2.3969624E2,1.6581272E1,2.2311497E2,1.2284352E1,4.2969193E0,2.2211215E2,1.0028212E0,7.896625E0,4.387727E0,1.0056219E0,2.2110652E2],"tree_param":{"num_deleted":"0","num_feature":"5000","num_nodes":"11","size_leaf_vector":"1"}},{"base_weights":[-1.0622486E-1,-3.8548824E-1,1.1736608E-1,6.105474E-1,-4.0494025E-1,6.478126E-1,9.901119E-2,-9.258032E-2,3.7829137E-1,1.182016E-1,-1.3107704E-1,-1.5752043E-1,4.6709117E-2],"categories":[],"categories_nodes":[],"categories_segments":[],"categories_sizes":[],"default_left":[1,0,1,0,0,0,0,0,0,0,0,0,0],"id":44,"left_children":[1,3,5,7,9,-1,11,-1,-1,-1,-1,-1,-1],"loss_changes":[2.61277E1,3.85034E0,8.362045E0,2.6566541E0,3.766283E0,0E0,7.798338E0,0E0,0E0,0E0,0E0,0E0,0E0],"parents":[2147483647,0,0,1,1,2,2,3,3,4,4,6,6],"right_children":[2,4,6,8,10,-1,12,-1,-1,-1,-1,-1,-1],"split_conditions":[5.288043E-2,1.353197E-1,3.203097E-2,4.4144273E-2,1.2851976E-1,6.478126E-1,2.4716364E-1,-9.258032E-2,3.7829137E-1,1.182016E-1,-1.3107704E-1,-1.5752043E-1,4.6709117E-2],"split_indices":[4273,2577,1334,2959,700,0,3110,0,0,0,0,0,0],"split_type":[0,0,0,0,0,0,0,0,0,0,0,0,0],"sum_hessian":[4.1671524E2,1.849678E2,2.3174745E2,2.9610386E0,1.8200676E2,1.0607973E0,2.3068665E2,1.4191421E0,1.5418965E0,5.0835032E0,1.7692326E2,1.795915E1,2.1272751E2],"tree_param":{"num_deleted":"0","num_feature":"5000","num_nodes":"13","size_leaf_vector":"1"}},{"base_weights":[3.173978E-1,4.3218178E-1,1.8647167E-1,5.211332E-1,2.5812078E-1,2.3413226E-1,-1.640143E-1,-1.0712893E-1,1.6191804E-1,-1.4574061E-1,9.1676995E-2,4.1066736E-2,1.4212622E-1,-1.2725289E-1,1.6185006E-2],"categories":[],"categories_nodes":[],"categories_segments":[],"categories_sizes":[],"default_left":[0,1,0,0,0,0,0,0,0,0,0,0,0,0,0],"id":45,"left_children":[1,3,5,7,9,11,13,-1,-1,-1,-1,-1,-1,-1,-1],"loss_changes":[1.26688385E1,6.8528137E0,6.687993E0,2.7173157E0,4.974927E0,8.029842E0,2.6737251E0,0E0,0E0,0E0,0E0,0E0,0E0,0E0,0E0],"parents":[2147483647,0,0,1,1,2,2,3,3,4,4,5,5,6,6],"right_children":[2,4,6,8,10,12,14,-1,-1,-1,-1,-1,-1,-1,-1],"split_conditions":[4.915637E-2,4.797198E-2,5.0872505E-2,1.3110699E-1,1.564166E-1,6.939854E-2,7.547773E-2,-1.0712893E-1,1.6191804E-1,-1.4574061E-1,9.1676995E-2,4.1066736E-2,1.4212622E-1,-1.2725289E-1,1.6185006E-2],"split_indices":[2274,1421,3244,2418,57,3533,2194,0,0,0,0,0,0,0,0],"split_type":[0,0,0,0,0,0,0,0,0,0,0,0,0,0,0],"sum_hessian":[8.473663E2,4.502913E2,3.97075E2,2.9668213E2,1.5360916E2,3.4983493E2,4.7240078E1,2.8905916E0,2.9379153E2,7.819438E0,1.4578973E2,2.4590138E2,1.0393355E2,2.137993E1,2.586015E1],"tree_param":{"num_deleted":"0","num_feature":"5000","num_nodes":"15","size_leaf_vector":"1"}},{"base_weights":[-3.4839597E-1,8.040941E-1,-3.7256226E-1,-1.2919495E-1,6.2479734E-1,-9.708643E-2,-4.6746778E-1,7.385186E-2,-1.0861503E-1,-9.715555E-2,8.807221E-2,8.518697E-2,-1.4985414E-1],"categories":[],"categories_nodes":[],"categories_segments":[],"categories_sizes":[],"default_left":[0,1,0,0,0,0,0,0,0,0,0,0,0],"id":46,"left_children":[1,3,5,7,-1,9,11,-1,-1,-1,-1,-1,-1],"loss_changes":[6.43779E0,5.889406E0,5.6160965E0,3.9868885E-1,0E0,4.9411764E0,3.0019875E0,0E0,0E0,0E0,0E0,0E0,0E0],"parents":[2147483647,0,0,1,1,2,2,3,3,5,5,6,6],"right_children":[2,4,6,8,-1,10,12,-1,-1,-1,-1,-1,-1],"split_conditions":[1.5885033E-1,6.0882133E-2,4.738724E-2,3.4745578E-2,6.2479734E-1,3.3363976E-2,1.17015295E-1,7.385186E-2,-1.0861503E-1,-9.715555E-2,8.807221E-2,8.518697E-2,-1.4985414E-1],"split_indices":[2418,2431,3283,4547,0,4427,490,0,0,0,0,0,0],"split_type":[0,0,0,0,0,0,0,0,0,0,0,0,0],"sum_hessian":[2.1939157E2,3.8430545E0,2.1554852E2,2.7081683E0,1.1348861E0,5.5749935E1,1.5979858E2,1.001785E0,1.7063833E0,3.553128E1,2.0218655E1,4.6156054E0,1.5518298E2],"tree_param":{"num_deleted":"0","num_feature":"5000","num_nodes":"13","size_leaf_vector":"1"}},{"base_weights":[-3.734559E-1,7.463746E-2,-4.566408E-1,-4.1199234E-1,1.9955605E-1,-4.802573E-1,2.4066532E-1,4.33791E-2,-1.5955342E-1,-1.8929478E-2,1.3521565E-1,3.9172232E-2,-1.5153243E-1,1.4661713E-1,-1.0315447E-1],"categories":[],"categories_nodes":[],"categories_segments":[],"categories_sizes":[],"default_left":[0,0,1,0,0,0,1,0,0,0,0,0,0,0,0],"id":47,"left_children":[1,3,5,7,9,11,13,-1,-1,-1,-1,-1,-1,-1,-1],"loss_changes":[8.093281E0,2.1923776E0,3.1209526E0,5.312307E-1,1.8321152E0,1.8475914E0,1.085897E0,0E0,0E0,0E0,0E0,0E0,0E0,0E0,0E0],"parents":[2147483647,0,0,1,1,2,2,3,3,4,4,5,5,6,6],"right_children":[2,4,6,8,10,12,14,-1,-1,-1,-1,-1,-1,-1,-1],"split_conditions":[1.4011925E-1,1.0491965E-1,1.5885033E-1,1.0487344E-1,3.6046498E-2,1.278569E-1,4.1374356E-2,4.33791E-2,-1.5955342E-1,-1.8929478E-2,1.3521565E-1,3.9172232E-2,-1.5153243E-1,1.4661713E-1,-1.0315447E-1],"split_indices":[2788,175,2439,220,2352,1159,88,0,0,0,0,0,0,0,0],"split_type":[0,0,0,0,0,0,0,0,0,0,0,0,0,0,0],"sum_hessian":[2.152115E2,3.371283E1,1.8149867E2,6.416967E0,2.7295864E1,1.7585408E2,5.6445913E0,1.0250926E0,5.3918743E0,1.3525552E1,1.3770313E1,4.48147E0,1.713726E2,4.1098933E0,1.5346981E0],"tree_param":{"num_deleted":"0","num_feature":"5000","num_nodes":"15","size_leaf_vector":"1"}},{"base_weights":[-4.489497E-1,3.860596E-2,-4.9217373E-1,2.0564774E-1,-1.2658276E-1,-4.9773636E-1,7.308926E-2,-3.6120076E-2,2.088695E-1,-1.5351585E-1,7.068783E-2],"categories":[],"categories_nodes":[],"categories_segments":[],"categories_sizes":[],"default_left":[1,1,1,1,0,1,0,0,0,0,0],"id":48,"left_children":[1,3,5,7,-1,9,-1,-1,-1,-1,-1],"loss_changes":[4.0822372E0,1.3453786E0,8.405342E-1,2.0721755E0,0E0,8.3559036E-1,0E0,0E0,0E0,0E0,0E0],"parents":[2147483647,0,0,1,1,2,2,3,3,5,5],"right_children":[2,4,6,8,-1,10,-1,-1,-1,-1,-1],"split_conditions":[2.0977003E-2,2.6650334E-2,1.378112E-1,2.784736E-2,-1.2658276E-1,1.7195721E-1,7.308926E-2,-3.6120076E-2,2.088695E-1,-1.5351585E-1,7.068783E-2],"split_indices":[344,2081,3548,2352,0,1851,0,0,0,0,0],"split_type":[0,0,0,0,0,0,0,0,0,0,0],"sum_hessian":[1.9180678E2,1.5628479E1,1.761783E2,1.1821926E1,3.806553E0,1.7516667E2,1.0116218E0,7.501402E0,4.3205247E0,1.7414128E2,1.0253925E0],"tree_param":{"num_deleted":"0","num_feature":"5000","num_nodes":"11","size_leaf_vector":"1"}},{"base_weights":[-6.1096516E-2,-3.1364134E-1,1.4157262E-1,-3.5474893E-1,6.167852E-1,1.9156991E-1,-1.5865183E-1,1.00691475E-1,-1.1760367E-1,6.211261E-1,-1.2606014E-1,2.0141642E-1,3.2879163E-2],"categories":[],"categories_nodes":[],"categories_segments":[],"categories_sizes":[],"default_left":[1,1,0,0,1,0,0,0,0,0,0,0,0],"id":49,"left_children":[1,3,5,7,9,11,-1,-1,-1,-1,-1,-1,-1],"loss_changes":[1.950523E1,6.7052765E0,7.1014514E0,3.570879E0,1.18697E1,7.68478E0,0E0,0E0,0E0,0E0,0E0,0E0,0E0],"parents":[2147483647,0,0,1,1,2,2,3,3,4,4,5,5],"right_children":[2,4,6,8,10,12,-1,-1,-1,-1,-1,-1,-1],"split_conditions":[5.5527046E-2,9.773233E-2,6.576357E-2,9.689745E-2,3.570064E-2,7.81342E-2,-1.5865183E-1,1.00691475E-1,-1.1760367E-1,6.211261E-1,-1.2606014E-1,2.0141642E-1,3.2879163E-2],"split_indices":[1287,814,156,418,2442,3606,0,0,0,0,0,0,0],"split_type":[0,0,0,0,0,0,0,0,0,0,0,0,0],"sum_hessian":[3.792202E2,1.6859163E2,2.1062859E2,1.6205072E2,6.5409126E0,1.9649326E2,1.4135344E1,6.5637746E0,1.5548694E2,2.339544E0,4.2013683E0,2.8744205E1,1.6774904E2],"tree_param":{"num_deleted":"0","num_feature":"5000","num_nodes":"13","size_leaf_vector":"1"}},{"base_weights":[2.7193192E-1,3.9933568E-1,1.4096111E-1,4.9214655E-1,1.8074174E-1,8.325252E-2,4.6036798E-1,1.5230145E-1,-1.20468006E-1,6.703984E-2,-3.4608087E-1,1.5947041E-1,1.0837705E-2,1.5099664E-1,-2.025837E-1],"categories":[],"categories_nodes":[],"categories_segments":[],"categories_sizes":[],"default_left":[1,0,1,1,1,0,1,0,0,0,0,0,0,0,0],"id":50,"left_children":[1,3,5,7,9,11,13,-1,-1,-1,-1,-1,-1,-1,-1],"loss_changes":[1.231366E1,7.5238037E0,6.72812E0,1.8765144E0,6.076944E0,6.5292697E0,2.5125084E0,0E0,0E0,0E0,0E0,0E0,0E0,0E0,0E0],"parents":[2147483647,0,0,1,1,2,2,3,3,4,4,5,5,6,6],"right_children":[2,4,6,8,10,12,14,-1,-1,-1,-1,-1,-1,-1,-1],"split_conditions":[5.081791E-2,6.1521184E-2,7.9622135E-2,1.3783485E-1,1.0138003E-1,2.5973776E-1,1.2471926E-1,1.5230145E-1,-1.20468006E-1,6.703984E-2,-3.4608087E-1,1.5947041E-1,1.0837705E-2,1.5099664E-1,-2.025837E-1],"split_indices":[4273,2883,2739,83,148,683,546,0,0,0,0,0,0,0,0],"split_type":[0,0,0,0,0,0,0,0,0,0,0,0,0,0,0],"sum_hessian":[7.403293E2,3.7423636E2,3.6609293E2,2.6182077E2,1.1241561E2,3.111388E2,5.4954113E1,2.6014578E2,1.6749765E0,1.0998264E2,2.4329638E0,2.9492138E1,2.8164667E2,5.3852077E1,1.1020354E0],"tree_param":{"num_deleted":"0","num_feature":"5000","num_nodes":"15","size_leaf_vector":"1"}},{"base_weights":[-3.1183016E-1,-2.1025155E-2,-4.248985E-1,-9.659706E-2,1.1557652E0,2.3636903E-1,-4.4928858E-1,-1.4688721E-1,4.1805137E-2,7.059156E-2,4.52879E-1,-1.4166509E-1,2.2364983E-1],"categories":[],"categories_nodes":[],"categories_segments":[],"categories_sizes":[],"default_left":[0,1,0,0,0,0,1,0,0,0,0,0,0],"id":51,"left_children":[1,3,5,7,9,-1,11,-1,-1,-1,-1,-1,-1],"loss_changes":[5.96327E0,4.727376E0,4.174021E0,4.5363736E0,6.324606E-1,0E0,2.653061E0,0E0,0E0,0E0,0E0,0E0,0E0],"parents":[2147483647,0,0,1,1,2,2,3,3,4,4,6,6],"right_children":[2,4,6,8,10,-1,12,-1,-1,-1,-1,-1,-1],"split_conditions":[5.4390386E-2,1.2324785E-1,4.4687814E-1,4.3772157E-2,3.1316202E-2,2.3636903E-1,1.18368745E-1,-1.4688721E-1,4.1805137E-2,7.059156E-2,4.52879E-1,-1.4166509E-1,2.2364983E-1],"split_indices":[1287,2439,4707,4884,653,0,2820,0,0,0,0,0,0],"split_type":[0,0,0,0,0,0,0,0,0,0,0,0,0],"sum_hessian":[1.8063167E2,5.090164E1,1.2973003E2,4.8692585E1,2.209058E0,1.9714097E0,1.2775862E2,1.7989952E1,3.0702633E1,1.0272028E0,1.1818553E0,1.2673822E2,1.0204008E0],"tree_param":{"num_deleted":"0","num_feature":"5000","num_nodes":"13","size_leaf_vector":"1"}},{"base_weights":[-3.598886E-1,2.4378631E-2,-4.477351E-1,1.5959069E-1,-6.1029207E-2,-4.7648117E-1,1.950776E-1,3.849914E-2,-1.19807065E-1,3.724576E-2,-1.5172523E-1,1.5808143E-1,-5.3642094E-2],"categories":[],"categories_nodes":[],"categories_segments":[],"categories_sizes":[],"default_left":[0,0,1,0,0,0,1,0,0,0,0,0,0],"id":52,"left_children":[1,3,5,-1,7,9,11,-1,-1,-1,-1,-1,-1],"loss_changes":[6.0598717E0,1.4929847E0,2.78899E0,0E0,1.9242331E0,1.8181801E0,9.2504835E-1,0E0,0E0,0E0,0E0,0E0,0E0],"parents":[2147483647,0,0,1,1,2,2,4,4,5,5,6,6],"right_children":[2,4,6,-1,8,10,12,-1,-1,-1,-1,-1,-1],"split_conditions":[1.4961427E-1,2.5359012E-2,1.5885033E-1,1.5959069E-1,4.223645E-2,1.278569E-1,3.937249E-2,3.849914E-2,-1.19807065E-1,3.724576E-2,-1.5172523E-1,1.5808143E-1,-5.3642094E-2],"split_indices":[2788,3241,2440,0,1497,1159,2961,0,0,0,0,0,0],"split_type":[0,0,0,0,0,0,0,0,0,0,0,0,0],"sum_hessian":[1.7819371E2,3.3291046E1,1.4490266E2,4.11701E0,2.9174034E1,1.389478E2,5.9548764E0,1.9044779E1,1.0129255E1,4.5414762E0,1.3440631E2,2.9699042E0,2.9849722E0],"tree_param":{"num_deleted":"0","num_feature":"5000","num_nodes":"13","size_leaf_vector":"1"}},{"base_weights":[-4.3499598E-1,4.361008E-2,-4.851263E-1,1.9697276E-1,-1.2227124E-1,3.1929173E-2,-4.9783477E-1,-3.0615075E-2,1.783376E-1,-1.08676516E-1,2.0040351E-1,-1.5404825E-1,7.43663E-2],"categories":[],"categories_nodes":[],"categories_segments":[],"categories_sizes":[],"default_left":[1,1,0,1,0,0,1,0,0,0,0,0,0],"id":53,"left_children":[1,3,5,7,-1,9,11,-1,-1,-1,-1,-1,-1],"loss_changes":[3.7504177E0,1.1461173E0,9.409523E-1,1.477887E0,0E0,1.2818443E0,8.6141205E-1,0E0,0E0,0E0,0E0,0E0,0E0],"parents":[2147483647,0,0,1,1,2,2,3,3,5,5,6,6],"right_children":[2,4,6,8,-1,10,12,-1,-1,-1,-1,-1,-1],"split_conditions":[2.0977003E-2,2.1301689E-2,1.5504172E-1,2.784736E-2,-1.2227124E-1,3.76693E-2,1.2800364E-1,-3.0615075E-2,1.783376E-1,-1.08676516E-1,2.0040351E-1,-1.5404825E-1,7.43663E-2],"split_indices":[344,4510,1107,2352,0,899,624,0,0,0,0,0,0],"split_type":[0,0,0,0,0,0,0,0,0,0,0,0,0],"sum_hessian":[1.5443315E2,1.4654381E1,1.3977876E2,1.1309281E1,3.3451E0,3.3168643E0,1.364619E2,6.820165E0,4.4891157E0,2.3113718E0,1.0054923E0,1.354583E2,1.0036048E0],"tree_param":{"num_deleted":"0","num_feature":"5000","num_nodes":"13","size_leaf_vector":"1"}},{"base_weights":[-2.1829093E-2,-2.9237142E-1,1.2604475E-1,-3.2440174E-1,2.677618E-1,1.3432821E0,9.996747E-2,1.7318828E-1,-1.1176707E-1,-8.0226794E-2,5.7238096E-1,-1.1133879E-1,4.8920512E-2],"categories":[],"categories_nodes":[],"categories_segments":[],"categories_sizes":[],"default_left":[1,1,1,0,0,0,1,0,0,0,0,0,0],"id":54,"left_children":[1,3,5,7,-1,9,11,-1,-1,-1,-1,-1,-1],"loss_changes":[1.4172386E1,4.9768724E0,7.139765E0,4.8064413E0,0E0,4.5427446E0,6.3931584E0,0E0,0E0,0E0,0E0,0E0,0E0],"parents":[2147483647,0,0,1,1,2,2,3,3,5,5,6,6],"right_children":[2,4,6,8,-1,10,12,-1,-1,-1,-1,-1,-1],"split_conditions":[4.6638813E-2,6.2352553E-2,3.406216E-2,1.16308466E-1,2.677618E-1,5.3370032E-2,4.3337572E-2,1.7318828E-1,-1.1176707E-1,-8.0226794E-2,5.7238096E-1,-1.1133879E-1,4.8920512E-2],"split_indices":[2241,2181,4573,3548,0,2194,346,0,0,0,0,0,0],"split_type":[0,0,0,0,0,0,0,0,0,0,0,0,0],"sum_hessian":[3.5233414E2,1.2417423E2,2.2815991E2,1.21569695E2,2.6045375E0,3.725996E0,2.2443391E2,4.908529E0,1.1666116E2,1.0551481E0,2.670848E0,2.5231018E1,1.992029E2],"tree_param":{"num_deleted":"0","num_feature":"5000","num_nodes":"13","size_leaf_vector":"1"}},{"base_weights":[2.2297734E-1,1.422186E-1,4.2743763E-1,9.888281E-2,4.6815184E-1,-1.1505907E-1,4.505519E-1,1.3873372E-2,1.15628704E-1,-7.5770505E-2,1.497217E-1,1.4479974E-1,-1.1496567E-1],"categories":[],"categories_nodes":[],"categories_segments":[],"categories_sizes":[],"default_left":[0,1,0,1,0,0,1,0,0,0,0,0,0],"id":55,"left_children":[1,3,5,7,9,-1,11,-1,-1,-1,-1,-1,-1],"loss_changes":[1.0734474E1,6.594612E0,3.6037865E0,6.211275E0,1.0166512E0,0E0,3.7820702E0,0E0,0E0,0E0,0E0,0E0,0E0],"parents":[2147483647,0,0,1,1,2,2,3,3,4,4,6,6],"right_children":[2,4,6,8,10,-1,12,-1,-1,-1,-1,-1,-1],"split_conditions":[7.454787E-2,6.479297E-2,1.302065E-1,9.13299E-2,1.082493E-1,-1.1505907E-1,1.12281285E-1,1.3873372E-2,1.15628704E-1,-7.5770505E-2,1.497217E-1,1.4479974E-1,-1.1496567E-1],"split_indices":[3669,1361,490,4706,83,0,2418,0,0,0,0,0,0],"split_type":[0,0,0,0,0,0,0,0,0,0,0,0,0],"sum_hessian":[6.527848E2,4.6916663E2,1.8361818E2,4.1525772E2,5.3908905E1,4.699315E0,1.7891885E2,3.4977225E2,6.548548E1,1.3527898E0,5.2556118E1,1.7424892E2,4.669942E0],"tree_param":{"num_deleted":"0","num_feature":"5000","num_nodes":"13","size_leaf_vector":"1"}},{"base_weights":[-2.7345803E-1,3.12671E-2,-4.1718766E-1,-2.7226666E-1,2.8466156E-1,8.365633E-2,-4.7228292E-1,-1.2052224E-1,3.7099412E-1,2.0045422E-1,2.2703402E-2,-9.979466E-2,2.2583553E-1,-1.4718325E-1,7.4217126E-2],"categories":[],"categories_nodes":[],"categories_segments":[],"categories_sizes":[],"default_left":[0,0,0,1,0,1,1,0,0,0,0,0,0,0,0],"id":56,"left_children":[1,3,5,7,9,11,13,-1,-1,-1,-1,-1,-1,-1,-1],"loss_changes":[6.7565584E0,3.9445071E0,2.9283752E0,4.7588997E0,2.1355336E0,3.2711859E0,8.1271935E-1,0E0,0E0,0E0,0E0,0E0,0E0,0E0,0E0],"parents":[2147483647,0,0,1,1,2,2,3,3,4,4,5,5,6,6],"right_children":[2,4,6,8,10,12,14,-1,-1,-1,-1,-1,-1,-1,-1],"split_conditions":[5.7964683E-2,3.196994E-2,4.5963522E-2,1.0669547E-1,4.075657E-2,3.751464E-2,1.0710666E-1,-1.2052224E-1,3.7099412E-1,2.0045422E-1,2.2703402E-2,-9.979466E-2,2.2583553E-1,-1.4718325E-1,7.4217126E-2],"split_indices":[4467,293,1287,2463,156,3164,2265,0,0,0,0,0,0,0,0],"split_type":[0,0,0,0,0,0,0,0,0,0,0,0,0,0,0],"sum_hessian":[1.5296846E2,4.9277126E1,1.0369134E2,2.2386509E1,2.6890615E1,1.0224749E1,9.346658E1,2.135795E1,1.0285587E0,8.932993E0,1.7957624E1,6.598746E0,3.6260028E0,9.246333E1,1.0032531E0],"tree_param":{"num_deleted":"0","num_feature":"5000","num_nodes":"15","size_leaf_vector":"1"}},{"base_weights":[-3.2168785E-1,5.180015E-2,-4.2363712E-1,-4.048177E-1,1.6487113E-1,-4.5798314E-1,2.0260099E-1,2.2078112E-2,-1.5316752E-1,8.603859E-2,-1.3432787E-1,-1.4749557E-1,2.4442602E-2,-5.017564E-2,1.5021206E-1],"categories":[],"categories_nodes":[],"categories_segments":[],"categories_sizes":[],"default_left":[0,0,1,0,1,1,1,0,0,0,0,0,0,0,0],"id":57,"left_children":[1,3,5,7,9,11,13,-1,-1,-1,-1,-1,-1,-1,-1],"loss_changes":[5.7359915E0,1.7741619E0,2.6307392E0,3.5478795E-1,2.055389E0,1.5845089E0,8.077227E-1,0E0,0E0,0E0,0E0,0E0,0E0,0E0,0E0],"parents":[2147483647,0,0,1,1,2,2,3,3,4,4,5,5,6,6],"right_children":[2,4,6,8,10,12,14,-1,-1,-1,-1,-1,-1,-1,-1],"split_conditions":[1.4961427E-1,1.0491965E-1,1.5885033E-1,1.0576766E-1,5.737766E-2,9.787808E-2,7.5619765E-2,2.2078112E-2,-1.5316752E-1,8.603859E-2,-1.3432787E-1,-1.4749557E-1,2.4442602E-2,-5.017564E-2,1.5021206E-1],"split_indices":[2994,175,2439,220,3968,1393,1122,0,0,0,0,0,0,0,0],"split_type":[0,0,0,0,0,0,0,0,0,0,0,0,0,0,0],"sum_hessian":[1.4906624E2,3.207015E1,1.16996086E2,5.8531184E0,2.621703E1,1.1116776E2,5.828319E0,1.0353843E0,4.8177342E0,2.2410826E1,3.806204E0,1.0621443E2,4.953335E0,2.7625241E0,3.0657952E0],"tree_param":{"num_deleted":"0","num_feature":"5000","num_nodes":"15","size_leaf_vector":"1"}},{"base_weights":[-4.3253428E-1,2.0150037E-1,-4.7201622E-1,-9.00146E-2,3.235618E-1,-4.8652866E-1,1.0733327E-1,-2.7136782E-2,1.3037702E-1,7.456424E-2,-1.5098839E-1,1.6367528E-1,-9.499898E-2],"categories":[],"categories_nodes":[],"categories_segments":[],"categories_sizes":[],"default_left":[0,0,1,0,0,0,0,0,0,0,0,0,0],"id":58,"left_children":[1,3,5,-1,7,9,11,-1,-1,-1,-1,-1,-1],"loss_changes":[3.2376137E0,5.840697E-1,1.0483322E0,0E0,3.3579463E-1,8.415947E-1,8.349981E-1,0E0,0E0,0E0,0E0,0E0,0E0],"parents":[2147483647,0,0,1,1,2,2,4,4,5,5,6,6],"right_children":[2,4,6,-1,8,10,12,-1,-1,-1,-1,-1,-1],"split_conditions":[2.971077E-2,7.763745E-2,1.2505808E-1,-9.00146E-2,1.9369693E-2,1.9357345E-1,4.159635E-2,-2.7136782E-2,1.3037702E-1,7.456424E-2,-1.5098839E-1,1.6367528E-1,-9.499898E-2],"split_indices":[4252,418,4509,0,3206,4119,2442,0,0,0,0,0,0],"split_type":[0,0,0,0,0,0,0,0,0,0,0,0,0],"sum_hessian":[1.2453484E2,7.059748E0,1.174751E2,1.1130818E0,5.9466662E0,1.1476061E2,2.7144845E0,1.2253388E0,4.7213273E0,1.0023477E0,1.1375826E2,1.2014986E0,1.5129858E0],"tree_param":{"num_deleted":"0","num_feature":"5000","num_nodes":"13","size_leaf_vector":"1"}},{"base_weights":[7.249371E-4,-3.5465705E-1,1.0328341E-1,5.8446735E-1,-4.0232572E-1,1.7458804E-1,-2.7070704E-1,3.702575E-1,-9.697217E-2,-1.342034E-1,1.4693044E-1,7.321085E-2,-1.2406706E-1,-1.08191475E-1,3.1611207E-1],"categories":[],"categories_nodes":[],"categories_segments":[],"categories_sizes":[],"default_left":[1,0,1,0,1,1,0,0,0,0,0,0,0,0,0],"id":59,"left_children":[1,3,5,7,9,11,13,-1,-1,-1,-1,-1,-1,-1,-1],"loss_changes":[1.2123551E1,3.5700579E0,6.930906E0,2.6617954E0,2.5937204E0,8.369653E0,4.9502296E0,0E0,0E0,0E0,0E0,0E0,0E0,0E0,0E0],"parents":[2147483647,0,0,1,1,2,2,3,3,4,4,5,5,6,6],"right_children":[2,4,6,8,10,12,14,-1,-1,-1,-1,-1,-1,-1,-1],"split_conditions":[3.541733E-2,3.8869526E-2,7.772127E-2,3.2050967E-2,1.1076094E-1,6.361641E-2,7.5954944E-2,3.702575E-1,-9.697217E-2,-1.342034E-1,1.4693044E-1,7.321085E-2,-1.2406706E-1,-1.08191475E-1,3.1611207E-1],"split_indices":[3669,1364,2875,3628,2722,2739,868,0,0,0,0,0,0,0,0],"split_type":[0,0,0,0,0,0,0,0,0,0,0,0,0,0,0],"sum_hessian":[3.3062616E2,7.349518E1,2.5713098E2,3.0063233E0,7.048885E1,2.1640466E2,4.0726315E1,1.5675839E0,1.4387393E0,6.808869E1,2.4001613E0,1.9503554E2,2.1369118E1,3.8951267E1,1.7750474E0],"tree_param":{"num_deleted":"0","num_feature":"5000","num_nodes":"15","size_leaf_vector":"1"}},{"base_weights":[1.8290016E-1,3.2365718E-1,6.581543E-2,4.4536358E-1,9.348756E-2,2.5768925E-2,1.6331273E-1,1.3923654E-1,-1.7815503E-1,5.041595E-2,-2.2729525E-1,1.3987754E-1,-5.154626E-3],"categories":[],"categories_nodes":[],"categories_segments":[],"categories_sizes":[],"default_left":[1,0,0,1,1,0,0,0,0,0,0,0,0],"id":60,"left_children":[1,3,5,7,9,11,-1,-1,-1,-1,-1,-1,-1],"loss_changes":[9.521261E0,7.3167267E0,5.954615E0,2.2358284E0,5.6714435E0,5.4277744E0,0E0,0E0,0E0,0E0,0E0,0E0,0E0],"parents":[2147483647,0,0,1,1,2,2,3,3,4,4,5,5],"right_children":[2,4,6,8,10,12,-1,-1,-1,-1,-1,-1,-1],"split_conditions":[5.081791E-2,6.1521184E-2,5.630815E-2,1.2948099E-1,9.4180994E-2,2.5380275E-1,1.6331273E-1,1.3923654E-1,-1.7815503E-1,5.041595E-2,-2.2729525E-1,1.3987754E-1,-5.154626E-3],"split_indices":[4273,2883,836,624,763,2298,0,0,0,0,0,0,0],"split_type":[0,0,0,0,0,0,0,0,0,0,0,0,0],"sum_hessian":[5.780214E2,2.6167566E2,3.163458E2,1.7055608E2,9.111959E1,2.9246204E2,2.3883755E1,1.6927928E2,1.2767997E0,8.467285E1,6.446735E0,2.5368721E1,2.670933E2],"tree_param":{"num_deleted":"0","num_feature":"5000","num_nodes":"13","size_leaf_vector":"1"}},{"base_weights":[-2.4091265E-1,2.871106E-2,-4.009873E-1,-3.325146E-1,1.5890165E-1,3.554056E-1,-4.5169407E-1,7.7984974E-2,-1.4460832E-1,2.9822665E-1,1.8604495E-2,-2.2306468E-2,2.928967E-1,8.8384226E-2,-1.4179043E-1],"categories":[],"categories_nodes":[],"categories_segments":[],"categories_sizes":[],"default_left":[0,1,0,0,1,0,0,0,0,0,0,0,0,0,0],"id":61,"left_children":[1,3,5,7,9,11,13,-1,-1,-1,-1,-1,-1,-1,-1],"loss_changes":[5.8044295E0,2.4481623E0,3.3932629E0,1.2721478E0,2.9962444E0,1.5880232E0,9.1171074E-1,0E0,0E0,0E0,0E0,0E0,0E0,0E0,0E0],"parents":[2147483647,0,0,1,1,2,2,3,3,4,4,5,5,6,6],"right_children":[2,4,6,8,10,12,14,-1,-1,-1,-1,-1,-1,-1,-1],"split_conditions":[4.9100935E-2,2.654028E-2,3.0907268E-2,1.5109925E-1,2.5099335E-2,2.3458181E-2,1.0717994E-1,7.7984974E-2,-1.4460832E-1,2.9822665E-1,1.8604495E-2,-2.2306468E-2,2.928967E-1,8.8384226E-2,-1.4179043E-1],"split_indices":[3164,4100,4165,14,2098,2864,2325,0,0,0,0,0,0,0,0],"split_type":[0,0,0,0,0,0,0,0,0,0,0,0,0,0,0],"sum_hessian":[1.3321983E2,4.9933823E1,8.328602E1,1.2817219E1,3.7116604E1,4.854999E0,7.8431015E1,2.330706E0,1.0486513E1,3.0038912E0,3.4112713E1,3.3563402E0,1.4986589E0,1.0045664E0,7.742645E1],"tree_param":{"num_deleted":"0","num_feature":"5000","num_nodes":"15","size_leaf_vector":"1"}},{"base_weights":[-3.0553553E-1,-4.200698E-1,2.9748417E-2,-4.612136E-1,1.2848589E-1,2.5057048E-1,-2.6560156E-2,-1.4730759E-1,4.6356544E-2,1.4552172E-1,-3.2396995E-2,9.5641434E-2,-6.257492E-2],"categories":[],"categories_nodes":[],"categories_segments":[],"categories_sizes":[],"default_left":[0,1,0,1,0,0,0,0,0,0,0,0,0],"id":62,"left_children":[1,3,5,7,9,-1,11,-1,-1,-1,-1,-1,-1],"loss_changes":[4.906617E0,2.2047634E0,1.5102669E0,1.256361E0,6.573917E-1,0E0,2.0166428E0,0E0,0E0,0E0,0E0,0E0,0E0],"parents":[2147483647,0,0,1,1,2,2,3,3,4,4,6,6],"right_children":[2,4,6,8,10,-1,12,-1,-1,-1,-1,-1,-1],"split_conditions":[1.12790935E-1,1.5885033E-1,7.86839E-2,1.0565895E-1,3.805156E-2,2.5057048E-1,6.0903426E-2,-1.4730759E-1,4.6356544E-2,1.4552172E-1,-3.2396995E-2,9.5641434E-2,-6.257492E-2],"split_indices":[4469,2439,3897,1714,987,0,1150,0,0,0,0,0,0],"split_type":[0,0,0,0,0,0,0,0,0,0,0,0,0],"sum_hessian":[1.2644605E2,9.4061424E1,3.2384624E1,8.7646805E1,6.4146223E0,1.2478418E0,3.1136782E1,8.4847984E1,2.798822E0,2.1653452E0,4.249277E0,1.0460234E1,2.0676548E1],"tree_param":{"num_deleted":"0","num_feature":"5000","num_nodes":"13","size_leaf_vector":"1"}},{"base_weights":[-4.0929422E-1,5.607891E-2,-4.778792E-1,1.8011826E-1,-1.1240732E-1,7.4816614E-2,-4.888685E-1,-1.0614329E-1,9.427449E-2,-1.5252721E-1,7.370153E-2],"categories":[],"categories_nodes":[],"categories_segments":[],"categories_sizes":[],"default_left":[1,1,0,0,0,0,1,0,0,0,0],"id":63,"left_children":[1,3,5,7,-1,-1,9,-1,-1,-1,-1],"loss_changes":[3.2976284E0,8.068147E-1,8.305588E-1,8.944202E-1,0E0,0E0,8.455734E-1,0E0,0E0,0E0,0E0],"parents":[2147483647,0,0,1,1,2,2,3,3,6,6],"right_children":[2,4,6,8,-1,-1,10,-1,-1,-1,-1],"split_conditions":[2.0977003E-2,2.1301689E-2,1.3416417E-1,3.650632E-2,-1.1240732E-1,7.4816614E-2,1.2824312E-1,-1.0614329E-1,9.427449E-2,-1.5252721E-1,7.370153E-2],"split_indices":[344,4510,43,1287,0,0,1003,0,0,0,0],"split_type":[0,0,0,0,0,0,0,0,0,0,0],"sum_hessian":[1.0147732E2,1.3057814E1,8.841951E1,1.0551422E1,2.5063908E0,1.0043447E0,8.741516E1,1.7377272E0,8.813695E0,8.640343E1,1.0117342E0],"tree_param":{"num_deleted":"0","num_feature":"5000","num_nodes":"11","size_leaf_vector":"1"}},{"base_weights":[3.436726E-2,-2.50424E-1,1.5659347E-1,-3.2453552E-1,7.554701E-1,8.2383424E-1,1.0358227E-1,-1.3527584E-1,3.6277078E-2,6.0995233E-1,-1.1982412E-1,-1.3125868E-1,3.4631327E-1,-1.4183654E-1,5.0539915E-2],"categories":[],"categories_nodes":[],"categories_segments":[],"categories_sizes":[],"default_left":[1,1,1,0,1,0,1,0,0,0,0,0,0,0,0],"id":64,"left_children":[1,3,5,7,9,11,13,-1,-1,-1,-1,-1,-1,-1,-1],"loss_changes":[1.0815501E1,7.2044024E0,7.5984244E0,4.6778126E0,1.0368886E1,6.6812086E0,7.2261906E0,0E0,0E0,0E0,0E0,0E0,0E0,0E0,0E0],"parents":[2147483647,0,0,1,1,2,2,3,3,4,4,5,5,6,6],"right_children":[2,4,6,8,10,12,14,-1,-1,-1,-1,-1,-1,-1,-1],"split_conditions":[5.280332E-2,9.773233E-2,3.5493657E-2,4.4127274E-2,3.1997148E-2,9.706499E-2,3.6774453E-2,-1.3527584E-1,3.6277078E-2,6.0995233E-1,-1.1982412E-1,-1.3125868E-1,3.4631327E-1,-1.4183654E-1,5.0539915E-2],"split_indices":[4273,814,3065,987,4547,635,2378,0,0,0,0,0,0,0,0],"split_type":[0,0,0,0,0,0,0,0,0,0,0,0,0,0,0],"sum_hessian":[3.0858374E2,9.235186E1,2.1623187E2,8.664543E1,5.706431E0,1.4844648E1,2.0138722E2,6.8315254E1,1.8330177E1,2.3828185E0,3.3236125E0,2.8784716E0,1.1966177E1,1.9196005E1,1.8219121E2],"tree_param":{"num_deleted":"0","num_feature":"5000","num_nodes":"15","size_leaf_vector":"1"}},{"base_weights":[1.5479065E-1,3.560432E-1,8.039648E-2,-2.5912434E-1,4.225361E-1,-5.590802E-1,9.161872E-2,-1.1685702E-1,1.18136875E-1,1.3484654E-1,-2.2574244E-1,3.42714E-2,-1.6345283E-1],"categories":[],"categories_nodes":[],"categories_segments":[],"categories_sizes":[],"default_left":[1,0,0,1,1,0,1,0,0,0,0,0,0],"id":65,"left_children":[1,3,5,7,9,-1,11,-1,-1,-1,-1,-1,-1],"loss_changes":[8.0031185E0,6.0197754E0,8.606017E0,1.3280387E0,3.3049412E0,0E0,5.1587534E0,0E0,0E0,0E0,0E0,0E0,0E0],"parents":[2147483647,0,0,1,1,2,2,3,3,4,4,6,6],"right_children":[2,4,6,8,10,-1,12,-1,-1,-1,-1,-1,-1],"split_conditions":[3.5186052E-2,1.192905E-1,1.3104555E-1,7.180874E-2,1.4791594E-1,-5.590802E-1,1.7706323E-1,-1.1685702E-1,1.18136875E-1,1.3484654E-1,-2.2574244E-1,3.42714E-2,-1.6345283E-1],"split_indices":[3669,2788,3967,3643,4119,0,2367,0,0,0,0,0,0],"split_type":[0,0,0,0,0,0,0,0,0,0,0,0,0],"sum_hessian":[5.3545026E2,1.4349066E2,3.919596E2,1.3714275E1,1.2977638E2,1.3388456E0,3.9062076E2,1.1848621E1,1.865654E0,1.2823616E2,1.5402273E0,3.7891452E2,1.1706216E1],"tree_param":{"num_deleted":"0","num_feature":"5000","num_nodes":"13","size_leaf_vector":"1"}},{"base_weights":[-2.2736955E-1,4.9376205E-2,-3.9684695E-1,-1.740626E-2,3.2867584E-1,2.4492589E-1,-4.3563E-1,-8.466162E-2,8.323094E-2,2.1139856E-1,-1.4101915E-1],"categories":[],"categories_nodes":[],"categories_segments":[],"categories_sizes":[],"default_left":[1,1,0,1,0,0,0,0,0,0,0],"id":66,"left_children":[1,3,5,7,-1,-1,9,-1,-1,-1,-1],"loss_changes":[5.486687E0,3.1199021E0,3.7191095E0,3.352903E0,0E0,0E0,2.455947E0,0E0,0E0,0E0,0E0],"parents":[2147483647,0,0,1,1,2,2,3,3,6,6],"right_children":[2,4,6,8,-1,-1,10,-1,-1,-1,-1],"split_conditions":[2.8868452E-2,1.0138039E-1,1.5885033E-1,3.750443E-2,3.2867584E-1,2.4492589E-1,4.4687814E-1,-8.466162E-2,8.323094E-2,2.1139856E-1,-1.4101915E-1],"split_indices":[3418,2463,2418,2692,0,0,4707,0,0,0,0],"split_type":[0,0,0,0,0,0,0,0,0,0,0],"sum_hessian":[1.1556378E2,4.416075E1,7.140303E1,4.2390648E1,1.7701043E0,1.6186565E0,6.978437E1,2.2378239E1,2.0012407E1,1.0375082E0,6.8746864E1],"tree_param":{"num_deleted":"0","num_feature":"5000","num_nodes":"11","size_leaf_vector":"1"}},{"base_weights":[-2.625207E-1,8.303197E-2,-3.8666418E-1,-1.2785771E-1,1.8631545E-1,-4.3183511E-1,1.267922E-1,9.0195686E-2,-9.866513E-2,8.3427E-2,-1.4331083E-1,1.4347608E-1,-3.0617591E-2],"categories":[],"categories_nodes":[],"categories_segments":[],"categories_sizes":[],"default_left":[0,0,1,0,1,0,0,0,0,0,0,0,0],"id":67,"left_children":[1,3,5,-1,7,9,11,-1,-1,-1,-1,-1,-1],"loss_changes":[4.780469E0,1.6383917E0,1.947566E0,0E0,1.5258336E0,2.1471376E0,6.2271035E-1,0E0,0E0,0E0,0E0,0E0,0E0],"parents":[2147483647,0,0,1,1,2,2,4,4,5,5,6,6],"right_children":[2,4,6,-1,8,10,12,-1,-1,-1,-1,-1,-1],"split_conditions":[1.4961427E-1,1.06468804E-1,1.5885033E-1,-1.2785771E-1,5.737766E-2,1.2638848E-1,5.1139392E-2,9.0195686E-2,-9.866513E-2,8.3427E-2,-1.4331083E-1,1.4347608E-1,-3.0617591E-2],"split_indices":[2788,505,2439,0,3968,3401,54,0,0,0,0,0,0],"split_type":[0,0,0,0,0,0,0,0,0,0,0,0,0],"sum_hessian":[1.0968935E2,2.9079073E1,8.0610275E1,4.438269E0,2.4640804E1,7.423819E1,6.3720846E0,2.06328E1,4.008004E0,3.4816387E0,7.0756546E1,2.109955E0,4.2621293E0],"tree_param":{"num_deleted":"0","num_feature":"5000","num_nodes":"13","size_leaf_vector":"1"}},{"base_weights":[-3.9895085E-1,-4.697835E-2,-4.83714E-1,1.2038932E-1,-1.2750371E-1,-1.518958E-1,7.424874E-2,-2.0827029E-2,2.0551836E-1],"categories":[],"categories_nodes":[],"categories_segments":[],"categories_sizes":[],"default_left":[1,1,1,1,0,0,0,0,0],"id":68,"left_children":[1,3,5,7,-1,-1,-1,-1,-1],"loss_changes":[2.5428743E0,1.1556501E0,8.410206E-1,1.4078513E0,0E0,0E0,0E0,0E0,0E0],"parents":[2147483647,0,0,1,1,2,2,3,3],"right_children":[2,4,6,8,-1,-1,-1,-1,-1],"split_conditions":[2.4301777E-2,2.5737746E-2,1.3015653E-1,3.1217521E-2,-1.2750371E-1,-1.518958E-1,7.424874E-2,-2.0827029E-2,2.0551836E-1],"split_indices":[308,4374,3948,2442,0,0,0,0,0],"split_type":[0,0,0,0,0,0,0,0,0],"sum_hessian":[8.4994934E1,1.679776E1,6.819718E1,1.2041887E1,4.755872E0,6.7190475E1,1.0067028E0,9.63412E0,2.4077678E0],"tree_param":{"num_deleted":"0","num_feature":"5000","num_nodes":"9","size_leaf_vector":"1"}},{"base_weights":[2.1826046E-2,-2.933724E-1,9.229501E-2,5.129386E-1,-3.538615E-1,1.4707643E-2,4.123672E-1,-9.2928424E-2,3.1429267E-1,-1.2878858E-1,1.1577914E-1,-4.5636315E-2,7.314117E-2,4.5217577E-1,8.750394E-2],"categories":[],"categories_nodes":[],"categories_segments":[],"categories_sizes":[],"default_left":[1,0,0,1,1,1,0,0,0,0,0,0,0,0,0],"id":69,"left_children":[1,3,5,7,9,11,13,-1,-1,-1,-1,-1,-1,-1,-1],"loss_changes":[6.616225E0,2.8368812E0,6.0336704E0,2.0943584E0,2.730599E0,7.3155937E0,5.9413223E0,0E0,0E0,0E0,0E0,0E0,0E0,0E0,0E0],"parents":[2147483647,0,0,1,1,2,2,3,3,4,4,5,5,6,6],"right_children":[2,4,6,8,10,12,14,-1,-1,-1,-1,-1,-1,-1,-1],"split_conditions":[3.541733E-2,3.859673E-2,6.9836974E-2,4.309261E-2,9.574683E-2,8.5076205E-2,8.064162E-2,-9.2928424E-2,3.1429267E-1,-1.2878858E-1,1.1577914E-1,-4.5636315E-2,7.314117E-2,4.5217577E-1,8.750394E-2],"split_indices":[3669,2742,4340,2481,2722,3952,4213,0,0,0,0,0,0,0,0],"split_type":[0,0,0,0,0,0,0,0,0,0,0,0,0,0,0],"sum_hessian":[2.95652E2,5.3443428E1,2.4220857E2,3.2075405E0,5.0235886E1,1.9579312E2,4.6415447E1,1.4027187E0,1.8048218E0,4.633904E1,3.8968496E0,1.1336545E2,8.242767E1,3.7357461E0,4.2679703E1],"tree_param":{"num_deleted":"0","num_feature":"5000","num_nodes":"15","size_leaf_vector":"1"}},{"base_weights":[1.2383455E-1,6.305319E-2,3.536229E-1,3.3947997E-2,1.6004713E-1,4.3984357E-1,-1.4520013E-2,-4.3751732E-3,1.04222186E-1,1.4613932E-1,-1.4399675E-1,-1.620695E-1,8.423827E-2],"categories":[],"categories_nodes":[],"categories_segments":[],"categories_sizes":[],"default_left":[0,0,0,1,0,1,0,0,0,0,0,0,0],"id":70,"left_children":[1,3,5,7,-1,9,11,-1,-1,-1,-1,-1,-1],"loss_changes":[6.7730093E0,5.168779E0,3.2299137E0,5.4172726E0,0E0,3.1765728E0,3.1878378E0,0E0,0E0,0E0,0E0,0E0,0E0],"parents":[2147483647,0,0,1,1,2,2,3,3,5,5,6,6],"right_children":[2,4,6,8,-1,10,12,-1,-1,-1,-1,-1,-1],"split_conditions":[7.454787E-2,5.650043E-2,5.0454915E-2,5.8258448E-2,1.6004713E-1,1.28444E-1,7.495818E-2,-4.3751732E-3,1.04222186E-1,1.4613932E-1,-1.4399675E-1,-1.620695E-1,8.423827E-2],"split_indices":[3669,2378,4469,1732,0,2439,1227,0,0,0,0,0,0],"split_type":[0,0,0,0,0,0,0,0,0,0,0,0,0],"sum_hessian":[4.8553104E2,3.849755E2,1.0055554E2,3.6315558E2,2.1819923E1,8.1316185E1,1.9239359E1,3.1472403E2,4.843155E1,7.841158E1,2.9046025E0,6.6278505E0,1.2611508E1],"tree_param":{"num_deleted":"0","num_feature":"5000","num_nodes":"13","size_leaf_vector":"1"}},{"base_weights":[-2.0624729E-1,7.5026885E-2,-3.8487586E-1,-4.9405727E-3,9.2758363E-1,2.217165E-1,-4.2158753E-1,2.9770058E-1,-2.4737503E-2,3.8312486E-1,4.474318E-2,5.1800635E-2,-1.3662638E-1],"categories":[],"categories_nodes":[],"categories_segments":[],"categories_sizes":[],"default_left":[0,1,0,0,1,0,0,0,0,0,0,0,0],"id":71,"left_children":[1,3,5,7,9,-1,11,-1,-1,-1,-1,-1,-1],"loss_changes":[5.217521E0,2.7962432E0,2.8910732E0,2.9506843E0,7.1800137E-1,0E0,1.041872E0,0E0,0E0,0E0,0E0,0E0,0E0],"parents":[2147483647,0,0,1,1,2,2,3,3,4,4,6,6],"right_children":[2,4,6,8,10,-1,12,-1,-1,-1,-1,-1,-1],"split_conditions":[5.4390386E-2,1.2324785E-1,1.1692127E-1,1.0848498E-1,3.0646386E-2,2.217165E-1,1.0159704E-1,2.9770058E-1,-2.4737503E-2,3.8312486E-1,4.474318E-2,5.1800635E-2,-1.3662638E-1],"split_indices":[1287,2418,2325,2463,721,0,1506,0,0,0,0,0,0],"split_type":[0,0,0,0,0,0,0,0,0,0,0,0,0],"sum_hessian":[1.0226976E2,3.9947365E1,6.2322395E1,3.743068E1,2.5166886E0,1.3911134E0,6.093128E1,1.845527E0,3.558515E1,1.3429931E0,1.1736954E0,2.3683522E0,5.8562927E1],"tree_param":{"num_deleted":"0","num_feature":"5000","num_nodes":"13","size_leaf_vector":"1"}},{"base_weights":[-2.5667167E-1,5.36707E-2,-3.64162E-1,-7.355682E-2,1.6710772E-1,2.830194E-1,-4.009591E-1,7.473128E-2,-1.120958E-1,3.0271968E-1,-1.0523231E-1,-1.3899809E-1,3.788457E-2],"categories":[],"categories_nodes":[],"categories_segments":[],"categories_sizes":[],"default_left":[0,1,0,0,0,1,1,0,0,0,0,0,0],"id":72,"left_children":[1,3,5,7,-1,9,11,-1,-1,-1,-1,-1,-1],"loss_changes":[3.21308E0,1.6436796E0,1.8098593E0,2.0718014E0,0E0,2.3113134E0,2.0072918E0,0E0,0E0,0E0,0E0,0E0,0E0],"parents":[2147483647,0,0,1,1,2,2,3,3,5,5,6,6],"right_children":[2,4,6,8,-1,10,12,-1,-1,-1,-1,-1,-1],"split_conditions":[1.3037288E-1,3.6283966E-2,1.278569E-1,3.1230291E-2,1.6710772E-1,2.7013466E-2,1.5885033E-1,7.473128E-2,-1.120958E-1,3.0271968E-1,-1.0523231E-1,-1.3899809E-1,3.788457E-2],"split_indices":[2788,2352,1159,2081,0,2108,2439,0,0,0,0,0,0],"split_type":[0,0,0,0,0,0,0,0,0,0,0,0,0],"sum_hessian":[9.473288E1,2.4499496E1,7.023338E1,2.016071E1,4.3387876E0,3.418473E0,6.681491E1,9.755323E0,1.0405386E1,1.3326398E0,2.0858333E0,6.0624355E1,6.1905556E0],"tree_param":{"num_deleted":"0","num_feature":"5000","num_nodes":"13","size_leaf_vector":"1"}},{"base_weights":[-3.7493286E-1,1.1287988E-1,-4.5146313E-1,3.945363E-1,-1.4876734E-1,1.3276613E-1,-4.7907346E-1,1.9542319E-1,-1.2920623E-3,9.5678896E-2,-1.2364811E-1,-8.40064E-2,1.3785729E-1,-1.5114509E-1,7.478911E-2],"categories":[],"categories_nodes":[],"categories_segments":[],"categories_sizes":[],"default_left":[0,0,0,0,0,0,1,0,0,0,0,0,0,0,0],"id":73,"left_children":[1,3,5,7,9,11,13,-1,-1,-1,-1,-1,-1,-1,-1],"loss_changes":[2.7410212E0,8.3776283E-1,1.0715408E0,5.294229E-1,8.638182E-1,5.939566E-1,8.3646584E-1,0E0,0E0,0E0,0E0,0E0,0E0,0E0,0E0],"parents":[2147483647,0,0,1,1,2,2,3,3,4,4,5,5,6,6],"right_children":[2,4,6,8,10,12,14,-1,-1,-1,-1,-1,-1,-1,-1],"split_conditions":[1.3368846E-1,4.159635E-2,1.1727004E-1,5.1452953E-2,7.0852906E-2,2.8345475E-2,1.3024235E-1,1.9542319E-1,-1.2920623E-3,9.5678896E-2,-1.2364811E-1,-8.40064E-2,1.3785729E-1,-1.5114509E-1,7.478911E-2],"split_indices":[2788,2442,3725,4467,175,1202,3948,0,0,0,0,0,0,0,0],"split_type":[0,0,0,0,0,0,0,0,0,0,0,0,0,0,0],"sum_hessian":[7.1056915E1,9.571582E0,6.1485332E1,4.3649416E0,5.2066402E0,2.602766E0,5.888257E1,2.3236187E0,2.0413232E0,1.7788053E0,3.4278347E0,1.2024137E0,1.4003524E0,5.7881035E1,1.0015321E0],"tree_param":{"num_deleted":"0","num_feature":"5000","num_nodes":"15","size_leaf_vector":"1"}},{"base_weights":[4.608294E-2,-3.6834773E-1,9.992523E-2,2.5867203E-1,-1.5324542E-1,6.9374725E-2,7.866058E-1,1.9669202E-1,-1.09871276E-1,3.023086E-2,-1.520091E-1,3.767556E-2,4.333832E-1],"categories":[],"categories_nodes":[],"categories_segments":[],"categories_sizes":[],"default_left":[1,1,1,0,0,1,0,0,0,0,0,0,0],"id":74,"left_children":[1,3,5,7,-1,9,11,-1,-1,-1,-1,-1,-1],"loss_changes":[6.6105604E0,2.9960423E0,5.431635E0,1.825645E0,0E0,4.2960267E0,4.469059E0,0E0,0E0,0E0,0E0,0E0,0E0],"parents":[2147483647,0,0,1,1,2,2,3,3,5,5,6,6],"right_children":[2,4,6,8,-1,10,12,-1,-1,-1,-1,-1,-1],"split_conditions":[2.9604051E-2,2.1400187E-2,8.9543834E-2,3.6457054E-2,-1.5324542E-1,7.784796E-2,9.3165025E-2,1.9669202E-1,-1.09871276E-1,3.023086E-2,-1.520091E-1,3.767556E-2,4.333832E-1],"split_indices":[4935,2578,1719,3628,0,459,310,0,0,0,0,0,0],"split_type":[0,0,0,0,0,0,0,0,0,0,0,0,0],"sum_hessian":[2.9360355E2,3.308707E1,2.6051648E2,5.665727E0,2.7421345E1,2.5047389E2,1.0042585E1,3.4628162E0,2.2029111E0,2.387901E2,1.168379E1,5.494125E0,4.54846E0],"tree_param":{"num_deleted":"0","num_feature":"5000","num_nodes":"13","size_leaf_vector":"1"}},{"base_weights":[9.465662E-2,2.8462914E-1,3.8362436E-2,3.1062108E-1,-3.0688208E-1,4.5761447E-3,4.164859E-1,1.13726504E-1,-4.1450705E-2,-1.427052E-2,8.700858E-2,1.3670614E-1,-7.2075136E-2],"categories":[],"categories_nodes":[],"categories_segments":[],"categories_sizes":[],"default_left":[0,1,1,1,0,0,1,0,0,0,0,0,0],"id":75,"left_children":[1,3,5,7,-1,9,11,-1,-1,-1,-1,-1,-1],"loss_changes":[4.8910723E0,3.8227034E0,4.530145E0,2.9227734E0,0E0,4.72315E0,7.08416E-1,0E0,0E0,0E0,0E0,0E0,0E0],"parents":[2147483647,0,0,1,1,2,2,3,3,5,5,6,6],"right_children":[2,4,6,8,-1,10,12,-1,-1,-1,-1,-1,-1],"split_conditions":[4.188481E-2,1.2948099E-1,6.524796E-2,1.221006E-1,-3.0688208E-1,5.3254496E-2,1.109729E-1,1.13726504E-1,-4.1450705E-2,-1.427052E-2,8.700858E-2,1.3670614E-1,-7.2075136E-2],"split_indices":[2274,624,1732,4023,0,1767,3643,0,0,0,0,0,0],"split_type":[0,0,0,0,0,0,0,0,0,0,0,0,0],"sum_hessian":[4.5737222E2,1.0362366E2,3.5374857E2,1.0232262E2,1.3010414E0,3.2566193E2,2.8086618E1,8.994746E1,1.2375163E1,2.759917E2,4.9670242E1,2.7083542E1,1.0030755E0],"tree_param":{"num_deleted":"0","num_feature":"5000","num_nodes":"13","size_leaf_vector":"1"}},{"base_weights":[-1.2539372E-1,1.6337615E-1,-3.2810387E-1,-1.361084E-1,2.8862482E-1,2.0036784E-1,-4.3058005E-1,1.9109881E-1,-1.0056027E-2,-8.600726E-2,2.0135139E-1,7.541874E-2,-1.3752373E-1],"categories":[],"categories_nodes":[],"categories_segments":[],"categories_sizes":[],"default_left":[0,0,0,0,1,1,0,0,0,0,0,0,0],"id":76,"left_children":[1,3,5,-1,7,9,11,-1,-1,-1,-1,-1,-1],"loss_changes":[5.520808E0,3.1211414E0,3.076138E0,0E0,3.6197457E0,2.3262484E0,7.527218E-1,0E0,0E0,0E0,0E0,0E0,0E0],"parents":[2147483647,0,0,1,1,2,2,4,4,5,5,6,6],"right_children":[2,4,6,-1,8,10,12,-1,-1,-1,-1,-1,-1],"split_conditions":[5.7964683E-2,4.2735115E-2,4.5963522E-2,-1.361084E-1,3.801447E-2,3.751464E-2,1.6984302E-1,1.9109881E-1,-1.0056027E-2,-8.600726E-2,2.0135139E-1,7.541874E-2,-1.3752373E-1],"split_indices":[4467,2442,1287,0,3926,3164,1235,0,0,0,0,0,0],"split_type":[0,0,0,0,0,0,0,0,0,0,0,0,0],"sum_hessian":[9.239806E1,3.8189465E1,5.42086E1,6.0719576E0,3.2117508E1,8.649207E0,4.555939E1,1.5198665E1,1.6918844E1,4.4097843E0,4.2394223E0,1.000743E0,4.455865E1],"tree_param":{"num_deleted":"0","num_feature":"5000","num_nodes":"13","size_leaf_vector":"1"}},{"base_weights":[-2.2640505E-1,-3.6613542E-1,5.8185987E-2,7.8542836E-2,-4.243196E-1,1.0823999E-1,-1.6281945E-1,-1.088849E-1,7.476197E-2,-1.407258E-1,9.7785085E-2,6.6095E-2,-6.186575E-2],"categories":[],"categories_nodes":[],"categories_segments":[],"categories_sizes":[],"default_left":[0,0,1,0,1,0,0,0,0,0,0,0,0],"id":77,"left_children":[1,3,5,7,9,11,-1,-1,-1,-1,-1,-1,-1],"loss_changes":[3.4300256E0,1.5243735E0,9.1982245E-1,6.325051E-1,1.5597429E0,9.770388E-1,0E0,0E0,0E0,0E0,0E0,0E0,0E0],"parents":[2147483647,0,0,1,1,2,2,3,3,4,4,5,5],"right_children":[2,4,6,8,10,12,-1,-1,-1,-1,-1,-1,-1],"split_conditions":[1.12790935E-1,1.8045476E-1,8.8210166E-2,6.2255908E-2,1.1537003E-1,3.5806376E-2,-1.6281945E-1,-1.088849E-1,7.476197E-2,-1.407258E-1,9.7785085E-2,6.6095E-2,-6.186575E-2],"split_indices":[4469,2418,1204,4603,1159,4653,0,0,0,0,0,0,0],"split_type":[0,0,0,0,0,0,0,0,0,0,0,0,0],"sum_hessian":[8.4719475E1,5.6628906E1,2.8090565E1,6.511815E0,5.0117092E1,2.665418E1,1.4363841E0,1.4852604E0,5.0265546E0,4.81035E1,2.013594E0,1.9988195E1,6.665984E0],"tree_param":{"num_deleted":"0","num_feature":"5000","num_nodes":"13","size_leaf_vector":"1"}},{"base_weights":[-3.4844097E-1,4.0784568E-2,-4.7131646E-1,2.704672E-1,-2.2869548E-1,-1.5020975E-1,7.497867E-2,-9.707754E-2,1.353727E-1,7.883171E-2,-1.0412384E-1],"categories":[],"categories_nodes":[],"categories_segments":[],"categories_sizes":[],"default_left":[1,0,1,0,0,0,0,0,0,0,0],"id":78,"left_children":[1,3,5,7,9,-1,-1,-1,-1,-1,-1],"loss_changes":[2.9401522E0,1.0258441E0,8.271723E-1,1.046318E0,5.1142263E-1,0E0,0E0,0E0,0E0,0E0,0E0],"parents":[2147483647,0,0,1,1,2,2,3,3,4,4],"right_children":[2,4,6,8,10,-1,-1,-1,-1,-1,-1],"split_conditions":[2.2433685E-2,5.949226E-2,1.10016964E-1,5.5952225E-2,7.2156504E-2,-1.5020975E-1,7.497867E-2,-9.707754E-2,1.353727E-1,7.883171E-2,-1.0412384E-1],"split_indices":[987,4467,624,4273,505,0,0,0,0,0,0],"split_type":[0,0,0,0,0,0,0,0,0,0,0],"sum_hessian":[6.007373E1,1.4574623E1,4.5499107E1,7.866339E0,6.7082834E0,4.449851E1,1.0006018E0,1.5993799E0,6.266959E0,1.0172703E0,5.6910133E0],"tree_param":{"num_deleted":"0","num_feature":"5000","num_nodes":"11","size_leaf_vector":"1"}},{"base_weights":[2.9457025E-2,-3.5491127E-1,7.2453514E-2,1.5107301E-1,-4.3968132E-1,1.23376876E-1,-2.4602255E-1,6.845646E-2,-1.4461938E-1,2.6395932E-2,2.2669365E-1,-9.719799E-2,3.333412E-1],"categories":[],"categories_nodes":[],"categories_segments":[],"categories_sizes":[],"default_left":[1,0,1,0,0,1,1,0,0,0,0,0,0],"id":79,"left_children":[1,3,5,-1,7,9,11,-1,-1,-1,-1,-1,-1],"loss_changes":[4.7796392E0,2.3158677E0,4.2396183E0,0E0,7.247267E-1,5.059888E0,3.8616545E0,0E0,0E0,0E0,0E0,0E0,0E0],"parents":[2147483647,0,0,1,1,2,2,4,4,5,5,6,6],"right_children":[2,4,6,-1,8,10,12,-1,-1,-1,-1,-1,-1],"split_conditions":[2.7146695E-2,9.438729E-2,7.754373E-2,1.5107301E-1,1.6680413E-1,1.1392442E-1,1.0735788E-1,6.845646E-2,-1.4461938E-1,2.6395932E-2,2.2669365E-1,-9.719799E-2,3.333412E-1],"split_indices":[1767,4507,2875,0,3000,1475,1719,0,0,0,0,0,0],"split_type":[0,0,0,0,0,0,0,0,0,0,0,0,0],"sum_hessian":[2.8665488E2,2.8110035E1,2.5854486E2,2.109446E0,2.600059E1,2.2343144E2,3.511341E1,1.0113647E0,2.4989223E1,2.1197563E2,1.14558115E1,3.402879E1,1.0846211E0],"tree_param":{"num_deleted":"0","num_feature":"5000","num_nodes":"13","size_leaf_vector":"1"}},{"base_weights":[8.044085E-2,5.436469E-2,4.702497E-1,2.558101E-1,-9.049242E-3,-7.223221E-2,1.6308892E-1,9.037197E-2,-2.9218125E-1,-3.9503077E-1,1.68012E-3],"categories":[],"categories_nodes":[],"categories_segments":[],"categories_sizes":[],"default_left":[1,1,0,1,0,0,0,0,0,0,0],"id":80,"left_children":[1,3,5,7,9,-1,-1,-1,-1,-1,-1],"loss_changes":[4.3479624E0,5.1685357E0,1.350429E0,5.044392E0,5.784333E0,0E0,0E0,0E0,0E0,0E0,0E0],"parents":[2147483647,0,0,1,1,2,2,3,3,4,4],"right_children":[2,4,6,8,10,-1,-1,-1,-1,-1,-1],"split_conditions":[8.5372135E-2,3.620033E-2,7.2015345E-2,1.5392439E-1,1.0683269E-1,-7.223221E-2,1.6308892E-1,9.037197E-2,-2.9218125E-1,-3.9503077E-1,1.68012E-3],"split_indices":[2816,3164,2844,3160,148,0,0,0,0,0,0],"split_type":[0,0,0,0,0,0,0,0,0,0,0],"sum_hessian":[4.2926547E2,4.034184E2,2.5847101E1,9.586201E1,3.0755637E2,1.9363143E0,2.3910788E1,9.34988E1,2.363206E0,2.4577153E0,3.0509866E2],"tree_param":{"num_deleted":"0","num_feature":"5000","num_nodes":"11","size_leaf_vector":"1"}},{"base_weights":[-1.0267752E-1,1.5533926E-1,-3.3667582E-1,8.677918E-2,3.2012612E-1,3.6175635E-1,-4.1393977E-1,7.465623E-2,-1.1137116E-1,-2.6062414E-2,2.2549953E-1,4.275193E-2,-1.393773E-1],"categories":[],"categories_nodes":[],"categories_segments":[],"categories_sizes":[],"default_left":[0,1,0,1,0,0,0,0,0,0,0,0,0],"id":81,"left_children":[1,3,5,7,-1,9,11,-1,-1,-1,-1,-1,-1],"loss_changes":[5.235326E0,2.4540362E0,2.5961518E0,2.9202428E0,0E0,9.157827E-1,1.0485435E0,0E0,0E0,0E0,0E0,0E0,0E0],"parents":[2147483647,0,0,1,1,2,2,3,3,5,5,6,6],"right_children":[2,4,6,8,-1,10,12,-1,-1,-1,-1,-1,-1],"split_conditions":[4.9015317E-2,9.820083E-2,3.0907268E-2,2.996611E-2,3.2012612E-1,2.416364E-2,1.2195905E-1,7.465623E-2,-1.1137116E-1,-2.6062414E-2,2.2549953E-1,4.275193E-2,-1.393773E-1],"split_indices":[3283,2444,4165,1710,0,1656,265,0,0,0,0,0,0],"split_type":[0,0,0,0,0,0,0,0,0,0,0,0,0],"sum_hessian":[8.4846535E1,4.0512184E1,4.4334354E1,3.8646317E1,1.8658676E0,4.0492086E0,4.0285145E1,2.8975006E1,9.67131E0,2.2079008E0,1.8413076E0,2.7405958E0,3.7544548E1],"tree_param":{"num_deleted":"0","num_feature":"5000","num_nodes":"13","size_leaf_vector":"1"}},{"base_weights":[-1.8862866E-1,8.8994026E-2,-3.230566E-1,-2.2243306E-2,5.3082985E-1,1.7732194E-1,-3.5791177E-1,5.9902374E-2,-9.577202E-2,2.1720304E-1,2.2931527E-3,-1.2960261E-1,3.2803167E-2],"categories":[],"categories_nodes":[],"categories_segments":[],"categories_sizes":[],"default_left":[0,1,0,0,1,0,1,0,0,0,0,0,0],"id":82,"left_children":[1,3,5,7,9,-1,11,-1,-1,-1,-1,-1,-1],"loss_changes":[2.8879604E0,1.2787755E0,1.8421364E0,1.4366153E0,4.9039602E-1,0E0,1.62188E0,0E0,0E0,0E0,0E0,0E0,0E0],"parents":[2147483647,0,0,1,1,2,2,3,3,4,4,6,6],"right_children":[2,4,6,8,10,-1,12,-1,-1,-1,-1,-1,-1],"split_conditions":[1.4961427E-1,3.3532005E-2,7.86839E-2,2.3625625E-2,3.691126E-2,1.7732194E-1,1.5885033E-1,5.9902374E-2,-9.577202E-2,2.1720304E-1,2.2931527E-3,-1.2960261E-1,3.2803167E-2],"split_indices":[2788,1497,3897,3715,156,0,2439,0,0,0,0,0,0],"split_type":[0,0,0,0,0,0,0,0,0,0,0,0,0],"sum_hessian":[7.561283E1,2.4778294E1,5.0834538E1,2.0553394E1,4.2249002E0,1.3045067E0,4.953003E1,1.1935727E1,8.617667E0,2.869775E0,1.355125E0,4.3372574E1,6.157455E0],"tree_param":{"num_deleted":"0","num_feature":"5000","num_nodes":"13","size_leaf_vector":"1"}},{"base_weights":[-3.4060457E-1,1.1424697E-2,-4.6506068E-1,4.465898E-1,-1.3462989E-1,7.427864E-2,-1.4942108E-1,-2.4355542E-2,2.7510184E-1,6.379566E-2,-1.3316494E-1],"categories":[],"categories_nodes":[],"categories_segments":[],"categories_sizes":[],"default_left":[1,0,0,0,0,0,0,0,0,0,0],"id":83,"left_children":[1,3,5,7,9,-1,-1,-1,-1,-1,-1],"loss_changes":[2.3392138E0,1.0065067E0,8.1259346E-1,1.0245755E0,1.3284976E0,0E0,0E0,0E0,0E0,0E0,0E0],"parents":[2147483647,0,0,1,1,2,2,3,3,4,4],"right_children":[2,4,6,8,10,-1,-1,-1,-1,-1,-1],"split_conditions":[2.2433685E-2,7.09966E-2,1.4100645E-1,4.7386937E-2,2.971077E-2,7.427864E-2,-1.4942108E-1,-2.4355542E-2,2.7510184E-1,6.379566E-2,-1.3316494E-1],"split_indices":[987,2844,4283,855,1727,0,0,0,0,0,0],"split_type":[0,0,0,0,0,0,0,0,0,0,0],"sum_hessian":[5.2270596E1,1.3890091E1,3.8380505E1,2.9733617E0,1.0916729E1,1.0019221E0,3.7378582E1,1.7615607E0,1.2118009E0,5.2486067E0,5.668123E0],"tree_param":{"num_deleted":"0","num_feature":"5000","num_nodes":"11","size_leaf_vector":"1"}},{"base_weights":[4.0731188E-2,-3.589315E-1,8.3479054E-2,2.1578339E-1,-1.5060575E-1,1.1946494E-1,-4.1239017E-1,-4.9246293E-2,2.1275823E-1,2.5467796E-2,2.667294E-1,1.183425E-1,-1.6125512E-1],"categories":[],"categories_nodes":[],"categories_segments":[],"categories_sizes":[],"default_left":[1,1,1,1,0,1,0,0,0,0,0,0,0],"id":84,"left_children":[1,3,5,7,-1,9,11,-1,-1,-1,-1,-1,-1],"loss_changes":[4.765824E0,2.1970856E0,4.5322084E0,1.1708333E0,0E0,6.308446E0,1.8085582E0,0E0,0E0,0E0,0E0,0E0,0E0],