{"learner":{"attributes":{},"feature_names":[],"feature_types":[],"gradient_booster":{"model":{"gbtree_model_param":{"num_parallel_tree":"1","num_trees":"1150"},"iteration_indptr":[0,5,10,15,20,25,30,35,40,45,50,55,60,65,70,75,80,85,90,95,100,105,110,115,120,125,130,135,140,145,150,155,160,165,170,175,180,185,190,195,200,205,210,215,220,225,230,235,240,245,250,255,260,265,270,275,280,285,290,295,300,305,310,315,320,325,330,335,340,345,350,355,360,365,370,375,380,385,390,395,400,405,410,415,420,425,430,435,440,445,450,455,460,465,470,475,480,485,490,495,500,505,510,515,520,525,530,535,540,545,550,555,560,565,570,575,580,585,590,595,600,605,610,615,620,625,630,635,640,645,650,655,660,665,670,675,680,685,690,695,700,705,710,715,720,725,730,735,740,745,750,755,760,765,770,775,780,785,790,795,800,805,810,815,820,825,830,835,840,845,850,855,860,865,870,875,880,885,890,895,900,905,910,915,920,925,930,935,940,945,950,955,960,965,970,975,980,985,990,995,1000,1005,1010,1015,1020,1025,1030,1035,1040,1045,1050,1055,1060,1065,1070,1075,1080,1085,1090,1095,1100,1105,1110,1115,1120,1125,1130,1135,1140,1145,1150],"tree_info":[0,1,2,3,4,0,1,2,3,4,0,1,2,3,4,0,1,2,3,4,0,1,2,3,4,0,1,2,3,4,0,1,2,3,4,0,1,2,3,4,0,1,2,3,4,0,1,2,3,4,0,1,2,3,4,0,1,2,3,4,0,1,2,3,4,0,1,2,3,4,0,1,2,3,4,0,1,2,3,4,0,1,2,3,4,0,1,2,3,4,0,1,2,3,4,0,1,2,3,4,0,1,2,3,4,0,1,2,3,4,0,1,2,3,4,0,1,2,3,4,0,1,2,3,4,0,1,2,3,4,0,1,2,3,4,0,1,2,3,4,0,1,2,3,4,0,1,2,3,4,0,1,2,3,4,0,1,2,3,4,0,1,2,3,4,0,1,2,3,4,0,1,2,3,4,0,1,2,3,4,0,1,2,3,4,0,1,2,3,4,0,1,2,3,4,0,1,2,3,4,0,1,2,3,4,0,1,2,3,4,0,1,2,3,4,0,1,2,3,4,0,1,2,3,4,0,1,2,3,4,0,1,2,3,4,0,1,2,3,4,0,1,2,3,4,0,1,2,3,4,0,1,2,3,4,0,1,2,3,4,0,1,2,3,4,0,1,2,3,4,0,1,2,3,4,0,1,2,3,4,0,1,2,3,4,0,1,2,3,4,0,1,2,3,4,0,1,2,3,4,0,1,2,3,4,0,1,2,3,4,0,1,2,3,4,0,1,2,3,4,0,1,2,3,4,0,1,2,3,4,0,1,2,3,4,0,1,2,3,4,0,1,2,3,4,0,1,2,3,4,0,1,2,3,4,0,1,2,3,4,0,1,2,3,4,0,1,2,3,4,0,1,2,3,4,0,1,2,3,4,0,1,2,3,4,0,1,2,3,4,0,1,2,3,4,0,1,2,3,4,0,1,2,3,4,0,1,2,3,4,0,1,2,3,4,0,1,2,3,4,0,1,2,3,4,0,1,2,3,4,0,1,2,3,4,0,1,2,3,4,0,1,2,3,4,0,1,2,3,4,0,1,2,3,4,0,1,2,3,4,0,1,2,3,4,0,1,2,3,4,0,1,2,3,4,0,1,2,3,4,0,1,2,3,4,0,1,2,3,4,0,1,2,3,4,0,1,2,3,4,0,1,2,3,4,0,1,2,3,4,0,1,2,3,4,0,1,2,3,4,0,1,2,3,4,0,1,2,3,4,0,1,2,3,4,0,1,2,3,4,0,1,2,3,4,0,1,2,3,4,0,1,2,3,4,0,1,2,3,4,0,1,2,3,4,0,1,2,3,4,0,1,2,3,4,0,1,2,3,4,0,1,2,3,4,0,1,2,3,4,0,1,2,3,4,0,1,2,3,4,0,1,2,3,4,0,1,2,3,4,0,1,2,3,4,0,1,2,3,4,0,1,2,3,4,0,1,2,3,4,0,1,2,3,4,0,1,2,3,4,0,1,2,3,4,0,1,2,3,4,0,1,2,3,4,0,1,2,3,4,0,1,2,3,4,0,1,2,3,4,0,1,2,3,4,0,1,2,3,4,0,1,2,3,4,0,1,2,3,4,0,1,2,3,4,0,1,2,3,4,0,1,2,3,4,0,1,2,3,4,0,1,2,3,4,0,1,2,3,4,0,1,2,3,4,0,1,2,3,4,0,1,2,3,4,0,1,2,3,4,0,1,2,3,4,0,1,2,3,4,0,1,2,3,4,0,1,2,3,4,0,1,2,3,4,0,1,2,3,4,0,1,2,3,4,0,1,2,3,4,0,1,2,3,4,0,1,2,3,4,0,1,2,3,4,0,1,2,3,4,0,1,2,3,4,0,1,2,3,4,0,1,2,3,4,0,1,2,3,4,0,1,2,3,4,0,1,2,3,4,0,1,2,3,4,0,1,2,3,4,0,1,2,3,4,0,1,2,3,4,0,1,2,3,4,0,1,2,3,4,0,1,2,3,4,0,1,2,3,4,0,1,2,3,4,0,1,2,3,4,0,1,2,3,4,0,1,2,3,4,0,1,2,3,4,0,1,2,3,4,0,1,2,3,4,0,1,2,3,4,0,1,2,3,4,0,1,2,3,4,0,1,2,3,4,0,1,2,3,4,0,1,2,3,4,0,1,2,3,4,0,1,2,3,4,0,1,2,3,4,0,1,2,3,4,0,1,2,3,4,0,1,2,3,4,0,1,2,3,4,0,1,2,3,4,0,1,2,3,4,0,1,2,3,4,0,1,2,3,4,0,1,2,3,4,0,1,2,3,4,0,1,2,3,4,0,1,2,3,4,0,1,2,3,4,0,1,2,3,4,0,1,2,3,4,0,1,2,3,4,0,1,2,3,4,0,1,2,3,4,0,1,2,3,4,0,1,2,3,4,0,1,2,3,4,0,1,2,3,4,0,1,2,3,4,0,1,2,3,4,0,1,2,3,4,0,1,2,3,4,0,1,2,3,4,0,1,2,3,4,0,1,2,3,4,0,1,2,3,4,0,1,2,3,4,0,1,2,3,4,0,1,2,3,4,0,1,2,3,4,0,1,2,3,4,0,1,2,3,4,0,1,2,3,4,0,1,2,3,4,0,1,2,3,4,0,1,2,3,4],"trees":[{"base_weights":[1.5497555E0,7.035377E-1,2.1315897E0,1.375934E0,4.667928E-1,1.0866696E0,2.2510676E0,4.9196953E-1,2.0393313E-1,4.779202E-2,2.2678417E-1,5.7655955E-3,4.2413792E-1,-1.7148593E-1,6.968048E-1],"categories":[],"categories_nodes":[],"categories_segments":[],"categories_sizes":[],"default_left":[1,0,0,1,1,0,0,0,0,0,0,0,0,0,0],"id":0,"left_children":[1,3,5,7,9,11,13,-1,-1,-1,-1,-1,-1,-1,-1],"loss_changes":[7.1949023E2,9.457031E1,1.0582446E2,2.4953278E1,3.79787E1,2.9481255E1,7.462793E1,0E0,0E0,0E0,0E0,0E0,0E0,0E0,0E0],"parents":[2147483647,0,0,1,1,2,2,3,3,4,4,5,5,6,6],"right_children":[2,4,6,8,10,12,14,-1,-1,-1,-1,-1,-1,-1,-1],"split_conditions":[3.331898E-2,7.5494535E-2,9.707297E-2,7.560038E-2,3.6558375E-2,5.2084196E-2,3.4901425E-1,4.9196953E-1,2.0393313E-1,4.779202E-2,2.2678417E-1,5.7655955E-3,4.2413792E-1,-1.7148593E-1,6.968048E-1],"split_indices":[2979,2150,3968,2908,4984,3728,490,0,0,0,0,0,0,0,0],"split_type":[0,0,0,0,0,0,0,0,0,0,0,0,0,0,0],"sum_hessian":[1.4633601E3,5.9712006E2,8.6624005E2,1.5424E2,4.4288004E2,8.9920006E1,7.7632007E2,1.14560005E2,3.9680004E1,2.0960002E2,2.3328001E2,2.0160002E1,6.976E1,8.960001E0,7.6736005E2],"tree_param":{"num_deleted":"0","num_feature":"5000","num_nodes":"15","size_leaf_vector":"1"}},{"base_weights":[-5.112016E-1,-6.2068737E-1,-4.335968E-1,-6.2232465E-1,2.6754387E-2,-4.3896222E-1,3.969178E-1,-1.9030999E-1,-3.765432E-2,-1.3521434E-1,4.280702E-1],"categories":[],"categories_nodes":[],"categories_segments":[],"categories_sizes":[],"default_left":[0,1,1,1,0,1,0,0,0,0,0],"id":1,"left_children":[1,3,5,7,-1,9,-1,-1,-1,-1,-1],"loss_changes":[1.2246429E1,7.6057434E-1,8.626358E0,4.206848E-1,0E0,7.5636597E0,0E0,0E0,0E0,0E0,0E0],"parents":[2147483647,0,0,1,1,2,2,3,3,5,5],"right_children":[2,4,6,8,-1,10,-1,-1,-1,-1,-1],"split_conditions":[1.9374628E-1,1.8595615E-1,1.7897071E-1,1.9943383E-1,2.6754387E-2,1.5679288E-1,3.969178E-1,-1.9030999E-1,-3.765432E-2,-1.3521434E-1,4.280702E-1],"split_indices":[4410,216,2376,2788,0,3996,0,0,0,0,0],"split_type":[0,0,0,0,0,0,0,0,0,0,0],"sum_hessian":[1.4720001E3,6.0768005E2,8.6432007E2,6.064E2,1.2800001E0,8.624001E2,1.9200001E0,6.0416003E2,2.2400002E0,8.6112006E2,1.2800001E0],"tree_param":{"num_deleted":"0","num_feature":"5000","num_nodes":"11","size_leaf_vector":"1"}},{"base_weights":[-4.6121305E-1,-3.5405117E-1,-6.156704E-1,-3.629162E-1,1.0344827E0,-6.189555E-1,-0E0,-1.1848277E-1,1.6771406E-2,-1.0701755E-1,4.5884955E-1,2.6754387E-2,-1.8928714E-1,1.605263E-1,-1.2534246E-1],"categories":[],"categories_nodes":[],"categories_segments":[],"categories_sizes":[],"default_left":[1,1,1,1,0,0,1,0,0,0,0,0,0,0,0],"id":2,"left_children":[1,3,5,7,9,11,13,-1,-1,-1,-1,-1,-1,-1,-1],"loss_changes":[2.4200073E1,1.112545E1,1.2194366E0,9.295639E0,4.3038936E0,7.571564E-1,1.1247296E0,0E0,0E0,0E0,0E0,0E0,0E0,0E0,0E0],"parents":[2147483647,0,0,1,1,2,2,3,3,4,4,5,5,6,6],"right_children":[2,4,6,8,10,12,14,-1,-1,-1,-1,-1,-1,-1,-1],"split_conditions":[4.2847257E-2,1.5992762E-1,1.8095894E-1,9.771854E-2,3.9624106E-2,1.6196403E-1,7.8553274E-2,-1.1848277E-1,1.6771406E-2,-1.0701755E-1,4.5884955E-1,2.6754387E-2,-1.8928714E-1,1.605263E-1,-1.2534246E-1],"split_indices":[4410,2755,2788,935,1956,1058,1850,0,0,0,0,0,0,0,0],"split_type":[0,0,0,0,0,0,0,0,0,0,0,0,0,0,0],"sum_hessian":[1.4742401E3,8.7232007E2,6.0192004E2,8.675201E2,4.8E0,5.9872003E2,3.2000003E0,8.1760004E2,4.9920002E1,1.2800001E0,3.5200002E0,1.2800001E0,5.9744006E2,1.2800001E0,1.9200001E0],"tree_param":{"num_deleted":"0","num_feature":"5000","num_nodes":"15","size_leaf_vector":"1"}},{"base_weights":[-4.621382E-1,-2.9137686E-1,-5.757685E-1,-3.1127602E-1,7.651245E-1,4.6923074E-1,-5.813322E-1,3.4507295E-1,-9.8949164E-2,-1.3707864E-1,3.5841012E-1,2.3461537E-1,-1.7831852E-1],"categories":[],"categories_nodes":[],"categories_segments":[],"categories_sizes":[],"default_left":[1,1,0,0,0,0,0,0,0,0,0,0,0],"id":3,"left_children":[1,3,5,7,9,-1,11,-1,-1,-1,-1,-1,-1],"loss_changes":[2.8500763E1,1.2691639E1,1.131778E1,1.1408348E1,6.125205E0,0E0,4.414215E0,0E0,0E0,0E0,0E0,0E0,0E0],"parents":[2147483647,0,0,1,1,2,2,3,3,4,4,6,6],"right_children":[2,4,6,8,10,-1,12,-1,-1,-1,-1,-1,-1],"split_conditions":[3.1223E-2,1.2474931E-1,4.5176092E-1,1.5015584E-1,7.0969366E-2,4.6923074E-1,2.1357599E-1,3.4507295E-1,-9.8949164E-2,-1.3707864E-1,3.5841012E-1,2.3461537E-1,-1.7831852E-1],"split_indices":[2979,450,108,3090,2959,0,3379,0,0,0,0,0,0],"split_type":[0,0,0,0,0,0,0,0,0,0,0,0,0],"sum_hessian":[1.4764801E3,5.9136005E2,8.8512006E2,5.8112006E2,1.0240001E1,1.6000001E0,8.835201E2,4.4800005E0,5.7664E2,2.5600002E0,7.6800003E0,1.6000001E0,8.8192004E2],"tree_param":{"num_deleted":"0","num_feature":"5000","num_nodes":"13","size_leaf_vector":"1"}},{"base_weights":[-1.1615328E-1,3.3573532E-1,-4.3336245E-1,6.690939E-1,-6.94344E-2,-4.570579E-1,1.802575E0,1.8657437E-2,2.4537158E-1,-3.660915E-2,3.5750914E-1,-1.4725824E-1,3.5362318E-1,2.6754387E-2,6.2972635E-1],"categories":[],"categories_nodes":[],"categories_segments":[],"categories_sizes":[],"default_left":[1,1,1,0,1,1,0,0,0,0,0,0,0,0,0],"id":4,"left_children":[1,3,5,7,9,11,13,-1,-1,-1,-1,-1,-1,-1,-1],"loss_changes":[2.1216159E2,8.2518265E1,4.6890274E1,2.7532715E1,1.7511482E1,3.64133E1,4.00791E0,0E0,0E0,0E0,0E0,0E0,0E0,0E0,0E0],"parents":[2147483647,0,0,1,1,2,2,3,3,4,4,5,5,6,6],"right_children":[2,4,6,8,10,12,14,-1,-1,-1,-1,-1,-1,-1,-1],"split_conditions":[3.3757344E-2,4.2612914E-2,1.13487236E-1,7.672181E-2,1.3162737E-1,1.2727314E-1,5.9067458E-2,1.8657437E-2,2.4537158E-1,-3.660915E-2,3.5750914E-1,-1.4725824E-1,3.5362318E-1,2.6754387E-2,6.2972635E-1],"split_indices":[2979,3735,490,580,524,2418,580,0,0,0,0,0,0,0,0],"split_type":[0,0,0,0,0,0,0,0,0,0,0,0,0,0,0],"sum_hessian":[1.4780801E3,6.0960004E2,8.6848004E2,3.3408002E2,2.7552002E2,8.6016003E2,8.320001E0,6.1120003E1,2.7296002E2,2.656E2,9.920001E0,8.4736005E2,1.2800001E1,1.2800001E0,7.0400004E0],"tree_param":{"num_deleted":"0","num_feature":"5000","num_nodes":"15","size_leaf_vector":"1"}},{"base_weights":[8.95665E-1,3.6879352E-1,1.1057106E0,1.0485064E0,2.1603584E-1,3.4385815E-1,1.1854283E0,2.0926209E-1,4.5414725E-1,8.807126E-3,1.9581555E-1,3.9331704E-2,3.644854E-1,2.1748217E-2,3.7141708E-1],"categories":[],"categories_nodes":[],"categories_segments":[],"categories_sizes":[],"default_left":[0,0,0,1,1,1,0,0,0,0,0,0,0,0,0],"id":5,"left_children":[1,3,5,7,9,11,13,-1,-1,-1,-1,-1,-1,-1,-1],"loss_changes":[2.1504407E2,5.7546913E1,8.409839E1,1.5236305E1,3.6302917E1,2.4212881E1,4.5273438E1,0E0,0E0,0E0,0E0,0E0,0E0,0E0,0E0],"parents":[2147483647,0,0,1,1,2,2,3,3,4,4,5,5,6,6],"right_children":[2,4,6,8,10,12,14,-1,-1,-1,-1,-1,-1,-1,-1],"split_conditions":[9.9959776E-2,1.4162906E-1,8.758003E-2,6.279544E-2,4.677913E-2,4.9910672E-2,4.09624E-1,2.0926209E-1,4.5414725E-1,8.807126E-3,1.9581555E-1,3.9331704E-2,3.644854E-1,2.1748217E-2,3.7141708E-1],"split_indices":[1153,2417,3968,815,580,4692,2994,0,0,0,0,0,0,0,0],"split_type":[0,0,0,0,0,0,0,0,0,0,0,0,0,0,0],"sum_hessian":[1.945847E3,5.55416E2,1.390431E3,1.0084238E2,4.5457364E2,1.3221176E2,1.2582192E3,5.6728924E1,4.4113457E1,3.1655814E2,1.380155E2,1.06479675E2,2.5732086E1,3.5575027E1,1.2226442E3],"tree_param":{"num_deleted":"0","num_feature":"5000","num_nodes":"15","size_leaf_vector":"1"}},{"base_weights":[-4.7056183E-1,-5.8658147E-1,-3.941779E-1,-5.8853215E-1,3.7866715E-2,2.0053144E-1,-4.1318265E-1,-1.801004E-1,-2.01159E-2,-7.336346E-2,3.9353403E-1,-1.2756135E-1,3.960211E-1],"categories":[],"categories_nodes":[],"categories_segments":[],"categories_sizes":[],"default_left":[0,1,0,1,0,1,1,0,0,0,0,0,0],"id":6,"left_children":[1,3,5,7,-1,9,11,-1,-1,-1,-1,-1,-1],"loss_changes":[1.0938202E1,7.6394653E-1,8.707077E0,4.7047424E-1,0E0,1.199134E1,6.9388046E0,0E0,0E0,0E0,0E0,0E0,0E0],"parents":[2147483647,0,0,1,1,2,2,3,3,5,5,6,6],"right_children":[2,4,6,8,-1,10,12,-1,-1,-1,-1,-1,-1],"split_conditions":[1.9374628E-1,1.6692975E-1,1.1201366E-1,1.9943383E-1,3.7866715E-2,6.1530594E-2,1.8802191E-1,-1.801004E-1,-2.01159E-2,-7.336346E-2,3.9353403E-1,-1.2756135E-1,3.960211E-1],"split_indices":[4410,490,2565,2788,0,2216,746,0,0,0,0,0,0],"split_type":[0,0,0,0,0,0,0,0,0,0,0,0,0],"sum_hessian":[1.2593654E3,4.9731448E2,7.6205084E2,4.9612476E2,1.1897274E0,2.3302443E1,7.387484E2,4.941406E2,1.9841712E0,1.7143135E1,6.159308E0,7.3732806E2,1.420342E0],"tree_param":{"num_deleted":"0","num_feature":"5000","num_nodes":"13","size_leaf_vector":"1"}},{"base_weights":[-4.048342E-1,-2.9252294E-1,-5.8075607E-1,-3.0448037E-1,8.968701E-1,4.3492336E-2,-5.846646E-1,3.7098527E-1,-9.491427E-2,3.9142743E-1,1.992851E-2,1.823834E-1,-1.18429914E-1,5.7080757E-2,-1.7893517E-1],"categories":[],"categories_nodes":[],"categories_segments":[],"categories_sizes":[],"default_left":[1,1,0,0,1,1,0,0,0,0,0,0,0,0,0],"id":7,"left_children":[1,3,5,7,9,11,13,-1,-1,-1,-1,-1,-1,-1,-1],"loss_changes":[2.5165848E1,1.143261E1,1.2420502E0,8.31839E0,2.507617E0,1.1978673E0,8.778839E-1,0E0,0E0,0E0,0E0,0E0,0E0,0E0,0E0],"parents":[2147483647,0,0,1,1,2,2,3,3,4,4,5,5,6,6],"right_children":[2,4,6,8,10,12,14,-1,-1,-1,-1,-1,-1,-1,-1],"split_conditions":[3.912415E-2,1.5992762E-1,1.106301E-1,2.0116144E-1,3.9910175E-2,2.4622526E-2,1.9929193E-1,3.7098527E-1,-9.491427E-2,3.9142743E-1,1.992851E-2,1.823834E-1,-1.18429914E-1,5.7080757E-2,-1.7893517E-1],"split_indices":[4410,2266,1655,2037,54,969,119,0,0,0,0,0,0,0,0],"split_type":[0,0,0,0,0,0,0,0,0,0,0,0,0,0,0],"sum_hessian":[1.2813016E3,7.836622E2,4.976394E2,7.7659875E2,7.0634403E0,3.033396E0,4.94606E2,2.6214838E0,7.739773E2,4.451149E0,2.6122913E0,1.1595066E0,1.8738894E0,1.0442375E0,4.9356177E2],"tree_param":{"num_deleted":"0","num_feature":"5000","num_nodes":"15","size_leaf_vector":"1"}},{"base_weights":[-4.0385464E-1,-2.5398237E-1,-5.4508555E-1,-2.7406844E-1,8.9231795E-1,-5.508758E-1,5.8105254E-1,7.380105E-2,-9.4800554E-2,4.6412238E-1,8.930533E-3,-1.6937354E-1,1.5419184E-1,3.6840087E-1,-1.0414506E-1],"categories":[],"categories_nodes":[],"categories_segments":[],"categories_sizes":[],"default_left":[1,1,1,0,0,1,0,0,0,0,0,0,0,0,0],"id":8,"left_children":[1,3,5,7,9,11,13,-1,-1,-1,-1,-1,-1,-1,-1],"loss_changes":[2.706807E1,1.4645798E1,4.6294403E0,1.17481E1,5.933833E0,3.372223E0,2.6487086E0,0E0,0E0,0E0,0E0,0E0,0E0,0E0,0E0],"parents":[2147483647,0,0,1,1,2,2,3,3,4,4,5,5,6,6],"right_children":[2,4,6,8,10,12,14,-1,-1,-1,-1,-1,-1,-1,-1],"split_conditions":[3.9484046E-2,9.5130526E-2,1.316652E-1,1.3585496E-1,1.2166539E-1,1.8426237E-1,6.087035E-2,7.380105E-2,-9.4800554E-2,4.6412238E-1,8.930533E-3,-1.6937354E-1,1.5419184E-1,3.6840087E-1,-1.0414506E-1],"split_indices":[2979,2184,1975,4970,4213,2994,1227,0,0,0,0,0,0,0,0],"split_type":[0,0,0,0,0,0,0,0,0,0,0,0,0,0,0],"sum_hessian":[1.2843508E3,6.2447015E2,6.598807E2,6.144641E2,1.0006048E1,6.5701337E2,2.8673196E0,4.048214E1,5.73982E2,5.344912E0,4.6611357E0,6.5473145E2,2.2819164E0,1.5230937E0,1.3442259E0],"tree_param":{"num_deleted":"0","num_feature":"5000","num_nodes":"15","size_leaf_vector":"1"}},{"base_weights":[-8.6243615E-2,2.1300429E-1,-4.1633618E-1,5.1249045E-1,6.1994535E-3,1.3018385E0,-4.4215256E-1,-3.3475723E-2,2.1193445E-1,3.412721E-1,-1.1666362E-2,6.1293837E-2,5.497828E-1,7.3321355E-3,-1.493592E-1],"categories":[],"categories_nodes":[],"categories_segments":[],"categories_sizes":[],"default_left":[1,0,0,0,0,0,0,0,0,0,0,0,0,0,0],"id":9,"left_children":[1,3,5,7,9,11,13,-1,-1,-1,-1,-1,-1,-1,-1],"loss_changes":[1.3739471E2,4.519326E1,2.9908394E1,3.3901527E1,2.1443033E1,5.173628E0,1.4470299E1,0E0,0E0,0E0,0E0,0E0,0E0,0E0,0E0],"parents":[2147483647,0,0,1,1,2,2,3,3,4,4,5,5,6,6],"right_children":[2,4,6,8,10,12,14,-1,-1,-1,-1,-1,-1,-1,-1],"split_conditions":[4.0434346E-2,7.045582E-2,1.8045476E-1,7.0603415E-2,1.234863E-1,1.5726916E-1,9.852657E-2,-3.3475723E-2,2.1193445E-1,3.412721E-1,-1.1666362E-2,6.1293837E-2,5.497828E-1,7.3321355E-3,-1.493592E-1],"split_indices":[2979,3728,2418,580,3548,57,3968,0,0,0,0,0,0,0,0],"split_type":[0,0,0,0,0,0,0,0,0,0,0,0,0,0,0],"sum_hessian":[1.3890254E3,7.287376E2,6.6028784E2,2.970639E2,4.316737E2,9.042608E0,6.5124524E2,6.742298E1,2.2964091E2,1.5653068E1,4.1602063E2,3.265215E0,5.7773933E0,6.032216E1,5.909231E2],"tree_param":{"num_deleted":"0","num_feature":"5000","num_nodes":"15","size_leaf_vector":"1"}},{"base_weights":[6.4646477E-1,4.211573E-1,9.243656E-1,1.8655299E-1,6.151804E-1,-2.5095396E-2,9.526629E-1,2.7282393E-2,2.0295952E-1,1.3091314E-1,2.6367694E-1,2.188086E-1,-1.5887918E-1,2.9187256E-1,-7.787886E-2],"categories":[],"categories_nodes":[],"categories_segments":[],"categories_sizes":[],"default_left":[1,1,0,1,0,0,1,0,0,0,0,0,0,0,0],"id":10,"left_children":[1,3,5,7,9,11,13,-1,-1,-1,-1,-1,-1,-1,-1],"loss_changes":[1.3015741E2,5.2381012E1,2.5082825E1,2.4282986E1,2.8876251E1,1.0669804E1,4.9450073E0,0E0,0E0,0E0,0E0,0E0,0E0,0E0,0E0],"parents":[2147483647,0,0,1,1,2,2,3,3,4,4,5,5,6,6],"right_children":[2,4,6,8,10,12,14,-1,-1,-1,-1,-1,-1,-1,-1],"split_conditions":[3.912415E-2,4.06588E-2,4.09624E-1,5.6061346E-2,6.765925E-2,4.8353978E-2,8.086185E-2,2.7282393E-2,2.0295952E-1,1.3091314E-1,2.6367694E-1,2.188086E-1,-1.5887918E-1,2.9187256E-1,-7.787886E-2],"split_indices":[4410,4984,2994,2739,1831,95,1623,0,0,0,0,0,0,0,0],"split_type":[0,0,0,0,0,0,0,0,0,0,0,0,0,0,0],"sum_hessian":[2.0839736E3,1.1522805E3,9.316931E2,5.2248083E2,6.2979974E2,2.6967379E1,9.047257E2,4.353859E2,8.709495E1,3.6230734E2,2.674924E2,1.0618719E1,1.6348658E1,9.017265E2,2.9992063E0],"tree_param":{"num_deleted":"0","num_feature":"5000","num_nodes":"15","size_leaf_vector":"1"}},{"base_weights":[-4.3179482E-1,-4.9728113E-1,-3.0240306E-1,-5.185427E-1,9.254631E-2,4.3180236E-1,-3.300977E-1,9.020248E-2,-1.6101904E-1,4.2336145E-1,-4.876097E-2,-1.5099648E-1,2.7420145E-1,-1.0632672E-1,2.0084032E-1],"categories":[],"categories_nodes":[],"categories_segments":[],"categories_sizes":[],"default_left":[1,1,0,0,0,0,1,0,0,0,0,0,0,0,0],"id":11,"left_children":[1,3,5,7,9,11,13,-1,-1,-1,-1,-1,-1,-1,-1],"loss_changes":[9.075012E0,9.094055E0,7.6336784E0,5.480057E0,8.70662E0,6.431963E0,6.7379684E0,0E0,0E0,0E0,0E0,0E0,0E0,0E0,0E0],"parents":[2147483647,0,0,1,1,2,2,3,3,4,4,5,5,6,6],"right_children":[2,4,6,8,10,12,14,-1,-1,-1,-1,-1,-1,-1,-1],"split_conditions":[4.604494E-2,1.0093142E-1,1.1166623E-1,1.1979536E-1,5.4851215E-2,9.90159E-2,1.3037334E-1,9.020248E-2,-1.6101904E-1,4.2336145E-1,-4.876097E-2,-1.5099648E-1,2.7420145E-1,-1.0632672E-1,2.0084032E-1],"split_indices":[1153,4412,1213,1217,1850,1605,1403,0,0,0,0,0,0,0,0],"split_type":[0,0,0,0,0,0,0,0,0,0,0,0,0,0,0],"sum_hessian":[1.0877507E3,7.203382E2,3.674126E2,6.9539215E2,2.4946001E1,1.2824853E1,3.5458774E2,7.578695E0,6.878135E2,3.334217E0,2.1611784E1,4.2781696E0,8.546683E0,3.487045E2,5.8832297E0],"tree_param":{"num_deleted":"0","num_feature":"5000","num_nodes":"15","size_leaf_vector":"1"}},{"base_weights":[-3.6548775E-1,-2.5945735E-1,-5.554675E-1,9.917837E-1,-2.6746762E-1,-5.602907E-1,7.210778E-2,-1.0717227E-1,5.0439703E-1,4.997977E-1,-8.313976E-2,-1.7241076E-1,-6.067625E-3],"categories":[],"categories_nodes":[],"categories_segments":[],"categories_sizes":[],"default_left":[1,0,1,1,0,1,0,0,0,0,0,0,0],"id":12,"left_children":[1,3,5,7,9,11,-1,-1,-1,-1,-1,-1,-1],"loss_changes":[2.234697E1,7.4663353E0,1.656662E0,4.833616E0,7.424103E0,1.0592499E0,0E0,0E0,0E0,0E0,0E0,0E0,0E0],"parents":[2147483647,0,0,1,1,2,2,3,3,4,4,5,5],"right_children":[2,4,6,8,10,12,-1,-1,-1,-1,-1,-1,-1],"split_conditions":[4.2847257E-2,7.974192E-2,1.8095894E-1,1.9489214E-2,1.6490676E-1,1.3611042E-1,7.210778E-2,-1.0717227E-1,5.0439703E-1,4.997977E-1,-8.313976E-2,-1.7241076E-1,-6.067625E-3],"split_indices":[4410,4779,2788,2626,3060,4153,0,0,0,0,0,0,0],"split_type":[0,0,0,0,0,0,0,0,0,0,0,0,0],"sum_hessian":[1.1155364E3,7.174712E2,3.9806525E2,3.7826862E0,7.136885E2,3.959461E2,2.1191638E0,1.4037108E0,2.3789754E0,1.0578302E0,7.126307E2,3.9227744E2,3.668648E0],"tree_param":{"num_deleted":"0","num_feature":"5000","num_nodes":"13","size_leaf_vector":"1"}},{"base_weights":[-3.5993817E-1,-2.1353726E-1,-5.097281E-1,-2.7925715E-1,4.3465715E-2,7.0279375E-2,-5.276484E-1,1.7298451E-1,-9.309277E-2,5.6489293E-2,-1.15289375E-1,-5.0798345E-2,3.9076126E-1,1.5488654E-1,-1.6253544E-1],"categories":[],"categories_nodes":[],"categories_segments":[],"categories_sizes":[],"default_left":[1,1,0,0,0,0,0,0,0,0,0,0,0,0,0],"id":13,"left_children":[1,3,5,7,9,11,13,-1,-1,-1,-1,-1,-1,-1,-1],"loss_changes":[2.4452377E1,9.608063E0,5.783661E0,1.0119484E1,7.0334406E0,5.2184486E0,3.1893768E0,0E0,0E0,0E0,0E0,0E0,0E0,0E0,0E0],"parents":[2147483647,0,0,1,1,2,2,3,3,4,4,5,5,6,6],"right_children":[2,4,6,8,10,12,14,-1,-1,-1,-1,-1,-1,-1,-1],"split_conditions":[3.8793545E-2,6.398513E-2,1.077607E-1,1.0893909E-1,5.7542596E-2,3.3046775E-2,1.8795069E-1,1.7298451E-1,-9.309277E-2,5.6489293E-2,-1.15289375E-1,-5.0798345E-2,3.9076126E-1,1.5488654E-1,-1.6253544E-1],"split_indices":[2979,2184,4153,4970,2274,836,1351,0,0,0,0,0,0,0,0],"split_type":[0,0,0,0,0,0,0,0,0,0,0,0,0,0,0],"sum_hessian":[1.1190143E3,5.671357E2,5.5187866E2,4.5157416E2,1.15561516E2,1.6452616E1,5.35426E2,1.2819971E1,4.3875418E2,8.689715E1,2.8664371E1,1.4482546E1,1.9700699E0,2.2205014E0,5.332055E2],"tree_param":{"num_deleted":"0","num_feature":"5000","num_nodes":"15","size_leaf_vector":"1"}},{"base_weights":[-6.0130082E-2,1.2736414E-1,-4.3117908E-1,3.7560922E-1,-1.275369E-1,-4.7818258E-1,5.692666E-1,9.960816E-2,4.097043E-1,-8.306279E-2,3.5401236E-2,-1.4927381E-1,2.5743997E-1,-5.787885E-2,2.974694E-1],"categories":[],"categories_nodes":[],"categories_segments":[],"categories_sizes":[],"default_left":[1,1,1,1,0,1,0,0,0,0,0,0,0,0,0],"id":14,"left_children":[1,3,5,7,9,11,13,-1,-1,-1,-1,-1,-1,-1,-1],"loss_changes":[9.161121E1,5.5418476E1,2.1057114E1,2.0604149E1,1.5286937E1,6.69532E0,6.438779E0,0E0,0E0,0E0,0E0,0E0,0E0,0E0,0E0],"parents":[2147483647,0,0,1,1,2,2,3,3,4,4,5,5,6,6],"right_children":[2,4,6,8,10,12,14,-1,-1,-1,-1,-1,-1,-1,-1],"split_conditions":[4.2847257E-2,3.9009336E-2,1.0397291E-1,1.1415135E-1,6.2254645E-2,1.7620899E-1,4.8222017E-2,9.960816E-2,4.097043E-1,-8.306279E-2,3.5401236E-2,-1.4927381E-1,2.5743997E-1,-5.787885E-2,2.974694E-1],"split_indices":[4410,3735,2788,2439,1956,1400,987,0,0,0,0,0,0,0,0],"split_type":[0,0,0,0,0,0,0,0,0,0,0,0,0,0,0],"sum_hessian":[1.3150399E3,8.7403784E2,4.4100204E2,4.425602E2,4.3147763E2,4.21711E2,1.929103E1,4.224932E2,2.0066996E1,2.7054642E2,1.6093121E2,4.1878104E2,2.9299865E0,6.908785E0,1.2382245E1],"tree_param":{"num_deleted":"0","num_feature":"5000","num_nodes":"15","size_leaf_vector":"1"}},{"base_weights":[5.002055E-1,2.3382625E-1,6.6350746E-1,6.425824E-1,1.4690429E-1,6.9338393E-1,5.2135363E-2,-1.9655783E-1,2.1187907E-1,4.259365E-3,1.2694266E-1,2.2206867E-1,7.849462E-2,-1.2983985E-1,9.523229E-2],"categories":[],"categories_nodes":[],"categories_segments":[],"categories_sizes":[],"default_left":[1,0,1,0,1,1,1,0,0,0,0,0,0,0,0],"id":15,"left_children":[1,3,5,7,9,11,13,-1,-1,-1,-1,-1,-1,-1,-1],"loss_changes":[9.068573E1,2.8159103E1,2.3601013E1,9.778881E0,2.3517143E1,1.8484009E1,7.760885E0,0E0,0E0,0E0,0E0,0E0,0E0,0E0,0E0],"parents":[2147483647,0,0,1,1,2,2,3,3,4,4,5,5,6,6],"right_children":[2,4,6,8,10,12,14,-1,-1,-1,-1,-1,-1,-1,-1],"split_conditions":[3.331898E-2,1.4162906E-1,6.413215E-2,1.7155036E-1,4.2549998E-2,8.931006E-2,4.7308564E-2,-1.9655783E-1,2.1187907E-1,4.259365E-3,1.2694266E-1,2.2206867E-1,7.849462E-2,-1.2983985E-1,9.523229E-2],"split_indices":[2979,2417,4969,4919,1617,546,2150,0,0,0,0,0,0,0,0],"split_type":[0,0,0,0,0,0,0,0,0,0,0,0,0,0,0],"sum_hessian":[2.0872827E3,7.9420386E2,1.2930789E3,1.3815033E2,6.560535E2,1.2327051E3,6.0373833E1,4.9328003E0,1.3321753E2,4.399341E2,2.161194E2,1.14119E3,9.151512E1,2.1055508E1,3.931833E1],"tree_param":{"num_deleted":"0","num_feature":"5000","num_nodes":"15","size_leaf_vector":"1"}},{"base_weights":[-3.8927588E-1,-5.449942E-1,-3.0500582E-1,-1.6794838E-1,-1.1852392E-1,-3.1211632E-1,3.6731207E-1,1.5963916E-1,-1.348226E-1,-9.691189E-2,3.5287753E-1],"categories":[],"categories_nodes":[],"categories_segments":[],"categories_sizes":[],"default_left":[0,1,1,0,1,1,0,0,0,0,0],"id":16,"left_children":[1,3,5,-1,7,9,-1,-1,-1,-1,-1],"loss_changes":[1.2083435E1,7.2237396E-1,6.900654E0,0E0,1.3835912E0,5.376995E0,0E0,0E0,0E0,0E0,0E0],"parents":[2147483647,0,0,1,1,2,2,4,4,5,5],"right_children":[2,4,6,-1,8,10,-1,-1,-1,-1,-1],"split_conditions":[1.9374628E-1,1.5618497E-1,1.7897071E-1,-1.6794838E-1,7.141052E-2,1.5679288E-1,3.6731207E-1,1.5963916E-1,-1.348226E-1,-9.691189E-2,3.5287753E-1],"split_indices":[4410,2788,2376,0,1889,3996,0,0,0,0,0],"split_type":[0,0,0,0,0,0,0,0,0,0,0],"sum_hessian":[9.324936E2,3.2551822E2,6.069754E2,3.2097003E2,4.5481834E0,6.0491876E2,2.0566351E0,1.3170323E0,3.231151E0,6.033911E2,1.5276599E0],"tree_param":{"num_deleted":"0","num_feature":"5000","num_nodes":"11","size_leaf_vector":"1"}},{"base_weights":[-3.211534E-1,-4.22894E-1,-1.4320819E-1,-4.5875183E-1,4.2122442E-2,1.2534631E0,-1.675663E-1,3.1460506E-1,-1.4281662E-1,5.9104383E-1,-2.166696E-2,-1.996168E-2,5.806542E-1,2.973347E-1,-5.7679992E-2],"categories":[],"categories_nodes":[],"categories_segments":[],"categories_sizes":[],"default_left":[1,1,0,0,0,0,1,0,0,0,0,0,0,0,0],"id":17,"left_children":[1,3,5,7,9,11,13,-1,-1,-1,-1,-1,-1,-1,-1],"loss_changes":[1.771135E1,1.0424889E1,1.2409765E1,8.685921E0,9.91807E0,5.4979944E0,8.882691E0,0E0,0E0,0E0,0E0,0E0,0E0,0E0,0E0],"parents":[2147483647,0,0,1,1,2,2,3,3,4,4,5,5,6,6],"right_children":[2,4,6,8,10,12,14,-1,-1,-1,-1,-1,-1,-1,-1],"split_conditions":[4.467803E-2,9.810983E-2,9.9696755E-2,2.0116144E-1,4.1107874E-2,2.7337506E-2,2.17134E-2,3.1460506E-1,-1.4281662E-1,5.9104383E-1,-2.166696E-2,-1.996168E-2,5.806542E-1,2.973347E-1,-5.7679992E-2],"split_indices":[4697,1143,4170,2037,1727,688,4560,0,0,0,0,0,0,0,0],"split_type":[0,0,0,0,0,0,0,0,0,0,0,0,0,0,0],"sum_hessian":[9.806428E2,6.2304114E2,3.576017E2,5.784498E2,4.45913E1,5.2647724E0,3.5233694E2,2.9824624E0,5.7546735E2,1.6035434E0,4.298776E1,2.0356488E0,3.2291236E0,5.7036843E0,3.4663327E2],"tree_param":{"num_deleted":"0","num_feature":"5000","num_nodes":"15","size_leaf_vector":"1"}},{"base_weights":[-3.1569833E-1,-1.7852521E-1,-4.8186737E-1,-2.053622E-1,6.0139906E-1,8.317553E-2,-5.010198E-1,8.5566E-2,-7.364527E-2,-4.2602136E-3,2.9971164E-1,2.3401496E-1,-1.3025002E-1,2.432475E-1,-1.5477258E-1],"categories":[],"categories_nodes":[],"categories_segments":[],"categories_sizes":[],"default_left":[1,1,0,0,0,1,0,0,0,0,0,0,0,0,0],"id":18,"left_children":[1,3,5,7,9,11,13,-1,-1,-1,-1,-1,-1,-1,-1],"loss_changes":[2.2495369E1,1.1515629E1,4.883423E0,9.309889E0,4.3212576E0,5.746593E0,4.0197754E0,0E0,0E0,0E0,0E0,0E0,0E0,0E0,0E0],"parents":[2147483647,0,0,1,1,2,2,3,3,4,4,5,5,6,6],"right_children":[2,4,6,8,10,12,14,-1,-1,-1,-1,-1,-1,-1,-1],"split_conditions":[3.9484046E-2,7.8553274E-2,1.077607E-1,3.1783015E-2,7.259694E-2,4.332405E-2,1.705902E-1,8.5566E-2,-7.364527E-2,-4.2602136E-3,2.9971164E-1,2.3401496E-1,-1.3025002E-1,2.432475E-1,-1.5477258E-1],"split_indices":[2979,1850,4153,2352,1617,1421,1975,0,0,0,0,0,0,0,0],"split_type":[0,0,0,0,0,0,0,0,0,0,0,0,0,0,0],"sum_hessian":[9.8967596E2,5.43275E2,4.4640097E2,5.259151E2,1.7359913E1,1.4525345E1,4.318756E2,3.5899868E1,4.9001523E2,7.009599E0,1.0350313E1,5.990191E0,8.535154E0,1.5221577E0,4.3035345E2],"tree_param":{"num_deleted":"0","num_feature":"5000","num_nodes":"15","size_leaf_vector":"1"}},{"base_weights":[-3.545958E-2,1.6005544E-1,-3.2084152E-1,-1.7572299E-1,2.516516E-1,-3.555209E-1,7.521621E-1,8.916797E-2,-8.802474E-2,-6.1829206E-2,9.980988E-2,2.4140794E-2,-1.2827513E-1,3.212299E-1,7.452928E-2],"categories":[],"categories_nodes":[],"categories_segments":[],"categories_sizes":[],"default_left":[1,0,1,0,0,0,1,0,0,0,0,0,0,0,0],"id":19,"left_children":[1,3,5,7,9,11,13,-1,-1,-1,-1,-1,-1,-1,-1],"loss_changes":[6.914159E1,2.2665056E1,1.901294E1,8.444471E0,1.9928585E1,1.3851273E1,2.2028122E0,0E0,0E0,0E0,0E0,0E0,0E0,0E0,0E0],"parents":[2147483647,0,0,1,1,2,2,3,3,4,4,5,5,6,6],"right_children":[2,4,6,8,10,12,14,-1,-1,-1,-1,-1,-1,-1,-1],"split_conditions":[3.9631575E-2,7.613478E-2,1.28444E-1,8.867656E-2,1.3631958E-1,9.852657E-2,6.309031E-2,8.916797E-2,-8.802474E-2,-6.1829206E-2,9.980988E-2,2.4140794E-2,-1.2827513E-1,3.212299E-1,7.452928E-2],"split_indices":[868,580,2418,4722,2417,3968,2959,0,0,0,0,0,0,0,0],"split_type":[0,0,0,0,0,0,0,0,0,0,0,0,0,0,0],"sum_hessian":[1.237255E3,7.3449316E2,5.0276178E2,1.5722185E2,5.7727136E2,4.87669E2,1.5092751E1,3.0239897E1,1.2698195E2,8.210191E1,4.9516943E2,6.3455723E1,4.242133E2,8.8010235E0,6.291727E0],"tree_param":{"num_deleted":"0","num_feature":"5000","num_nodes":"15","size_leaf_vector":"1"}},{"base_weights":[4.0752327E-1,2.4419867E-1,6.475602E-1,5.092866E-1,1.4922152E-1,-1.7041235E-1,6.7684495E-1,8.575541E-2,2.205138E-1,1.9787477E-2,1.4060663E-1,1.8384628E-1,-1.5601242E-1,2.0825943E-1,-5.237713E-2],"categories":[],"categories_nodes":[],"categories_segments":[],"categories_sizes":[],"default_left":[1,0,0,1,1,0,1,0,0,0,0,0,0,0,0],"id":20,"left_children":[1,3,5,7,9,11,13,-1,-1,-1,-1,-1,-1,-1,-1],"loss_changes":[7.852286E1,3.0034378E1,1.9566895E1,1.5155746E1,2.3161312E1,7.921395E0,4.0917664E0,0E0,0E0,0E0,0E0,0E0,0E0,0E0,0E0],"parents":[2147483647,0,0,1,1,2,2,3,3,4,4,5,5,6,6],"right_children":[2,4,6,8,10,12,14,-1,-1,-1,-1,-1,-1,-1,-1],"split_conditions":[3.912415E-2,7.976756E-2,4.09624E-1,4.9577445E-2,5.6061346E-2,4.9892962E-2,1.7620899E-1,8.575541E-2,2.205138E-1,1.9787477E-2,1.4060663E-1,1.8384628E-1,-1.5601242E-1,2.0825943E-1,-5.237713E-2],"split_indices":[4410,2844,2788,4984,2739,2274,1400,0,0,0,0,0,0,0,0],"split_type":[0,0,0,0,0,0,0,0,0,0,0,0,0,0,0],"sum_hessian":[2.0059663E3,1.1949336E3,8.110328E2,3.140462E2,8.808873E2,2.786613E1,7.831666E2,1.530213E2,1.610249E2,6.9427765E2,1.866097E2,8.295475E0,1.9570656E1,7.778866E2,5.2800045E0],"tree_param":{"num_deleted":"0","num_feature":"5000","num_nodes":"15","size_leaf_vector":"1"}},{"base_weights":[-3.5812995E-1,-5.307403E-1,-2.753513E-1,-1.6399303E-1,-1.0769703E-1,-2.883399E-1,7.25422E-1,1.145711E-1,-1.2705182E-1,1.06596105E-1,-9.392225E-2,-1.2942655E-1,4.480602E-1],"categories":[],"categories_nodes":[],"categories_segments":[],"categories_sizes":[],"default_left":[0,1,1,0,1,0,0,0,0,0,0,0,0],"id":21,"left_children":[1,3,5,-1,7,9,11,-1,-1,-1,-1,-1,-1],"loss_changes":[1.1373772E1,7.063446E-1,7.3193436E0,0E0,9.7037935E-1,6.867893E0,6.85863E0,0E0,0E0,0E0,0E0,0E0,0E0],"parents":[2147483647,0,0,1,1,2,2,4,4,5,5,6,6],"right_children":[2,4,6,-1,8,10,12,-1,-1,-1,-1,-1,-1],"split_conditions":[1.9374628E-1,1.5618497E-1,1.3037334E-1,-1.6399303E-1,7.17386E-2,9.615178E-2,4.2428646E-2,1.145711E-1,-1.2705182E-1,1.06596105E-1,-9.392225E-2,-1.2942655E-1,4.480602E-1],"split_indices":[4410,2788,1403,0,430,1376,54,0,0,0,0,0,0],"split_type":[0,0,0,0,0,0,0,0,0,0,0,0,0],"sum_hessian":[8.0524E2,2.5924652E2,5.4599347E2,2.5479462E2,4.451901E0,5.397008E2,6.292661E0,1.6514202E0,2.8004808E0,1.5589733E1,5.241111E2,2.640054E0,3.652607E0],"tree_param":{"num_deleted":"0","num_feature":"5000","num_nodes":"13","size_leaf_vector":"1"}},{"base_weights":[-2.865874E-1,-1.855235E-1,-5.2350634E-1,-1.9614683E-1,1.1977508E0,-5.3067315E-1,1.6385634E-1,-6.3792385E-2,2.7774996E-1,-1.0784156E-1,6.155696E-1,-1.6301556E-1,6.5600455E-2,1.906881E-1,-9.97124E-2],"categories":[],"categories_nodes":[],"categories_segments":[],"categories_sizes":[],"default_left":[1,1,1,1,0,1,1,0,0,0,0,0,0,0,0],"id":22,"left_children":[1,3,5,7,9,11,13,-1,-1,-1,-1,-1,-1,-1,-1],"loss_changes":[2.0775085E1,9.237089E0,1.3683014E0,8.9557495E0,6.835589E0,8.45932E-1,9.851322E-1,0E0,0E0,0E0,0E0,0E0,0E0,0E0,0E0],"parents":[2147483647,0,0,1,1,2,2,3,3,4,4,5,5,6,6],"right_children":[2,4,6,8,10,12,14,-1,-1,-1,-1,-1,-1,-1,-1],"split_conditions":[4.2847257E-2,1.415484E-1,1.8095894E-1,1.3657027E-1,4.5507334E-2,1.2968662E-1,7.8553274E-2,-6.3792385E-2,2.7774996E-1,-1.0784156E-1,6.155696E-1,-1.6301556E-1,6.5600455E-2,1.906881E-1,-9.97124E-2],"split_indices":[4410,676,2788,490,1692,1605,1850,0,0,0,0,0,0,0,0],"split_type":[0,0,0,0,0,0,0,0,0,0,0,0,0,0,0],"sum_hessian":[8.7071094E2,6.116002E2,2.5911078E2,6.0779065E2,3.8095384E0,2.5666263E2,2.4481351E0,6.0153174E2,6.25892E0,1.5147295E0,2.2948086E0,2.5564192E2,1.020716E0,1.1207225E0,1.3274127E0],"tree_param":{"num_deleted":"0","num_feature":"5000","num_nodes":"15","size_leaf_vector":"1"}},{"base_weights":[-2.8344455E-1,-1.8159933E-1,-5.111951E-1,-1.9134277E-1,4.7884732E-1,-5.290176E-1,2.4354805E-1,-7.910398E-2,6.3727954E-3,-1.6365367E-1,1.3284804E-1,-1.1908638E-1,2.0121816E-1],"categories":[],"categories_nodes":[],"categories_segments":[],"categories_sizes":[],"default_left":[1,1,1,0,0,1,0,0,0,0,0,0,0],"id":23,"left_children":[1,3,5,7,-1,9,11,-1,-1,-1,-1,-1,-1],"loss_changes":[2.0084114E1,1.0585226E1,3.7370377E0,8.669287E0,0E0,2.1448822E0,2.0710454E0,0E0,0E0,0E0,0E0,0E0,0E0],"parents":[2147483647,0,0,1,1,2,2,3,3,5,5,6,6],"right_children":[2,4,6,8,-1,10,12,-1,-1,-1,-1,-1,-1],"split_conditions":[4.335982E-2,1.5014715E-1,1.491059E-1,4.5670435E-2,4.7884732E-1,7.831252E-2,4.1592304E-2,-7.910398E-2,6.3727954E-3,-1.6365367E-1,1.3284804E-1,-1.1908638E-1,2.0121816E-1],"split_indices":[4410,119,2994,1710,0,1623,1130,0,0,0,0,0,0],"split_type":[0,0,0,0,0,0,0,0,0,0,0,0,0],"sum_hessian":[8.688718E2,6.016321E2,2.6723972E2,5.991898E2,2.4423037E0,2.6136688E2,5.8728356E0,4.5360376E2,1.4558603E2,2.597768E2,1.5900707E0,2.3518987E0,3.5209367E0],"tree_param":{"num_deleted":"0","num_feature":"5000","num_nodes":"13","size_leaf_vector":"1"}},{"base_weights":[-3.1553425E-3,1.4529867E-1,-2.776049E-1,2.856089E-1,-3.2482307E-2,7.049079E-1,-3.083532E-1,1.0322287E-1,-1.12822056E-1,2.8290263E-1,-2.137994E-2,2.4523956E-1,-1.8922264E-2,-1.0962588E-1,6.2540434E-2],"categories":[],"categories_nodes":[],"categories_segments":[],"categories_sizes":[],"default_left":[1,1,0,1,0,1,1,0,0,0,0,0,0,0,0],"id":24,"left_children":[1,3,5,7,9,11,13,-1,-1,-1,-1,-1,-1,-1,-1],"loss_changes":[4.852369E1,1.9289095E1,1.2847401E1,1.5087631E1,1.2409271E1,1.0378127E0,1.0722065E1,0E0,0E0,0E0,0E0,0E0,0E0,0E0,0E0],"parents":[2147483647,0,0,1,1,2,2,3,3,4,4,5,5,6,6],"right_children":[2,4,6,8,10,12,14,-1,-1,-1,-1,-1,-1,-1,-1],"split_conditions":[4.0434346E-2,3.9009336E-2,2.4493788E-1,4.1516464E-2,1.3788438E-1,7.707401E-2,6.895329E-2,1.0322287E-1,-1.12822056E-1,2.8290263E-1,-2.137994E-2,2.4523956E-1,-1.8922264E-2,-1.0962588E-1,6.2540434E-2],"split_indices":[2979,3735,2418,4410,848,635,1623,0,0,0,0,0,0,0,0],"split_type":[0,0,0,0,0,0,0,0,0,0,0,0,0,0,0],"sum_hessian":[1.1889758E3,7.7190894E2,4.1706693E2,4.3108047E2,3.4082846E2,1.1990916E1,4.05076E2,3.993791E2,3.1701395E1,1.195875E1,3.2886972E2,1.0575279E1,1.4156368E0,3.686962E2,3.63798E1],"tree_param":{"num_deleted":"0","num_feature":"5000","num_nodes":"15","size_leaf_vector":"1"}},{"base_weights":[3.2479608E-1,1.8595618E-1,5.636583E-1,1.258661E-1,5.664608E-1,-1.985248E-1,5.94843E-1,1.3891938E-1,2.0235166E-2,-4.8938904E-2,1.9476095E-1,2.064531E-1,-1.4232355E-1,1.8346384E-1,-1.0767708E-1],"categories":[],"categories_nodes":[],"categories_segments":[],"categories_sizes":[],"default_left":[1,1,0,0,0,0,1,0,0,0,0,0,0,0,0],"id":25,"left_children":[1,3,5,7,9,11,13,-1,-1,-1,-1,-1,-1,-1,-1],"loss_changes":[6.224504E1,2.7148144E1,1.6532684E1,2.0165026E1,8.59687E0,6.863101E0,4.4134674E0,0E0,0E0,0E0,0E0,0E0,0E0,0E0,0E0],"parents":[2147483647,0,0,1,1,2,2,3,3,4,4,5,5,6,6],"right_children":[2,4,6,8,10,12,14,-1,-1,-1,-1,-1,-1,-1,-1],"split_conditions":[3.912415E-2,8.368495E-2,4.09624E-1,1.4162906E-1,9.584807E-2,4.3332912E-2,7.830116E-2,1.3891938E-1,2.0235166E-2,-4.8938904E-2,1.9476095E-1,2.064531E-1,-1.4232355E-1,1.8346384E-1,-1.0767708E-1],"split_indices":[4410,4337,2788,2417,433,2883,2184,0,0,0,0,0,0,0,0],"split_type":[0,0,0,0,0,0,0,0,0,0,0,0,0,0,0],"sum_hessian":[1.8790691E3,1.1894648E3,6.896042E2,1.0283901E3,1.6107474E2,2.6895164E1,6.6270905E2,1.5628554E2,8.721046E2,1.4424103E1,1.4665063E2,5.94831E0,2.0946854E1,6.584358E2,4.273231E0],"tree_param":{"num_deleted":"0","num_feature":"5000","num_nodes":"15","size_leaf_vector":"1"}},{"base_weights":[-3.177689E-1,-5.191826E-1,-2.3522988E-1,-5.234291E-1,5.0148178E-2,-2.4233453E-1,4.318364E-1,-1.6100162E-1,1.4561912E-3,9.197744E-2,-8.079189E-2],"categories":[],"categories_nodes":[],"categories_segments":[],"categories_sizes":[],"default_left":[0,1,1,1,0,0,0,0,0,0,0],"id":26,"left_children":[1,3,5,7,-1,9,-1,-1,-1,-1,-1],"loss_changes":[1.1602974E1,6.7879486E-1,6.233021E0,4.7952652E-1,0E0,6.2241535E0,0E0,0E0,0E0,0E0,0E0],"parents":[2147483647,0,0,1,1,2,2,3,3,5,5],"right_children":[2,4,6,8,-1,10,-1,-1,-1,-1,-1],"split_conditions":[1.9374628E-1,1.704771E-1,1.99043E-1,1.9943383E-1,5.0148178E-2,1.1201366E-1,4.318364E-1,-1.6100162E-1,1.4561912E-3,9.197744E-2,-8.079189E-2],"split_indices":[4410,490,4442,2788,0,2565,0,0,0,0,0],"split_type":[0,0,0,0,0,0,0,0,0,0,0],"sum_hessian":[7.042907E2,2.0318465E2,5.0110605E2,2.0216313E2,1.0215218E0,4.998086E2,1.2974594E0,2.0047665E2,1.6864707E0,1.9410353E1,4.8039822E2],"tree_param":{"num_deleted":"0","num_feature":"5000","num_nodes":"11","size_leaf_vector":"1"}},{"base_weights":[-2.3683408E-1,-1.3792297E-1,-5.056819E-1,-1.7040122E-1,3.3910602E-1,-5.150246E-1,2.6422924E-1,9.2500925E-2,-6.05104E-2,5.064345E-1,4.8647135E-2,-1.597351E-1,3.45935E-2,2.136397E-1,-8.6080156E-2],"categories":[],"categories_nodes":[],"categories_segments":[],"categories_sizes":[],"default_left":[1,1,1,0,0,1,0,0,0,0,0,0,0,0,0],"id":27,"left_children":[1,3,5,7,9,11,13,-1,-1,-1,-1,-1,-1,-1,-1],"loss_changes":[2.0535454E1,8.855273E0,1.6324463E0,7.118541E0,8.404676E0,1.1846352E0,9.4979423E-1,0E0,0E0,0E0,0E0,0E0,0E0,0E0,0E0],"parents":[2147483647,0,0,1,1,2,2,3,3,4,4,5,5,6,6],"right_children":[2,4,6,8,10,12,14,-1,-1,-1,-1,-1,-1,-1,-1],"split_conditions":[3.912415E-2,9.771854E-2,1.3611042E-1,3.082294E-2,1.3076404E-1,1.8095894E-1,8.465755E-2,9.2500925E-2,-6.05104E-2,5.064345E-1,4.8647135E-2,-1.597351E-1,3.45935E-2,2.136397E-1,-8.6080156E-2],"split_indices":[4410,935,4153,3258,1123,2788,1850,0,0,0,0,0,0,0,0],"split_type":[0,0,0,0,0,0,0,0,0,0,0,0,0,0,0],"sum_hessian":[7.738636E2,5.668341E2,2.0702945E2,5.313034E2,3.55307E1,2.048744E2,2.1550465E0,2.909797E1,5.0220547E2,3.2651064E0,3.2265594E1,2.0224222E2,2.6321797E0,1.0416797E0,1.1133666E0],"tree_param":{"num_deleted":"0","num_feature":"5000","num_nodes":"15","size_leaf_vector":"1"}},{"base_weights":[-2.4449477E-1,-1.1803974E-1,-4.4775203E-1,-1.4550747E-1,5.0791496E-1,-7.242781E-2,-4.788542E-1,-4.814981E-2,4.0112397E-1,3.5391915E-1,-5.4133963E-3,-1.5828364E-1,1.09924115E-1,-1.5205064E-1,-2.5123735E-3],"categories":[],"categories_nodes":[],"categories_segments":[],"categories_sizes":[],"default_left":[1,1,0,1,0,0,1,0,0,0,0,0,0,0,0],"id":28,"left_children":[1,3,5,7,9,11,13,-1,-1,-1,-1,-1,-1,-1,-1],"loss_changes":[1.995594E1,8.348419E0,3.4464111E0,8.5454645E0,7.035669E0,4.825433E0,2.5438385E0,0E0,0E0,0E0,0E0,0E0,0E0,0E0,0E0],"parents":[2147483647,0,0,1,1,2,2,3,3,4,4,5,5,6,6],"right_children":[2,4,6,8,10,12,14,-1,-1,-1,-1,-1,-1,-1,-1],"split_conditions":[3.9484046E-2,1.21318616E-1,8.3008856E-2,1.413179E-1,9.8842464E-2,4.142417E-2,7.596968E-2,-4.814981E-2,4.0112397E-1,3.5391915E-1,-5.4133963E-3,-1.5828364E-1,1.09924115E-1,-1.5205064E-1,-2.5123735E-3],"split_indices":[2979,2320,3968,3957,310,2352,1122,0,0,0,0,0,0,0,0],"split_type":[0,0,0,0,0,0,0,0,0,0,0,0,0,0,0],"sum_hessian":[7.774643E2,4.802568E2,2.972075E2,4.6080365E2,1.9453133E1,2.2998833E1,2.7420868E2,4.5782132E2,2.9823449E0,8.14087E0,1.1312263E1,1.1222318E1,1.1776515E1,2.6314932E2,1.1059333E1],"tree_param":{"num_deleted":"0","num_feature":"5000","num_nodes":"15","size_leaf_vector":"1"}},{"base_weights":[-1.4427898E-2,9.035925E-2,-2.5416985E-1,3.3449382E-1,-2.7043015E-2,-3.362118E-1,1.9492985E-1,2.1949616E-1,7.0594184E-2,9.2035495E-3,-1.586707E-1,1.2533008E-1,-1.1063796E-1,1.7942713E-1,-5.183701E-2],"categories":[],"categories_nodes":[],"categories_segments":[],"categories_sizes":[],"default_left":[1,0,1,0,1,0,1,0,0,0,0,0,0,0,0],"id":29,"left_children":[1,3,5,7,9,11,13,-1,-1,-1,-1,-1,-1,-1,-1],"loss_changes":[2.8456972E1,2.2604258E1,1.2758923E1,9.996019E0,1.5064153E1,5.9314003E0,7.8286457E0,0E0,0E0,0E0,0E0,0E0,0E0,0E0,0E0],"parents":[2147483647,0,0,1,1,2,2,3,3,4,4,5,5,6,6],"right_children":[2,4,6,8,10,12,14,-1,-1,-1,-1,-1,-1,-1,-1],"split_conditions":[4.5062687E-2,7.7812746E-2,7.041974E-2,8.522327E-2,9.607431E-2,1.2485909E-1,4.5535054E-2,2.1949616E-1,7.0594184E-2,9.2035495E-3,-1.586707E-1,1.2533008E-1,-1.1063796E-1,1.7942713E-1,-5.183701E-2],"split_indices":[2150,4955,2908,4969,1620,4779,4467,0,0,0,0,0,0,0,0],"split_type":[0,0,0,0,0,0,0,0,0,0,0,0,0,0,0],"sum_hessian":[1.1308424E3,7.873348E2,3.4350763E2,2.5507166E2,5.322631E2,2.906608E2,5.2846825E1,5.2570984E1,2.0250067E2,4.77772E2,5.449115E1,9.472415E0,2.811884E2,2.513671E1,2.7710117E1],"tree_param":{"num_deleted":"0","num_feature":"5000","num_nodes":"15","size_leaf_vector":"1"}},{"base_weights":[2.6764217E-1,3.9877195E-2,3.9581427E-1,-1.9656529E-1,1.3179252E-1,6.2217554E-3,4.765194E-1,2.1259172E-1,-7.399622E-2,2.4412943E-2,2.0898242E-1,-1.24869406E-1,3.41342E-2,-4.668092E-2,1.5369067E-1],"categories":[],"categories_nodes":[],"categories_segments":[],"categories_sizes":[],"default_left":[0,0,0,0,1,0,0,0,0,0,0,0,0,0,0],"id":30,"left_children":[1,3,5,7,9,11,13,-1,-1,-1,-1,-1,-1,-1,-1],"loss_changes":[5.1206787E1,1.3781466E1,3.529608E1,7.4756203E0,1.3014681E1,8.553539E0,1.6110733E1,0E0,0E0,0E0,0E0,0E0,0E0,0E0,0E0],"parents":[2147483647,0,0,1,1,2,2,3,3,4,4,5,5,6,6],"right_children":[2,4,6,8,10,12,14,-1,-1,-1,-1,-1,-1,-1,-1],"split_conditions":[2.1421197E-1,6.294984E-2,9.875873E-2,1.0700326E-1,9.81469E-2,5.8476314E-2,4.09624E-1,2.1259172E-1,-7.399622E-2,2.4412943E-2,2.0898242E-1,-1.24869406E-1,3.41342E-2,-4.668092E-2,1.5369067E-1],"split_indices":[4697,3728,3968,773,2417,4955,2788,0,0,0,0,0,0,0,0],"split_type":[0,0,0,0,0,0,0,0,0,0,0,0,0,0,0],"sum_hessian":[1.7536112E3,6.3194336E2,1.1216678E3,1.7657759E2,4.5536578E2,1.9266794E2,9.289999E2,7.9601192E0,1.6861746E2,4.1747116E2,3.789463E1,3.847913E1,1.5418881E2,3.853293E1,8.90467E2],"tree_param":{"num_deleted":"0","num_feature":"5000","num_nodes":"15","size_leaf_vector":"1"}},{"base_weights":[-2.9279503E-1,-5.09616E-1,-2.1705583E-1,-5.1468515E-1,3.6196277E-2,1.1895093E0,-2.2627263E-1,-1.5862724E-1,-8.970406E-3,-8.764065E-2,6.3320416E-1,3.1702003E-1,-7.22684E-2],"categories":[],"categories_nodes":[],"categories_segments":[],"categories_sizes":[],"default_left":[0,1,0,1,0,0,0,0,0,0,0,0,0],"id":31,"left_children":[1,3,5,7,-1,9,11,-1,-1,-1,-1,-1,-1],"loss_changes":[1.0138027E1,5.7328796E-1,6.2878532E0,4.035797E-1,0E0,4.7631016E0,6.488308E0,0E0,0E0,0E0,0E0,0E0,0E0],"parents":[2147483647,0,0,1,1,2,2,3,3,5,5,6,6],"right_children":[2,4,6,8,-1,10,12,-1,-1,-1,-1,-1,-1],"split_conditions":[1.9374628E-1,1.8795095E-1,1.11751765E-1,1.9943383E-1,3.6196277E-2,2.3844501E-2,1.2695274E-1,-1.5862724E-1,-8.970406E-3,-8.764065E-2,6.3320416E-1,3.1702003E-1,-7.22684E-2],"split_indices":[4410,216,220,2788,0,95,2600,0,0,0,0,0,0],"split_type":[0,0,0,0,0,0,0,0,0,0,0,0,0],"sum_hessian":[6.2308563E2,1.5982394E2,4.632617E2,1.5872415E2,1.0997827E0,2.1821845E0,4.610795E2,1.5690508E2,1.8190786E0,1.0721227E0,1.1100618E0,3.0495703E0,4.5802994E2],"tree_param":{"num_deleted":"0","num_feature":"5000","num_nodes":"13","size_leaf_vector":"1"}},{"base_weights":[-2.114871E-1,-1.2835936E-1,-4.965029E-1,-2.179255E-1,3.3069972E-2,-5.0871325E-1,2.712712E-1,-7.037264E-2,4.922514E-1,-6.432669E-3,3.532583E-1,6.331123E-2,-1.5702131E-1,-8.6000204E-2,2.1952716E-1],"categories":[],"categories_nodes":[],"categories_segments":[],"categories_sizes":[],"default_left":[1,1,1,1,1,0,0,0,0,0,0,0,0,0,0],"id":32,"left_children":[1,3,5,7,9,11,13,-1,-1,-1,-1,-1,-1,-1,-1],"loss_changes":[1.6539291E1,7.8709364E0,1.618145E0,8.580381E0,1.1904388E1,7.886429E-1,9.7804415E-1,0E0,0E0,0E0,0E0,0E0,0E0,0E0,0E0],"parents":[2147483647,0,0,1,1,2,2,3,3,4,4,5,5,6,6],"right_children":[2,4,6,8,10,12,14,-1,-1,-1,-1,-1,-1,-1,-1],"split_conditions":[4.2847257E-2,4.422415E-2,1.3611042E-1,1.6373287E-1,1.2048162E-1,1.7748702E-1,1.12960905E-1,-7.037264E-2,4.922514E-1,-6.432669E-3,3.532583E-1,6.331123E-2,-1.5702131E-1,-8.6000204E-2,2.1952716E-1],"split_indices":[4410,423,4153,1249,3907,1058,1361,0,0,0,0,0,0,0,0],"split_type":[0,0,0,0,0,0,0,0,0,0,0,0,0,0,0],"sum_hessian":[6.9976483E2,5.428791E2,1.5688579E2,3.4893106E2,1.9394801E2,1.5476193E2,2.1238434E0,3.4737698E2,1.5540675E0,1.8597704E2,7.9709806E0,1.0302294E0,1.537317E2,1.1171129E0,1.0067304E0],"tree_param":{"num_deleted":"0","num_feature":"5000","num_nodes":"15","size_leaf_vector":"1"}},{"base_weights":[-2.1063179E-1,-3.0711243E-1,1.9352881E-2,6.1290354E-1,-3.301519E-1,1.3682572E0,-1.6508041E-2,4.1813526E-1,-9.394786E-3,3.9424297E-1,-1.0409637E-1,5.760525E-1,1.4182679E-2,-6.9757044E-2,4.4246323E-2],"categories":[],"categories_nodes":[],"categories_segments":[],"categories_sizes":[],"default_left":[1,0,0,0,0,1,1,0,0,0,0,0,0,0,0],"id":33,"left_children":[1,3,5,7,9,11,13,-1,-1,-1,-1,-1,-1,-1,-1],"loss_changes":[1.5641081E1,1.072546E1,1.01413145E1,6.13121E0,9.214272E0,3.646782E0,7.053612E0,0E0,0E0,0E0,0E0,0E0,0E0,0E0,0E0],"parents":[2147483647,0,0,1,1,2,2,3,3,4,4,5,5,6,6],"right_children":[2,4,6,8,10,12,14,-1,-1,-1,-1,-1,-1,-1,-1],"split_conditions":[5.6760255E-2,1.0837843E-1,5.322808E-2,7.347175E-2,9.185969E-2,3.1324256E-2,4.172112E-2,4.1813526E-1,-9.394786E-3,3.9424297E-1,-1.0409637E-1,5.760525E-1,1.4182679E-2,-6.9757044E-2,4.4246323E-2],"split_indices":[2184,524,1889,459,148,766,423,0,0,0,0,0,0,0,0],"split_type":[0,0,0,0,0,0,0,0,0,0,0,0,0,0,0],"sum_hessian":[7.036325E2,4.9545102E2,2.081815E2,1.147871E1,4.8397232E2,4.429043E0,2.0375246E2,4.752449E0,6.726261E0,2.517728E0,4.814546E2,2.87004E0,1.5590031E0,8.789833E1,1.15854126E2],"tree_param":{"num_deleted":"0","num_feature":"5000","num_nodes":"15","size_leaf_vector":"1"}},{"base_weights":[4.8295623E-3,-2.0728648E-2,8.004644E-1,7.901462E-2,-2.0286052E-1,8.540426E-1,-1.2379611E-1,1.6141507E-3,1.0758579E-1,-8.1368074E-2,7.921329E-2,2.7513388E-1,-9.617092E-2],"categories":[],"categories_nodes":[],"categories_segments":[],"categories_sizes":[],"default_left":[1,1,1,0,0,1,0,0,0,0,0,0,0],"id":34,"left_children":[1,3,5,7,9,11,-1,-1,-1,-1,-1,-1,-1],"loss_changes":[2.2019196E1,1.9078167E1,2.5248737E0,1.3694534E1,1.105623E1,2.1150398E0,0E0,0E0,0E0,0E0,0E0,0E0,0E0],"parents":[2147483647,0,0,1,1,2,2,3,3,4,4,5,5],"right_children":[2,4,6,8,10,12,-1,-1,-1,-1,-1,-1,-1],"split_conditions":[1.2053832E-1,3.3757344E-2,2.4321364E-1,5.553503E-2,6.1521184E-2,8.909208E-2,-1.2379611E-1,1.6141507E-3,1.0758579E-1,-8.1368074E-2,7.921329E-2,2.7513388E-1,-9.617092E-2],"split_indices":[2418,2979,1624,1710,2883,3456,0,0,0,0,0,0,0],"split_type":[0,0,0,0,0,0,0,0,0,0,0,0,0],"sum_hessian":[1.0810065E3,1.0483057E3,3.2700817E1,6.7772205E2,3.7058365E2,3.1589853E1,1.1109656E0,5.347244E2,1.429976E2,3.259643E2,4.461935E1,3.0562935E1,1.0269173E0],"tree_param":{"num_deleted":"0","num_feature":"5000","num_nodes":"13","size_leaf_vector":"1"}},{"base_weights":[2.104522E-1,1.0263251E-1,4.6093142E-1,6.853866E-2,5.677576E-1,-1.9625323E-1,4.9834806E-1,4.1595496E-2,-3.500763E-2,1.7987144E-1,-1.285198E-1,1.8293521E-1,-1.3062444E-1,1.5469615E-1,-9.03629E-2],"categories":[],"categories_nodes":[],"categories_segments":[],"categories_sizes":[],"default_left":[1,1,0,1,1,0,1,0,0,0,0,0,0,0,0],"id":35,"left_children":[1,3,5,7,9,11,13,-1,-1,-1,-1,-1,-1,-1,-1],"loss_changes":[4.4722916E1,1.8359196E1,1.2357368E1,1.3472809E1,1.9685421E0,5.3498206E0,3.4703903E0,0E0,0E0,0E0,0E0,0E0,0E0,0E0,0E0],"parents":[2147483647,0,0,1,1,2,2,3,3,4,4,5,5,6,6],"right_children":[2,4,6,8,10,12,14,-1,-1,-1,-1,-1,-1,-1,-1],"split_conditions":[3.912415E-2,9.421917E-2,4.09624E-1,4.341523E-2,1.0621435E-1,4.33401E-2,1.7141277E-1,4.1595496E-2,-3.500763E-2,1.7987144E-1,-1.285198E-1,1.8293521E-1,-1.3062444E-1,1.5469615E-1,-9.03629E-2],"split_indices":[4410,116,2788,1850,2203,2274,2439,0,0,0,0,0,0,0,0],"split_type":[0,0,0,0,0,0,0,0,0,0,0,0,0,0,0],"sum_hessian":[1.6567515E3,1.1591855E3,4.9756595E2,1.0810886E3,7.8096855E1,2.6574114E1,4.7099182E2,7.892636E2,2.9182504E2,7.6793785E1,1.3030673E0,5.639781E0,2.0934332E1,4.661603E2,4.8315287E0],"tree_param":{"num_deleted":"0","num_feature":"5000","num_nodes":"15","size_leaf_vector":"1"}},{"base_weights":[-2.4911611E-1,-5.084776E-1,-1.7328496E-1,-1.571173E-1,-1.5912E-2,-1.8315044E-1,1.2859493E0,-6.3087076E-2,1.2184746E-1,6.6539764E-2,5.23428E-1],"categories":[],"categories_nodes":[],"categories_segments":[],"categories_sizes":[],"default_left":[0,1,1,0,0,0,1,0,0,0,0],"id":36,"left_children":[1,3,5,-1,-1,7,9,-1,-1,-1,-1],"loss_changes":[1.0831886E1,3.5334015E-1,6.442131E0,0E0,0E0,6.0062857E0,1.0128331E0,0E0,0E0,0E0,0E0],"parents":[2147483647,0,0,1,1,2,2,5,5,6,6],"right_children":[2,4,6,-1,-1,8,10,-1,-1,-1,-1],"split_conditions":[1.9374628E-1,1.9943383E-1,1.333676E-1,-1.571173E-1,-1.5912E-2,4.5036674E-2,4.86125E-2,-6.3087076E-2,1.2184746E-1,6.6539764E-2,5.23428E-1],"split_indices":[4410,2788,154,0,0,4566,855,0,0,0,0],"split_type":[0,0,0,0,0,0,0,0,0,0,0],"sum_hessian":[5.542255E2,1.24092545E2,4.30133E2,1.2218006E2,1.9124851E0,4.2811313E2,2.0198648E0,4.1200467E2,1.6108437E1,1.0129099E0,1.0069549E0],"tree_param":{"num_deleted":"0","num_feature":"5000","num_nodes":"11","size_leaf_vector":"1"}},{"base_weights":[-1.7195022E-1,-1.0134448E-1,-3.8731182E-1,-1.236687E-1,7.2399366E-1,-4.4154924E-1,2.2746134E-1,-4.054229E-2,4.907187E-1,-1.0065755E-2,5.5199945E-1,-1.4404081E-1,5.2163728E-2,2.7733576E-1,-1.1535366E-2],"categories":[],"categories_nodes":[],"categories_segments":[],"categories_sizes":[],"default_left":[1,1,1,1,0,1,0,0,0,0,0,0,0,0,0],"id":37,"left_children":[1,3,5,7,9,11,13,-1,-1,-1,-1,-1,-1,-1,-1],"loss_changes":[9.615049E0,8.924419E0,5.31559E0,7.7154436E0,1.0559852E1,2.791481E0,2.4473176E0,0E0,0E0,0E0,0E0,0E0,0E0,0E0,0E0],"parents":[2147483647,0,0,1,1,2,2,3,3,4,4,5,5,6,6],"right_children":[2,4,6,8,10,12,14,-1,-1,-1,-1,-1,-1,-1,-1],"split_conditions":[5.4484025E-2,1.1793439E-1,1.0492461E-1,1.5911324E-1,3.132393E-2,1.04846865E-1,6.999014E-2,-4.054229E-2,4.907187E-1,-1.0065755E-2,5.5199945E-1,-1.4404081E-1,5.2163728E-2,2.7733576E-1,-1.1535366E-2],"split_indices":[1364,555,4969,763,3440,3968,272,0,0,0,0,0,0,0,0],"split_type":[0,0,0,0,0,0,0,0,0,0,0,0,0,0,0],"sum_hessian":[6.339105E2,4.785046E2,1.5540591E2,4.6673038E2,1.1774227E1,1.430659E2,1.2340005E1,4.6516837E2,1.5620244E0,7.508951E0,4.265276E0,1.3645297E2,6.612932E0,2.776388E0,9.563617E0],"tree_param":{"num_deleted":"0","num_feature":"5000","num_nodes":"15","size_leaf_vector":"1"}},{"base_weights":[-1.7396986E-1,-6.777254E-2,-3.9358553E-1,-4.6617123E-1,-2.6503932E-2,4.6631442E-3,-4.3856946E-1,-1.5648785E-1,1.2056222E-1,-6.436935E-2,2.0203196E-2,1.1634585E-1,-1.537584E-1,-1.4076646E-1,7.644159E-2],"categories":[],"categories_nodes":[],"categories_segments":[],"categories_sizes":[],"default_left":[1,0,0,1,0,1,1,0,0,0,0,0,0,0,0],"id":38,"left_children":[1,3,5,7,9,11,13,-1,-1,-1,-1,-1,-1,-1,-1],"loss_changes":[1.5054012E1,7.173506E0,3.7740479E0,1.8579674E0,6.810386E0,4.47869E0,3.109459E0,0E0,0E0,0E0,0E0,0E0,0E0,0E0,0E0],"parents":[2147483647,0,0,1,1,2,2,3,3,4,4,5,5,6,6],"right_children":[2,4,6,8,10,12,14,-1,-1,-1,-1,-1,-1,-1,-1],"split_conditions":[3.9760306E-2,4.834732E-2,8.3008856E-2,8.881431E-2,1.0431055E-1,4.5737777E-2,1.491059E-1,-1.5648785E-1,1.2056222E-1,-6.436935E-2,2.0203196E-2,1.1634585E-1,-1.537584E-1,-1.4076646E-1,7.644159E-2],"split_indices":[868,2174,3968,1506,815,3926,2788,0,0,0,0,0,0,0,0],"split_type":[0,0,0,0,0,0,0,0,0,0,0,0,0,0,0],"sum_hessian":[6.4561255E2,4.3606003E2,2.0955254E2,3.9963596E1,3.9609644E2,2.1358576E1,1.8819395E2,3.8283585E1,1.6800139E0,1.3205533E2,2.640411E2,1.2414735E1,8.943841E0,1.8244629E2,5.747672E0],"tree_param":{"num_deleted":"0","num_feature":"5000","num_nodes":"15","size_leaf_vector":"1"}},{"base_weights":[4.0409784E-3,-2.0240922E-1,8.424012E-2,-3.1626144E-1,3.6323134E-2,2.5759935E-1,-4.9238592E-2,2.2437626E-1,-1.0140817E-1,4.645176E-1,-1.11485E-2,2.7656162E-1,6.1948076E-2,1.5835337E-2,-1.05217576E-1],"categories":[],"categories_nodes":[],"categories_segments":[],"categories_sizes":[],"default_left":[0,0,0,0,0,0,1,0,0,0,0,0,0,0,0],"id":39,"left_children":[1,3,5,7,9,11,13,-1,-1,-1,-1,-1,-1,-1,-1],"loss_changes":[1.738718E1,7.9973955E0,1.7513046E1,3.64159E0,1.043185E1,1.1459196E1,1.2825967E1,0E0,0E0,0E0,0E0,0E0,0E0,0E0,0E0],"parents":[2147483647,0,0,1,1,2,2,3,3,4,4,5,5,6,6],"right_children":[2,4,6,8,10,12,14,-1,-1,-1,-1,-1,-1,-1,-1],"split_conditions":[8.9301825E-2,5.1164195E-2,6.851211E-2,1.05014995E-1,1.1029568E-1,1.1307587E-1,4.5381334E-2,2.2437626E-1,-1.0140817E-1,4.645176E-1,-1.11485E-2,2.7656162E-1,6.1948076E-2,1.5835337E-2,-1.05217576E-1],"split_indices":[580,3505,1227,17,1525,1003,3735,0,0,0,0,0,0,0,0],"split_type":[0,0,0,0,0,0,0,0,0,0,0,0,0,0,0],"sum_hessian":[1.0481028E3,2.928133E2,7.552895E2,1.9804178E2,9.4771515E1,3.2815677E2,4.2713272E2,2.3345726E0,1.957072E2,3.4986756E0,9.127284E1,2.4201334E1,3.0395544E2,3.1888248E2,1.0825025E2],"tree_param":{"num_deleted":"0","num_feature":"5000","num_nodes":"15","size_leaf_vector":"1"}},{"base_weights":[1.687781E-1,7.2661236E-2,4.3318313E-1,1.3731119E-1,-1.3590291E-1,4.7120157E-1,-1.06067866E-1,4.7072887E-2,-2.099519E-1,2.1066901E-1,-4.8932787E-2,1.473224E-1,-1.9333684E-1,1.7736688E-1,-9.989077E-2],"categories":[],"categories_nodes":[],"categories_segments":[],"categories_sizes":[],"default_left":[1,0,0,1,0,1,0,0,0,0,0,0,0,0,0],"id":40,"left_children":[1,3,5,7,9,11,13,-1,-1,-1,-1,-1,-1,-1,-1],"loss_changes":[3.9271137E1,1.53280525E1,8.498741E0,1.2297894E1,5.569326E0,5.338211E0,4.4473124E0,0E0,0E0,0E0,0E0,0E0,0E0,0E0,0E0],"parents":[2147483647,0,0,1,1,2,2,3,3,4,4,5,5,6,6],"right_children":[2,4,6,8,10,12,14,-1,-1,-1,-1,-1,-1,-1,-1],"split_conditions":[3.912415E-2,4.475224E-2,5.2193895E-2,1.2053832E-1,1.6419376E-1,1.7620899E-1,4.9892962E-2,4.7072887E-2,-2.099519E-1,2.1066901E-1,-4.8932787E-2,1.473224E-1,-1.9333684E-1,1.7736688E-1,-9.989077E-2],"split_indices":[4410,1710,3244,2418,2165,1400,2274,0,0,0,0,0,0,0,0],"split_type":[0,0,0,0,0,0,0,0,0,0,0,0,0,0,0],"sum_hessian":[1.5455078E3,1.134403E3,4.1110486E2,8.6623285E2,2.6817007E2,3.8414774E2,2.6957108E1,8.49528E2,1.6704865E1,6.9466724E0,2.6122342E2,3.8063846E2,3.5093021E0,6.1706433E0,2.0786465E1],"tree_param":{"num_deleted":"0","num_feature":"5000","num_nodes":"15","size_leaf_vector":"1"}},{"base_weights":[-2.0755418E-1,4.6139407E-1,-2.314329E-1,-3.9163044E-1,1.2822657E0,4.0689728E-1,-2.4033795E-1,-1.496646E-1,6.669177E-2,-1.4797422E-2,5.103788E-1,-9.2357256E-2,-6.0143545E-3],"categories":[],"categories_nodes":[],"categories_segments":[],"categories_sizes":[],"default_left":[0,1,0,1,0,0,1,0,0,0,0,0,0],"id":41,"left_children":[1,3,5,7,9,-1,11,-1,-1,-1,-1,-1,-1],"loss_changes":[8.16844E0,1.2915981E1,7.123272E0,6.7927957E-1,4.9051895E0,0E0,6.693016E0,0E0,0E0,0E0,0E0,0E0,0E0],"parents":[2147483647,0,0,1,1,2,2,3,3,4,4,6,6],"right_children":[2,4,6,8,10,-1,12,-1,-1,-1,-1,-1,-1],"split_conditions":[8.1482485E-2,2.6676795E-2,1.7266344E-1,9.314616E-2,3.1449843E-2,4.0689728E-1,7.160226E-2,-1.496646E-1,6.669177E-2,-1.4797422E-2,5.103788E-1,-9.2357256E-2,-6.0143545E-3],"split_indices":[3955,3065,58,3842,4547,0,4969,0,0,0,0,0,0],"split_type":[0,0,0,0,0,0,0,0,0,0,0,0,0],"sum_hessian":[5.0368542E2,1.6728348E1,4.869571E2,8.459943E0,8.268404E0,1.9125652E0,4.8504453E2,7.4469743E0,1.0129687E0,2.0770354E0,6.1913686E0,3.777144E2,1.0733013E2],"tree_param":{"num_deleted":"0","num_feature":"5000","num_nodes":"13","size_leaf_vector":"1"}},{"base_weights":[-1.3927002E-1,-7.100411E-2,-4.6500894E-1,-1.6076247E-1,9.5765226E-2,-4.8317093E-1,9.6919015E-2,2.4953723E-1,-5.746237E-2,-8.6695634E-2,5.3401038E-2,-1.5292382E-1,4.613698E-2],"categories":[],"categories_nodes":[],"categories_segments":[],"categories_sizes":[],"default_left":[1,0,1,0,0,0,0,0,0,0,0,0,0],"id":42,"left_children":[1,3,5,7,9,11,-1,-1,-1,-1,-1,-1,-1],"loss_changes":[1.3233261E1,7.416095E0,1.6205044E0,8.860409E0,5.2830596E0,1.2460728E0,0E0,0E0,0E0,0E0,0E0,0E0,0E0],"parents":[2147483647,0,0,1,1,2,2,3,3,4,4,5,5],"right_children":[2,4,6,8,10,12,-1,-1,-1,-1,-1,-1,-1],"split_conditions":[4.2847257E-2,5.1559705E-2,1.3611042E-1,9.402576E-2,3.870507E-2,1.0958283E-1,9.6919015E-2,2.4953723E-1,-5.746237E-2,-8.6695634E-2,5.3401038E-2,-1.5292382E-1,4.613698E-2],"split_indices":[4410,346,4153,1620,855,4573,0,0,0,0,0,0,0],"split_type":[0,0,0,0,0,0,0,0,0,0,0,0,0],"sum_hessian":[5.9558954E2,4.934037E2,1.0218585E2,3.2078647E2,1.7261725E2,1.0024277E2,1.9430845E0,8.023017E0,3.1276343E2,2.936233E1,1.4325491E2,9.764839E1,2.59437E0],"tree_param":{"num_deleted":"0","num_feature":"5000","num_nodes":"13","size_leaf_vector":"1"}},{"base_weights":[-1.3782358E-1,-6.937191E-2,-4.5844898E-1,-9.900614E-2,4.6484572E-1,-4.7687733E-1,1.9938503E-1,9.3491144E-2,-4.207068E-2,3.4326336E-1,-1.3277848E-2,-1.534047E-1,1.1461969E-1],"categories":[],"categories_nodes":[],"categories_segments":[],"categories_sizes":[],"default_left":[1,1,1,0,1,1,0,0,0,0,0,0,0],"id":43,"left_children":[1,3,5,7,9,11,-1,-1,-1,-1,-1,-1,-1],"loss_changes":[1.3100009E1,7.8704653E0,2.465582E0,7.4481606E0,8.831694E0,2.5015144E0,0E0,0E0,0E0,0E0,0E0,0E0,0E0],"parents":[2147483647,0,0,1,1,2,2,3,3,4,4,5,5],"right_children":[2,4,6,8,10,12,-1,-1,-1,-1,-1,-1,-1],"split_conditions":[4.8394814E-2,1.1488725E-1,7.831252E-2,3.2536265E-2,3.9917592E-2,1.8426237E-1,1.9938503E-1,9.3491144E-2,-4.207068E-2,3.4326336E-1,-1.3277848E-2,-1.534047E-1,1.1461969E-1],"split_indices":[4410,3769,1623,2352,3258,2788,0,0,0,0,0,0,0],"split_type":[0,0,0,0,0,0,0,0,0,0,0,0,0],"sum_hessian":[5.9733264E2,4.932442E2,1.04088425E2,4.6809274E2,2.5151466E1,1.0295373E2,1.134696E0,4.0397987E1,4.2769473E2,1.0410221E1,1.4741244E1,1.002952E2,2.6585333E0],"tree_param":{"num_deleted":"0","num_feature":"5000","num_nodes":"13","size_leaf_vector":"1"}},{"base_weights":[3.062952E-2,9.439465E-3,6.666299E-1,4.0497577E-1,-1.7190009E-4,9.2297286E-1,3.3279794E-1,-7.6319217E-3,1.2813048E-1,3.9305905E-1,2.2163175E-1,1.3773227E-1,-1.5671282E-1],"categories":[],"categories_nodes":[],"categories_segments":[],"categories_sizes":[],"default_left":[1,0,0,0,1,1,1,0,0,0,0,0,0],"id":44,"left_children":[1,3,5,-1,7,9,11,-1,-1,-1,-1,-1,-1],"loss_changes":[1.3787816E1,1.2564307E1,2.5157995E0,0E0,1.0301844E1,3.6281204E-1,1.8302037E0,0E0,0E0,0E0,0E0,0E0,0E0],"parents":[2147483647,0,0,1,1,2,2,4,4,5,5,6,6],"right_children":[2,4,6,-1,8,10,12,-1,-1,-1,-1,-1,-1],"split_conditions":[1.2053832E-1,3.7470016E-1,5.4769855E-2,4.0497577E-1,1.0620206E-1,4.4399858E-2,7.030424E-2,-7.6319217E-3,1.2813048E-1,3.9305905E-1,2.2163175E-1,1.3773227E-1,-1.5671282E-1],"split_indices":[2418,4715,54,0,1376,4924,116,0,0,0,0,0,0],"split_type":[0,0,0,0,0,0,0,0,0,0,0,0,0],"sum_hessian":[1.0225386E3,9.905506E2,3.1987999E1,6.176659E0,9.843739E2,1.709574E1,1.48922615E1,9.303052E2,5.406875E1,4.0274973E0,1.3068241E1,1.3469089E1,1.4231726E0],"tree_param":{"num_deleted":"0","num_feature":"5000","num_nodes":"13","size_leaf_vector":"1"}},{"base_weights":[1.3928883E-1,6.199594E-2,3.8774276E-1,2.4071677E-2,3.8781306E-1,-2.2490992E-1,4.291738E-1,5.2331302E-2,-1.6900964E-2,-4.4249505E-2,1.4772692E-1,7.093171E-2,-1.4807539E-1,1.349338E-1,-2.157114E-1],"categories":[],"categories_nodes":[],"categories_segments":[],"categories_sizes":[],"default_left":[1,1,0,0,0,0,1,0,0,0,0,0,0,0,0],"id":45,"left_children":[1,3,5,7,9,11,13,-1,-1,-1,-1,-1,-1,-1,-1],"loss_changes":[2.8123074E1,1.3818916E1,8.919403E0,1.1775087E1,6.069437E0,2.8157945E0,5.213825E0,0E0,0E0,0E0,0E0,0E0,0E0,0E0,0E0],"parents":[2147483647,0,0,1,1,2,2,3,3,4,4,5,5,6,6],"right_children":[2,4,6,8,10,12,14,-1,-1,-1,-1,-1,-1,-1,-1],"split_conditions":[3.912415E-2,8.858876E-2,4.09624E-1,7.1965724E-2,8.749423E-2,4.8353978E-2,7.831252E-2,5.2331302E-2,-1.6900964E-2,-4.4249505E-2,1.4772692E-1,7.093171E-2,-1.4807539E-1,1.349338E-1,-2.157114E-1],"split_indices":[4410,4337,2788,1617,1732,95,1623,0,0,0,0,0,0,0,0],"split_type":[0,0,0,0,0,0,0,0,0,0,0,0,0,0,0],"sum_hessian":[1.4647113E3,1.118119E3,3.465922E2,1.0025041E3,1.1561498E2,2.1673374E1,3.2491882E2,3.506377E2,6.518664E2,1.7655058E1,9.795992E1,7.9043083E0,1.3769067E1,3.217828E2,3.1360142E0],"tree_param":{"num_deleted":"0","num_feature":"5000","num_nodes":"15","size_leaf_vector":"1"}},{"base_weights":[-1.9173403E-1,-2.0845053E-1,5.785962E-1,3.236331E-1,-2.3169501E-1,1.3437377E0,-1.3325745E-1,-9.736902E-2,2.9865205E-1,-7.408716E-2,2.8464624E-1,-1.0190746E-1,6.174495E-1],"categories":[],"categories_nodes":[],"categories_segments":[],"categories_sizes":[],"default_left":[1,0,1,1,1,0,0,0,0,0,0,0,0],"id":46,"left_children":[1,3,5,7,9,11,-1,-1,-1,-1,-1,-1,-1],"loss_changes":[6.155451E0,5.757168E0,8.527033E0,8.592839E0,5.9848194E0,7.6124477E0,0E0,0E0,0E0,0E0,0E0,0E0,0E0],"parents":[2147483647,0,0,1,1,2,2,3,3,4,4,5,5],"right_children":[2,4,6,8,10,12,-1,-1,-1,-1,-1,-1,-1],"split_conditions":[1.09219514E-1,8.1482485E-2,5.192378E-2,2.62132E-2,1.2830757E-1,8.532003E-2,-1.3325745E-1,-9.736902E-2,2.9865205E-1,-7.408716E-2,2.8464624E-1,-1.0190746E-1,6.174495E-1],"split_indices":[709,3955,1692,2394,3815,430,0,0,0,0,0,0,0],"split_type":[0,0,0,0,0,0,0,0,0,0,0,0,0],"sum_hessian":[4.6764453E2,4.584259E2,9.218639E0,1.8647507E1,4.397784E2,5.073071E0,4.145568E0,9.673806E0,8.973701E0,4.3636948E2,3.4089236E0,1.6110499E0,3.462021E0],"tree_param":{"num_deleted":"0","num_feature":"5000","num_nodes":"13","size_leaf_vector":"1"}},{"base_weights":[-1.0770867E-1,-4.9436294E-2,-4.4942594E-1,-7.0588015E-2,9.0642524E-1,-4.719734E-1,9.585783E-2,3.4366626E-1,-2.5414985E-2,7.446631E-1,1.1526258E-1,-1.506062E-1,4.882181E-2],"categories":[],"categories_nodes":[],"categories_segments":[],"categories_sizes":[],"default_left":[1,1,1,0,0,1,0,0,0,0,0,0,0],"id":47,"left_children":[1,3,5,7,9,11,-1,-1,-1,-1,-1,-1,-1],"loss_changes":[1.1226546E1,9.844095E0,1.5633602E0,7.327194E0,7.63245E0,1.1852093E0,0E0,0E0,0E0,0E0,0E0,0E0,0E0],"parents":[2147483647,0,0,1,1,2,2,3,3,4,4,5,5],"right_children":[2,4,6,8,10,12,-1,-1,-1,-1,-1,-1,-1],"split_conditions":[4.2847257E-2,1.373269E-1,1.3611042E-1,1.5852799E-1,1.2034525E-1,1.8095894E-1,9.585783E-2,3.4366626E-1,-2.5414985E-2,7.446631E-1,1.1526258E-1,-1.506062E-1,4.882181E-2],"split_indices":[4410,327,4153,713,3229,2788,0,0,0,0,0,0,0],"split_type":[0,0,0,0,0,0,0,0,0,0,0,0,0],"sum_hessian":[5.639046E2,4.8273026E2,8.117437E1,4.7318555E2,9.544702E0,7.92176E1,1.9567722E0,4.061025E0,4.691245E2,1.5174955E0,8.027206E0,7.678579E1,2.4318109E0],"tree_param":{"num_deleted":"0","num_feature":"5000","num_nodes":"13","size_leaf_vector":"1"}},{"base_weights":[-1.2649241E-1,-6.5899536E-2,-3.627586E-1,-7.684971E-2,4.9294528E-1,-3.8704202E-1,2.8889138E-1,-3.0719424E-2,2.1253909E-1,-1.2307793E-1,2.2084759E-1],"categories":[],"categories_nodes":[],"categories_segments":[],"categories_sizes":[],"default_left":[1,1,1,1,0,1,0,0,0,0,0],"id":48,"left_children":[1,3,5,7,-1,9,-1,-1,-1,-1,-1],"loss_changes":[8.066196E0,8.431062E0,4.028677E0,8.3627E0,0E0,2.3764477E0,0E0,0E0,0E0,0E0,0E0],"parents":[2147483647,0,0,1,1,2,2,3,3,5,5],"right_children":[2,4,6,8,-1,10,-1,-1,-1,-1,-1],"split_conditions":[4.562413E-2,1.0480931E-1,1.486572E-1,8.130255E-2,4.9294528E-1,1.5272248E-1,2.8889138E-1,-3.0719424E-2,2.1253909E-1,-1.2307793E-1,2.2084759E-1],"split_indices":[2979,1151,3229,1850,0,4090,0,0,0,0,0],"split_type":[0,0,0,0,0,0,0,0,0,0,0],"sum_hessian":[5.641073E2,4.4998343E2,1.1412389E2,4.480212E2,1.9622006E0,1.1273851E2,1.385382E0,4.3545657E2,1.2564632E1,1.11717155E2,1.0213534E0],"tree_param":{"num_deleted":"0","num_feature":"5000","num_nodes":"11","size_leaf_vector":"1"}},{"base_weights":[2.1541957E-2,2.9110268E-1,-2.150873E-2,1.9963369E-1,1.0706849E0,4.885721E-1,-4.9545374E-2,3.1779326E-2,2.3150082E-1,3.6822256E-1,-9.365926E-2,-1.2893674E-1,2.017619E-1,-1.1943524E-1,-4.020818E-3],"categories":[],"categories_nodes":[],"categories_segments":[],"categories_sizes":[],"default_left":[1,1,0,0,1,0,0,0,0,0,0,0,0,0,0],"id":49,"left_children":[1,3,5,7,9,11,13,-1,-1,-1,-1,-1,-1,-1,-1],"loss_changes":[1.170586E1,9.691394E0,1.2469813E1,6.6236744E0,3.0728855E0,7.440278E0,1.02661705E1,0E0,0E0,0E0,0E0,0E0,0E0,0E0,0E0],"parents":[2147483647,0,0,1,1,2,2,3,3,4,4,5,5,6,6],"right_children":[2,4,6,8,10,12,14,-1,-1,-1,-1,-1,-1,-1,-1],"split_conditions":[2.2749329E-2,5.705555E-2,1.2909251E-1,4.5203317E-2,6.258075E-2,1.0803316E-1,1.3541329E-1,3.1779326E-2,2.3150082E-1,3.6822256E-1,-9.365926E-2,-1.2893674E-1,2.017619E-1,-1.1943524E-1,-4.020818E-3],"split_indices":[987,2497,2531,308,2150,1376,2417,0,0,0,0,0,0,0,0],"split_type":[0,0,0,0,0,0,0,0,0,0,0,0,0,0,0],"sum_hessian":[1.00717126E3,1.379072E2,8.692641E2,1.2454975E2,1.3357443E1,4.4434006E1,8.248301E2,1.0741028E2,1.7139471E1,1.226512E1,1.0923232E0,6.856966E0,3.7577038E1,7.832167E1,7.465084E2],"tree_param":{"num_deleted":"0","num_feature":"5000","num_nodes":"15","size_leaf_vector":"1"}},{"base_weights":[1.0991609E-1,4.5547936E-2,3.4761626E-1,2.4069513E-1,-1.1684098E-2,3.9787734E-1,-1.3180782E-1,-9.917036E-3,1.1041879E-1,-9.457069E-3,1.5334198E-1,1.258263E-1,-1.92127E-1,6.0169093E-2,-1.277263E-1],"categories":[],"categories_nodes":[],"categories_segments":[],"categories_sizes":[],"default_left":[1,0,0,0,1,1,0,0,0,0,0,0,0,0,0],"id":50,"left_children":[1,3,5,7,9,11,13,-1,-1,-1,-1,-1,-1,-1,-1],"loss_changes":[2.1678656E1,1.2477285E1,7.3293915E0,8.4095335E0,8.609977E0,4.384388E0,2.8596869E0,0E0,0E0,0E0,0E0,0E0,0E0,0E0,0E0],"parents":[2147483647,0,0,1,1,2,2,3,3,4,4,5,5,6,6],"right_children":[2,4,6,8,10,12,14,-1,-1,-1,-1,-1,-1,-1,-1],"split_conditions":[3.912415E-2,7.976756E-2,6.300158E-2,1.3011251E-1,1.08155355E-1,7.831252E-2,4.791427E-2,-9.917036E-3,1.1041879E-1,-9.457069E-3,1.5334198E-1,1.258263E-1,-1.92127E-1,6.0169093E-2,-1.277263E-1],"split_indices":[4410,2844,2883,1143,2444,1623,293,0,0,0,0,0,0,0,0],"split_type":[0,0,0,0,0,0,0,0,0,0,0,0,0,0,0],"sum_hessian":[1.4169103E3,1.1159165E3,3.0099365E2,2.5232945E2,8.635871E2,2.7258676E2,2.8406902E1,7.782377E1,1.7450568E2,8.3323047E2,3.035664E1,2.6934155E2,3.2451997E0,1.33780155E1,1.5028887E1],"tree_param":{"num_deleted":"0","num_feature":"5000","num_nodes":"15","size_leaf_vector":"1"}},{"base_weights":[-1.6091143E-1,-1.5447344E-1,-9.523987E-2,9.368835E-1,-1.15525454E-1,-3.992718E-3,6.1803067E-1,-4.256369E-2,1.8262735E-1],"categories":[],"categories_nodes":[],"categories_segments":[],"categories_sizes":[],"default_left":[0,0,0,1,0,0,0,0,0],"id":51,"left_children":[1,-1,3,5,7,-1,-1,-1,-1],"loss_changes":[9.680456E0,0E0,7.676449E0,7.351128E0,6.183205E0,0E0,0E0,0E0,0E0],"parents":[2147483647,0,0,2,2,3,3,4,4],"right_children":[2,-1,4,6,8,-1,-1,-1,-1],"split_conditions":[1.9374628E-1,-1.5447344E-1,8.650873E-2,3.1901505E-2,4.8247714E-2,-3.992718E-3,6.1803067E-1,-4.256369E-2,1.8262735E-1],"split_indices":[4410,0,2875,670,3517,0,0,0,0],"split_type":[0,0,0,0,0,0,0,0,0],"sum_hessian":[4.2770175E2,6.723006E1,3.604717E2,6.0772777E0,3.543944E2,3.7742205E0,2.303057E0,3.4363974E2,1.0754671E1],"tree_param":{"num_deleted":"0","num_feature":"5000","num_nodes":"9","size_leaf_vector":"1"}},{"base_weights":[-1.045774E-1,-5.821905E-2,-4.3291843E-1,-7.382966E-2,8.4043646E-1,2.2027618E-1,-4.601955E-1,-3.3440407E-2,1.024445E-1,-4.9704826E-3,3.2190192E-1,-9.0675525E-2,2.1558711E-1,-1.490164E-1,6.262522E-2],"categories":[],"categories_nodes":[],"categories_segments":[],"categories_sizes":[],"default_left":[1,1,0,1,1,0,0,0,0,0,0,0,0,0,0],"id":52,"left_children":[1,3,5,7,9,11,13,-1,-1,-1,-1,-1,-1,-1,-1],"loss_changes":[8.137853E0,6.6708326E0,1.2807884E0,6.8443155E0,1.5135622E0,1.0486888E0,1.3067017E0,0E0,0E0,0E0,0E0,0E0,0E0,0E0,0E0],"parents":[2147483647,0,0,1,1,2,2,3,3,4,4,5,5,6,6],"right_children":[2,4,6,8,10,12,14,-1,-1,-1,-1,-1,-1,-1,-1],"split_conditions":[4.2847257E-2,1.5992762E-1,1.4901601E-1,9.394354E-2,3.3511955E-2,5.6519236E-2,1.0958283E-1,-3.3440407E-2,1.024445E-1,-4.9704826E-3,3.2190192E-1,-9.0675525E-2,2.1558711E-1,-1.490164E-1,6.262522E-2],"split_indices":[4410,2266,4153,4352,961,670,4573,0,0,0,0,0,0,0,0],"split_type":[0,0,0,0,0,0,0,0,0,0,0,0,0,0,0],"sum_hessian":[5.352901E2,4.700949E2,6.519522E1,4.6297046E2,7.124449E0,2.3297615E0,6.2865456E1,4.2643066E2,3.6539803E1,1.6145133E0,5.5099354E0,1.3174007E0,1.0123607E0,6.0549076E1,2.3163812E0],"tree_param":{"num_deleted":"0","num_feature":"5000","num_nodes":"15","size_leaf_vector":"1"}},{"base_weights":[-8.415891E-2,-3.6584232E-2,-4.0912208E-1,-4.653322E-2,4.478076E-1,-4.712646E-1,2.0844471E-1,-1.6919822E-2,4.9506286E-1,2.0605497E-1,-1.5328793E-1,1.4217688E-1,-1.14217475E-1],"categories":[],"categories_nodes":[],"categories_segments":[],"categories_sizes":[],"default_left":[1,1,1,1,0,0,0,0,0,0,0,0,0],"id":53,"left_children":[1,3,5,7,-1,9,11,-1,-1,-1,-1,-1,-1],"loss_changes":[8.336971E0,7.139818E0,2.7420845E0,7.1100497E0,0E0,2.5987692E0,1.2249051E0,0E0,0E0,0E0,0E0,0E0,0E0],"parents":[2147483647,0,0,1,1,2,2,3,3,5,5,6,6],"right_children":[2,4,6,8,-1,10,12,-1,-1,-1,-1,-1,-1],"split_conditions":[4.8394814E-2,1.4796706E-1,1.491059E-1,1.5391447E-1,4.478076E-1,8.134196E-2,8.2081765E-2,-1.6919822E-2,4.9506286E-1,2.0605497E-1,-1.5328793E-1,1.4217688E-1,-1.14217475E-1],"split_indices":[4410,1159,2788,636,0,2184,2959,0,0,0,0,0,0],"split_type":[0,0,0,0,0,0,0,0,0,0,0,0,0],"sum_hessian":[5.392283E2,4.71337E2,6.7891266E1,4.6920395E2,2.1330538E0,6.1899536E1,5.991728E0,4.6766626E2,1.5376924E0,1.098603E0,6.0800934E1,4.2937922E0,1.6979352E0],"tree_param":{"num_deleted":"0","num_feature":"5000","num_nodes":"13","size_leaf_vector":"1"}},{"base_weights":[1.9505884E-2,2.5325698E-1,-2.1147244E-2,-1.28485E-1,3.6320874E-1,6.391022E-1,-3.9704885E-2,3.3254233E-1,-9.635214E-2,1.6998868E-1,1.64068E-2,-1.7060061E-1,2.281112E-1,-1.7427884E-2,1.8573678E-1],"categories":[],"categories_nodes":[],"categories_segments":[],"categories_sizes":[],"default_left":[0,0,0,0,0,0,1,0,0,0,0,0,0,0,0],"id":54,"left_children":[1,3,5,7,9,11,13,-1,-1,-1,-1,-1,-1,-1,-1],"loss_changes":[9.375676E0,6.1816187E0,1.03287E1,7.979364E0,6.8020706E0,3.4236403E0,9.296201E0,0E0,0E0,0E0,0E0,0E0,0E0,0E0,0E0],"parents":[2147483647,0,0,1,1,2,2,3,3,4,4,5,5,6,6],"right_children":[2,4,6,8,10,12,14,-1,-1,-1,-1,-1,-1,-1,-1],"split_conditions":[7.494566E-2,2.6301537E-2,3.8977256E-1,7.202101E-2,2.84234E-2,3.6479514E-2,1.2699203E-1,3.3254233E-1,-9.635214E-2,1.6998868E-1,1.64068E-2,-1.7060061E-1,2.281112E-1,-1.7427884E-2,1.8573678E-1],"split_indices":[2908,3376,2254,1009,2108,1364,2335,0,0,0,0,0,0,0,0],"split_type":[0,0,0,0,0,0,0,0,0,0,0,0,0,0,0],"sum_hessian":[9.850679E2,1.4516353E2,8.399043E2,3.2423542E1,1.1273999E2,2.2047646E1,8.178567E2,3.6794326E0,2.874411E1,6.878329E1,4.3956703E1,1.4903891E0,2.0557257E1,7.973371E2,2.0519594E1],"tree_param":{"num_deleted":"0","num_feature":"5000","num_nodes":"15","size_leaf_vector":"1"}},{"base_weights":[9.148271E-2,-2.4684832E-2,1.9025075E-1,-1.5633292E-1,1.0594392E-1,-1.051318E-1,2.877866E-1,2.1597268E-2,-8.084599E-2,9.495355E-2,-3.1824075E-3,-9.436731E-3,-1.6667952E-1,1.3938278E-1,3.9278533E-2],"categories":[],"categories_nodes":[],"categories_segments":[],"categories_sizes":[],"default_left":[0,0,0,0,0,0,0,0,0,0,0,0,0,0,0],"id":55,"left_children":[1,3,5,7,9,11,13,-1,-1,-1,-1,-1,-1,-1,-1],"loss_changes":[1.5609422E1,1.0779503E1,2.1211344E1,7.727668E0,7.5261087E0,5.983036E0,1.4818214E1,0E0,0E0,0E0,0E0,0E0,0E0,0E0,0E0],"parents":[2147483647,0,0,1,1,2,2,3,3,4,4,5,5,6,6],"right_children":[2,4,6,8,10,12,14,-1,-1,-1,-1,-1,-1,-1,-1],"split_conditions":[9.9959776E-2,5.1337052E-2,9.707297E-2,5.7372935E-2,5.2420627E-2,3.8240004E-2,4.5053948E-2,2.1597268E-2,-8.084599E-2,9.495355E-2,-3.1824075E-3,-9.436731E-3,-1.6667952E-1,1.3938278E-1,3.9278533E-2],"split_indices":[1153,2442,3968,1852,2835,95,2883,0,0,0,0,0,0,0,0],"split_type":[0,0,0,0,0,0,0,0,0,0,0,0,0,0,0],"sum_hessian":[1.3590499E3,6.248606E2,7.341893E2,3.1111804E2,3.1374258E2,1.8223167E2,5.519576E2,1.00832634E2,2.102854E2,1.1287331E2,2.0086928E2,1.5692322E2,2.530846E1,2.664928E2,2.8546478E2],"tree_param":{"num_deleted":"0","num_feature":"5000","num_nodes":"15","size_leaf_vector":"1"}},{"base_weights":[-1.504264E-1,-1.7679843E-1,4.368251E-1,-1.8580772E-1,4.2248172E-1,1.7457616E-1,5.381492E-1,-8.465334E-2,-5.6917467E-3,3.9883533E-1,-2.3344437E-2],"categories":[],"categories_nodes":[],"categories_segments":[],"categories_sizes":[],"default_left":[1,1,0,1,0,1,0,0,0,0,0],"id":56,"left_children":[1,3,5,7,-1,9,-1,-1,-1,-1,-1],"loss_changes":[6.3116627E0,5.6888866E0,5.8158207E0,5.8931274E0,0E0,4.595025E0,0E0,0E0,0E0,0E0,0E0],"parents":[2147483647,0,0,1,1,2,2,3,3,5,5],"right_children":[2,4,6,8,-1,10,-1,-1,-1,-1,-1],"split_conditions":[1.0093142E-1,1.99043E-1,4.2374138E-2,5.636183E-2,4.2248172E-1,2.3094537E-2,5.381492E-1,-8.465334E-2,-5.6917467E-3,3.9883533E-1,-2.3344437E-2],"split_indices":[4412,4442,1383,4969,0,308,0,0,0,0,0],"split_type":[0,0,0,0,0,0,0,0,0,0,0],"sum_hessian":[4.0155875E2,3.8496967E2,1.6589108E1,3.8363794E2,1.3317223E0,1.4797551E1,1.7915566E0,2.4725995E2,1.3637798E2,1.9212236E0,1.28763275E1],"tree_param":{"num_deleted":"0","num_feature":"5000","num_nodes":"11","size_leaf_vector":"1"}},{"base_weights":[-8.529431E-2,-1.0416448E-1,7.2840303E-1,5.2107775E-1,-1.314363E-1,-1.2278574E-1,1.0707864E0,-6.2567433E-3,4.086754E-1,-8.056925E-2,-6.1833463E-3,5.2023286E-1,-5.9245914E-2],"categories":[],"categories_nodes":[],"categories_segments":[],"categories_sizes":[],"default_left":[1,0,0,1,1,0,0,0,0,0,0,0,0],"id":57,"left_children":[1,3,5,7,9,-1,11,-1,-1,-1,-1,-1,-1],"loss_changes":[7.987049E0,8.669746E0,5.0014725E0,9.466475E0,7.1377735E0,0E0,7.8275127E0,0E0,0E0,0E0,0E0,0E0,0E0],"parents":[2147483647,0,0,1,1,2,2,3,3,4,4,6,6],"right_children":[2,4,6,8,10,-1,12,-1,-1,-1,-1,-1,-1],"split_conditions":[1.373269E-1,1.4417756E-1,4.542605E-2,3.7119195E-2,4.467803E-2,-1.2278574E-1,3.6068942E-2,-6.2567433E-3,4.086754E-1,-8.056925E-2,-6.1833463E-3,5.2023286E-1,-5.9245914E-2],"split_indices":[327,555,440,2241,4697,0,2108,0,0,0,0,0,0],"split_type":[0,0,0,0,0,0,0,0,0,0,0,0,0],"sum_hessian":[5.1423114E2,5.0342828E2,1.0802849E1,2.028401E1,4.831443E2,2.4695365E0,8.333312E0,1.2795717E1,7.4882936E0,2.1958745E2,2.6355682E2,5.316662E0,3.01665E0],"tree_param":{"num_deleted":"0","num_feature":"5000","num_nodes":"13","size_leaf_vector":"1"}},{"base_weights":[-7.190002E-2,-3.156308E-2,-4.0343493E-1,1.2687386E0,-4.146007E-2,-4.7942758E-1,1.862084E-1,5.7804514E-2,5.055442E-1,-1.6361887E-2,2.9783964E-1,-1.5216531E-1,7.092751E-2,-1.0042888E-1,1.17514886E-1],"categories":[],"categories_nodes":[],"categories_segments":[],"categories_sizes":[],"default_left":[1,0,1,0,1,0,0,0,0,0,0,0,0,0,0],"id":58,"left_children":[1,3,5,7,9,11,13,-1,-1,-1,-1,-1,-1,-1,-1],"loss_changes":[6.9235067E0,6.0173607E0,2.606409E0,1.168158E0,5.7704425E0,8.0988884E-1,8.589524E-1,0E0,0E0,0E0,0E0,0E0,0E0,0E0,0E0],"parents":[2147483647,0,0,1,1,2,2,3,3,4,4,5,5,6,6],"right_children":[2,4,6,8,10,12,14,-1,-1,-1,-1,-1,-1,-1,-1],"split_conditions":[4.8394814E-2,1.5250614E-1,1.491059E-1,3.0253628E-2,1.5105705E-1,1.0510376E-1,4.1592304E-2,5.7804514E-2,5.055442E-1,-1.6361887E-2,2.9783964E-1,-1.5216531E-1,7.092751E-2,-1.0042888E-1,1.17514886E-1],"split_indices":[4410,215,2788,670,3814,3265,293,0,0,0,0,0,0,0,0],"split_type":[0,0,0,0,0,0,0,0,0,0,0,0,0,0,0],"sum_hessian":[5.17671E2,4.6249567E2,5.5175358E1,2.5328012E0,4.5996286E2,4.9041817E1,6.13354E0,1.0647262E0,1.4680748E0,4.5545825E2,4.5046196E0,4.802737E1,1.0144463E0,1.5266743E0,4.606866E0],"tree_param":{"num_deleted":"0","num_feature":"5000","num_nodes":"15","size_leaf_vector":"1"}},{"base_weights":[2.821214E-2,1.5615909E-1,-3.6220755E-2,1.3939413E-1,4.6471426E-1,-5.5553842E-2,5.5454683E-1,-6.174152E-2,6.0057703E-2,1.758397E-1,-2.3344116E-2,-1.3694969E-1,2.1101996E-1],"categories":[],"categories_nodes":[],"categories_segments":[],"categories_sizes":[],"default_left":[0,1,1,0,0,0,0,0,0,0,0,0,0],"id":59,"left_children":[1,3,5,7,-1,9,11,-1,-1,-1,-1,-1,-1],"loss_changes":[7.984157E0,7.22314E0,7.391511E0,6.3607364E0,0E0,8.33332E0,3.1376033E0,0E0,0E0,0E0,0E0,0E0,0E0],"parents":[2147483647,0,0,1,1,2,2,3,3,5,5,6,6],"right_children":[2,4,6,8,-1,10,12,-1,-1,-1,-1,-1,-1],"split_conditions":[7.7812746E-2,8.758887E-2,1.16383575E-1,7.1732774E-2,4.6471426E-1,1.5179124E-1,1.1722715E-1,-6.174152E-2,6.0057703E-2,1.758397E-1,-2.3344116E-2,-1.3694969E-1,2.1101996E-1],"split_indices":[4955,1623,43,4601,0,983,175,0,0,0,0,0,0],"split_type":[0,0,0,0,0,0,0,0,0,0,0,0,0],"sum_hessian":[9.667958E2,3.2332767E2,6.4346814E2,3.205004E2,2.8272777E0,6.2395496E2,1.9513191E1,4.5798138E1,2.7470227E2,1.9198309E1,6.047566E2,2.0754907E0,1.74377E1],"tree_param":{"num_deleted":"0","num_feature":"5000","num_nodes":"13","size_leaf_vector":"1"}},{"base_weights":[6.708305E-2,-3.1255975E-2,1.5340719E-1,-1.7658651E-1,4.9358543E-2,3.514689E-1,4.4469297E-2,-6.587312E-2,2.2681387E-1,5.237093E-2,-3.274289E-2,-2.1173431E-1,1.1805768E-1,1.7450396E-4,1.6490509E-1],"categories":[],"categories_nodes":[],"categories_segments":[],"categories_sizes":[],"default_left":[0,1,0,1,1,0,1,0,0,0,0,0,0,0,0],"id":60,"left_children":[1,3,5,7,9,11,13,-1,-1,-1,-1,-1,-1,-1,-1],"loss_changes":[1.1103627E1,7.178915E0,1.50105915E1,8.083845E0,7.581212E0,9.464149E0,9.811163E0,0E0,0E0,0E0,0E0,0E0,0E0,0E0,0E0],"parents":[2147483647,0,0,1,1,2,2,3,3,4,4,5,5,6,6],"right_children":[2,4,6,8,10,12,14,-1,-1,-1,-1,-1,-1,-1,-1],"split_conditions":[1.00383595E-1,3.181802E-2,6.397679E-2,7.832903E-2,3.8460694E-2,2.2304492E-1,8.731307E-2,-6.587312E-2,2.2681387E-1,5.237093E-2,-3.274289E-2,-2.1173431E-1,1.1805768E-1,1.7450396E-4,1.6490509E-1],"split_indices":[4697,4374,4142,380,2274,2940,3184,0,0,0,0,0,0,0,0],"split_type":[0,0,0,0,0,0,0,0,0,0,0,0,0,0,0],"sum_hessian":[1.3064321E3,6.1101355E2,6.954186E2,2.1757762E2,3.9343588E2,2.4597722E2,4.4944138E2,2.0938037E2,8.197254E0,2.208875E2,1.7254839E2,7.4906483E0,2.3848656E2,4.138324E2,3.5608982E1],"tree_param":{"num_deleted":"0","num_feature":"5000","num_nodes":"15","size_leaf_vector":"1"}},{"base_weights":[-1.1221664E-1,-4.794187E-1,-6.039621E-2,-1.5194717E-1,1.6947985E-2,-7.9047486E-2,9.227348E-1,-2.8814038E-2,2.7867183E-1,-3.423366E-2,4.9511704E-1],"categories":[],"categories_nodes":[],"categories_segments":[],"categories_sizes":[],"default_left":[0,1,1,0,0,1,0,0,0,0,0],"id":61,"left_children":[1,3,5,-1,-1,7,9,-1,-1,-1,-1],"loss_changes":[7.2871656E0,5.0367355E-1,6.2721276E0,0E0,0E0,5.180854E0,4.803471E0,0E0,0E0,0E0,0E0],"parents":[2147483647,0,0,1,1,2,2,5,5,6,6],"right_children":[2,4,6,-1,-1,8,10,-1,-1,-1,-1],"split_conditions":[1.9374628E-1,1.9943383E-1,1.3037334E-1,-1.5194717E-1,1.6947985E-2,1.2662657E-1,4.4092663E-2,-2.8814038E-2,2.7867183E-1,-3.423366E-2,4.9511704E-1],"split_indices":[4410,2788,1403,0,0,4592,3628,0,0,0,0],"split_type":[0,0,0,0,0,0,0,0,0,0,0],"sum_hessian":[3.8348087E2,4.640454E1,3.3707632E2,4.4898174E1,1.506367E0,3.3170306E2,5.3732443E0,3.2751898E2,4.1840878E0,2.5080154E0,2.8652287E0],"tree_param":{"num_deleted":"0","num_feature":"5000","num_nodes":"11","size_leaf_vector":"1"}},{"base_weights":[-7.747488E-2,-8.907767E-2,1.0128152E0,-9.625057E-2,4.96348E-1,-9.091418E-2,4.4120246E-1,4.8851725E-1,-3.1515352E-2],"categories":[],"categories_nodes":[],"categories_segments":[],"categories_sizes":[],"default_left":[1,1,0,0,0,0,0,0,0],"id":62,"left_children":[1,3,5,7,-1,-1,-1,-1,-1],"loss_changes":[6.3201942E0,6.16739E0,3.425734E0,6.0200973E0,0E0,0E0,0E0,0E0,0E0],"parents":[2147483647,0,0,1,1,2,2,3,3],"right_children":[2,4,6,8,-1,-1,-1,-1,-1],"split_conditions":[1.415484E-1,1.661973E-1,4.5507334E-2,2.4268433E-1,4.96348E-1,-9.091418E-2,4.4120246E-1,4.8851725E-1,-3.1515352E-2],"split_indices":[676,3490,1692,1286,0,0,0,0,0],"split_type":[0,0,0,0,0,0,0,0,0],"sum_hessian":[4.9147244E2,4.8720593E2,4.266511E0,4.861184E2,1.0875275E0,1.1384959E0,3.1280148E0,1.0828865E0,4.8503552E2],"tree_param":{"num_deleted":"0","num_feature":"5000","num_nodes":"9","size_leaf_vector":"1"}},{"base_weights":[-7.197228E-2,-8.028234E-2,4.7699127E-1,-1.7172071E-1,5.434061E-2,6.892455E-2,-6.988693E-2,2.5652918E-1,4.5166966E-3],"categories":[],"categories_nodes":[],"categories_segments":[],"categories_sizes":[],"default_left":[1,1,0,0,0,0,0,0,0],"id":63,"left_children":[1,3,-1,5,7,-1,-1,-1,-1],"loss_changes":[6.8875246E0,6.1131163E0,0E0,6.8000937E0,6.2489576E0,0E0,0E0,0E0,0E0],"parents":[2147483647,0,0,1,1,3,3,4,4],"right_children":[2,4,-1,6,8,-1,-1,-1,-1],"split_conditions":[1.8304022E-1,5.5836186E-2,4.7699127E-1,3.2363348E-2,9.8013096E-2,6.892455E-2,-6.988693E-2,2.5652918E-1,4.5166966E-3],"split_indices":[108,2184,0,2352,1442,0,0,0,0],"split_type":[0,0,0,0,0,0,0,0,0],"sum_hessian":[4.964143E2,4.9485144E2,1.56286E0,2.9452744E2,2.0032402E2,3.6786476E1,2.5774097E2,8.614146E0,1.9170987E2],"tree_param":{"num_deleted":"0","num_feature":"5000","num_nodes":"9","size_leaf_vector":"1"}},{"base_weights":[2.3289595E-2,7.157556E-3,5.3643364E-1,2.6447868E-3,5.4514635E-1,1.5012921E-1,7.097697E-1,6.899501E-3,-1.1918283E-1,1.1279053E-1,-1.2266164E-1,2.5476512E-1,6.410144E-2],"categories":[],"categories_nodes":[],"categories_segments":[],"categories_sizes":[],"default_left":[1,1,0,1,0,0,1,0,0,0,0,0,0],"id":64,"left_children":[1,3,5,7,-1,9,11,-1,-1,-1,-1,-1,-1],"loss_changes":[7.902231E0,7.442214E0,1.8417435E0,7.2832575E0,0E0,1.3959831E0,1.0671701E0,0E0,0E0,0E0,0E0,0E0,0E0],"parents":[2147483647,0,0,1,1,2,2,3,3,5,5,6,6],"right_children":[2,4,6,8,-1,10,12,-1,-1,-1,-1,-1,-1],"split_conditions":[1.2053832E-1,1.9667602E-1,7.234003E-2,8.542888E-2,5.4514635E-1,5.215989E-2,1.7429309E-1,6.899501E-3,-1.1918283E-1,1.1279053E-1,-1.2266164E-1,2.5476512E-1,6.410144E-2],"split_indices":[2418,2186,3606,3768,0,2241,573,0,0,0,0,0,0],"split_type":[0,0,0,0,0,0,0,0,0,0,0,0,0],"sum_hessian":[9.5406323E2,9.259669E2,2.809627E1,9.246245E2,1.3424078E0,9.280175E0,1.8816093E1,8.8083966E2,4.3784885E1,6.875774E0,2.4044018E0,1.4500811E1,4.315284E0],"tree_param":{"num_deleted":"0","num_feature":"5000","num_nodes":"13","size_leaf_vector":"1"}},{"base_weights":[4.9941007E-2,1.5810731E-1,-1.5086068E-2,1.8160854E-1,-6.007695E-1,7.7725105E-2,-1.869467E-1,6.5882444E-2,-9.983936E-2,-2.0109923E-1,2.0496907E-2,3.224656E-2,-1.7800823E-1,6.0169477E-2,-8.663359E-2],"categories":[],"categories_nodes":[],"categories_segments":[],"categories_sizes":[],"default_left":[0,1,1,1,1,1,0,0,0,0,0,0,0,0,0],"id":65,"left_children":[1,3,5,7,9,11,13,-1,-1,-1,-1,-1,-1,-1,-1],"loss_changes":[9.060703E0,8.734212E0,1.2858265E1,8.296824E0,6.217556E-1,9.757545E0,1.060118E1,0E0,0E0,0E0,0E0,0E0,0E0,0E0,0E0],"parents":[2147483647,0,0,1,1,2,2,3,3,4,4,5,5,6,6],"right_children":[2,4,6,8,10,12,14,-1,-1,-1,-1,-1,-1,-1,-1],"split_conditions":[7.1965724E-2,1.2324785E-1,3.7769362E-2,1.0999024E-1,8.745262E-2,1.192179E-1,8.075094E-2,6.5882444E-2,-9.983936E-2,-2.0109923E-1,2.0496907E-2,3.224656E-2,-1.7800823E-1,6.0169477E-2,-8.663359E-2],"split_indices":[1617,2418,2959,3769,310,4970,4601,0,0,0,0,0,0,0,0],"split_type":[0,0,0,0,0,0,0,0,0,0,0,0,0,0,0],"sum_hessian":[1.2868384E3,4.8261804E2,8.042203E2,4.6885892E2,1.3759142E1,5.2256396E2,2.8165634E2,4.3971463E2,2.9144285E1,1.2661794E1,1.0973492E0,5.0214377E2,2.0420177E1,5.661091E1,2.2504543E2],"tree_param":{"num_deleted":"0","num_feature":"5000","num_nodes":"15","size_leaf_vector":"1"}},{"base_weights":[-1.06729284E-1,5.6738335E-1,-1.2812473E-1,-1.394268E-1,1.1890787E0,-1.7710207E-1,1.6484872E-1,-1.3383919E-1,2.2015518E-1,1.9351095E-3,4.9182868E-1,3.982268E-1,-5.7436325E-2,4.1770577E-1,2.0167287E-3],"categories":[],"categories_nodes":[],"categories_segments":[],"categories_sizes":[],"default_left":[0,1,1,0,0,0,1,0,0,0,0,0,0,0,0],"id":66,"left_children":[1,3,5,7,9,11,13,-1,-1,-1,-1,-1,-1,-1,-1],"loss_changes":[5.412654E0,5.251503E0,5.1900787E0,1.9440671E0,3.1264086E0,5.377634E0,9.909639E0,0E0,0E0,0E0,0E0,0E0,0E0,0E0,0E0],"parents":[2147483647,0,0,1,1,2,2,3,3,4,4,5,5,6,6],"right_children":[2,4,6,8,10,12,14,-1,-1,-1,-1,-1,-1,-1,-1],"split_conditions":[9.902358E-2,3.3418644E-2,7.204502E-2,2.7131105E-2,2.7047016E-2,1.11269124E-1,3.1029202E-2,-1.3383919E-1,2.2015518E-1,1.9351095E-3,4.9182868E-1,3.982268E-1,-5.7436325E-2,4.1770577E-1,2.0167287E-3],"split_indices":[1396,855,2203,354,4427,1217,4518,0,0,0,0,0,0,0,0],"split_type":[0,0,0,0,0,0,0,0,0,0,0,0,0,0,0],"sum_hessian":[3.692406E2,1.0573679E1,3.5866693E2,5.3111377E0,5.262541E0,3.076342E2,5.103274E1,4.305076E0,1.0060616E0,1.6550589E0,3.6074822E0,1.4426455E0,3.0619156E2,5.0362287E0,4.5996513E1],"tree_param":{"num_deleted":"0","num_feature":"5000","num_nodes":"15","size_leaf_vector":"1"}},{"base_weights":[-5.79058E-2,-6.8936124E-2,1.1774327E0,4.2390713E-1,-7.750818E-2,1.7830389E-2,5.405291E-1,-7.164671E-2,2.1129667E-3],"categories":[],"categories_nodes":[],"categories_segments":[],"categories_sizes":[],"default_left":[1,0,0,0,0,0,0,0,0],"id":67,"left_children":[1,3,5,-1,7,-1,-1,-1,-1],"loss_changes":[6.607968E0,6.056241E0,2.7545352E0,0E0,6.299341E0,0E0,0E0,0E0,0E0],"parents":[2147483647,0,0,1,1,2,2,4,4],"right_children":[2,4,6,-1,8,-1,-1,-1,-1],"split_conditions":[1.4495546E-1,1.6424493E-1,3.5887543E-2,4.2390713E-1,5.5453327E-2,1.7830389E-2,5.405291E-1,-7.164671E-2,2.1129667E-3],"split_indices":[1507,3779,3241,0,2164,0,0,0,0],"split_type":[0,0,0,0,0,0,0,0,0],"sum_hessian":[4.7798975E2,4.746954E2,3.294352E0,1.8317362E0,4.7286368E2,1.5245454E0,1.7698067E0,1.6447667E2,3.08387E2],"tree_param":{"num_deleted":"0","num_feature":"5000","num_nodes":"9","size_leaf_vector":"1"}},{"base_weights":[-5.9639543E-2,-6.886816E-2,1.3460273E0,2.862432E-1,-1.0109475E-1,5.2107865E-1,1.2609635E-1,-2.798039E-2,2.1249668E-1,-3.3721022E-2,4.4316292E-1],"categories":[],"categories_nodes":[],"categories_segments":[],"categories_sizes":[],"default_left":[1,0,0,0,1,0,0,0,0,0,0],"id":68,"left_children":[1,3,5,7,9,-1,-1,-1,-1,-1,-1],"loss_changes":[6.4243913E0,5.58912E0,3.8616323E-1,6.376092E0,6.724289E0,0E0,0E0,0E0,0E0,0E0,0E0],"parents":[2147483647,0,0,1,1,2,2,3,3,4,4],"right_children":[2,4,6,8,10,-1,-1,-1,-1,-1,-1],"split_conditions":[1.57072E-1,1.2200884E-1,3.54463E-2,3.8714673E-2,1.456273E-1,5.2107865E-1,1.2609635E-1,-2.798039E-2,2.1249668E-1,-3.3721022E-2,4.4316292E-1],"split_indices":[1783,1506,373,1381,511,0,0,0,0,0,0],"split_type":[0,0,0,0,0,0,0,0,0,0,0],"sum_hessian":[4.8709097E2,4.8485876E2,2.2322345E0,3.9684536E1,4.4517422E2,1.0084107E0,1.2238237E0,2.106404E1,1.8620499E1,4.434023E2,1.7719105E0],"tree_param":{"num_deleted":"0","num_feature":"5000","num_nodes":"11","size_leaf_vector":"1"}},{"base_weights":[1.9096183E-2,8.721008E-1,9.50635E-3,2.5850707E-1,1.1650879E0,8.2305826E-2,-9.265891E-2,1.7176647E-1,-4.7680695E-2,4.0867722E-1,6.4464405E-2,1.5718943E-2,1.4492707E-1,1.00088425E-1,-4.1324757E-2],"categories":[],"categories_nodes":[],"categories_segments":[],"categories_sizes":[],"default_left":[0,0,0,0,0,1,0,0,0,0,0,0,0,0,0],"id":69,"left_children":[1,3,5,7,9,11,13,-1,-1,-1,-1,-1,-1,-1,-1],"loss_changes":[7.7580385E0,1.5943584E0,6.997945E0,6.811304E-1,8.5922337E-1,6.615753E0,7.1016006E0,0E0,0E0,0E0,0E0,0E0,0E0,0E0,0E0],"parents":[2147483647,0,0,1,1,2,2,3,3,4,4,5,5,6,6],"right_children":[2,4,6,8,10,12,14,-1,-1,-1,-1,-1,-1,-1,-1],"split_conditions":[1.5647967E-1,4.116294E-2,6.967896E-2,2.3468534E-2,3.062797E-2,1.0533587E-1,1.0031444E-1,1.7176647E-1,-4.7680695E-2,4.0867722E-1,6.4464405E-2,1.5718943E-2,1.4492707E-1,1.00088425E-1,-4.1324757E-2],"split_indices":[1319,1692,1421,34,4469,2531,1143,0,0,0,0,0,0,0,0],"split_type":[0,0,0,0,0,0,0,0,0,0,0,0,0,0,0],"sum_hessian":[9.48409E2,9.543967E0,9.3886505E2,3.6927254E0,5.851242E0,5.483348E2,3.9053027E2,1.9229332E0,1.7697923E0,4.6025677E0,1.2486743E0,5.0955844E2,3.8776306E1,3.54619E1,3.5506836E2],"tree_param":{"num_deleted":"0","num_feature":"5000","num_nodes":"15","size_leaf_vector":"1"}},{"base_weights":[3.80468E-2,-4.280082E-1,5.3455368E-2,-4.896696E-1,2.3324373E-1,3.6675918E-1,2.3614861E-2,-1.6998403E-1,1.9044837E-1,-3.1747618E-1,1.23987205E-1,2.4376125E-3,1.6359562E-1],"categories":[],"categories_nodes":[],"categories_segments":[],"categories_sizes":[],"default_left":[1,0,0,1,0,0,1,0,0,0,0,0,0],"id":70,"left_children":[1,3,5,7,-1,9,11,-1,-1,-1,-1,-1,-1],"loss_changes":[8.975431E0,3.3169427E0,1.1281831E1,3.261321E0,0E0,6.2965508E0,8.837175E0,0E0,0E0,0E0,0E0,0E0,0E0],"parents":[2147483647,0,0,1,1,2,2,3,3,5,5,6,6],"right_children":[2,4,6,8,-1,10,12,-1,-1,-1,-1,-1,-1],"split_conditions":[1.9723145E-2,3.54995E-2,6.8155006E-2,1.491456E-1,2.3324373E-1,1.824078E-1,1.0524884E-1,-1.6998403E-1,1.9044837E-1,-3.1747618E-1,1.23987205E-1,2.4376125E-3,1.6359562E-1],"split_indices":[344,1383,4410,591,0,1400,3261,0,0,0,0,0,0],"split_type":[0,0,0,0,0,0,0,0,0,0,0,0,0],"sum_hessian":[1.2456583E3,3.9008575E1,1.2066498E3,3.7651554E1,1.3570207E0,1.0395078E2,1.102699E3,3.5967136E1,1.6844163E0,2.163533E0,1.0178725E2,1.0710813E3,3.1617683E1],"tree_param":{"num_deleted":"0","num_feature":"5000","num_nodes":"13","size_leaf_vector":"1"}},{"base_weights":[-8.1699565E-2,4.7251728E-1,-1.08857356E-1,-1.6276874E-2,1.1135831E0,-1.2677702E-1,7.611393E-1,-1.4114752E-1,1.7458062E-1,4.8219875E-1,-1.06506296E-1,-4.5383953E-2,1.9057894E-1,3.4882596E-1,-1.0883554E-1],"categories":[],"categories_nodes":[],"categories_segments":[],"categories_sizes":[],"default_left":[0,0,1,1,1,1,1,0,0,0,0,0,0,0,0],"id":71,"left_children":[1,3,5,7,9,11,13,-1,-1,-1,-1,-1,-1,-1,-1],"loss_changes":[5.373597E0,5.252635E0,5.3643126E0,3.0152276E0,5.502924E0,5.5874543E0,3.3856978E0,0E0,0E0,0E0,0E0,0E0,0E0,0E0,0E0],"parents":[2147483647,0,0,1,1,2,2,3,3,4,4,5,5,6,6],"right_children":[2,4,6,8,10,12,14,-1,-1,-1,-1,-1,-1,-1,-1],"split_conditions":[1.1201366E-1,2.8399635E-2,1.3037334E-1,6.1530594E-2,3.1975143E-2,1.09219514E-1,1.3282774E-1,-1.4114752E-1,1.7458062E-1,4.8219875E-1,-1.06506296E-1,-4.5383953E-2,1.9057894E-1,3.4882596E-1,-1.0883554E-1],"split_indices":[2565,4469,1403,2216,4340,709,552,0,0,0,0,0,0,0,0],"split_type":[0,0,0,0,0,0,0,0,0,0,0,0,0,0,0],"sum_hessian":[3.526012E2,1.5705035E1,3.3689615E2,9.463783E0,6.241252E0,3.3093405E2,5.9621015E0,5.5033836E0,3.9603994E0,4.668687E0,1.5725651E0,3.2229282E2,8.641224E0,4.424957E0,1.5371445E0],"tree_param":{"num_deleted":"0","num_feature":"5000","num_nodes":"15","size_leaf_vector":"1"}},{"base_weights":[-3.8150325E-2,5.4345965E-1,-4.7420975E-2,3.542541E-1,-8.316525E-2,2.2272156E-3,2.9098454E-1,-6.862283E-2,1.0308417E-2],"categories":[],"categories_nodes":[],"categories_segments":[],"categories_sizes":[],"default_left":[0,0,0,1,1,0,0,0,0],"id":72,"left_children":[1,-1,3,5,7,-1,-1,-1,-1],"loss_changes":[7.91728E0,0E0,6.674963E0,7.9035234E0,7.0717654E0,0E0,0E0,0E0,0E0],"parents":[2147483647,0,0,2,2,3,3,4,4],"right_children":[2,-1,4,6,8,-1,-1,-1,-1],"split_conditions":[1.3518806E-1,5.4345965E-1,5.1042385E-2,5.397577E-2,3.610471E-2,2.2272156E-3,2.9098454E-1,-6.862283E-2,1.0308417E-2],"split_indices":[2940,0,4697,1089,1601,0,0,0,0],"split_type":[0,0,0,0,0,0,0,0,0],"sum_hessian":[4.6323523E2,1.3786628E0,4.6185654E2,3.7013035E1,4.248435E2,2.409019E1,1.2922843E1,1.9159512E2,2.332484E2],"tree_param":{"num_deleted":"0","num_feature":"5000","num_nodes":"9","size_leaf_vector":"1"}},{"base_weights":[-5.4135308E-2,-6.7932434E-2,7.881921E-1,8.4691817E-1,-8.107034E-2,1.6022831E0,-1.2331874E-1,3.780422E-1,-9.992573E-2,1.6957466E-1,-3.0903231E-2,1.4878145E-1,7.2390366E-1],"categories":[],"categories_nodes":[],"categories_segments":[],"categories_sizes":[],"default_left":[1,0,1,0,0,1,0,0,0,0,0,0,0],"id":73,"left_children":[1,3,5,7,9,11,-1,-1,-1,-1,-1,-1,-1],"loss_changes":[5.5505342E0,5.673122E0,8.125086E0,3.4902024E0,5.998764E0,2.9493284E0,0E0,0E0,0E0,0E0,0E0,0E0,0E0],"parents":[2147483647,0,0,1,1,2,2,3,3,4,4,5,5],"right_children":[2,4,6,8,10,12,-1,-1,-1,-1,-1,-1,-1],"split_conditions":[1.2957467E-1,2.5472773E-2,4.6124067E-2,2.1842882E-2,1.3664703E-1,4.3753397E-2,-1.2331874E-1,3.780422E-1,-9.992573E-2,1.6957466E-1,-3.0903231E-2,1.4878145E-1,7.2390366E-1],"split_indices":[485,3359,3164,354,811,3669,0,0,0,0,0,0,0],"split_type":[0,0,0,0,0,0,0,0,0,0,0,0,0],"sum_hessian":[4.7199368E2,4.6529166E2,6.702019E0,5.688839E0,4.596028E2,3.7787654E0,2.9232535E0,4.222332E0,1.4665071E0,1.3345446E1,4.462574E2,2.2130637E0,1.5657017E0],"tree_param":{"num_deleted":"0","num_feature":"5000","num_nodes":"13","size_leaf_vector":"1"}},{"base_weights":[1.5938647E-2,4.6571065E-3,6.381455E-1,-2.6375905E-1,3.228674E-2,8.3461285E-1,-1.5874407E-1,2.8979588E-1,-9.481056E-2,9.521423E-2,6.1325077E-4,2.8625873E-1,3.0921008E-2],"categories":[],"categories_nodes":[],"categories_segments":[],"categories_sizes":[],"default_left":[1,0,1,0,0,1,0,0,0,0,0,0,0],"id":74,"left_children":[1,3,5,7,9,11,-1,-1,-1,-1,-1,-1,-1],"loss_changes":[6.6248236E0,6.8937273E0,4.260317E0,5.2551036E0,7.139919E0,1.0293503E0,0E0,0E0,0E0,0E0,0E0,0E0,0E0],"parents":[2147483647,0,0,1,1,2,2,3,3,4,4,5,5],"right_children":[2,4,6,8,10,12,-1,-1,-1,-1,-1,-1,-1],"split_conditions":[1.26397E-1,1.16947204E-1,8.756469E-2,1.4511588E-1,1.05231754E-1,1.3108934E-1,-1.5874407E-1,2.8979588E-1,-9.481056E-2,9.521423E-2,6.1325077E-4,2.8625873E-1,3.0921008E-2],"split_indices":[1018,2417,2916,3548,1143,327,0,0,0,0,0,0,0],"split_type":[0,0,0,0,0,0,0,0,0,0,0,0,0],"sum_hessian":[9.4320416E2,9.2739655E2,1.58076E1,8.575531E1,8.4164124E2,1.3754834E1,2.0527656E0,2.4865983E0,8.3268715E1,8.1245544E1,7.603957E2,1.180183E1,1.9530041E0],"tree_param":{"num_deleted":"0","num_feature":"5000","num_nodes":"13","size_leaf_vector":"1"}},{"base_weights":[2.764532E-2,7.582134E-2,-1.196131E-1,-1.11268766E-1,1.2979753E-1,1.8283619E-1,-1.8779802E-1,-1.0669896E-1,1.2824684E-4,-2.2442469E-1,4.4149347E-2,-7.1366675E-2,1.0678572E-1,-7.0802055E-2,1.453998E-1],"categories":[],"categories_nodes":[],"categories_segments":[],"categories_sizes":[],"default_left":[1,0,0,0,0,1,1,0,0,0,0,0,0,0,0],"id":75,"left_children":[1,3,5,7,9,11,13,-1,-1,-1,-1,-1,-1,-1,-1],"loss_changes":[8.766848E0,9.413857E0,6.3179135E0,5.567518E0,9.46346E0,4.0257473E0,7.451332E0,0E0,0E0,0E0,0E0,0E0,0E0,0E0,0E0],"parents":[2147483647,0,0,1,1,2,2,3,3,4,4,5,5,6,6],"right_children":[2,4,6,8,10,12,14,-1,-1,-1,-1,-1,-1,-1,-1],"split_conditions":[6.100051E-2,9.875873E-2,3.9929632E-2,6.828313E-2,1.9253427E-1,2.7977517E-2,9.905296E-2,-1.0669896E-1,1.2824684E-4,-2.2442469E-1,4.4149347E-2,-7.1366675E-2,1.0678572E-1,-7.0802055E-2,1.453998E-1],"split_indices":[2908,3968,440,4955,4919,4284,665,0,0,0,0,0,0,0,0],"split_type":[0,0,0,0,0,0,0,0,0,0,0,0,0,0,0],"sum_hessian":[1.2334769E3,9.297814E2,3.0369556E2,2.07946E2,7.218354E2,5.556099E1,2.4813455E2,6.563022E1,1.4231578E2,1.1440041E1,7.103953E2,1.5797788E1,3.9763203E1,2.3322343E2,1.49111185E1],"tree_param":{"num_deleted":"0","num_feature":"5000","num_nodes":"15","size_leaf_vector":"1"}},{"base_weights":[-6.550067E-2,-4.3523884E-1,-2.58065E-2,-1.4908086E-1,8.352098E-2,-7.230847E-2,3.274767E-1,1.7992826E-1,-1.0594524E-1,-2.8382428E-2,2.5484526E-1,2.172404E-1,-1.0837118E-1],"categories":[],"categories_nodes":[],"categories_segments":[],"categories_sizes":[],"default_left":[0,1,1,0,1,1,0,0,0,0,0,0,0],"id":76,"left_children":[1,3,5,-1,7,9,11,-1,-1,-1,-1,-1,-1],"loss_changes":[5.011466E0,9.607811E-1,5.1183233E0,0E0,1.0674044E0,5.2553062E0,9.777641E0,0E0,0E0,0E0,0E0,0E0,0E0],"parents":[2147483647,0,0,1,1,2,2,4,4,5,5,6,6],"right_children":[2,4,6,-1,8,10,12,-1,-1,-1,-1,-1,-1],"split_conditions":[1.9374628E-1,1.5618497E-1,7.9238325E-2,-1.4908086E-1,7.17386E-2,1.2379174E-1,5.4897483E-2,1.7992826E-1,-1.0594524E-1,-2.8382428E-2,2.5484526E-1,2.172404E-1,-1.0837118E-1],"split_indices":[4410,2994,2695,0,430,4399,3669,0,0,0,0,0,0],"split_type":[0,0,0,0,0,0,0,0,0,0,0,0,0],"sum_hessian":[3.4122842E2,3.211577E1,3.0911264E2,2.9163076E1,2.9526913E0,2.738603E2,3.5252365E1,1.1876968E0,1.7649946E0,2.6861868E2,5.2415977E0,2.2518768E1,1.2733595E1],"tree_param":{"num_deleted":"0","num_feature":"5000","num_nodes":"13","size_leaf_vector":"1"}},{"base_weights":[-1.8622242E-2,4.229548E-1,-4.8496727E-2,7.1850306E-1,-3.7160552E-1,-1.7608431E-1,5.8736432E-2,-1.006504E-1,3.3675653E-1,-1.4641677E-1,6.706181E-2,-7.009229E-2,1.1967761E-1,1.8947907E-1,-6.8309773E-3],"categories":[],"categories_nodes":[],"categories_segments":[],"categories_sizes":[],"default_left":[0,1,1,0,1,1,0,0,0,0,0,0,0,0,0],"id":77,"left_children":[1,3,5,7,9,11,13,-1,-1,-1,-1,-1,-1,-1,-1],"loss_changes":[6.140094E0,7.194087E0,5.967206E0,9.195366E0,6.608361E-1,6.1703277E0,1.08445E1,0E0,0E0,0E0,0E0,0E0,0E0,0E0,0E0],"parents":[2147483647,0,0,1,1,2,2,3,3,4,4,5,5,6,6],"right_children":[2,4,6,8,10,12,14,-1,-1,-1,-1,-1,-1,-1,-1],"split_conditions":[3.1189281E-2,3.7909146E-2,3.610471E-2,3.383886E-2,3.526743E-2,1.0052361E-1,5.571278E-2,-1.006504E-1,3.3675653E-1,-1.4641677E-1,6.706181E-2,-7.009229E-2,1.1967761E-1,1.8947907E-1,-6.8309773E-3],"split_indices":[3258,4924,1601,1831,272,935,4958,0,0,0,0,0,0,0,0],"split_type":[0,0,0,0,0,0,0,0,0,0,0,0,0,0,0],"sum_hessian":[4.6288986E2,2.8498192E1,4.343917E2,2.0841583E1,7.6566076E0,1.9807594E2,2.3631573E2,5.642814E0,1.519877E1,6.6294627E0,1.0271448E0,1.8151645E2,1.6559498E1,2.8949303E1,2.0736642E2],"tree_param":{"num_deleted":"0","num_feature":"5000","num_nodes":"15","size_leaf_vector":"1"}},{"base_weights":[-3.4112263E-2,-4.3935653E-2,1.1695886E0,-3.958999E-1,-8.998043E-3,-8.461438E-2,5.6935465E-1,2.0651115E-1,-1.4111052E-1,2.2734398E-1,-7.91401E-3],"categories":[],"categories_nodes":[],"categories_segments":[],"categories_sizes":[],"default_left":[1,0,0,0,0,0,0,0,0,0,0],"id":78,"left_children":[1,3,5,7,9,-1,-1,-1,-1,-1,-1],"loss_changes":[5.5376787E0,5.667566E0,4.343267E0,3.29467E0,5.3969088E0,0E0,0E0,0E0,0E0,0E0,0E0],"parents":[2147483647,0,0,1,1,2,2,3,3,4,4],"right_children":[2,4,6,8,10,-1,-1,-1,-1,-1,-1],"split_conditions":[1.3840494E-1,9.625572E-2,5.328033E-2,8.354776E-2,1.1037016E-1,-8.461438E-2,5.6935465E-1,2.0651115E-1,-1.4111052E-1,2.2734398E-1,-7.91401E-3],"split_indices":[2213,4692,868,1009,3838,0,0,0,0,0,0],"split_type":[0,0,0,0,0,0,0,0,0,0,0],"sum_hessian":[4.629798E2,4.601877E2,2.7920868E0,4.0622437E1,4.1956528E2,1.1035653E0,1.6885214E0,1.8438599E0,3.8778576E1,8.275228E0,4.1129004E2],"tree_param":{"num_deleted":"0","num_feature":"5000","num_nodes":"11","size_leaf_vector":"1"}},{"base_weights":[2.1130174E-2,2.6375994E-1,1.3214777E-2,-1.3912108E-3,4.7194523E-1,3.1956568E-1,-2.4505886E-3,-8.5865E-2,1.6477993E-1],"categories":[],"categories_nodes":[],"categories_segments":[],"categories_sizes":[],"default_left":[0,0,1,0,0,0,0,0,0],"id":79,"left_children":[1,-1,3,5,7,-1,-1,-1,-1],"loss_changes":[6.281987E0,0E0,6.263232E0,6.329097E0,1.6368804E0,0E0,0E0,0E0,0E0],"parents":[2147483647,0,0,2,2,3,3,4,4],"right_children":[2,-1,4,6,8,-1,-1,-1,-1],"split_conditions":[3.7470016E-1,2.6375994E-1,1.12281285E-1,4.7052252E-1,7.608838E-2,3.1956568E-1,-2.4505886E-3,-8.5865E-2,1.6477993E-1],"split_indices":[4715,0,2418,3944,116,0,0,0,0],"split_type":[0,0,0,0,0,0,0,0,0],"sum_hessian":[9.414277E2,7.744388E0,9.336832E2,9.058383E2,2.7844946E1,4.713839E0,9.0112445E2,2.0553622E0,2.5789583E1],"tree_param":{"num_deleted":"0","num_feature":"5000","num_nodes":"9","size_leaf_vector":"1"}},{"base_weights":[1.6635766E-2,6.264433E-2,-1.2425734E-1,1.6997626E-1,-1.5845241E-2,-2.923463E-1,-2.1500798E-2,-1.2606038E-1,6.285342E-2,7.4864114E-3,-1.24348775E-1,8.767482E-2,-1.1843702E-1,1.4612605E-1,-3.1327557E-2],"categories":[],"categories_nodes":[],"categories_segments":[],"categories_sizes":[],"default_left":[0,1,1,0,0,0,0,0,0,0,0,0,0,0,0],"id":80,"left_children":[1,3,5,7,9,11,13,-1,-1,-1,-1,-1,-1,-1,-1],"loss_changes":[7.8408966E0,7.6823215E0,5.1373386E0,8.194948E0,8.3582535E0,6.394067E0,7.606796E0,0E0,0E0,0E0,0E0,0E0,0E0,0E0,0E0],"parents":[2147483647,0,0,1,1,2,2,3,3,4,4,5,5,6,6],"right_children":[2,4,6,8,10,12,14,-1,-1,-1,-1,-1,-1,-1,-1],"split_conditions":[4.5512624E-2,3.230232E-2,3.6631837E-2,1.0227155E-1,4.4461705E-2,3.6180995E-2,1.00029185E-1,-1.2606038E-1,6.285342E-2,7.4864114E-3,-1.24348775E-1,8.767482E-2,-1.1843702E-1,1.4612605E-1,-3.1327557E-2],"split_indices":[3418,1831,2352,3160,95,1831,4601,0,0,0,0,0,0,0,0],"split_type":[0,0,0,0,0,0,0,0,0,0,0,0,0,0,0],"sum_hessian":[1.2073866E3,9.105895E2,2.9679715E2,3.8413367E2,5.264559E2,1.1190239E2,1.8489474E2,2.1779852E1,3.6235382E2,4.7811148E2,4.834438E1,1.5608689E1,9.62937E1,2.5124607E1,1.5977014E2],"tree_param":{"num_deleted":"0","num_feature":"5000","num_nodes":"15","size_leaf_vector":"1"}},{"base_weights":[-7.245035E-2,2.9368442E-2,-2.0334773E-1,-1.8068781E-1,2.4126905E-1,-2.4322979E-1,9.5909727E-1,-6.837434E-2,3.6935827E-1,5.882848E-1,5.7978902E-2,-8.009601E-2,3.7650824E-1,4.900854E-1,-9.931745E-2],"categories":[],"categories_nodes":[],"categories_segments":[],"categories_sizes":[],"default_left":[1,1,1,1,0,1,0,0,0,0,0,0,0,0,0],"id":81,"left_children":[1,3,5,7,9,11,13,-1,-1,-1,-1,-1,-1,-1,-1],"loss_changes":[4.42927E0,8.391694E0,6.9710503E0,6.006712E0,7.7332325E0,4.370969E0,4.7033257E0,0E0,0E0,0E0,0E0,0E0,0E0,0E0,0E0],"parents":[2147483647,0,0,1,1,2,2,3,3,4,4,5,5,6,6],"right_children":[2,4,6,8,10,12,14,-1,-1,-1,-1,-1,-1,-1,-1],"split_conditions":[3.9686866E-2,3.3901185E-2,1.2568343E-1,1.2912299E-1,1.323541E-1,1.1079674E-1,7.4353E-2,-6.837434E-2,3.6935827E-1,5.882848E-1,5.7978902E-2,-8.009601E-2,3.7650824E-1,4.900854E-1,-9.931745E-2],"split_indices":[2194,3283,546,676,2178,2353,2742,0,0,0,0,0,0,0,0],"split_type":[0,0,0,0,0,0,0,0,0,0,0,0,0,0,0],