{"learner":{"attributes":{},"feature_names":[],"feature_types":[],"gradient_booster":{"model":{"gbtree_model_param":{"num_parallel_tree":"1","num_trees":"1150"},"iteration_indptr":[0,5,10,15,20,25,30,35,40,45,50,55,60,65,70,75,80,85,90,95,100,105,110,115,120,125,130,135,140,145,150,155,160,165,170,175,180,185,190,195,200,205,210,215,220,225,230,235,240,245,250,255,260,265,270,275,280,285,290,295,300,305,310,315,320,325,330,335,340,345,350,355,360,365,370,375,380,385,390,395,400,405,410,415,420,425,430,435,440,445,450,455,460,465,470,475,480,485,490,495,500,505,510,515,520,525,530,535,540,545,550,555,560,565,570,575,580,585,590,595,600,605,610,615,620,625,630,635,640,645,650,655,660,665,670,675,680,685,690,695,700,705,710,715,720,725,730,735,740,745,750,755,760,765,770,775,780,785,790,795,800,805,810,815,820,825,830,835,840,845,850,855,860,865,870,875,880,885,890,895,900,905,910,915,920,925,930,935,940,945,950,955,960,965,970,975,980,985,990,995,1000,1005,1010,1015,1020,1025,1030,1035,1040,1045,1050,1055,1060,1065,1070,1075,1080,1085,1090,1095,1100,1105,1110,1115,1120,1125,1130,1135,1140,1145,1150],"tree_info":[0,1,2,3,4,0,1,2,3,4,0,1,2,3,4,0,1,2,3,4,0,1,2,3,4,0,1,2,3,4,0,1,2,3,4,0,1,2,3,4,0,1,2,3,4,0,1,2,3,4,0,1,2,3,4,0,1,2,3,4,0,1,2,3,4,0,1,2,3,4,0,1,2,3,4,0,1,2,3,4,0,1,2,3,4,0,1,2,3,4,0,1,2,3,4,0,1,2,3,4,0,1,2,3,4,0,1,2,3,4,0,1,2,3,4,0,1,2,3,4,0,1,2,3,4,0,1,2,3,4,0,1,2,3,4,0,1,2,3,4,0,1,2,3,4,0,1,2,3,4,0,1,2,3,4,0,1,2,3,4,0,1,2,3,4,0,1,2,3,4,0,1,2,3,4,0,1,2,3,4,0,1,2,3,4,0,1,2,3,4,0,1,2,3,4,0,1,2,3,4,0,1,2,3,4,0,1,2,3,4,0,1,2,3,4,0,1,2,3,4,0,1,2,3,4,0,1,2,3,4,0,1,2,3,4,0,1,2,3,4,0,1,2,3,4,0,1,2,3,4,0,1,2,3,4,0,1,2,3,4,0,1,2,3,4,0,1,2,3,4,0,1,2,3,4,0,1,2,3,4,0,1,2,3,4,0,1,2,3,4,0,1,2,3,4,0,1,2,3,4,0,1,2,3,4,0,1,2,3,4,0,1,2,3,4,0,1,2,3,4,0,1,2,3,4,0,1,2,3,4,0,1,2,3,4,0,1,2,3,4,0,1,2,3,4,0,1,2,3,4,0,1,2,3,4,0,1,2,3,4,0,1,2,3,4,0,1,2,3,4,0,1,2,3,4,0,1,2,3,4,0,1,2,3,4,0,1,2,3,4,0,1,2,3,4,0,1,2,3,4,0,1,2,3,4,0,1,2,3,4,0,1,2,3,4,0,1,2,3,4,0,1,2,3,4,0,1,2,3,4,0,1,2,3,4,0,1,2,3,4,0,1,2,3,4,0,1,2,3,4,0,1,2,3,4,0,1,2,3,4,0,1,2,3,4,0,1,2,3,4,0,1,2,3,4,0,1,2,3,4,0,1,2,3,4,0,1,2,3,4,0,1,2,3,4,0,1,2,3,4,0,1,2,3,4,0,1,2,3,4,0,1,2,3,4,0,1,2,3,4,0,1,2,3,4,0,1,2,3,4,0,1,2,3,4,0,1,2,3,4,0,1,2,3,4,0,1,2,3,4,0,1,2,3,4,0,1,2,3,4,0,1,2,3,4,0,1,2,3,4,0,1,2,3,4,0,1,2,3,4,0,1,2,3,4,0,1,2,3,4,0,1,2,3,4,0,1,2,3,4,0,1,2,3,4,0,1,2,3,4,0,1,2,3,4,0,1,2,3,4,0,1,2,3,4,0,1,2,3,4,0,1,2,3,4,0,1,2,3,4,0,1,2,3,4,0,1,2,3,4,0,1,2,3,4,0,1,2,3,4,0,1,2,3,4,0,1,2,3,4,0,1,2,3,4,0,1,2,3,4,0,1,2,3,4,0,1,2,3,4,0,1,2,3,4,0,1,2,3,4,0,1,2,3,4,0,1,2,3,4,0,1,2,3,4,0,1,2,3,4,0,1,2,3,4,0,1,2,3,4,0,1,2,3,4,0,1,2,3,4,0,1,2,3,4,0,1,2,3,4,0,1,2,3,4,0,1,2,3,4,0,1,2,3,4,0,1,2,3,4,0,1,2,3,4,0,1,2,3,4,0,1,2,3,4,0,1,2,3,4,0,1,2,3,4,0,1,2,3,4,0,1,2,3,4,0,1,2,3,4,0,1,2,3,4,0,1,2,3,4,0,1,2,3,4,0,1,2,3,4,0,1,2,3,4,0,1,2,3,4,0,1,2,3,4,0,1,2,3,4,0,1,2,3,4,0,1,2,3,4,0,1,2,3,4,0,1,2,3,4,0,1,2,3,4,0,1,2,3,4,0,1,2,3,4,0,1,2,3,4,0,1,2,3,4,0,1,2,3,4,0,1,2,3,4,0,1,2,3,4,0,1,2,3,4,0,1,2,3,4,0,1,2,3,4,0,1,2,3,4,0,1,2,3,4,0,1,2,3,4,0,1,2,3,4,0,1,2,3,4,0,1,2,3,4,0,1,2,3,4,0,1,2,3,4,0,1,2,3,4,0,1,2,3,4,0,1,2,3,4,0,1,2,3,4,0,1,2,3,4,0,1,2,3,4,0,1,2,3,4,0,1,2,3,4,0,1,2,3,4,0,1,2,3,4,0,1,2,3,4,0,1,2,3,4,0,1,2,3,4,0,1,2,3,4,0,1,2,3,4,0,1,2,3,4,0,1,2,3,4,0,1,2,3,4,0,1,2,3,4,0,1,2,3,4,0,1,2,3,4,0,1,2,3,4,0,1,2,3,4,0,1,2,3,4,0,1,2,3,4,0,1,2,3,4,0,1,2,3,4,0,1,2,3,4,0,1,2,3,4,0,1,2,3,4,0,1,2,3,4,0,1,2,3,4,0,1,2,3,4,0,1,2,3,4,0,1,2,3,4,0,1,2,3,4,0,1,2,3,4],"trees":[{"base_weights":[2.008659E0,4.9966237E-1,2.0708046E0,-1.574803E-1,1.4262561E0,2.2283826E0,1.7029767E0,-1.0079559E-1,4.0876287E-1,-1.3179012E-1,4.974599E-1,1.9025339E-1,6.893931E-1,-8.6917095E-2,5.29334E-1],"categories":[],"categories_nodes":[],"categories_segments":[],"categories_sizes":[],"default_left":[1,1,0,1,0,0,0,0,0,0,0,0,0,0,0],"id":0,"left_children":[1,3,5,7,9,11,13,-1,-1,-1,-1,-1,-1,-1,-1],"loss_changes":[1.3628906E2,3.6296097E1,7.770654E1,9.656338E0,1.0095909E1,4.8848145E1,2.8052856E1,0E0,0E0,0E0,0E0,0E0,0E0,0E0,0E0],"parents":[2147483647,0,0,1,1,2,2,3,3,4,4,5,5,6,6],"right_children":[2,4,6,8,10,12,14,-1,-1,-1,-1,-1,-1,-1,-1],"split_conditions":[2.0223556E-2,3.3786796E-2,5.2123208E-2,3.679444E-2,1.6147122E-1,1.9727531E-1,4.1109374E-1,-1.0079559E-1,4.0876287E-1,-1.3179012E-1,4.974599E-1,1.9025339E-1,6.893931E-1,-8.6917095E-2,5.29334E-1],"split_indices":[1130,3728,3845,2274,289,2439,2439,0,0,0,0,0,0,0,0],"split_type":[0,0,0,0,0,0,0,0,0,0,0,0,0,0,0],"sum_hessian":[1.4633601E3,5.8240005E1,1.4051201E3,3.456E1,2.3680002E1,9.801601E2,4.2496002E2,3.1680002E1,2.88E0,2.2400002E0,2.1440002E1,1.952E1,9.606401E2,6.7200003E0,4.1824002E2],"tree_param":{"num_deleted":"0","num_feature":"5000","num_nodes":"15","size_leaf_vector":"1"}},{"base_weights":[-5.023761E-1,-2.0476122E-1,-5.7244986E-1,2.556653E-1,-3.516135E-1,3.3888888E-1,-5.765544E-1,4.109002E-2,5.938053E-1,-1.136646E-1,3.969178E-1,4.280702E-1,-1.7685995E-1],"categories":[],"categories_nodes":[],"categories_segments":[],"categories_sizes":[],"default_left":[0,1,0,1,1,0,0,0,0,0,0,0,0],"id":1,"left_children":[1,3,5,7,9,-1,11,-1,-1,-1,-1,-1,-1],"loss_changes":[3.0602203E1,1.917617E1,8.875732E0,1.3818582E1,7.949074E0,0E0,8.61972E0,0E0,0E0,0E0,0E0,0E0,0E0],"parents":[2147483647,0,0,1,1,2,2,3,3,4,4,6,6],"right_children":[2,4,6,8,10,-1,12,-1,-1,-1,-1,-1,-1],"split_conditions":[5.1124655E-2,2.3952391E-2,4.4702098E-1,6.4002E-2,1.1980324E-1,3.3888888E-1,1.5059847E-1,4.109002E-2,5.938053E-1,-1.136646E-1,3.969178E-1,4.280702E-1,-1.7685995E-1],"split_indices":[3735,4510,854,2431,2393,0,221,0,0,0,0,0,0],"split_type":[0,0,0,0,0,0,0,0,0,0,0,0,0],"sum_hessian":[1.4720001E3,2.8128003E2,1.1907201E3,6.7840004E1,2.1344002E2,2.2400002E0,1.1884801E3,6.432001E1,3.5200002E0,2.1152002E2,1.9200001E0,1.2800001E0,1.1872001E3],"tree_param":{"num_deleted":"0","num_feature":"5000","num_nodes":"13","size_leaf_vector":"1"}},{"base_weights":[-5.479786E-1,-5.5846345E-1,1.2222222E0,4.9149334E-1,-5.734306E-1,-3.765432E-2,1.6863904E0,4.241124E-1,1.9805193E-2,4.5884955E-1,-1.7675953E-1,5.6770074E-1,1.605263E-1],"categories":[],"categories_nodes":[],"categories_segments":[],"categories_sizes":[],"default_left":[1,0,0,0,0,0,1,0,0,0,0,0,0],"id":2,"left_children":[1,3,5,7,9,-1,11,-1,-1,-1,-1,-1,-1],"loss_changes":[2.8063538E1,2.3339294E1,5.829792E0,8.02441E0,1.9240082E1,0E0,3.9212608E-1,0E0,0E0,0E0,0E0,0E0,0E0],"parents":[2147483647,0,0,1,1,2,2,3,3,4,4,6,6],"right_children":[2,4,6,8,10,-1,12,-1,-1,-1,-1,-1,-1],"split_conditions":[1.1225816E-1,1.6809106E-1,5.9684835E-2,3.7265368E-2,1.6502364E-1,-3.765432E-2,1.5476486E-1,4.241124E-1,1.9805193E-2,4.5884955E-1,-1.7675953E-1,5.6770074E-1,1.605263E-1],"split_indices":[289,2418,2298,2352,4715,0,38,0,0,0,0,0,0],"split_type":[0,0,0,0,0,0,0,0,0,0,0,0,0],"sum_hessian":[1.4742401E3,1.4662401E3,8.000001E0,2.0160002E1,1.4460801E3,2.2400002E0,5.76E0,5.76E0,1.4400001E1,3.5200002E0,1.44256E3,4.4800005E0,1.2800001E0],"tree_param":{"num_deleted":"0","num_feature":"5000","num_nodes":"13","size_leaf_vector":"1"}},{"base_weights":[-6.063026E-1,-6.096435E-1,4.6511626E-1,-6.1166525E-1,2.3461537E-1,-2.0618556E-1,4.280702E-1,1.8801369E-1,-1.8717511E-1,-1.17307685E-1,2.6754387E-2],"categories":[],"categories_nodes":[],"categories_segments":[],"categories_sizes":[],"default_left":[1,1,0,0,0,0,0,0,0,0,0],"id":3,"left_children":[1,3,5,7,-1,9,-1,-1,-1,-1,-1],"loss_changes":[5.5722046E0,4.5776978E0,3.5398974E0,4.0360107E0,0E0,2.3721075E-1,0E0,0E0,0E0,0E0,0E0],"parents":[2147483647,0,0,1,1,2,2,3,3,5,5],"right_children":[2,4,6,8,-1,10,-1,-1,-1,-1,-1],"split_conditions":[1.4410828E-1,1.407843E-1,4.801854E-2,1.9464585E-1,2.3461537E-1,3.3195823E-2,4.280702E-1,1.8801369E-1,-1.8717511E-1,-1.17307685E-1,2.6754387E-2],"split_indices":[490,1014,670,465,0,34,0,0,0,0,0],"split_type":[0,0,0,0,0,0,0,0,0,0,0],"sum_hessian":[1.4764801E3,1.4723201E3,4.1600003E0,1.4707201E3,1.6000001E0,2.88E0,1.2800001E0,1.9200001E0,1.4688E3,1.6000001E0,1.2800001E0],"tree_param":{"num_deleted":"0","num_feature":"5000","num_nodes":"11","size_leaf_vector":"1"}},{"base_weights":[-3.5008246E-1,-4.1680363E-1,2.8208745E-1,6.6084784E-1,-4.295517E-1,5.497854E-1,1.738088E-1,4.3940675E-1,1.2248996E-2,-1.3564096E-1,1.3936731E-1,5.555555E-3,2.619935E-1],"categories":[],"categories_nodes":[],"categories_segments":[],"categories_sizes":[],"default_left":[1,1,0,0,1,0,0,0,0,0,0,0,0],"id":4,"left_children":[1,3,5,7,9,-1,11,-1,-1,-1,-1,-1,-1],"loss_changes":[6.2503845E1,1.8669098E1,2.3032131E1,7.705992E0,1.8001526E1,0E0,1.4214762E1,0E0,0E0,0E0,0E0,0E0,0E0],"parents":[2147483647,0,0,1,1,2,2,3,3,4,4,6,6],"right_children":[2,4,6,8,10,-1,12,-1,-1,-1,-1,-1,-1],"split_conditions":[6.359634E-2,1.9056236E-2,4.6892843E-1,3.3590652E-2,1.4463054E-1,5.497854E-1,8.284035E-2,4.3940675E-1,1.2248996E-2,-1.3564096E-1,1.3936731E-1,5.555555E-3,2.619935E-1],"split_indices":[4044,4957,1260,3241,2349,0,1617,0,0,0,0,0,0],"split_type":[0,0,0,0,0,0,0,0,0,0,0,0,0],"sum_hessian":[1.4780801E3,1.3372802E3,1.408E2,1.5040001E1,1.3222401E3,8.320001E0,1.3248001E2,6.0800004E0,8.960001E0,1.3004801E3,2.1760002E1,1.0880001E2,2.3680002E1],"tree_param":{"num_deleted":"0","num_feature":"5000","num_nodes":"13","size_leaf_vector":"1"}},{"base_weights":[1.0931308E0,-3.644276E-1,1.1075885E0,-4.8826706E-1,2.1665491E-1,1.1191746E0,-1.0562078E-1,5.5262927E-2,-1.7854972E-1,5.3629052E-2,3.4539306E-1,2.3100026E-1,-9.9703684E-2],"categories":[],"categories_nodes":[],"categories_segments":[],"categories_sizes":[],"default_left":[0,1,1,0,0,0,0,0,0,0,0,0,0],"id":5,"left_children":[1,3,5,7,-1,9,11,-1,-1,-1,-1,-1,-1],"loss_changes":[4.4371826E1,3.1745465E0,2.9161865E1,1.3834834E0,0E0,2.5406494E1,4.1545844E0,0E0,0E0,0E0,0E0,0E0,0E0],"parents":[2147483647,0,0,1,1,2,2,3,3,5,5,6,6],"right_children":[2,4,6,8,-1,10,12,-1,-1,-1,-1,-1,-1],"split_conditions":[1.495027E-1,4.9755488E-2,1.399631E-1,8.58788E-2,2.1665491E-1,1.9727531E-1,5.664792E-2,5.5262927E-2,-1.7854972E-1,5.3629052E-2,3.4539306E-1,2.3100026E-1,-9.9703684E-2],"split_indices":[4509,1850,3962,2417,0,2439,2442,0,0,0,0,0,0],"split_type":[0,0,0,0,0,0,0,0,0,0,0,0,0],"sum_hessian":[2.0854775E3,2.0245132E1,2.0652324E3,1.8642742E1,1.6023898E0,2.0457728E3,1.9459637E1,2.2527328E0,1.6390009E1,2.8558626E1,2.0172142E3,3.4768476E0,1.5982789E1],"tree_param":{"num_deleted":"0","num_feature":"5000","num_nodes":"13","size_leaf_vector":"1"}},{"base_weights":[-4.5168787E-1,-1.4791536E-1,-5.302644E-1,4.0292025E-2,-4.2426765E-1,4.1395238E-1,-5.3421324E-1,4.059612E-1,-1.9637402E-3,-1.3764304E-1,3.3019257E-1,2.6638868E-1,-1.6436364E-1],"categories":[],"categories_nodes":[],"categories_segments":[],"categories_sizes":[],"default_left":[0,1,0,0,1,0,0,0,0,0,0,0,0],"id":6,"left_children":[1,3,5,7,9,-1,11,-1,-1,-1,-1,-1,-1],"loss_changes":[2.972731E1,1.3436459E1,8.116516E0,9.321056E0,4.7481136E0,0E0,7.000183E0,0E0,0E0,0E0,0E0,0E0,0E0],"parents":[2147483647,0,0,1,1,2,2,3,3,4,4,6,6],"right_children":[2,4,6,8,10,-1,12,-1,-1,-1,-1,-1,-1],"split_conditions":[5.104174E-2,3.0652598E-2,2.5502312E-1,1.4652878E-1,1.354695E-1,4.1395238E-1,4.4702098E-1,4.059612E-1,-1.9637402E-3,-1.3764304E-1,3.3019257E-1,2.6638868E-1,-1.6436364E-1],"split_indices":[4984,212,4481,294,1102,0,854,0,0,0,0,0,0],"split_type":[0,0,0,0,0,0,0,0,0,0,0,0,0],"sum_hessian":[1.2477015E3,2.5700742E2,9.906941E2,1.5339395E2,1.0361345E2,1.3528515E0,9.8934125E2,4.3993053E0,1.4899464E2,1.02476364E2,1.1370858E0,2.6660597E0,9.866752E2],"tree_param":{"num_deleted":"0","num_feature":"5000","num_nodes":"13","size_leaf_vector":"1"}},{"base_weights":[-5.0316274E-1,-5.331362E-1,2.0399642E-1,3.232017E-1,-5.4808915E-1,1.4685774E0,6.6152036E-2,-2.110214E-2,3.2259184E-1,3.5309765E-1,-1.6937713E-1,5.2485454E-1,1.3372318E-1,-2.9676821E-2,3.0160347E-1],"categories":[],"categories_nodes":[],"categories_segments":[],"categories_sizes":[],"default_left":[0,0,0,0,0,1,1,0,0,0,0,0,0,0,0],"id":7,"left_children":[1,3,5,7,9,11,13,-1,-1,-1,-1,-1,-1,-1,-1],"loss_changes":[2.6378296E1,1.5405151E1,8.813595E0,6.1365314E0,1.5093903E1,5.3891754E-1,7.206065E0,0E0,0E0,0E0,0E0,0E0,0E0,0E0,0E0],"parents":[2147483647,0,0,1,1,2,2,3,3,4,4,5,5,6,6],"right_children":[2,4,6,8,10,12,14,-1,-1,-1,-1,-1,-1,-1,-1],"split_conditions":[1.06523514E-1,1.6809106E-1,2.5458327E-2,3.649689E-2,1.6502364E-1,1.18026495E-1,6.022381E-2,-2.110214E-2,3.2259184E-1,3.5309765E-1,-1.6937713E-1,5.2485454E-1,1.3372318E-1,-2.9676821E-2,3.0160347E-1],"split_indices":[1130,2418,1037,4518,4715,289,4146,0,0,0,0,0,0,0,0],"split_type":[0,0,0,0,0,0,0,0,0,0,0,0,0,0,0],"sum_hessian":[1.2383635E3,1.1882451E3,5.0118523E1,2.0038666E1,1.1682064E3,3.97727E0,4.6141254E1,1.3651335E1,6.3873315E0,4.2696533E0,1.1639368E3,2.6563158E0,1.3209541E0,3.995755E1,6.1837015E0],"tree_param":{"num_deleted":"0","num_feature":"5000","num_nodes":"15","size_leaf_vector":"1"}},{"base_weights":[-5.717255E-1,-5.755443E-1,3.0777046E-1,-5.778863E-1,1.9790515E-1,-2.4867651E-1,3.459757E-1,-1.7698526E-1,1.4409001E-1,-1.2765585E-1,2.975238E-2],"categories":[],"categories_nodes":[],"categories_segments":[],"categories_sizes":[],"default_left":[1,1,0,1,0,1,0,0,0,0,0],"id":8,"left_children":[1,3,5,7,-1,9,-1,-1,-1,-1,-1],"loss_changes":[4.2948E0,3.8764954E0,3.0196402E0,3.3388977E0,0E0,2.982739E-1,0E0,0E0,0E0,0E0,0E0],"parents":[2147483647,0,0,1,1,2,2,3,3,5,5],"right_children":[2,4,6,8,-1,10,-1,-1,-1,-1,-1],"split_conditions":[1.4410828E-1,1.407843E-1,4.801854E-2,1.7736818E-1,1.9790515E-1,6.1426435E-2,3.459757E-1,-1.7698526E-1,1.4409001E-1,-1.2765585E-1,2.975238E-2],"split_indices":[490,1014,670,465,0,1852,0,0,0,0,0],"split_type":[0,0,0,0,0,0,0,0,0,0,0],"sum_hessian":[1.2250027E3,1.2200508E3,4.951908E0,1.2182485E3,1.8021828E0,3.3774045E0,1.5745034E0,1.2159254E3,2.3230855E0,2.1256351E0,1.2517694E0],"tree_param":{"num_deleted":"0","num_feature":"5000","num_nodes":"11","size_leaf_vector":"1"}},{"base_weights":[-2.93916E-1,-3.78677E-1,1.717762E-1,-3.8880548E-1,6.0935724E-1,4.6622753E-1,-1.0956944E-1,-1.2564042E-1,1.6980411E-1,2.4420696E-1,2.0802248E-2,-5.2074768E-2,3.6577743E-1],"categories":[],"categories_nodes":[],"categories_segments":[],"categories_sizes":[],"default_left":[0,1,1,1,0,0,1,0,0,0,0,0,0],"id":9,"left_children":[1,3,5,7,-1,9,11,-1,-1,-1,-1,-1,-1],"loss_changes":[5.128927E1,2.7211624E1,1.6662333E1,2.4164093E1,0E0,1.3013214E1,8.4787655E0,0E0,0E0,0E0,0E0,0E0,0E0],"parents":[2147483647,0,0,1,1,2,2,3,3,5,5,6,6],"right_children":[2,4,6,8,-1,10,12,-1,-1,-1,-1,-1,-1],"split_conditions":[4.3179885E-2,1.9917852E-1,5.223467E-2,1.4403604E-1,6.0935724E-1,1.09420314E-1,1.8924922E-1,-1.2564042E-1,1.6980411E-1,2.4420696E-1,2.0802248E-2,-5.2074768E-2,3.6577743E-1],"split_indices":[3517,1260,1104,2349,0,310,57,0,0,0,0,0,0],"split_type":[0,0,0,0,0,0,0,0,0,0,0,0,0],"sum_hessian":[1.2967178E3,1.097202E3,1.995158E2,1.0933787E3,3.8233635E0,9.716623E1,1.0234957E2,1.0678214E3,2.5557253E1,5.224999E1,4.491624E1,9.8610634E1,3.7389321E0],"tree_param":{"num_deleted":"0","num_feature":"5000","num_nodes":"13","size_leaf_vector":"1"}},{"base_weights":[7.7608806E-1,7.9886067E-1,1.4435367E-1,8.570693E-1,6.435988E-1,-3.3974612E-1,3.7852463E-1,2.6488674E-1,5.658355E-2,-9.202606E-2,2.0330468E-1,-1.4212744E-1,2.6193497E-1,-7.134693E-2,1.8852815E-1],"categories":[],"categories_nodes":[],"categories_segments":[],"categories_sizes":[],"default_left":[0,0,0,1,0,1,0,0,0,0,0,0,0,0,0],"id":10,"left_children":[1,3,5,7,9,11,13,-1,-1,-1,-1,-1,-1,-1,-1],"loss_changes":[3.2255737E1,1.907483E1,9.142133E0,1.1920166E1,1.3148575E1,4.402261E0,8.077784E0,0E0,0E0,0E0,0E0,0E0,0E0,0E0,0E0],"parents":[2147483647,0,0,1,1,2,2,3,3,4,4,5,5,6,6],"right_children":[2,4,6,8,10,12,14,-1,-1,-1,-1,-1,-1,-1,-1],"split_conditions":[5.249862E-2,5.389732E-2,3.912775E-2,1.1705623E-1,4.2105535E-1,1.1636289E-1,3.967607E-2,2.6488674E-1,5.658355E-2,-9.202606E-2,2.0330468E-1,-1.4212744E-1,2.6193497E-1,-7.134693E-2,1.8852815E-1],"split_indices":[4510,2274,2516,2418,1640,535,4044,0,0,0,0,0,0,0,0],"split_type":[0,0,0,0,0,0,0,0,0,0,0,0,0,0,0],"sum_hessian":[2.2491433E3,2.1706323E3,7.851096E1,1.5754618E3,5.951705E2,2.5449196E1,5.3061768E1,1.5488488E3,2.6613003E1,1.3833163E1,5.813373E2,2.357699E1,1.8722055E0,1.4927888E1,3.813388E1],"tree_param":{"num_deleted":"0","num_feature":"5000","num_nodes":"15","size_leaf_vector":"1"}},{"base_weights":[-4.1724834E-1,-1.19612716E-1,-5.0093526E-1,3.4292944E-2,-3.6670598E-1,3.8300475E-1,-5.055091E-1,-8.358287E-3,2.827169E-1,-1.267575E-1,2.1895468E-1,-1.5626267E-1,1.8761508E-1],"categories":[],"categories_nodes":[],"categories_segments":[],"categories_sizes":[],"default_left":[0,1,0,1,1,0,1,0,0,0,0,0,0],"id":11,"left_children":[1,3,5,7,9,-1,11,-1,-1,-1,-1,-1,-1],"loss_changes":[2.6540817E1,8.975686E0,7.3298035E0,8.074225E0,5.0997953E0,0E0,6.679489E0,0E0,0E0,0E0,0E0,0E0,0E0],"parents":[2147483647,0,0,1,1,2,2,3,3,4,4,6,6],"right_children":[2,4,6,8,10,-1,12,-1,-1,-1,-1,-1,-1],"split_conditions":[5.104174E-2,3.0652598E-2,1.582871E-1,7.631613E-2,9.693836E-2,3.8300475E-1,1.3601728E-1,-8.358287E-3,2.827169E-1,-1.267575E-1,2.1895468E-1,-1.5626267E-1,1.8761508E-1],"split_indices":[4984,212,3426,4399,4916,0,624,0,0,0,0,0,0],"split_type":[0,0,0,0,0,0,0,0,0,0,0,0,0],"sum_hessian":[1.0669497E3,2.3469115E2,8.322585E2,1.4514604E2,8.954511E1,1.4508902E0,8.308076E2,1.3666917E2,8.476867E0,8.627283E1,3.2722883E0,8.263161E2,4.4915504E0],"tree_param":{"num_deleted":"0","num_feature":"5000","num_nodes":"13","size_leaf_vector":"1"}},{"base_weights":[-4.6753946E-1,4.3555495E-1,-4.9328136E-1,8.266481E-1,1.0502046E-2,8.5476595E-1,-5.0203186E-1,3.6568485E-2,3.48278E-1,-1.17529735E-1,2.9170957E-1,-1.1279348E-1,3.5177046E-1,-1.5530147E-1,2.858928E-1],"categories":[],"categories_nodes":[],"categories_segments":[],"categories_sizes":[],"default_left":[0,1,0,0,1,0,1,0,0,0,0,0,0,0,0],"id":12,"left_children":[1,3,5,7,9,11,13,-1,-1,-1,-1,-1,-1,-1,-1],"loss_changes":[2.4332397E1,4.859119E0,1.2333145E1,3.2580576E0,6.0019684E0,2.9415064E0,1.0807251E1,0E0,0E0,0E0,0E0,0E0,0E0,0E0,0E0],"parents":[2147483647,0,0,1,1,2,2,3,3,4,4,5,5,6,6],"right_children":[2,4,6,8,10,12,14,-1,-1,-1,-1,-1,-1,-1,-1],"split_conditions":[1.938602E-1,1.1795955E-1,3.7470016E-1,1.2607414E-1,6.554737E-2,6.44341E-2,1.5682536E-1,3.6568485E-2,3.48278E-1,-1.17529735E-1,2.9170957E-1,-1.1279348E-1,3.5177046E-1,-1.5530147E-1,2.858928E-1],"split_indices":[4509,288,4715,1483,1732,2216,2176,0,0,0,0,0,0,0,0],"split_type":[0,0,0,0,0,0,0,0,0,0,0,0,0,0,0],"sum_hessian":[1.0364316E3,2.8282593E1,1.008149E3,1.4237651E1,1.4044943E1,5.878396E0,1.00227057E3,4.8175406E0,9.420111E0,1.0319227E1,3.7257159E0,1.1055533E0,4.772843E0,9.9795734E2,4.3132744E0],"tree_param":{"num_deleted":"0","num_feature":"5000","num_nodes":"15","size_leaf_vector":"1"}},{"base_weights":[-5.4633003E-1,3.7518382E-1,-5.501763E-1,4.0593627E-1,-1.22953676E-1,2.0877397E-1,-5.521578E-1,-1.6901302E-1,2.0407616E-1],"categories":[],"categories_nodes":[],"categories_segments":[],"categories_sizes":[],"default_left":[0,1,0,0,0,0,1,0,0],"id":13,"left_children":[1,3,5,-1,-1,-1,7,-1,-1],"loss_changes":[3.7678528E0,4.0856266E0,2.827057E0,0E0,0E0,0E0,2.7927856E0,0E0,0E0],"parents":[2147483647,0,0,1,1,2,2,6,6],"right_children":[2,4,6,-1,-1,-1,8,-1,-1],"split_conditions":[1.5797974E-1,2.61041E-2,1.6443382E-1,4.0593627E-1,-1.22953676E-1,2.0877397E-1,1.6031824E-1,-1.6901302E-1,2.0407616E-1],"split_indices":[706,1381,608,0,0,0,468,0,0],"split_type":[0,0,0,0,0,0,0,0,0],"sum_hessian":[1.00381647E3,3.771089E0,1.0000454E3,1.3739104E0,2.3971786E0,1.0504552E0,9.9899493E2,9.9792065E2,1.0742947E0],"tree_param":{"num_deleted":"0","num_feature":"5000","num_nodes":"9","size_leaf_vector":"1"}},{"base_weights":[-2.3476021E-1,-3.551985E-1,8.569651E-2,-3.65438E-2,-4.2349854E-1,-2.0056555E-1,3.219325E-1,-2.7074661E-2,4.5395172E-1,-1.312251E-1,3.703443E-1,2.6382595E-1,-7.782302E-2,1.3925898E-1,-6.9926694E-2],"categories":[],"categories_nodes":[],"categories_segments":[],"categories_sizes":[],"default_left":[1,0,0,0,0,0,0,0,0,0,0,0,0,0,0],"id":14,"left_children":[1,3,5,7,9,11,13,-1,-1,-1,-1,-1,-1,-1,-1],"loss_changes":[4.452854E1,1.822699E1,2.1417437E1,1.2001593E1,8.149231E0,8.561129E0,1.2972881E1,0E0,0E0,0E0,0E0,0E0,0E0,0E0,0E0],"parents":[2147483647,0,0,1,1,2,2,3,3,4,4,5,5,6,6],"right_children":[2,4,6,8,10,12,14,-1,-1,-1,-1,-1,-1,-1,-1],"split_conditions":[5.714819E-2,3.454727E-2,6.0420632E-2,2.713599E-2,5.0339956E-2,2.2245222E-1,8.029251E-2,-2.7074661E-2,4.5395172E-1,-1.312251E-1,3.703443E-1,2.6382595E-1,-7.782302E-2,1.3925898E-1,-6.9926694E-2],"split_indices":[4273,156,4307,4957,4714,1260,1692,0,0,0,0,0,0,0,0],"split_type":[0,0,0,0,0,0,0,0,0,0,0,0,0,0,0],"sum_hessian":[1.151942E3,8.3718976E2,3.1475223E2,1.4804037E2,6.891494E2,1.4237654E2,1.7237567E2,1.4404874E2,3.9916368E0,6.8705597E2,2.0934556E0,6.215354E0,1.361612E2,1.3867099E2,3.3704685E1],"tree_param":{"num_deleted":"0","num_feature":"5000","num_nodes":"15","size_leaf_vector":"1"}},{"base_weights":[6.093612E-1,6.78914E-1,4.4183585E-1,4.1669998E-1,7.111672E-1,4.791834E-1,-1.2110457E-1,1.3701816E-1,-1.546119E-1,2.2054414E-1,5.2253194E-2,1.3249579E-1,2.4757469E-1,-8.25593E-2,2.2473624E-1],"categories":[],"categories_nodes":[],"categories_segments":[],"categories_sizes":[],"default_left":[0,0,0,1,1,1,1,0,0,0,0,0,0,0,0],"id":15,"left_children":[1,3,5,7,9,11,13,-1,-1,-1,-1,-1,-1,-1,-1],"loss_changes":[2.5585571E1,1.2964294E1,1.3821075E1,5.461899E0,8.857971E0,8.790024E0,5.528625E0,0E0,0E0,0E0,0E0,0E0,0E0,0E0,0E0],"parents":[2147483647,0,0,1,1,2,2,3,3,4,4,5,5,6,6],"right_children":[2,4,6,8,10,12,14,-1,-1,-1,-1,-1,-1,-1,-1],"split_conditions":[5.389732E-2,6.329557E-2,1.0674767E-1,1.2730868E-1,8.8312805E-2,6.978544E-2,8.4114805E-2,1.3701816E-1,-1.546119E-1,2.2054414E-1,5.2253194E-2,1.3249579E-1,2.4757469E-1,-8.25593E-2,2.2473624E-1],"split_indices":[2274,4697,4510,43,2184,683,763,0,0,0,0,0,0,0,0],"split_type":[0,0,0,0,0,0,0,0,0,0,0,0,0,0,0],"sum_hessian":[2.2205833E3,1.566962E3,6.536212E2,1.7315514E2,1.3938069E3,6.1309503E2,4.052619E1,1.677585E2,5.396628E0,1.3633433E3,3.0463562E1,5.423785E2,7.0716576E1,3.5092373E1,5.4338202E0],"tree_param":{"num_deleted":"0","num_feature":"5000","num_nodes":"15","size_leaf_vector":"1"}},{"base_weights":[-3.733813E-1,-7.6444834E-2,-4.7329506E-1,2.2917701E-1,-2.4963395E-1,4.4002183E-2,-4.9356493E-1,-1.0595778E-1,1.2785606E-1,-8.538074E-2,4.0649602E-1,-4.782106E-2,2.7724043E-1,-1.5273714E-1,1.6800654E-1],"categories":[],"categories_nodes":[],"categories_segments":[],"categories_sizes":[],"default_left":[0,1,0,0,1,0,1,0,0,0,0,0,0,0,0],"id":16,"left_children":[1,3,5,7,9,11,13,-1,-1,-1,-1,-1,-1,-1,-1],"loss_changes":[2.676831E1,1.2160228E1,7.108078E0,9.2644825E0,7.3946524E0,4.727923E0,5.175354E0,0E0,0E0,0E0,0E0,0E0,0E0,0E0,0E0],"parents":[2147483647,0,0,1,1,2,2,3,3,4,4,5,5,6,6],"right_children":[2,4,6,8,10,12,14,-1,-1,-1,-1,-1,-1,-1,-1],"split_conditions":[5.1963594E-2,2.5264759E-2,5.6339968E-2,3.3699412E-2,1.3503484E-1,2.7086163E-2,1.873603E-1,-1.0595778E-1,1.2785606E-1,-8.538074E-2,4.0649602E-1,-4.782106E-2,2.7724043E-1,-1.5273714E-1,1.6800654E-1],"split_indices":[3735,4573,1122,2442,4216,969,573,0,0,0,0,0,0,0,0],"split_type":[0,0,0,0,0,0,0,0,0,0,0,0,0,0,0],"sum_hessian":[9.024805E2,2.276592E2,6.7482135E2,8.222891E1,1.4543027E2,2.5401125E1,6.494202E2,2.0177364E1,6.205155E1,1.4350526E2,1.9250137E0,2.1280027E1,4.121097E0,6.454831E2,3.9371207E0],"tree_param":{"num_deleted":"0","num_feature":"5000","num_nodes":"15","size_leaf_vector":"1"}},{"base_weights":[-4.340876E-1,-9.6148655E-2,-5.0410354E-1,-1.3373806E-1,1.36117E0,3.8329914E-1,-5.181697E-1,9.98161E-2,-7.839439E-2,6.0256755E-1,3.2687865E-2,-1.6143227E-1,3.5973734E-1,3.326291E-1,-1.5931219E-1],"categories":[],"categories_nodes":[],"categories_segments":[],"categories_sizes":[],"default_left":[1,1,0,0,1,0,0,0,0,0,0,0,0,0,0],"id":17,"left_children":[1,3,5,7,9,11,13,-1,-1,-1,-1,-1,-1,-1,-1],"loss_changes":[2.0520401E1,8.422698E0,9.184402E0,8.471224E0,2.7718306E0,9.203265E0,5.3211823E0,0E0,0E0,0E0,0E0,0E0,0E0,0E0,0E0],"parents":[2147483647,0,0,1,1,2,2,3,3,4,4,5,5,6,6],"right_children":[2,4,6,8,10,12,14,-1,-1,-1,-1,-1,-1,-1,-1],"split_conditions":[2.5697935E-2,1.0202358E-1,1.9357345E-1,1.3037288E-1,2.7160257E-2,3.9298862E-2,2.3628147E-1,9.98161E-2,-7.839439E-2,6.0256755E-1,3.2687865E-2,-1.6143227E-1,3.5973734E-1,3.326291E-1,-1.5931219E-1],"split_indices":[1130,3651,4119,2788,373,911,1208,0,0,0,0,0,0,0,0],"split_type":[0,0,0,0,0,0,0,0,0,0,0,0,0,0,0],"sum_hessian":[8.683109E2,1.4943257E2,7.188783E2,1.4656049E2,2.8720827E0,1.0807509E1,7.080708E2,3.0576712E1,1.1598377E2,1.54135E0,1.3307328E0,5.1917806E0,5.6157293E0,1.1550204E0,7.069158E2],"tree_param":{"num_deleted":"0","num_feature":"5000","num_nodes":"15","size_leaf_vector":"1"}},{"base_weights":[-5.230235E-1,-5.285758E-1,5.384639E-1,5.453923E-1,-5.3313196E-1,-1.03260554E-1,3.0485976E-1,-1.0865498E-1,3.9991087E-1,-1.6361265E-1,1.816864E-1],"categories":[],"categories_nodes":[],"categories_segments":[],"categories_sizes":[],"default_left":[1,0,0,0,1,0,0,0,0,0,0],"id":18,"left_children":[1,3,5,7,9,-1,-1,-1,-1,-1,-1],"loss_changes":[5.167404E0,4.32605E0,2.2819443E0,3.213849E0,3.3831024E0,0E0,0E0,0E0,0E0,0E0,0E0],"parents":[2147483647,0,0,1,1,2,2,3,3,4,4],"right_children":[2,4,6,8,10,-1,-1,-1,-1,-1,-1],"split_conditions":[1.4410828E-1,2.669087E-1,5.5270575E-2,4.5270212E-2,1.407843E-1,-1.03260554E-1,3.0485976E-1,-1.0865498E-1,3.9991087E-1,-1.6361265E-1,1.816864E-1],"split_indices":[490,465,1287,670,1014,0,0,0,0,0,0],"split_type":[0,0,0,0,0,0,0,0,0,0,0],"sum_hessian":[8.274722E2,8.236659E2,3.806289E0,2.9781027E0,8.206878E2,1.4031147E0,2.4031744E0,1.6133512E0,1.3647515E0,8.188168E2,1.8710347E0],"tree_param":{"num_deleted":"0","num_feature":"5000","num_nodes":"11","size_leaf_vector":"1"}},{"base_weights":[-1.9229215E-1,-3.12225E-1,9.6211165E-2,8.425128E-1,-3.2406795E-1,1.7525211E-1,-5.0547767E-1,-3.1334687E-2,-1.2684107E-1,7.967225E-2,-1.1335687E-1,6.3822724E-2,-1.6255969E-1],"categories":[],"categories_nodes":[],"categories_segments":[],"categories_sizes":[],"default_left":[1,0,0,0,0,0,0,0,0,0,0,0,0],"id":19,"left_children":[1,3,5,-1,7,9,11,-1,-1,-1,-1,-1,-1],"loss_changes":[3.536013E1,2.7165619E1,1.4384095E1,0E0,1.4579094E1,1.2623957E1,8.02722E-1,0E0,0E0,0E0,0E0,0E0,0E0],"parents":[2147483647,0,0,1,1,2,2,4,4,5,5,6,6],"right_children":[2,4,6,-1,8,10,12,-1,-1,-1,-1,-1,-1],"split_conditions":[5.6790985E-2,4.9420914E-1,7.105868E-2,8.425128E-1,3.7473E-2,7.454787E-2,1.2900366E-1,-3.1334687E-2,-1.2684107E-1,7.967225E-2,-1.1335687E-1,6.3822724E-2,-1.6255969E-1],"split_indices":[3926,426,4488,0,156,3669,1734,0,0,0,0,0,0],"split_type":[0,0,0,0,0,0,0,0,0,0,0,0,0],"sum_hessian":[1.02007056E3,7.2047986E2,2.9959073E2,1.8734127E0,7.1860645E2,2.654311E2,3.4159664E1,2.1130067E2,5.0730576E2,2.2982733E2,3.560375E1,1.0209812E0,3.3138683E1],"tree_param":{"num_deleted":"0","num_feature":"5000","num_nodes":"13","size_leaf_vector":"1"}},{"base_weights":[4.9511066E-1,2.780483E-1,5.4529715E-1,3.521982E-1,-6.007428E-2,5.549041E-1,-3.6434266E-1,-1.696655E-1,1.1564789E-1,-7.63976E-2,1.0425197E-1,1.7317422E-1,8.884206E-3,3.4967005E-2,-1.4426334E-1],"categories":[],"categories_nodes":[],"categories_segments":[],"categories_sizes":[],"default_left":[1,0,1,0,1,1,0,0,0,0,0,0,0,0,0],"id":20,"left_children":[1,3,5,7,9,11,13,-1,-1,-1,-1,-1,-1,-1,-1],"loss_changes":[2.2610107E1,9.909914E0,1.502359E1,8.1418E0,5.5794005E0,1.1351929E1,1.0081103E0,0E0,0E0,0E0,0E0,0E0,0E0,0E0,0E0],"parents":[2147483647,0,0,1,1,2,2,3,3,4,4,5,5,6,6],"right_children":[2,4,6,8,10,12,14,-1,-1,-1,-1,-1,-1,-1,-1],"split_conditions":[2.6648331E-2,2.6840609E-2,1.9917852E-1,1.4120068E-1,4.4011127E-2,1.4403604E-1,8.251098E-2,-1.696655E-1,1.1564789E-1,-7.63976E-2,1.0425197E-1,1.7317422E-1,8.884206E-3,3.4967005E-2,-1.4426334E-1],"split_indices":[3517,4510,1260,1018,1850,2349,1852,0,0,0,0,0,0,0,0],"split_type":[0,0,0,0,0,0,0,0,0,0,0,0,0,0,0],"sum_hessian":[2.0884565E3,3.9341806E2,1.6950385E3,3.226251E2,7.0792946E1,1.6777097E3,1.7328745E1,8.73754E0,3.1388757E2,4.8290157E1,2.2502789E1,1.6375145E3,4.019512E1,3.1938014E0,1.4134944E1],"tree_param":{"num_deleted":"0","num_feature":"5000","num_nodes":"15","size_leaf_vector":"1"}},{"base_weights":[-3.3488253E-1,-4.1300558E-2,-4.3557656E-1,-8.9647755E-2,1.2101231E0,6.0248464E-1,-4.4955218E-1,4.4341078E-1,-3.5188466E-2,-1.07245944E-1,5.0414205E-1,-1.2814201E-1,4.1170326E-1,-1.4207333E-1,1.3460864E-1],"categories":[],"categories_nodes":[],"categories_segments":[],"categories_sizes":[],"default_left":[0,1,0,0,0,0,1,0,0,0,0,0,0,0,0],"id":21,"left_children":[1,3,5,7,9,11,13,-1,-1,-1,-1,-1,-1,-1,-1],"loss_changes":[2.2761581E1,1.20820265E1,8.593391E0,7.7699046E0,5.7195463E0,6.718067E0,8.414619E0,0E0,0E0,0E0,0E0,0E0,0E0,0E0,0E0],"parents":[2147483647,0,0,1,1,2,2,3,3,4,4,5,5,6,6],"right_children":[2,4,6,8,10,12,14,-1,-1,-1,-1,-1,-1,-1,-1],"split_conditions":[5.3174406E-2,1.1413637E-1,5.0579056E-2,1.5320386E-1,1.1378194E-1,2.74158E-2,1.3271888E-1,4.4341078E-1,-3.5188466E-2,-1.07245944E-1,5.0414205E-1,-1.2814201E-1,4.1170326E-1,-1.4207333E-1,1.3460864E-1],"split_indices":[4467,926,2497,3090,258,1401,1640,0,0,0,0,0,0,0,0],"split_type":[0,0,0,0,0,0,0,0,0,0,0,0,0,0,0],"sum_hessian":[7.695706E2,1.9690054E2,5.726701E2,1.9047032E2,6.4302216E0,7.0481415E0,5.6562195E2,2.2123854E0,1.8825793E2,1.465909E0,4.9643126E0,3.1608968E0,3.887245E0,5.55951E2,9.670979E0],"tree_param":{"num_deleted":"0","num_feature":"5000","num_nodes":"15","size_leaf_vector":"1"}},{"base_weights":[-4.014097E-1,-4.4160683E-2,-4.848211E-1,-8.2240425E-2,1.2208143E0,5.8155584E-1,-4.9236742E-1,-7.376463E-2,6.76846E-2,5.4504144E-1,-8.4052324E-2,2.3122886E-1,1.0388698E-2,3.1940433E-1,-1.5167408E-1],"categories":[],"categories_nodes":[],"categories_segments":[],"categories_sizes":[],"default_left":[1,1,0,0,1,0,0,0,0,0,0,0,0,0,0],"id":22,"left_children":[1,3,5,7,9,11,13,-1,-1,-1,-1,-1,-1,-1,-1],"loss_changes":[2.173243E1,6.8097568E0,5.0482025E0,6.663395E0,3.9946637E0,4.2047012E-1,4.9799194E0,0E0,0E0,0E0,0E0,0E0,0E0,0E0,0E0],"parents":[2147483647,0,0,1,1,2,2,3,3,4,4,5,5,6,6],"right_children":[2,4,6,8,10,12,14,-1,-1,-1,-1,-1,-1,-1,-1],"split_conditions":[2.5697935E-2,9.840279E-2,4.2531726E-1,2.6626796E-2,3.400647E-2,4.2066272E-2,2.3519564E-1,-7.376463E-2,6.76846E-2,5.4504144E-1,-8.4052324E-2,2.3122886E-1,1.0388698E-2,3.1940433E-1,-1.5167408E-1],"split_indices":[1130,644,1994,3595,3669,272,1208,0,0,0,0,0,0,0,0],"split_type":[0,0,0,0,0,0,0,0,0,0,0,0,0,0,0],"sum_hessian":[7.290277E2,1.3828517E2,5.907425E2,1.3515167E2,3.1335056E0,3.61657E0,5.87126E2,8.8772095E1,4.637958E1,2.132422E0,1.0010836E0,2.4437263E0,1.1728437E0,1.1971849E0,5.859288E2],"tree_param":{"num_deleted":"0","num_feature":"5000","num_nodes":"15","size_leaf_vector":"1"}},{"base_weights":[-5.01277E-1,-5.0769365E-1,3.768731E-1,4.8790488E-1,-5.131677E-1,-1.5538631E-1,2.8539371E-1,3.6391383E-1,-1.045717E-1,7.674969E-2,-1.587254E-1,-1.0948746E-1,5.579022E-2],"categories":[],"categories_nodes":[],"categories_segments":[],"categories_sizes":[],"default_left":[1,0,0,1,0,0,0,0,0,0,0,0,0],"id":23,"left_children":[1,3,5,7,9,11,-1,-1,-1,-1,-1,-1,-1],"loss_changes":[3.9739532E0,3.884735E0,1.7645845E0,2.8459082E0,3.8077393E0,3.1676036E-1,0E0,0E0,0E0,0E0,0E0,0E0,0E0],"parents":[2147483647,0,0,1,1,2,2,3,3,4,4,5,5],"right_children":[2,4,6,8,10,12,-1,-1,-1,-1,-1,-1,-1],"split_conditions":[1.4410828E-1,1.5797974E-1,4.801854E-2,2.5277408E-2,8.467329E-2,3.7765946E-2,2.8539371E-1,3.6391383E-1,-1.045717E-1,7.674969E-2,-1.587254E-1,-1.0948746E-1,5.579022E-2],"split_indices":[490,706,670,1710,418,95,0,0,0,0,0,0,0],"split_type":[0,0,0,0,0,0,0,0,0,0,0,0,0],"sum_hessian":[6.7030225E2,6.658587E2,4.4435596E0,3.159113E0,6.626996E2,2.6456835E0,1.7978762E0,1.4726887E0,1.686424E0,5.900983E0,6.567986E2,1.613559E0,1.0321245E0],"tree_param":{"num_deleted":"0","num_feature":"5000","num_nodes":"13","size_leaf_vector":"1"}},{"base_weights":[-1.4538914E-1,-2.7038607E-1,1.2978134E-1,5.188463E-1,-2.8274015E-1,1.9599445E-1,-5.053445E-1,-3.5989273E-2,-1.23938285E-1,8.193725E-2,-1.1379763E-1,-1.6489726E-1,6.623536E-2],"categories":[],"categories_nodes":[],"categories_segments":[],"categories_sizes":[],"default_left":[1,0,0,0,0,1,1,0,0,0,0,0,0],"id":24,"left_children":[1,3,5,-1,7,9,11,-1,-1,-1,-1,-1,-1],"loss_changes":[3.1905844E1,1.6007832E1,1.22992E1,0E0,1.2870884E1,1.0992585E1,8.231287E-1,0E0,0E0,0E0,0E0,0E0,0E0],"parents":[2147483647,0,0,1,1,2,2,4,4,5,5,6,6],"right_children":[2,4,6,-1,8,10,12,-1,-1,-1,-1,-1,-1],"split_conditions":[5.714819E-2,4.9420914E-1,7.105868E-2,5.188463E-1,4.091803E-2,9.839125E-2,1.1269179E-1,-3.5989273E-2,-1.23938285E-1,8.193725E-2,-1.1379763E-1,-1.6489726E-1,6.623536E-2],"split_indices":[4273,426,4488,0,156,2739,4325,0,0,0,0,0,0],"split_type":[0,0,0,0,0,0,0,0,0,0,0,0,0],"sum_hessian":[9.255976E2,6.364884E2,2.891092E2,3.1123087E0,6.333761E2,2.6244064E2,2.6668545E1,2.723576E2,3.610185E2,2.331982E2,2.9242456E1,2.566619E1,1.0023557E0],"tree_param":{"num_deleted":"0","num_feature":"5000","num_nodes":"13","size_leaf_vector":"1"}},{"base_weights":[4.0263623E-1,4.7935995E-1,2.4334061E-1,2.200195E-1,5.15119E-1,2.7550983E-1,-1.5305293E-1,-1.5318891E-1,7.8785405E-2,1.746855E-1,1.1477415E-1,-2.1431267E-1,8.7649584E-2,-1.569536E-1,9.510231E-2],"categories":[],"categories_nodes":[],"categories_segments":[],"categories_sizes":[],"default_left":[0,0,0,0,1,0,1,0,0,0,0,0,0,0,0],"id":25,"left_children":[1,3,5,7,9,11,13,-1,-1,-1,-1,-1,-1,-1,-1],"loss_changes":[2.3256744E1,1.184729E1,7.99559E0,4.5005894E0,8.844116E0,6.9020576E0,8.1372595E0,0E0,0E0,0E0,0E0,0E0,0E0,0E0,0E0],"parents":[2147483647,0,0,1,1,2,2,3,3,4,4,5,5,6,6],"right_children":[2,4,6,8,10,12,14,-1,-1,-1,-1,-1,-1,-1,-1],"split_conditions":[5.3884484E-2,6.2998004E-2,1.06523514E-1,1.1686072E-1,4.7628023E-2,3.7470016E-1,3.6249217E-2,-1.5318891E-1,7.8785405E-2,1.746855E-1,1.1477415E-1,-2.1431267E-1,8.7649584E-2,-1.569536E-1,9.510231E-2],"split_indices":[2883,1153,1130,4953,2352,4715,2959,0,0,0,0,0,0,0,0],"split_type":[0,0,0,0,0,0,0,0,0,0,0,0,0,0,0],"sum_hessian":[1.911442E3,1.288726E3,6.22716E2,1.5702966E2,1.1316963E3,5.762551E2,4.646089E1,7.2961154E0,1.4973355E2,7.975191E2,3.341772E2,6.2087984E0,5.700463E2,2.6074436E1,2.0386456E1],"tree_param":{"num_deleted":"0","num_feature":"5000","num_nodes":"15","size_leaf_vector":"1"}},{"base_weights":[-2.900207E-1,-9.458994E-2,-4.5717096E-1,1.1408491E0,-1.23815E-1,-4.8051882E-1,3.7888026E-1,2.114378E-3,6.4798254E-1,-4.612475E-2,2.9522416E-1,2.2895609E-1,-1.5070361E-1,4.5601624E-1,-1.4140551E-1],"categories":[],"categories_nodes":[],"categories_segments":[],"categories_sizes":[],"default_left":[1,0,1,1,1,0,0,0,0,0,0,0,0,0,0],"id":26,"left_children":[1,3,5,7,9,11,13,-1,-1,-1,-1,-1,-1,-1,-1],"loss_changes":[2.1689045E1,1.1260258E1,7.176567E0,8.032382E0,9.177288E0,6.2114716E0,1.0374166E1,0E0,0E0,0E0,0E0,0E0,0E0,0E0,0E0],"parents":[2147483647,0,0,1,1,2,2,3,3,4,4,5,5,6,6],"right_children":[2,4,6,8,10,12,14,-1,-1,-1,-1,-1,-1,-1,-1],"split_conditions":[3.3475216E-2,1.0370475E-1,1.485184E-1,5.5802062E-2,1.3601728E-1,2.4629167E-1,7.488195E-2,2.114378E-3,6.4798254E-1,-4.612475E-2,2.9522416E-1,2.2895609E-1,-1.5070361E-1,4.5601624E-1,-1.4140551E-1],"split_indices":[688,2441,100,2216,624,573,3735,0,0,0,0,0,0,0,0],"split_type":[0,0,0,0,0,0,0,0,0,0,0,0,0,0,0],"sum_hessian":[6.6428143E2,3.0695636E2,3.5732504E2,6.2144504E0,3.007419E2,3.4803107E2,9.293989E0,3.354585E0,2.8598654E0,2.9421576E2,6.526143E0,3.20789E0,3.4482318E2,3.6643603E0,5.629629E0],"tree_param":{"num_deleted":"0","num_feature":"5000","num_nodes":"15","size_leaf_vector":"1"}},{"base_weights":[-3.7154734E-1,-5.410822E-2,-4.6006867E-1,-8.487686E-2,4.853539E-1,3.3430082E-1,-4.7707254E-1,-3.7739147E-2,3.441561E-1,-1.4689451E-1,2.7655283E-1,3.212835E-1,-1.4735013E-1],"categories":[],"categories_nodes":[],"categories_segments":[],"categories_sizes":[],"default_left":[1,1,0,1,0,0,0,0,0,0,0,0,0],"id":27,"left_children":[1,3,5,7,-1,9,11,-1,-1,-1,-1,-1,-1],"loss_changes":[1.7266647E1,6.9856987E0,6.6570663E0,6.4466248E0,0E0,5.4197903E0,4.868187E0,0E0,0E0,0E0,0E0,0E0,0E0],"parents":[2147483647,0,0,1,1,2,2,3,3,5,5,6,6],"right_children":[2,4,6,8,-1,10,12,-1,-1,-1,-1,-1,-1],"split_conditions":[2.5697935E-2,1.4456894E-1,1.9357345E-1,1.0202358E-1,4.853539E-1,3.9298862E-2,2.282023E-1,-3.7739147E-2,3.441561E-1,-1.4689451E-1,2.7655283E-1,3.212835E-1,-1.4735013E-1],"split_indices":[1130,1652,4119,3651,0,911,4019,0,0,0,0,0,0],"split_type":[0,0,0,0,0,0,0,0,0,0,0,0,0],"sum_hessian":[6.143547E2,1.3431389E2,4.800408E2,1.327794E2,1.5344813E0,9.669099E0,4.703717E2,1.2952888E2,3.2505193E0,4.0520625E0,5.6170363E0,1.168208E0,4.692035E2],"tree_param":{"num_deleted":"0","num_feature":"5000","num_nodes":"13","size_leaf_vector":"1"}},{"base_weights":[-4.8678032E-1,-4.933004E-1,5.983442E-1,-4.9800134E-1,1.773117E-1,3.467304E-1,-9.165006E-2,-1.5374552E-1,9.550329E-2],"categories":[],"categories_nodes":[],"categories_segments":[],"categories_sizes":[],"default_left":[1,1,0,1,0,0,0,0,0],"id":28,"left_children":[1,3,5,7,-1,-1,-1,-1,-1],"loss_changes":[4.1736603E0,3.0450897E0,2.145028E0,2.8398285E0,0E0,0E0,0E0,0E0,0E0],"parents":[2147483647,0,0,1,1,2,2,3,3],"right_children":[2,4,6,8,-1,-1,-1,-1,-1],"split_conditions":[1.755065E-1,1.407843E-1,9.522028E-2,1.4410828E-1,1.773117E-1,3.467304E-1,-9.165006E-2,-1.5374552E-1,9.550329E-2],"split_indices":[465,1014,2559,490,0,0,0,0,0],"split_type":[0,0,0,0,0,0,0,0,0],"sum_hessian":[5.471878E2,5.4446173E2,2.7260606E0,5.426247E2,1.8370513E0,1.5391896E0,1.186871E0,5.389618E2,3.662912E0],"tree_param":{"num_deleted":"0","num_feature":"5000","num_nodes":"9","size_leaf_vector":"1"}},{"base_weights":[-1.045954E-1,-2.2148289E-1,1.4008518E-1,8.290143E-1,-2.4624835E-1,2.944768E-1,-9.303367E-2,7.918479E-2,4.6448392E-1,-7.8987196E-2,5.2519363E-1,1.3084541E-1,-9.758771E-2,-6.610962E-2,1.75528E-1],"categories":[],"categories_nodes":[],"categories_segments":[],"categories_sizes":[],"default_left":[1,1,0,1,0,0,1,0,0,0,0,0,0,0,0],"id":29,"left_children":[1,3,5,7,9,11,13,-1,-1,-1,-1,-1,-1,-1,-1],"loss_changes":[2.4005836E1,1.4972593E1,9.803083E0,4.860737E0,1.4356323E1,1.3662852E1,9.138107E0,0E0,0E0,0E0,0E0,0E0,0E0,0E0,0E0],"parents":[2147483647,0,0,1,1,2,2,3,3,4,4,5,5,6,6],"right_children":[2,4,6,8,10,12,14,-1,-1,-1,-1,-1,-1,-1,-1],"split_conditions":[5.6268636E-2,1.9056236E-2,8.5772455E-2,2.6628667E-2,5.0315555E-2,7.673118E-2,1.2384243E-1,7.918479E-2,4.6448392E-1,-7.8987196E-2,5.2519363E-1,1.3084541E-1,-9.758771E-2,-6.610962E-2,1.75528E-1],"split_indices":[1287,4957,2742,156,1329,1692,3897,0,0,0,0,0,0,0,0],"split_type":[0,0,0,0,0,0,0,0,0,0,0,0,0,0,0],"sum_hessian":[8.3727716E2,5.6666693E2,2.7061023E2,1.2303526E1,5.543634E2,1.6263557E2,1.0797467E2,7.512788E0,4.790738E0,5.516648E2,2.698562E0,1.336714E2,2.8964174E1,9.1683495E1,1.6291174E1],"tree_param":{"num_deleted":"0","num_feature":"5000","num_nodes":"15","size_leaf_vector":"1"}},{"base_weights":[3.353778E-1,4.1260767E-1,1.8128534E-1,1.6374016E-1,4.4876057E-1,-4.670532E-1,2.0095438E-1,1.2264091E-1,-7.197387E-3,1.561895E-1,9.047389E-2,-1.9286415E-1,1.7172705E-1,6.9238916E-2,-9.042416E-2],"categories":[],"categories_nodes":[],"categories_segments":[],"categories_sizes":[],"default_left":[0,0,0,1,1,1,1,0,0,0,0,0,0,0,0],"id":30,"left_children":[1,3,5,7,9,11,13,-1,-1,-1,-1,-1,-1,-1,-1],"loss_changes":[2.0549957E1,1.0306625E1,7.495207E0,6.614403E0,9.548447E0,3.3169367E0,7.3780785E0,0E0,0E0,0E0,0E0,0E0,0E0,0E0,0E0],"parents":[2147483647,0,0,1,1,2,2,3,3,4,4,5,5,6,6],"right_children":[2,4,6,8,10,12,14,-1,-1,-1,-1,-1,-1,-1,-1],"split_conditions":[5.389732E-2,6.329557E-2,4.2105535E-1,3.002852E-2,4.984284E-2,5.5830885E-2,1.0503316E-1,1.2264091E-1,-7.197387E-3,1.561895E-1,9.047389E-2,-1.9286415E-1,1.7172705E-1,6.9238916E-2,-9.042416E-2],"split_indices":[2274,4697,1640,2886,3669,1361,815,0,0,0,0,0,0,0,0],"split_type":[0,0,0,0,0,0,0,0,0,0,0,0,0,0,0],"sum_hessian":[1.7320922E3,1.152694E3,5.7939813E2,1.4691269E2,1.0057813E3,1.639026E1,5.630079E2,6.41476E1,8.27651E1,7.0845465E2,2.9732663E2,1.445668E1,1.9335812E0,5.354986E2,2.7509285E1],"tree_param":{"num_deleted":"0","num_feature":"5000","num_nodes":"15","size_leaf_vector":"1"}},{"base_weights":[-2.5675294E-1,2.2028929E-2,-3.8905314E-1,-9.780419E-3,1.3350334E0,5.388631E-1,-4.1035587E-1,3.835233E-2,-8.6336784E-2,-9.2549615E-2,6.041127E-1,-7.535589E-2,6.390609E-1,-1.3199565E-1,1.0420698E-1],"categories":[],"categories_nodes":[],"categories_segments":[],"categories_sizes":[],"default_left":[0,1,0,1,0,1,1,0,0,0,0,0,0,0,0],"id":31,"left_children":[1,3,5,7,9,11,13,-1,-1,-1,-1,-1,-1,-1,-1],"loss_changes":[2.1500557E1,7.885157E0,8.033627E0,6.888227E0,5.3250957E0,1.1896406E1,6.670555E0,0E0,0E0,0E0,0E0,0E0,0E0,0E0,0E0],"parents":[2147483647,0,0,1,1,2,2,3,3,4,4,5,5,6,6],"right_children":[2,4,6,8,10,12,14,-1,-1,-1,-1,-1,-1,-1,-1],"split_conditions":[5.1963594E-2,1.2526335E-1,9.016082E-2,3.0652598E-2,4.6835724E-2,3.6735103E-2,1.3271888E-1,3.835233E-2,-8.6336784E-2,-9.2549615E-2,6.041127E-1,-7.535589E-2,6.390609E-1,-1.3199565E-1,1.0420698E-1],"split_indices":[3735,3091,1720,212,1692,3926,1640,0,0,0,0,0,0,0,0],"split_type":[0,0,0,0,0,0,0,0,0,0,0,0,0,0,0],"sum_hessian":[5.817087E2,1.874819E2,3.942268E2,1.840164E2,3.4655004E0,8.3021345E0,3.8592468E2,1.2337452E2,6.064188E1,1.1294283E0,2.336072E0,6.0754986E0,2.2266357E0,3.7516595E2,1.0758716E1],"tree_param":{"num_deleted":"0","num_feature":"5000","num_nodes":"15","size_leaf_vector":"1"}},{"base_weights":[-3.3822984E-1,-2.7601365E-2,-4.387561E-1,-8.363451E-2,7.0838547E-1,3.2505336E-1,-4.5969343E-1,-3.5112396E-2,3.571895E-1,-1.1452494E-1,3.0766422E-1,-1.3916907E-1,2.252564E-1,3.3347487E-1,-1.424222E-1],"categories":[],"categories_nodes":[],"categories_segments":[],"categories_sizes":[],"default_left":[1,1,0,1,0,0,0,0,0,0,0,0,0,0,0],"id":32,"left_children":[1,3,5,7,9,11,13,-1,-1,-1,-1,-1,-1,-1,-1],"loss_changes":[1.628167E1,5.36452E0,6.4527283E0,4.8932858E0,3.3759923E0,3.923791E0,4.8435287E0,0E0,0E0,0E0,0E0,0E0,0E0,0E0,0E0],"parents":[2147483647,0,0,1,1,2,2,3,3,4,4,5,5,6,6],"right_children":[2,4,6,8,10,12,14,-1,-1,-1,-1,-1,-1,-1,-1],"split_conditions":[2.5697935E-2,1.01701096E-1,1.9357345E-1,1.4456894E-1,1.5002412E-1,3.9298862E-2,2.0428176E-1,-3.5112396E-2,3.571895E-1,-1.1452494E-1,3.0766422E-1,-1.3916907E-1,2.252564E-1,3.3347487E-1,-1.424222E-1],"split_indices":[1130,3548,4119,1652,294,911,1208,0,0,0,0,0,0,0,0],"split_type":[0,0,0,0,0,0,0,0,0,0,0,0,0,0,0],"sum_hessian":[5.207963E2,1.2764497E2,3.9315137E2,1.1943812E2,8.206861E0,1.0101884E1,3.830495E2,1.1740019E2,2.0379272E0,1.7264409E0,6.480419E0,3.4600937E0,6.64179E0,1.0873479E0,3.8196216E2],"tree_param":{"num_deleted":"0","num_feature":"5000","num_nodes":"15","size_leaf_vector":"1"}},{"base_weights":[-4.724249E-1,5.5577666E-1,-4.8085704E-1,-1.089505E-1,4.756143E-1,-4.8646054E-1,2.3914361E-1,-1.5080838E-1,9.4076484E-2],"categories":[],"categories_nodes":[],"categories_segments":[],"categories_sizes":[],"default_left":[0,0,1,0,0,1,0,0,0],"id":33,"left_children":[1,3,5,-1,-1,7,-1,-1,-1],"loss_changes":[4.165146E0,4.3329625E0,3.5459824E0,0E0,0E0,2.9806976E0,0E0,0E0,0E0],"parents":[2147483647,0,0,1,1,2,2,5,5],"right_children":[2,4,6,-1,-1,8,-1,-1,-1],"split_conditions":[9.703095E-2,2.1888059E-2,1.407843E-1,-1.089505E-1,4.756143E-1,1.3028175E-1,2.3914361E-1,-1.5080838E-1,9.4076484E-2],"split_indices":[2565,2603,1014,0,0,3842,0,0,0],"split_type":[0,0,0,0,0,0,0,0,0],"sum_hessian":[4.4858688E2,3.120878E0,4.45466E2,1.9714841E0,1.1493939E0,4.4411407E2,1.351937E0,4.4006696E2,4.0471005E0],"tree_param":{"num_deleted":"0","num_feature":"5000","num_nodes":"9","size_leaf_vector":"1"}},{"base_weights":[-4.5645E-2,-1.6977803E-1,1.6831286E-1,-7.713062E-3,-3.4943345E-1,5.951702E-1,1.4629035E-1,-1.4275155E-2,2.9897037E-1,-1.1289445E-1,5.7763577E-1,-2.880807E-2,8.55667E-2],"categories":[],"categories_nodes":[],"categories_segments":[],"categories_sizes":[],"default_left":[1,0,0,0,1,0,1,0,0,0,0,0,0],"id":34,"left_children":[1,3,5,7,9,-1,11,-1,-1,-1,-1,-1,-1],"loss_changes":[2.0479511E1,1.4199822E1,1.0835855E1,9.98938E0,1.1449106E1,0E0,9.103746E0,0E0,0E0,0E0,0E0,0E0,0E0],"parents":[2147483647,0,0,1,1,2,2,3,3,4,4,6,6],"right_children":[2,4,6,8,10,-1,12,-1,-1,-1,-1,-1,-1],"split_conditions":[4.984284E-2,4.2416163E-2,1.22098565E-1,3.293478E-2,1.6313766E-1,5.951702E-1,6.712794E-2,-1.4275155E-2,2.9897037E-1,-1.1289445E-1,5.7763577E-1,-2.880807E-2,8.55667E-2],"split_indices":[3669,156,4399,1329,231,0,3606,0,0,0,0,0,0],"split_type":[0,0,0,0,0,0,0,0,0,0,0,0,0],"sum_hessian":[7.690121E2,4.8679324E2,2.8221884E2,2.5647403E2,2.303192E2,2.3742993E0,2.7984454E2,2.4762854E2,8.845483E0,2.290395E2,1.2796918E0,1.00295334E2,1.7954921E2],"tree_param":{"num_deleted":"0","num_feature":"5000","num_nodes":"13","size_leaf_vector":"1"}},{"base_weights":[2.7336657E-1,3.4817216E-1,1.3867371E-1,2.361269E-1,4.3993005E-1,1.1071681E-1,6.0838753E-1,1.258069E-1,3.1175742E-2,-3.3239356E-1,1.3566746E-1,2.3870643E-2,1.3895653E-1,1.9475675E-1,-3.3899724E-2],"categories":[],"categories_nodes":[],"categories_segments":[],"categories_sizes":[],"default_left":[0,1,1,1,0,1,1,0,0,0,0,0,0,0,0],"id":35,"left_children":[1,3,5,7,9,11,13,-1,-1,-1,-1,-1,-1,-1,-1],"loss_changes":[1.6039238E1,1.0443161E1,7.4410887E0,1.0916462E1,4.687561E0,6.0179563E0,7.631645E-1,0E0,0E0,0E0,0E0,0E0,0E0,0E0,0E0],"parents":[2147483647,0,0,1,1,2,2,3,3,4,4,5,5,6,6],"right_children":[2,4,6,8,10,12,14,-1,-1,-1,-1,-1,-1,-1,-1],"split_conditions":[5.389732E-2,3.865245E-2,8.285792E-2,2.9358331E-2,4.9548605E-1,6.739396E-2,9.728922E-2,1.258069E-1,3.1175742E-2,-3.3239356E-1,1.3566746E-1,2.3870643E-2,1.3895653E-1,1.9475675E-1,-3.3899724E-2],"split_indices":[2274,4307,683,2352,1333,1361,1122,0,0,0,0,0,0,0,0],"split_type":[0,0,0,0,0,0,0,0,0,0,0,0,0,0,0],"sum_hessian":[1.5956523E3,1.0248739E3,5.7077844E2,4.630358E2,5.6183813E2,5.398809E2,3.0897465E1,1.9894919E2,2.640866E2,1.0801084E0,5.60758E2,4.945698E2,4.5311165E1,2.9762527E1,1.1349378E0],"tree_param":{"num_deleted":"0","num_feature":"5000","num_nodes":"15","size_leaf_vector":"1"}},{"base_weights":[-2.0788471E-1,-5.6859497E-3,-3.9764088E-1,1.2493637E0,-4.5251913E-2,-4.2624238E-1,2.740977E-1,-8.981763E-2,4.7177824E-1,3.9712846E-1,-2.157608E-2,-1.3346682E-1,2.8909403E-1,-1.428821E-1,3.0700493E-1],"categories":[],"categories_nodes":[],"categories_segments":[],"categories_sizes":[],"default_left":[0,0,1,0,0,1,0,0,0,0,0,0,0,0,0],"id":36,"left_children":[1,3,5,7,9,11,13,-1,-1,-1,-1,-1,-1,-1,-1],"loss_changes":[1.9633862E1,1.24102745E1,5.1889496E0,3.96309E0,8.407773E0,4.3713264E0,6.6667495E0,0E0,0E0,0E0,0E0,0E0,0E0,0E0,0E0],"parents":[2147483647,0,0,1,1,2,2,3,3,4,4,5,5,6,6],"right_children":[2,4,6,8,10,12,14,-1,-1,-1,-1,-1,-1,-1,-1],"split_conditions":[3.2611977E-2,1.0370475E-1,1.485184E-1,5.604797E-2,1.2928233E-1,1.3165717E-1,5.8325212E-2,-8.981763E-2,4.7177824E-1,3.9712846E-1,-2.157608E-2,-1.3346682E-1,2.8909403E-1,-1.428821E-1,3.0700493E-1],"split_indices":[836,2441,100,4601,3957,1720,3533,0,0,0,0,0,0,0,0],"split_type":[0,0,0,0,0,0,0,0,0,0,0,0,0,0,0],"sum_hessian":[5.107777E2,2.4778017E2,2.6299753E2,6.6381583E0,2.4114201E2,2.5260739E2,1.0390131E1,1.073964E0,5.5641947E0,3.5474734E0,2.3759454E2,2.5121323E2,1.3941696E0,5.3385215E0,5.05161E0],"tree_param":{"num_deleted":"0","num_feature":"5000","num_nodes":"15","size_leaf_vector":"1"}},{"base_weights":[-3.0826962E-1,7.4424357E-3,-4.173767E-1,-7.7800445E-2,5.492382E-1,3.4531695E-1,-4.2886046E-1,7.720305E-2,-6.7706995E-2,3.1368038E-1,-9.450875E-2,-2.4673166E-2,-1.4540286E-1],"categories":[],"categories_nodes":[],"categories_segments":[],"categories_sizes":[],"default_left":[1,1,0,0,0,0,0,0,0,0,0,0,0],"id":37,"left_children":[1,3,5,7,9,-1,11,-1,-1,-1,-1,-1,-1],"loss_changes":[1.5314259E1,5.360481E0,6.3640556E0,4.845208E0,6.8141274E0,0E0,5.43573E0,0E0,0E0,0E0,0E0,0E0,0E0],"parents":[2147483647,0,0,1,1,2,2,3,3,4,4,6,6],"right_children":[2,4,6,8,10,-1,12,-1,-1,-1,-1,-1,-1],"split_conditions":[2.587413E-2,6.276303E-2,1.5597177E-1,1.4961427E-1,3.0539036E-2,3.4531695E-1,4.2357787E-2,7.720305E-2,-6.7706995E-2,3.1368038E-1,-9.450875E-2,-2.4673166E-2,-1.4540286E-1],"split_indices":[987,2908,1974,2788,961,0,3283,0,0,0,0,0,0],"split_type":[0,0,0,0,0,0,0,0,0,0,0,0,0],"sum_hessian":[4.4349173E2,1.14142105E2,3.2934964E2,9.936501E1,1.4777089E1,1.7049255E0,3.276447E2,2.9926397E1,6.9438614E1,9.359224E0,5.417865E0,3.994897E1,2.8769574E2],"tree_param":{"num_deleted":"0","num_feature":"5000","num_nodes":"13","size_leaf_vector":"1"}},{"base_weights":[-4.5432338E-1,3.5033235E-1,-4.68636E-1,-1.2729214E-1,1.2969158E0,-4.7966877E-1,4.0699953E-1,5.170274E-1,1.2887365E-1,1.6730914E-1,-1.4910589E-1,-2.7933776E-2,2.4897356E-1],"categories":[],"categories_nodes":[],"categories_segments":[],"categories_sizes":[],"default_left":[0,1,1,0,0,0,0,0,0,0,0,0,0],"id":38,"left_children":[1,3,5,-1,7,9,11,-1,-1,-1,-1,-1,-1],"loss_changes":[4.45105E0,5.684293E0,3.7324982E0,0E0,4.721861E-1,3.6941833E0,1.1149285E0,0E0,0E0,0E0,0E0,0E0,0E0],"parents":[2147483647,0,0,1,1,2,2,4,4,5,5,6,6],"right_children":[2,4,6,-1,8,10,12,-1,-1,-1,-1,-1,-1],"split_conditions":[1.3092716E-1,3.588031E-2,1.4410828E-1,-1.2729214E-1,6.372298E-2,1.5797974E-1,4.801854E-2,5.170274E-1,1.2887365E-1,1.6730914E-1,-1.4910589E-1,-2.7933776E-2,2.4897356E-1],"split_indices":[443,4467,2819,0,3619,706,670,0,0,0,0,0,0],"split_type":[0,0,0,0,0,0,0,0,0,0,0,0,0],"sum_hessian":[3.7122913E2,6.077458E0,3.6515164E2,3.6645706E0,2.412887E0,3.6105466E2,4.096986E0,1.0128481E0,1.400039E0,2.6830063E0,3.5837167E2,2.197007E0,1.8999789E0],"tree_param":{"num_deleted":"0","num_feature":"5000","num_nodes":"13","size_leaf_vector":"1"}},{"base_weights":[-3.1317074E-2,3.6448967E-2,-3.14935E-1,-9.6642956E-2,1.7786163E-1,4.221242E-1,-4.073923E-1,3.0031528E-2,-1.1177463E-1,4.9632975E-1,4.423343E-2,-1.4597751E-1,3.9276582E-1,3.3638483E-1,-1.3500954E-1],"categories":[],"categories_nodes":[],"categories_segments":[],"categories_sizes":[],"default_left":[0,1,0,0,1,0,0,0,0,0,0,0,0,0,0],"id":39,"left_children":[1,3,5,7,9,11,13,-1,-1,-1,-1,-1,-1,-1,-1],"loss_changes":[1.3886176E1,1.1000592E1,9.666532E0,1.5897269E1,1.324635E1,1.3107483E1,7.108198E0,0E0,0E0,0E0,0E0,0E0,0E0,0E0,0E0],"parents":[2147483647,0,0,1,1,2,2,3,3,4,4,5,5,6,6],"right_children":[2,4,6,8,10,12,14,-1,-1,-1,-1,-1,-1,-1,-1],"split_conditions":[6.646036E-2,5.288043E-2,7.303717E-2,3.4004502E-2,3.2984678E-2,3.2876633E-2,2.297665E-2,3.0031528E-2,-1.1177463E-1,4.9632975E-1,4.423343E-2,-1.4597751E-1,3.9276582E-1,3.3638483E-1,-1.3500954E-1],"split_indices":[1601,4273,815,1781,2626,3547,721,0,0,0,0,0,0,0,0],"split_type":[0,0,0,0,0,0,0,0,0,0,0,0,0,0,0],"sum_hessian":[7.209011E2,5.825754E2,1.3832574E2,3.0028024E2,2.8229517E2,1.5020264E1,1.2330548E2,1.7463902E2,1.2564123E2,5.177418E0,2.7711774E2,7.5799727E0,7.4402914E0,2.1224408E0,1.2118304E2],"tree_param":{"num_deleted":"0","num_feature":"5000","num_nodes":"15","size_leaf_vector":"1"}},{"base_weights":[2.2356911E-1,1.2292956E-1,3.273929E-1,1.6260108E-1,-2.079524E-1,3.3582768E-1,-4.0961826E-1,2.2194652E-2,9.6068576E-2,-3.834491E-2,-3.1233385E-1,1.359714E-1,6.0306814E-2],"categories":[],"categories_nodes":[],"categories_segments":[],"categories_sizes":[],"default_left":[1,0,1,0,1,1,0,0,0,0,0,0,0],"id":40,"left_children":[1,3,5,7,9,11,-1,-1,-1,-1,-1,-1,-1],"loss_changes":[1.5106926E1,9.717549E0,1.0495934E1,9.001816E0,5.2009516E0,1.0697952E1,0E0,0E0,0E0,0E0,0E0,0E0,0E0],"parents":[2147483647,0,0,1,1,2,2,3,3,4,4,5,5],"right_children":[2,4,6,8,10,12,-1,-1,-1,-1,-1,-1,-1],"split_conditions":[3.9264347E-2,4.1793518E-2,1.9661328E-1,3.307186E-2,6.89825E-2,5.5463072E-2,-4.0961826E-1,2.2194652E-2,9.6068576E-2,-3.834491E-2,-3.1233385E-1,1.359714E-1,6.0306814E-2],"split_indices":[4222,2789,2132,3432,1719,4273,0,0,0,0,0,0,0],"split_type":[0,0,0,0,0,0,0,0,0,0,0,0,0],"sum_hessian":[1.4486586E3,7.367189E2,7.119397E2,6.5829974E2,7.841913E1,7.091578E2,2.78196E0,4.1507626E2,2.432235E2,7.228916E1,6.1299686E0,3.9353052E2,3.1562726E2],"tree_param":{"num_deleted":"0","num_feature":"5000","num_nodes":"13","size_leaf_vector":"1"}},{"base_weights":[-1.6869292E-1,8.971718E-2,-3.203283E-1,-3.0850285E-1,2.210349E-1,-3.3844665E-1,1.015922E0,-1.1843E-1,2.7826136E-1,-2.9640134E-2,1.2711272E-1,-7.414632E-3,-1.2831315E-1,3.909468E-3,5.2409023E-1],"categories":[],"categories_nodes":[],"categories_segments":[],"categories_sizes":[],"default_left":[1,0,1,1,1,0,0,0,0,0,0,0,0,0,0],"id":41,"left_children":[1,3,5,7,9,11,13,-1,-1,-1,-1,-1,-1,-1,-1],"loss_changes":[1.8225216E1,9.089371E0,7.4344807E0,4.562276E0,8.156908E0,7.475296E0,2.9145956E0,0E0,0E0,0E0,0E0,0E0,0E0,0E0,0E0],"parents":[2147483647,0,0,1,1,2,2,3,3,4,4,5,5,6,6],"right_children":[2,4,6,8,10,12,14,-1,-1,-1,-1,-1,-1,-1,-1],"split_conditions":[2.8789455E-2,4.031945E-2,1.744916E-1,1.1040439E-1,2.6130663E-2,5.104174E-2,4.4485144E-2,-1.1843E-1,2.7826136E-1,-2.9640134E-2,1.2711272E-1,-7.414632E-3,-1.2831315E-1,3.909468E-3,5.2409023E-1],"split_indices":[688,3286,1933,216,1037,4984,961,0,0,0,0,0,0,0,0],"split_type":[0,0,0,0,0,0,0,0,0,0,0,0,0,0,0],"sum_hessian":[4.6338406E2,1.7151106E2,2.9187302E2,4.2197666E1,1.293134E2,2.8870514E2,3.1678615E0,4.0248985E1,1.948679E0,4.94389E1,7.9874504E1,6.0176285E1,2.2852885E2,1.7240299E0,1.4438316E0],"tree_param":{"num_deleted":"0","num_feature":"5000","num_nodes":"15","size_leaf_vector":"1"}},{"base_weights":[-2.8427792E-1,-9.25368E-2,-4.5239213E-1,-1.2074254E-1,1.1258647E0,7.8684455E-1,-4.732295E-1,-4.4410195E-2,3.1355754E-1,7.974763E-2,5.17507E-1,4.1596895E-1,-1.0149906E-1,-1.472467E-1,2.2295155E-1],"categories":[],"categories_nodes":[],"categories_segments":[],"categories_sizes":[],"default_left":[1,1,0,1,0,1,1,0,0,0,0,0,0,0,0],"id":42,"left_children":[1,3,5,7,9,11,13,-1,-1,-1,-1,-1,-1,-1,-1],"loss_changes":[1.2586992E1,6.4691153E0,5.756222E0,5.3204412E0,1.6617436E0,2.9238038E0,2.717331E0,0E0,0E0,0E0,0E0,0E0,0E0,0E0,0E0],"parents":[2147483647,0,0,1,1,2,2,3,3,4,4,5,5,6,6],"right_children":[2,4,6,8,10,12,14,-1,-1,-1,-1,-1,-1,-1,-1],"split_conditions":[2.9402953E-2,7.187496E-2,1.9533515E-1,1.4194727E-1,7.0292965E-2,3.7839E-2,1.5707757E-1,-4.4410195E-2,3.1355754E-1,7.974763E-2,5.17507E-1,4.1596895E-1,-1.0149906E-1,-1.472467E-1,2.2295155E-1],"split_indices":[1130,3540,2149,3723,1227,3547,3254,0,0,0,0,0,0,0,0],"split_type":[0,0,0,0,0,0,0,0,0,0,0,0,0,0,0],"sum_hessian":[3.907819E2,1.8328654E2,2.0749535E2,1.8002002E2,3.2665246E0,2.823368E0,2.0467198E2,1.7706096E2,2.9590588E0,1.8791772E0,1.3873473E0,1.7192565E0,1.1041117E0,2.0365657E2,1.0154084E0],"tree_param":{"num_deleted":"0","num_feature":"5000","num_nodes":"15","size_leaf_vector":"1"}},{"base_weights":[-4.339235E-1,-6.745282E-2,-4.7550824E-1,-2.575718E-1,7.783279E-1,-4.895712E-1,3.6983705E-1,-1.0920275E-1,3.1963962E-1,-1.0675687E-1,4.1845223E-1,-1.513175E-1,1.8952814E-1,-8.9421846E-2,1.9078809E-1],"categories":[],"categories_nodes":[],"categories_segments":[],"categories_sizes":[],"default_left":[0,0,1,1,1,1,0,0,0,0,0,0,0,0,0],"id":43,"left_children":[1,3,5,7,9,11,13,-1,-1,-1,-1,-1,-1,-1,-1],"loss_changes":[4.6614647E0,5.434763E0,3.4672966E0,3.9599743E0,4.6485624E0,2.2906036E0,1.0468435E0,0E0,0E0,0E0,0E0,0E0,0E0,0E0,0E0],"parents":[2147483647,0,0,1,1,2,2,3,3,4,4,5,5,6,6],"right_children":[2,4,6,8,10,12,14,-1,-1,-1,-1,-1,-1,-1,-1],"split_conditions":[7.53033E-2,3.0412553E-2,1.4410828E-1,1.4786728E-1,2.6097255E-2,1.5536602E-1,5.5270575E-2,-1.0920275E-1,3.1963962E-1,-1.0675687E-1,4.1845223E-1,-1.513175E-1,1.8952814E-1,-8.9421846E-2,1.9078809E-1],"split_indices":[4969,4510,490,4119,721,2411,1287,0,0,0,0,0,0,0,0],"split_type":[0,0,0,0,0,0,0,0,0,0,0,0,0,0,0],"sum_hessian":[3.0698358E2,3.155175E1,2.7543185E2,2.6328873E1,5.2228775E0,2.7133878E2,4.093064E0,2.5121416E1,1.2074568E0,1.9420285E0,3.280849E0,2.702982E2,1.0406E0,1.0983728E0,2.9946911E0],"tree_param":{"num_deleted":"0","num_feature":"5000","num_nodes":"15","size_leaf_vector":"1"}},{"base_weights":[2.422845E-3,6.201777E-2,-2.9969633E-1,1.0709275E-1,-3.7677854E-1,5.2070624E-1,-3.3332536E-1,2.313071E-2,2.2133666E-1,1.7394832E-1,-1.2489927E-1,1.02493405E-1,-1.2470562E-1],"categories":[],"categories_nodes":[],"categories_segments":[],"categories_sizes":[],"default_left":[0,1,0,1,0,0,0,0,0,0,0,0,0],"id":44,"left_children":[1,3,5,7,9,-1,11,-1,-1,-1,-1,-1,-1],"loss_changes":[1.2314763E1,1.1338943E1,8.174674E0,9.9756975E0,1.8898525E0,0E0,5.784313E0,0E0,0E0,0E0,0E0,0E0,0E0],"parents":[2147483647,0,0,1,1,2,2,3,3,4,4,6,6],"right_children":[2,4,6,8,10,-1,12,-1,-1,-1,-1,-1,-1],"split_conditions":[6.576357E-2,7.41177E-2,1.7981003E-1,1.02570996E-1,1.1807414E-1,5.2070624E-1,7.090132E-2,2.313071E-2,2.2133666E-1,1.7394832E-1,-1.2489927E-1,1.02493405E-1,-1.2470562E-1],"split_indices":[156,2353,315,546,17,0,815,0,0,0,0,0,0],"split_type":[0,0,0,0,0,0,0,0,0,0,0,0,0],"sum_hessian":[6.8194E2,5.7024945E2,1.1169059E2,5.178134E2,5.2436016E1,1.0205246E0,1.1067006E2,4.9397812E2,2.3835281E1,1.2027525E0,5.1233265E1,1.0873898E1,9.9796165E1],"tree_param":{"num_deleted":"0","num_feature":"5000","num_nodes":"13","size_leaf_vector":"1"}},{"base_weights":[1.8154931E-1,-3.8921618E-1,1.9873425E-1,1.9741584E-1,-6.3464236E-1,2.7489173E-1,5.6159884E-2,1.5767428E-1,-1.7871621E-1,1.6718055E-1,-2.1976863E-1,7.0768155E-2,1.5978524E-1,-1.2471671E-3,1.6781887E-1],"categories":[],"categories_nodes":[],"categories_segments":[],"categories_sizes":[],"default_left":[0,0,0,0,0,1,1,0,0,0,0,0,0,0,0],"id":45,"left_children":[1,3,5,7,9,11,13,-1,-1,-1,-1,-1,-1,-1,-1],"loss_changes":[1.3152565E1,5.7836194E0,1.4042984E1,3.3956919E0,3.2346125E0,8.88319E0,1.34585705E1,0E0,0E0,0E0,0E0,0E0,0E0,0E0,0E0],"parents":[2147483647,0,0,1,1,2,2,3,3,4,4,5,5,6,6],"right_children":[2,4,6,8,10,12,14,-1,-1,-1,-1,-1,-1,-1,-1],"split_conditions":[1.9727531E-1,6.8858765E-2,6.27262E-2,4.2619333E-2,9.54426E-2,7.1027584E-2,8.79629E-2,1.5767428E-1,-1.7871621E-1,1.6718055E-1,-2.1976863E-1,7.0768155E-2,1.5978524E-1,-1.2471671E-3,1.6781887E-1],"split_indices":[2439,3606,212,911,2403,2353,1423,0,0,0,0,0,0,0,0],"split_type":[0,0,0,0,0,0,0,0,0,0,0,0,0,0,0],"sum_hessian":[1.33204E3,3.830083E1,1.2937393E3,1.135502E1,2.6945812E1,8.4268353E2,4.5105566E2,8.306674E0,3.0483449E0,1.4603345E0,2.5485477E1,7.205679E2,1.221157E2,4.0291397E2,4.8141693E1],"tree_param":{"num_deleted":"0","num_feature":"5000","num_nodes":"15","size_leaf_vector":"1"}},{"base_weights":[-1.4080505E-1,6.0800475E-4,-3.9184758E-1,1.0948547E-1,-2.5292754E-1,7.1913564E-1,-4.1502982E-1,1.7323911E-2,2.830385E-1,1.7119041E-1,-9.7797126E-2,-9.216492E-2,4.173803E-1,-1.3545252E-1,1.0013557E-1],"categories":[],"categories_nodes":[],"categories_segments":[],"categories_sizes":[],"default_left":[1,1,0,1,0,0,1,0,0,0,0,0,0,0,0],"id":46,"left_children":[1,3,5,7,9,11,13,-1,-1,-1,-1,-1,-1,-1,-1],"loss_changes":[1.5226901E1,7.6288395E0,4.2789307E0,8.28458E0,4.757848E0,2.7511377E0,3.4316978E0,0E0,0E0,0E0,0E0,0E0,0E0,0E0,0E0],"parents":[2147483647,0,0,1,1,2,2,3,3,4,4,5,5,6,6],"right_children":[2,4,6,8,10,12,14,-1,-1,-1,-1,-1,-1,-1,-1],"split_conditions":[3.691875E-2,3.3786796E-2,2.4629167E-1,9.5535465E-2,9.252696E-2,4.4485144E-2,1.6825052E-1,1.7323911E-2,2.830385E-1,1.7119041E-1,-9.7797126E-2,-9.216492E-2,4.173803E-1,-1.3545252E-1,1.0013557E-1],"split_indices":[3845,3728,573,3342,2210,961,989,0,0,0,0,0,0,0,0],"split_type":[0,0,0,0,0,0,0,0,0,0,0,0,0,0,0],"sum_hessian":[4.2791174E2,2.7436093E2,1.5355081E2,1.9233388E2,8.202706E1,2.5249383E0,1.5102586E2,1.8170715E2,1.06267185E1,5.738814E0,7.6288246E1,1.1891539E0,1.3357844E0,1.4572809E2,5.2977805E0],"tree_param":{"num_deleted":"0","num_feature":"5000","num_nodes":"15","size_leaf_vector":"1"}},{"base_weights":[-2.466237E-1,-5.822855E-2,-4.445379E-1,-1.0040922E-1,1.0718646E0,6.1564636E-1,-4.6410653E-1,4.5508508E-2,-6.905113E-2,6.995644E-1,-5.3715672E-2,-1.6161613E-2,3.4543106E-1,-1.4512604E-1,2.1980603E-1],"categories":[],"categories_nodes":[],"categories_segments":[],"categories_sizes":[],"default_left":[1,1,0,0,1,0,1,0,0,0,0,0,0,0,0],"id":47,"left_children":[1,3,5,7,9,11,13,-1,-1,-1,-1,-1,-1,-1,-1],"loss_changes":[1.2958534E1,8.666908E0,3.8059196E0,5.5062914E0,1.0385965E1,1.2714149E0,2.6635246E0,0E0,0E0,0E0,0E0,0E0,0E0,0E0,0E0],"parents":[2147483647,0,0,1,1,2,2,3,3,4,4,5,5,6,6],"right_children":[2,4,6,8,10,12,14,-1,-1,-1,-1,-1,-1,-1,-1],"split_conditions":[2.9475447E-2,6.6131495E-2,1.9533515E-1,3.6748797E-2,3.1776637E-2,3.5653934E-2,1.6435485E-1,4.5508508E-2,-6.905113E-2,6.995644E-1,-5.3715672E-2,-1.6161613E-2,3.4543106E-1,-1.4512604E-1,2.1980603E-1],"split_indices":[1130,211,2149,2241,3854,308,2957,0,0,0,0,0,0,0,0],"split_type":[0,0,0,0,0,0,0,0,0,0,0,0,0,0,0],"sum_hessian":[3.4723767E2,1.7856003E2,1.6867764E2,1.7301346E2,5.546569E0,2.5049372E0,1.661727E2,5.7971447E1,1.15042015E2,2.3793073E0,3.1672616E0,1.4835007E0,1.0214366E0,1.6513802E2,1.034695E0],"tree_param":{"num_deleted":"0","num_feature":"5000","num_nodes":"15","size_leaf_vector":"1"}},{"base_weights":[-4.1959E-1,-4.481026E-2,-4.6843672E-1,-4.3865097E-1,3.2820493E-1,-4.8453456E-1,3.1409732E-1,-1.4777738E-1,3.157931E-2,-1.3277727E-1,2.1619764E-1,1.4384478E-1,-1.5094931E-1,-8.797824E-2,1.6641466E-1],"categories":[],"categories_nodes":[],"categories_segments":[],"categories_sizes":[],"default_left":[0,1,1,1,0,0,0,0,0,0,0,0,0,0,0],"id":48,"left_children":[1,3,5,7,9,11,13,-1,-1,-1,-1,-1,-1,-1,-1],"loss_changes":[4.710617E0,4.684632E0,3.0313187E0,4.346769E-1,5.088276E0,2.4602318E0,8.8471484E-1,0E0,0E0,0E0,0E0,0E0,0E0,0E0,0E0],"parents":[2147483647,0,0,1,1,2,2,3,3,4,4,5,5,6,6],"right_children":[2,4,6,8,10,12,14,-1,-1,-1,-1,-1,-1,-1,-1],"split_conditions":[7.53033E-2,3.0482963E-2,1.4410828E-1,1.2825353E-1,7.996601E-2,1.5250188E-1,5.5270575E-2,-1.4777738E-1,3.157931E-2,-1.3277727E-1,2.1619764E-1,1.4384478E-1,-1.5094931E-1,-8.797824E-2,1.6641466E-1],"split_indices":[4969,3283,490,756,2908,706,1287,0,0,0,0,0,0,0,0],"split_type":[0,0,0,0,0,0,0,0,0,0,0,0,0,0,0],"sum_hessian":[2.5746265E2,2.99081E1,2.2755455E2,1.4462352E1,1.5445747E1,2.2334093E2,4.2136292E0,1.3432444E1,1.0299085E0,5.0906067E0,1.0355141E1,1.9216037E0,2.2141933E2,1.1013752E0,3.1122537E0],"tree_param":{"num_deleted":"0","num_feature":"5000","num_nodes":"15","size_leaf_vector":"1"}},{"base_weights":[1.4340601E-2,-9.608135E-2,1.7560273E-1,5.8634365E-1,-1.092492E-1,2.6603257E-2,3.76571E-1,1.780266E-1,-4.521413E-2,9.973294E-2,-2.3303634E-2,9.609295E-2,3.6225048E-1],"categories":[],"categories_nodes":[],"categories_segments":[],"categories_sizes":[],"default_left":[0,0,0,0,0,1,1,0,0,0,0,0,0],"id":49,"left_children":[1,3,5,-1,7,9,11,-1,-1,-1,-1,-1,-1],"loss_changes":[1.1777537E1,1.064702E1,8.038563E0,0E0,1.0653477E1,4.834293E0,5.3317757E0,0E0,0E0,0E0,0E0,0E0,0E0],"parents":[2147483647,0,0,1,1,2,2,4,4,5,5,6,6],"right_children":[2,4,6,-1,8,10,12,-1,-1,-1,-1,-1,-1],"split_conditions":[3.8265854E-2,2.361341E-1,8.484955E-2,5.8634365E-1,1.5833421E-1,5.7998557E-2,7.1670674E-2,1.780266E-1,-4.521413E-2,9.973294E-2,-2.3303634E-2,9.609295E-2,3.6225048E-1],"split_indices":[2789,3201,580,0,57,4222,1719,0,0,0,0,0,0],"split_type":[0,0,0,0,0,0,0,0,0,0,0,0,0],"sum_hessian":[6.594563E2,3.9167E2,2.677863E2,1.5987601E0,3.9007126E2,1.54426E2,1.1336028E2,2.0036818E1,3.7003442E2,3.8877728E1,1.1554826E2,1.0666017E2,6.700118E0],"tree_param":{"num_deleted":"0","num_feature":"5000","num_nodes":"13","size_leaf_vector":"1"}},{"base_weights":[1.4975779E-1,2.8029966E-1,9.071601E-2,2.976476E-1,-6.5109086E-1,5.8673438E-2,5.060043E-1,9.366681E-2,-3.796181E-1,-2.3536615E-1,-2.750823E-2,-2.6123878E-1,2.0485597E-2,-1.5548572E-1,1.637201E-1],"categories":[],"categories_nodes":[],"categories_segments":[],"categories_sizes":[],"default_left":[0,1,1,1,1,0,0,0,0,0,0,0,0,0,0],"id":50,"left_children":[1,3,5,7,9,11,13,-1,-1,-1,-1,-1,-1,-1,-1],"loss_changes":[9.601803E0,6.471426E0,1.1435045E1,5.955242E0,4.321909E-1,6.282935E0,2.199297E0,0E0,0E0,0E0,0E0,0E0,0E0,0E0,0E0],"parents":[2147483647,0,0,1,1,2,2,3,3,4,4,5,5,6,6],"right_children":[2,4,6,8,10,12,14,-1,-1,-1,-1,-1,-1,-1,-1],"split_conditions":[7.6419204E-2,1.399631E-1,1.0588762E-1,1.875032E-1,1.5402628E-1,4.4702098E-1,7.095498E-2,9.366681E-2,-3.796181E-1,-2.3536615E-1,-2.750823E-2,-2.6123878E-1,2.0485597E-2,-1.5548572E-1,1.637201E-1],"split_indices":[1940,3962,1620,1410,1376,854,430,0,0,0,0,0,0,0,0],"split_type":[0,0,0,0,0,0,0,0,0,0,0,0,0,0,0],"sum_hessian":[1.2480854E3,3.8752252E2,8.605629E2,3.8110455E2,6.4179635E0,7.9997986E2,6.05831E1,3.7957803E2,1.5265287E0,4.9729075E0,1.4450558E0,6.4369893E0,7.9354285E2,1.3242409E0,5.925886E1],"tree_param":{"num_deleted":"0","num_feature":"5000","num_nodes":"15","size_leaf_vector":"1"}},{"base_weights":[-1.2439405E-1,-3.8959223E-1,1.9957023E-3,-4.2956406E-1,7.157883E-1,6.1467484E-2,-4.6296337E-1,1.5316898E-1,-1.4018476E-1,3.5243905E-1,-9.522616E-2,5.113142E-2,-6.528211E-2,2.0881526E-1,-1.6068919E-1],"categories":[],"categories_nodes":[],"categories_segments":[],"categories_sizes":[],"default_left":[0,1,1,0,0,1,0,0,0,0,0,0,0,0,0],"id":51,"left_children":[1,3,5,7,9,11,13,-1,-1,-1,-1,-1,-1,-1,-1],"loss_changes":[1.3202606E1,5.9246445E0,7.431929E0,3.6846085E0,2.53603E0,7.0055127E0,2.595337E0,0E0,0E0,0E0,0E0,0E0,0E0,0E0,0E0],"parents":[2147483647,0,0,1,1,2,2,3,3,4,4,5,5,6,6],"right_children":[2,4,6,8,10,12,14,-1,-1,-1,-1,-1,-1,-1,-1],"split_conditions":[1.8279885E-1,1.4243212E-1,6.611519E-2,9.712702E-2,3.286875E-2,3.6249217E-2,8.764817E-2,1.5316898E-1,-1.4018476E-1,3.5243905E-1,-9.522616E-2,5.113142E-2,-6.528211E-2,2.0881526E-1,-1.6068919E-1],"split_indices":[2150,288,773,2403,3440,2959,219,0,0,0,0,0,0,0,0],"split_type":[0,0,0,0,0,0,0,0,0,0,0,0,0,0,0],"sum_hessian":[3.9286893E2,1.2613106E2,2.6673785E2,1.22319244E2,3.811814E0,2.372585E2,2.9479357E1,3.3317757E0,1.1898747E2,2.5828786E0,1.2289356E0,1.715407E2,6.571781E1,1.042169E0,2.8437187E1],"tree_param":{"num_deleted":"0","num_feature":"5000","num_nodes":"15","size_leaf_vector":"1"}},{"base_weights":[-2.0788321E-1,-3.361323E-2,-4.1829115E-1,-9.881961E-2,5.0396293E-1,5.886438E-1,-4.4538093E-1,2.453388E-1,-4.217366E-2,5.32804E-1,5.6539305E-2,3.036688E-1,-9.597943E-2,-1.4009356E-1,2.1779221E-1],"categories":[],"categories_nodes":[],"categories_segments":[],"categories_sizes":[],"default_left":[1,1,0,0,1,1,1,0,0,0,0,0,0,0,0],"id":52,"left_children":[1,3,5,7,9,11,13,-1,-1,-1,-1,-1,-1,-1,-1],"loss_changes":[1.1489082E1,6.1027946E0,4.1365013E0,5.628922E0,7.1379514E0,1.8397014E0,2.5730648E0,0E0,0E0,0E0,0E0,0E0,0E0,0E0,0E0],"parents":[2147483647,0,0,1,1,2,2,3,3,4,4,5,5,6,6],"right_children":[2,4,6,8,10,12,14,-1,-1,-1,-1,-1,-1,-1,-1],"split_conditions":[2.9475447E-2,3.9722923E-2,1.9533515E-1,3.7470016E-1,2.8028656E-2,3.7874162E-2,1.5851165E-1,2.453388E-1,-4.217366E-2,5.32804E-1,5.6539305E-2,3.036688E-1,-9.597943E-2,-1.4009356E-1,2.1779221E-1],"split_indices":[1130,1831,2149,4715,3206,4374,40,0,0,0,0,0,0,0,0],"split_type":[0,0,0,0,0,0,0,0,0,0,0,0,0,0,0],"sum_hessian":[3.1271246E2,1.7167923E2,1.4103323E2,1.538356E2,1.7843624E1,3.1517665E0,1.3788147E2,5.627246E0,1.4820836E2,2.7258363E0,1.5117787E1,2.1023703E0,1.0493964E0,1.3683984E2,1.041632E0],"tree_param":{"num_deleted":"0","num_feature":"5000","num_nodes":"15","size_leaf_vector":"1"}},{"base_weights":[-4.021505E-1,9.998917E-2,-4.3896094E-1,-1.7992516E-1,5.7835156E-1,5.150489E-1,-4.5360136E-1,-1.0423654E-1,2.3273015E-1,-1.1911819E-2,2.5756028E-1,-1.4351156E-1,3.9200567E-2],"categories":[],"categories_nodes":[],"categories_segments":[],"categories_sizes":[],"default_left":[0,0,0,1,0,1,1,0,0,0,0,0,0],"id":53,"left_children":[1,3,5,7,-1,9,11,-1,-1,-1,-1,-1,-1],"loss_changes":[4.109173E0,8.303498E0,3.0982666E0,2.4910123E0,0E0,6.842774E-1,2.0563087E0,0E0,0E0,0E0,0E0,0E0,0E0],"parents":[2147483647,0,0,1,1,2,2,3,3,5,5,6,6],"right_children":[2,4,6,8,-1,10,12,-1,-1,-1,-1,-1,-1],"split_conditions":[1.1378194E-1,2.9697798E-2,1.5797974E-1,1.2174063E-1,5.7835156E-1,3.2244828E-2,1.1257536E-1,-1.0423654E-1,2.3273015E-1,-1.1911819E-2,2.5756028E-1,-1.4351156E-1,3.9200567E-2],"split_indices":[258,3577,706,443,0,212,3842,0,0,0,0,0,0],"split_type":[0,0,0,0,0,0,0,0,0,0,0,0,0],"sum_hessian":[2.1893538E2,1.483612E1,2.0409926E2,1.3614382E1,1.2217375E0,2.568204E0,2.0153107E2,1.2164309E1,1.4500732E0,1.2861699E0,1.2820342E0,1.9602242E2,5.508649E0],"tree_param":{"num_deleted":"0","num_feature":"5000","num_nodes":"13","size_leaf_vector":"1"}},{"base_weights":[3.7194576E-2,-1.3443603E-1,1.3092943E-1,6.0581976E-1,-1.7744505E-1,1.4570541E0,1.12090565E-1,2.7665117E-1,-1.3020892E-1,-6.0160298E-2,4.4244087E-1,3.6066636E-2,5.5249465E-1,-1.3866028E-1,4.3930143E-2],"categories":[],"categories_nodes":[],"categories_segments":[],"categories_sizes":[],"default_left":[1,0,0,1,1,1,0,0,0,0,0,0,0,0,0],"id":54,"left_children":[1,3,5,7,9,11,13,-1,-1,-1,-1,-1,-1,-1,-1],"loss_changes":[1.0254818E1,7.279437E0,1.0131283E1,4.305733E0,7.1745844E0,2.4848557E0,7.4400487E0,0E0,0E0,0E0,0E0,0E0,0E0,0E0,0E0],"parents":[2147483647,0,0,1,1,2,2,3,3,4,4,5,5,6,6],"right_children":[2,4,6,8,10,12,14,-1,-1,-1,-1,-1,-1,-1,-1],"split_conditions":[3.4735058E-2,1.14457265E-1,1.02614075E-1,4.4969536E-2,1.991859E-1,8.175581E-2,1.5087034E-1,2.7665117E-1,-1.3020892E-1,-6.0160298E-2,4.4244087E-1,3.6066636E-2,5.5249465E-1,-1.3866028E-1,4.3930143E-2],"split_indices":[2241,3548,4480,1623,188,709,139,0,0,0,0,0,0,0,0],"split_type":[0,0,0,0,0,0,0,0,0,0,0,0,0,0,0],"sum_hessian":[6.353353E2,2.2426567E2,4.1106967E2,1.1595871E1,2.126698E2,4.6885047E0,4.0638116E2,9.071536E0,2.5243354E0,2.1098251E2,1.6872822E0,1.260495E0,3.4280097E0,2.0977322E1,3.8540384E2],"tree_param":{"num_deleted":"0","num_feature":"5000","num_nodes":"15","size_leaf_vector":"1"}},{"base_weights":[1.09086156E-1,-2.9882002E-1,1.316315E-1,-1.2651747E-1,-6.537967E-1,7.64537E-2,2.9332924E-1,1.0220077E-1,-1.1156917E-1,-2.3354706E-1,1.00326814E-1,7.6562157E-3,8.575592E-2,1.160224E-1,-2.5795782E-2],"categories":[],"categories_nodes":[],"categories_segments":[],"categories_sizes":[],"default_left":[1,1,0,0,1,0,1,0,0,0,0,0,0,0,0],"id":55,"left_children":[1,3,5,7,9,11,13,-1,-1,-1,-1,-1,-1,-1,-1],"loss_changes":[1.0911258E1,3.723145E0,9.979023E0,4.8865385E0,2.4621525E0,8.793053E0,9.405062E0,0E0,0E0,0E0,0E0,0E0,0E0,0E0,0E0],"parents":[2147483647,0,0,1,1,2,2,3,3,4,4,5,5,6,6],"right_children":[2,4,6,8,10,12,14,-1,-1,-1,-1,-1,-1,-1,-1],"split_conditions":[2.0164778E-2,3.3904836E-2,1.3621062E-1,1.5002412E-1,8.157622E-2,6.576357E-2,6.2046755E-2,1.0220077E-1,-1.1156917E-1,-2.3354706E-1,1.00326814E-1,7.6562157E-3,8.575592E-2,1.160224E-1,-2.5795782E-2],"split_indices":[2789,4467,346,1131,418,156,2908,0,0,0,0,0,0,0,0],"split_type":[0,0,0,0,0,0,0,0,0,0,0,0,0,0,0],"sum_hessian":[1.1811962E3,6.122451E1,1.1199717E3,4.2130936E1,1.909357E1,8.3612494E2,2.838467E2,1.4246872E1,2.7884066E1,1.733947E1,1.7541019E0,6.693454E2,1.6677953E2,2.3068797E2,5.3158726E1],"tree_param":{"num_deleted":"0","num_feature":"5000","num_nodes":"15","size_leaf_vector":"1"}},{"base_weights":[-9.650731E-2,-1.1921321E-2,-4.6164584E-1,1.1706555E0,-3.0439017E-2,7.5199515E-2,-4.8873562E-1,1.4911944E-2,4.8505858E-1,-3.8475662E-2,6.598316E-2,2.2332211E-1,-1.0877298E-1,-1.5359344E-1,6.6876225E-2],"categories":[],"categories_nodes":[],"categories_segments":[],"categories_sizes":[],"default_left":[1,0,0,0,0,0,1,0,0,0,0,0,0,0,0],"id":56,"left_children":[1,3,5,7,9,11,13,-1,-1,-1,-1,-1,-1,-1,-1],"loss_changes":[1.1480036E1,6.669959E0,1.0535564E0,2.1332064E0,7.095589E0,1.4598976E0,8.115778E-1,0E0,0E0,0E0,0E0,0E0,0E0,0E0,0E0],"parents":[2147483647,0,0,1,1,2,2,3,3,4,4,5,5,6,6],"right_children":[2,4,6,8,10,12,14,-1,-1,-1,-1,-1,-1,-1,-1],"split_conditions":[5.300147E-2,1.3129486E-1,8.939119E-2,2.7885363E-2,4.1401546E-2,6.974921E-2,1.309911E-1,1.4911944E-2,4.8505858E-1,-3.8475662E-2,6.598316E-2,2.2332211E-1,-1.0877298E-1,-1.5359344E-1,6.6876225E-2],"split_indices":[2150,4501,116,721,1401,2844,375,0,0,0,0,0,0,0,0],"split_type":[0,0,0,0,0,0,0,0,0,0,0,0,0,0,0],"sum_hessian":[3.7087354E2,3.0195657E2,6.8916954E1,3.696131E0,2.9826047E2,3.2252538E0,6.56917E1,1.3103514E0,2.3857796E0,2.1526166E2,8.29988E1,1.0032703E0,2.2219834E0,6.4625E1,1.0667056E0],"tree_param":{"num_deleted":"0","num_feature":"5000","num_nodes":"15","size_leaf_vector":"1"}},{"base_weights":[-1.7700417E-1,-1.3718788E-3,-3.837647E-1,2.4341056E-1,-1.1419106E-1,-4.0492782E-1,2.4711962E-1,4.9949225E-2,5.1681644E-1,2.8901055E-1,-4.776811E-2,5.2840143E-2,-1.3767537E-1],"categories":[],"categories_nodes":[],"categories_segments":[],"categories_sizes":[],"default_left":[1,0,1,1,0,0,0,0,0,0,0,0,0],"id":57,"left_children":[1,3,5,7,9,11,-1,-1,-1,-1,-1,-1,-1],"loss_changes":[1.0449296E1,4.352437E0,3.667736E0,5.468981E0,5.007716E0,3.5850372E0,0E0,0E0,0E0,0E0,0E0,0E0,0E0],"parents":[2147483647,0,0,1,1,2,2,3,3,4,4,5,5],"right_children":[2,4,6,8,10,12,-1,-1,-1,-1,-1,-1,-1],"split_conditions":[3.2965377E-2,4.6762936E-2,1.4747779E-1,1.1516589E-1,1.6047445E-1,1.6809106E-1,2.4711962E-1,4.9949225E-2,5.1681644E-1,2.8901055E-1,-4.776811E-2,5.2840143E-2,-1.3767537E-1],"split_indices":[212,1227,2957,524,1018,2418,0,0,0,0,0,0,0],"split_type":[0,0,0,0,0,0,0,0,0,0,0,0,0],"sum_hessian":[2.8676425E2,1.5559827E2,1.3116599E2,4.872427E1,1.0687399E2,1.2953096E2,1.6350305E0,4.7244118E1,1.4801544E0,3.2866123E0,1.0358738E2,9.4327965E0,1.2009816E2],"tree_param":{"num_deleted":"0","num_feature":"5000","num_nodes":"13","size_leaf_vector":"1"}},{"base_weights":[-3.8020453E-1,8.880505E-3,-4.4568333E-1,-1.4188668E-1,2.6655352E-1,-4.563231E-1,1.8755977E-1,2.4303256E-2,3.8222232E-1,1.782493E-1,-1.4233157E-1],"categories":[],"categories_nodes":[],"categories_segments":[],"categories_sizes":[],"default_left":[0,0,1,0,1,0,0,0,0,0,0],"id":58,"left_children":[1,3,5,-1,7,9,-1,-1,-1,-1,-1],"loss_changes":[4.786091E0,3.5467467E0,2.0939445E0,0E0,3.3642101E0,1.990551E0,0E0,0E0,0E0,0E0,0E0],"parents":[2147483647,0,0,1,1,2,2,4,4,5,5],"right_children":[2,4,6,-1,8,10,-1,-1,-1,-1,-1],"split_conditions":[7.53033E-2,8.012038E-2,1.8336594E-1,-1.4188668E-1,9.609395E-2,2.669087E-1,1.8755977E-1,2.4303256E-2,3.8222232E-1,1.782493E-1,-1.4233157E-1],"split_indices":[4969,2908,1483,0,2265,465,0,0,0,0,0],"split_type":[0,0,0,0,0,0,0,0,0,0,0],"sum_hessian":[1.8670517E2,2.701893E1,1.5968623E2,9.230566E0,1.7788364E1,1.5866435E2,1.0218813E0,1.5864378E1,1.9239857E0,1.0143294E0,1.5765002E2],"tree_param":{"num_deleted":"0","num_feature":"5000","num_nodes":"11","size_leaf_vector":"1"}},{"base_weights":[4.125145E-2,8.7025635E-2,-3.041943E-1,1.3346027E-1,-2.8300637E-1,-3.3883095E-1,1.9153292E-1,5.6021327E-1,3.7280068E-2,-1.0256313E-1,1.5966713E-1,1.9717272E-1,-1.106277E-1],"categories":[],"categories_nodes":[],"categories_segments":[],"categories_sizes":[],"default_left":[1,0,1,0,1,0,0,0,0,0,0,0,0],"id":59,"left_children":[1,3,5,7,9,11,-1,-1,-1,-1,-1,-1,-1],"loss_changes":[9.882744E0,9.508105E0,2.5746994E0,9.156252E0,2.8298082E0,1.909522E0,0E0,0E0,0E0,0E0,0E0,0E0,0E0],"parents":[2147483647,0,0,1,1,2,2,3,3,4,4,5,5],"right_children":[2,4,6,8,10,12,-1,-1,-1,-1,-1,-1,-1],"split_conditions":[6.690133E-2,5.853062E-2,1.0902876E-1,1.3739388E-1,9.49799E-2,1.1046188E-1,1.9153292E-1,5.6021327E-1,3.7280068E-2,-1.0256313E-1,1.5966713E-1,1.9717272E-1,-1.106277E-1],"split_indices":[683,1274,546,2308,3643,1098,0,0,0,0,0,0,0],"split_type":[0,0,0,0,0,0,0,0,0,0,0,0,0],"sum_hessian":[6.2232153E2,5.5016815E2,7.215337E1,4.893943E2,6.0773857E1,7.018214E1,1.971239E0,2.140886E0,4.8725342E2,5.7555607E1,3.2182484E0,1.0439777E0,6.913816E1],"tree_param":{"num_deleted":"0","num_feature":"5000","num_nodes":"13","size_leaf_vector":"1"}},{"base_weights":[9.081798E-2,-3.818786E-1,1.07232355E-1,-4.744068E-1,3.6727405E-1,1.3004047E-1,-2.415762E-1,-2.1703175E-1,-1.4751065E-2,1.924254E-1,-5.0876413E-2,1.9082893E-2,7.883163E-2,9.700791E-2,-1.02376826E-1],"categories":[],"categories_nodes":[],"categories_segments":[],"categories_sizes":[],"default_left":[0,1,0,1,0,0,0,0,0,0,0,0,0,0,0],"id":60,"left_children":[1,3,5,7,9,11,13,-1,-1,-1,-1,-1,-1,-1,-1],"loss_changes":[8.750955E0,2.8008323E0,8.668671E0,3.4175973E0,7.7111125E-1,8.819668E0,3.6336813E0,0E0,0E0,0E0,0E0,0E0,0E0,0E0,0E0],"parents":[2147483647,0,0,1,1,2,2,3,3,4,4,5,5,6,6],"right_children":[2,4,6,8,10,12,14,-1,-1,-1,-1,-1,-1,-1,-1],"split_conditions":[1.9727531E-1,1.6011408E-1,5.249862E-2,4.4996426E-2,4.5036845E-2,7.188198E-2,1.3032545E-1,-2.1703175E-1,-1.4751065E-2,1.924254E-1,-5.0876413E-2,1.9082893E-2,7.883163E-2,9.700791E-2,-1.02376826E-1],"split_indices":[2439,4135,4510,3606,156,2241,4572,0,0,0,0,0,0,0,0],"split_type":[0,0,0,0,0,0,0,0,0,0,0,0,0,0,0],"sum_hessian":[1.1215656E3,3.6892097E1,1.0846735E3,3.3162876E1,3.729221E0,1.01868994E3,6.598356E1,2.0872953E1,1.2289923E1,2.3754082E0,1.3538132E0,6.687942E2,3.4989575E2,9.15395E0,5.6829613E1],"tree_param":{"num_deleted":"0","num_feature":"5000","num_nodes":"15","size_leaf_vector":"1"}},{"base_weights":[-7.713313E-2,-1.2025355E-3,-4.5149767E-1,-2.8690936E-2,7.9610866E-1,1.0537764E-1,-4.8297486E-1,1.3941762E-1,-2.0449536E-2,-6.0145978E-2,4.1633242E-1,-1.04996696E-1,2.2189315E-1,-1.5263104E-1,7.21342E-2],"categories":[],"categories_nodes":[],"categories_segments":[],"categories_sizes":[],"default_left":[1,1,0,0,0,0,1,0,0,0,0,0,0,0,0],"id":61,"left_children":[1,3,5,7,9,11,13,-1,-1,-1,-1,-1,-1,-1,-1],"loss_changes":[1.0043101E1,6.482871E0,1.0952158E0,5.357889E0,5.8400846E0,1.3717035E0,8.287668E-1,0E0,0E0,0E0,0E0,0E0,0E0,0E0,0E0],"parents":[2147483647,0,0,1,1,2,2,3,3,4,4,5,5,6,6],"right_children":[2,4,6,8,10,12,14,-1,-1,-1,-1,-1,-1,-1,-1],"split_conditions":[5.300147E-2,9.9103004E-2,8.872959E-2,5.0579056E-2,8.364724E-2,3.4869455E-2,1.1203133E-1,1.3941762E-1,-2.0449536E-2,-6.0145978E-2,4.1633242E-1,-1.04996696E-1,2.2189315E-1,-1.5263104E-1,7.21342E-2],"split_indices":[2150,2417,3740,2497,2184,969,1280,0,0,0,0,0,0,0,0],"split_type":[0,0,0,0,0,0,0,0,0,0,0,0,0,0,0],"sum_hessian":[3.5232947E2,2.937523E2,5.8577175E1,2.848942E2,8.858104E0,3.0083067E0,5.5568867E1,2.0049154E1,2.6484503E2,3.4637983E0,5.3943057E0,2.0055423E0,1.0027645E0,5.454993E1,1.0189371E0],"tree_param":{"num_deleted":"0","num_feature":"5000","num_nodes":"15","size_leaf_vector":"1"}},{"base_weights":[-1.5644538E-1,-7.148294E-3,-3.840313E-1,-2.755678E-2,4.2589316E-1,2.1701558E-1,-4.10601E-1,1.783847E-2,-9.045245E-2,-1.3529591E-1,1.2668265E-1],"categories":[],"categories_nodes":[],"categories_segments":[],"categories_sizes":[],"default_left":[1,1,0,1,0,0,1,0,0,0,0],"id":62,"left_children":[1,3,5,7,-1,-1,9,-1,-1,-1,-1],"loss_changes":[8.93511E0,4.617595E0,3.3248186E0,3.687309E0,0E0,0E0,2.9733257E0,0E0,0E0,0E0,0E0],"parents":[2147483647,0,0,1,1,2,2,3,3,6,6],"right_children":[2,4,6,8,-1,-1,10,-1,-1,-1,-1],"split_conditions":[2.9475447E-2,1.2273655E-1,1.8045716E-1,5.4249074E-2,4.2589316E-1,2.1701558E-1,1.706731E-1,1.783847E-2,-9.045245E-2,-1.3529591E-1,1.2668265E-1],"split_indices":[293,4212,2957,2216,0,0,4119,0,0,0,0],"split_type":[0,0,0,0,0,0,0,0,0,0,0],"sum_hessian":[2.6204895E2,1.5886462E2,1.0318431E2,1.5755402E2,1.3106172E0,1.8327864E0,1.01351524E2,1.199652E2,3.758881E1,9.790376E1,3.4477663E0],"tree_param":{"num_deleted":"0","num_feature":"5000","num_nodes":"11","size_leaf_vector":"1"}},{"base_weights":[-3.5231787E-1,4.504166E-2,-4.253313E-1,-1.4030698E-1,2.895095E-1,-4.5782447E-1,2.646684E-1,-1.2873708E-1,1.7132422E-1,1.329365E-1,-1.4466077E-1,-1.0622446E-1,1.7121622E-1],"categories":[],"categories_nodes":[],"categories_segments":[],"categories_sizes":[],"default_left":[0,1,1,0,0,0,0,0,0,0,0,0,0],"id":63,"left_children":[1,3,5,-1,7,9,11,-1,-1,-1,-1,-1,-1],"loss_changes":[4.7082386E0,3.342467E0,3.1844673E0,0E0,3.748591E0,2.133089E0,1.4282297E0,0E0,0E0,0E0,0E0,0E0,0E0],"parents":[2147483647,0,0,1,1,2,2,4,4,5,5,6,6],"right_children":[2,4,6,-1,8,10,12,-1,-1,-1,-1,-1,-1],"split_conditions":[7.53033E-2,2.5174528E-2,1.12993315E-1,-1.4030698E-1,7.996601E-2,1.5250188E-1,6.269191E-2,-1.2873708E-1,1.7132422E-1,1.329365E-1,-1.4466077E-1,-1.0622446E-1,1.7121622E-1],"split_indices":[4969,2081,490,0,2908,706,2959,0,0,0,0,0,0],"split_type":[0,0,0,0,0,0,0,0,0,0,0,0,0],"sum_hessian":[1.606224E2,2.4992006E1,1.356304E2,7.8638186E0,1.7128187E1,1.2985194E2,5.77845E0,4.586844E0,1.2541343E1,1.8894359E0,1.2796251E2,1.828043E0,3.9504073E0],"tree_param":{"num_deleted":"0","num_feature":"5000","num_nodes":"13","size_leaf_vector":"1"}},{"base_weights":[6.136818E-2,5.3229503E-2,5.620213E-1,-2.2266738E-1,1.0627706E-1,1.2276178E-1,-1.0548493E-1,-1.271557E-1,4.2172015E-2],"categories":[],"categories_nodes":[],"categories_segments":[],"categories_sizes":[],"default_left":[1,1,0,0,1,0,0,0,0],"id":64,"left_children":[1,3,-1,5,7,-1,-1,-1,-1],"loss_changes":[8.715532E0,8.895799E0,0E0,7.6926246E0,8.57901E0,0E0,0E0,0E0,0E0],"parents":[2147483647,0,0,1,1,3,3,4,4],"right_children":[2,4,-1,6,8,-1,-1,-1,-1],"split_conditions":[1.6313766E-1,2.650003E-2,5.620213E-1,7.292431E-2,2.2528522E-2,1.2276178E-1,-1.0548493E-1,-1.271557E-1,4.2172015E-2],"split_indices":[231,1601,0,2559,4100,0,0,0,0],"split_type":[0,0,0,0,0,0,0,0,0],"sum_hessian":[6.069352E2,6.0519995E2,1.7352105E0,9.708254E1,5.0811743E2,1.5607386E1,8.147516E1,2.8586954E1,4.795305E2],"tree_param":{"num_deleted":"0","num_feature":"5000","num_nodes":"9","size_leaf_vector":"1"}},{"base_weights":[6.496406E-2,-7.572252E-1,7.4367285E-2,8.280327E-2,-9.67462E-1,1.6579668E-1,5.890714E-2,-3.4684962E-1,2.1019796E-2,1.239269E-2,1.3138913E-1],"categories":[],"categories_nodes":[],"categories_segments":[],"categories_sizes":[],"default_left":[1,0,0,0,1,0,1,0,0,0,0],"id":65,"left_children":[1,3,5,-1,7,-1,9,-1,-1,-1,-1],"loss_changes":[8.490391E0,2.9498186E0,7.7989306E0,0E0,1.9318581E0,0E0,7.092491E0,0E0,0E0,0E0,0E0],"parents":[2147483647,0,0,1,1,2,2,4,4,6,6],"right_children":[2,4,6,-1,8,-1,10,-1,-1,-1,-1],"split_conditions":[1.8870698E-2,5.481474E-2,1.8216299E-1,8.280327E-2,5.833758E-2,1.6579668E-1,8.8108875E-2,-3.4684962E-1,2.1019796E-2,1.239269E-2,1.3138913E-1],"split_indices":[1334,1364,3111,0,2298,0,1280,0,0,0,0],"split_type":[0,0,0,0,0,0,0,0,0,0,0],"sum_hessian":[1.08991E3,1.1424885E1,1.0784852E3,1.8892491E0,9.535636E0,3.3310886E1,1.0451743E3,8.109997E0,1.4256389E0,9.972739E2,4.7900375E1],"tree_param":{"num_deleted":"0","num_feature":"5000","num_nodes":"11","size_leaf_vector":"1"}},{"base_weights":[-4.6370454E-2,8.29922E-2,-2.719161E-1,-2.6340407E-1,1.5831238E-1,1.259823E0,-3.1471917E-1,3.1499836E-1,-1.0073271E-1,-1.2785327E-1,6.557906E-2,6.390576E-1,-9.0650864E-2,-1.0299466E-1,3.614625E-1],"categories":[],"categories_nodes":[],"categories_segments":[],"categories_sizes":[],"default_left":[0,0,0,0,0,1,1,0,0,0,0,0,0,0,0],"id":66,"left_children":[1,3,5,7,9,11,13,-1,-1,-1,-1,-1,-1,-1,-1],"loss_changes":[9.970208E0,5.714698E0,8.559417E0,3.7395127E0,5.958827E0,5.2855225E0,4.6001997E0,0E0,0E0,0E0,0E0,0E0,0E0,0E0,0E0],"parents":[2147483647,0,0,1,1,2,2,3,3,4,4,5,5,6,6],"right_children":[2,4,6,8,10,12,14,-1,-1,-1,-1,-1,-1,-1,-1],"split_conditions":[3.2557253E-2,3.827976E-2,1.6164465E-1,8.049633E-2,3.400328E-2,3.3327065E-2,1.4398772E-1,3.1499836E-1,-1.0073271E-1,-1.2785327E-1,6.557906E-2,6.390576E-1,-9.0650864E-2,-1.0299466E-1,3.614625E-1],"split_indices":[1202,440,624,83,2442,3628,2210,0,0,0,0,0,0,0,0],"split_type":[0,0,0,0,0,0,0,0,0,0,0,0,0,0,0],"sum_hessian":[3.3993906E2,2.1643428E2,1.2350476E2,3.821E1,1.7822429E2,2.5844753E0,1.2092029E2,1.1658219E0,3.7044178E1,1.5362541E1,1.6286174E2,1.4570181E0,1.127457E0,1.19859634E2,1.060651E0],"tree_param":{"num_deleted":"0","num_feature":"5000","num_nodes":"15","size_leaf_vector":"1"}},{"base_weights":[-1.3396914E-1,2.821004E-2,-3.369145E-1,-3.0140465E-2,5.699882E-1,-3.8319328E-1,4.2071778E-1,2.2561235E-2,-1.3253866E-1,3.027519E-1,-1.2840536E-1,-1.2489884E-1,1.7002064E-1,-1.0245217E-1,2.1361554E-1],"categories":[],"categories_nodes":[],"categories_segments":[],"categories_sizes":[],"default_left":[0,1,1,0,1,1,0,0,0,0,0,0,0,0,0],"id":67,"left_children":[1,3,5,7,9,11,13,-1,-1,-1,-1,-1,-1,-1,-1],"loss_changes":[8.12067E0,4.376603E0,4.0019083E0,5.3137393E0,6.05463E0,2.796174E0,1.6704344E0,0E0,0E0,0E0,0E0,0E0,0E0,0E0,0E0],"parents":[2147483647,0,0,1,1,2,2,3,3,4,4,5,5,6,6],"right_children":[2,4,6,8,10,12,14,-1,-1,-1,-1,-1,-1,-1,-1],"split_conditions":[3.206209E-2,4.107208E-2,1.465676E-1,2.9600598E-2,3.63691E-2,1.4747779E-1,3.9298862E-2,2.2561235E-2,-1.3253866E-1,3.027519E-1,-1.2840536E-1,-1.2489884E-1,1.7002064E-1,-1.0245217E-1,2.1361554E-1],"split_indices":[3065,3283,4119,2378,1092,2957,911,0,0,0,0,0,0,0,0],"split_type":[0,0,0,0,0,0,0,0,0,0,0,0,0,0,0],"sum_hessian":[2.4543875E2,1.3689957E2,1.0853918E2,1.24441376E2,1.2458198E1,1.02756676E2,5.7825055E0,9.9613914E1,2.482746E1,8.732341E0,3.7258568E0,1.0050991E2,2.246765E0,1.5062358E0,4.2762694E0],"tree_param":{"num_deleted":"0","num_feature":"5000","num_nodes":"15","size_leaf_vector":"1"}},{"base_weights":[-3.5057965E-1,-7.950266E-2,-4.4841045E-1,-1.7199533E-1,3.0117568E-1,-4.6898532E-1,2.0636725E-1,2.121637E-1,-8.175561E-2,-1.4770032E-1,1.5614595E-1],"categories":[],"categories_nodes":[],"categories_segments":[],"categories_sizes":[],"default_left":[0,1,1,0,0,1,0,0,0,0,0],"id":68,"left_children":[1,3,5,7,-1,9,-1,-1,-1,-1,-1],"loss_changes":[3.7373276E0,4.0131164E0,2.732191E0,3.2441292E0,0E0,1.7922153E0,0E0,0E0,0E0,0E0,0E0],"parents":[2147483647,0,0,1,1,2,2,3,3,5,5],"right_children":[2,4,6,8,-1,10,-1,-1,-1,-1,-1],"split_conditions":[4.4687133E-2,8.03799E-2,1.7736818E-1,8.937247E-2,3.0117568E-1,1.5819117E-1,2.0636725E-1,2.121637E-1,-8.175561E-2,-1.4770032E-1,1.5614595E-1],"split_indices":[3283,2908,465,258,0,3838,0,0,0,0,0],"split_type":[0,0,0,0,0,0,0,0,0,0,0],"sum_hessian":[1.4127087E2,3.7944374E1,1.033265E2,3.5689346E1,2.2550287E0,1.0204343E2,1.2830738E0,2.9352455E0,3.27541E1,1.0097704E2,1.0663829E0],"tree_param":{"num_deleted":"0","num_feature":"5000","num_nodes":"11","size_leaf_vector":"1"}},{"base_weights":[2.8952273E-2,4.238203E-1,1.8469702E-2,-1.1867361E-1,1.0653846E-1,-4.592948E-2,2.9593694E-1,5.4587394E-1,2.850305E-2],"categories":[],"categories_nodes":[],"categories_segments":[],"categories_sizes":[],"default_left":[0,0,1,0,0,0,0,0,0],"id":69,"left_children":[1,-1,3,5,7,-1,-1,-1,-1],"loss_changes":[8.607238E0,0E0,7.2795076E0,8.339381E0,7.914356E0,0E0,0E0,0E0,0E0],"parents":[2147483647,0,0,2,2,3,3,4,4],"right_children":[2,-1,4,6,8,-1,-1,-1,-1],"split_conditions":[4.9420914E-1,4.238203E-1,3.7003126E-2,4.788715E-2,1.08769186E-1,-4.592948E-2,2.9593694E-1,5.4587394E-1,2.850305E-2],"split_indices":[426,0,4044,4957,1412,0,0,0,0],"split_type":[0,0,0,0,0,0,0,0,0],"sum_hessian":[6.0427325E2,3.6140518E0,6.006592E2,2.3475076E2,3.6590842E2,2.2890384E2,5.846925E0,1.7753686E0,3.6413306E2],"tree_param":{"num_deleted":"0","num_feature":"5000","num_nodes":"9","size_leaf_vector":"1"}},{"base_weights":[4.5844156E-2,1.525907E-1,-1.7385406E-2,1.61376E-1,-3.9715928E-1,-4.422524E-2,4.5806575E-1,3.3079915E-2,1.1696428E-1,-2.0767244E-2,1.2563364E-1,-1.6138932E-1,1.5587185E-1],"categories":[],"categories_nodes":[],"categories_segments":[],"categories_sizes":[],"default_left":[0,1,1,0,0,1,0,0,0,0,0,0,0],"id":70,"left_children":[1,3,5,7,-1,9,11,-1,-1,-1,-1,-1,-1],"loss_changes":[7.0516825E0,5.1766024E0,8.401357E0,4.5089025E0,0E0,6.8051524E0,2.1108894E0,0E0,0E0,0E0,0E0,0E0,0E0],"parents":[2147483647,0,0,1,1,2,2,3,3,5,5,6,6],"right_children":[2,4,6,8,-1,10,12,-1,-1,-1,-1,-1,-1],"split_conditions":[8.369887E-2,1.8890172E-1,1.0588762E-1,6.003072E-2,-3.9715928E-1,8.461961E-2,6.271894E-2,3.3079915E-2,1.1696428E-1,-2.0767244E-2,1.2563364E-1,-1.6138932E-1,1.5587185E-1],"split_indices":[2150,3620,1620,156,0,3528,4603,0,0,0,0,0,0],"split_type":[0,0,0,0,0,0,0,0,0,0,0,0,0],"sum_hessian":[1.0433722E3,3.8759924E2,6.55773E2,3.861563E2,1.4429406E0,6.215904E2,3.4182602E1,3.1305984E2,7.3096436E1,5.914955E2,3.0094896E1,1.2835636E0,3.2899036E1],"tree_param":{"num_deleted":"0","num_feature":"5000","num_nodes":"13","size_leaf_vector":"1"}},{"base_weights":[-4.8550047E-2,6.387036E-2,-2.674428E-1,7.5429725E-3,1.0166937E0,5.5832285E-1,-3.3197978E-1,-8.680875E-3,3.1279898E-1,5.3925997E-1,-9.110257E-2,3.147701E-1,-1.1618767E-1,-1.1435206E-1,2.3885138E-1],"categories":[],"categories_nodes":[],"categories_segments":[],"categories_sizes":[],"default_left":[1,1,0,1,1,1,1,0,0,0,0,0,0,0,0],"id":71,"left_children":[1,3,5,7,9,11,13,-1,-1,-1,-1,-1,-1,-1,-1],"loss_changes":[8.078205E0,1.1651311E1,6.1193004E0,7.5841722E0,1.2504729E1,4.1503487E0,5.269288E0,0E0,0E0,0E0,0E0,0E0,0E0,0E0,0E0],"parents":[2147483647,0,0,1,1,2,2,3,3,4,4,5,5,6,6],"right_children":[2,4,6,8,10,12,14,-1,-1,-1,-1,-1,-1,-1,-1],"split_conditions":[3.576144E-2,5.5065382E-2,2.1029963E-1,9.442627E-2,3.865245E-2,5.1362973E-2,1.2832369E-1,-8.680875E-3,3.1279898E-1,5.3925997E-1,-9.110257E-2,3.147701E-1,-1.1618767E-1,-1.1435206E-1,2.3885138E-1],"split_indices":[4884,2497,1640,759,4307,4924,1179,0,0,0,0,0,0,0,0],"split_type":[0,0,0,0,0,0,0,0,0,0,0,0,0,0,0],"sum_hessian":[3.2658127E2,2.1623438E2,1.103469E2,2.0511656E2,1.1117816E1,7.4442925E0,1.0290261E2,1.9904878E2,6.067772E0,6.856906E0,4.26091E0,4.8828874E0,2.5614052E0,9.972572E1,3.1768885E0],"tree_param":{"num_deleted":"0","num_feature":"5000","num_nodes":"15","size_leaf_vector":"1"}},{"base_weights":[-1.0979078E-1,2.7494973E-2,-3.4989646E-1,-3.0170059E-2,6.228789E-1,5.046332E-1,-3.807505E-1,4.0061933E-1,-1.637237E-2,2.4728978E-1,-1.1391321E-1,-9.4830506E-2,3.695245E-1,-1.2529764E-1,1.0958126E-1],"categories":[],"categories_nodes":[],"categories_segments":[],"categories_sizes":[],"default_left":[1,1,0,0,0,0,1,0,0,0,0,0,0,0,0],"id":72,"left_children":[1,3,5,7,9,11,13,-1,-1,-1,-1,-1,-1,-1,-1],"loss_changes":[7.640465E0,5.1072955E0,2.4143877E0,4.3691463E0,2.7617097E0,2.3180227E0,1.9699907E0,0E0,0E0,0E0,0E0,0E0,0E0,0E0,0E0],"parents":[2147483647,0,0,1,1,2,2,3,3,4,4,5,5,6,6],"right_children":[2,4,6,8,10,12,14,-1,-1,-1,-1,-1,-1,-1,-1],"split_conditions":[2.9084906E-2,4.741253E-2,1.8045716E-1,1.17000885E-1,4.3478128E-2,3.4582783E-2,1.3878104E-1,4.0061933E-1,-1.637237E-2,2.4728978E-1,-1.1391321E-1,-9.4830506E-2,3.695245E-1,-1.2529764E-1,1.0958126E-1],"split_indices":[293,3735,2957,408,1064,354,1107,0,0,0,0,0,0,0,0],"split_type":[0,0,0,0,0,0,0,0,0,0,0,0,0,0,0],"sum_hessian":[2.3049664E2,1.4721098E2,8.328566E1,1.3507758E2,1.2133412E1,2.3672442E0,8.091842E1,1.3792244E0,1.3369835E2,1.0364919E1,1.7684937E0,1.359274E0,1.0079701E0,7.8187195E1,2.7312207E0],"tree_param":{"num_deleted":"0","num_feature":"5000","num_nodes":"15","size_leaf_vector":"1"}},{"base_weights":[-3.3393317E-1,1.994384E-1,-3.8929427E-1,-8.226508E-2,3.6439788E-1,-4.245418E-1,3.502142E-1,1.4318582E-1,-1.13415256E-1,-1.383425E-1,9.998398E-2,2.680402E-1,-1.07567936E-1],"categories":[],"categories_nodes":[],"categories_segments":[],"categories_sizes":[],"default_left":[0,0,1,0,0,1,0,0,0,0,0,0,0],"id":73,"left_children":[1,3,5,7,-1,9,11,-1,-1,-1,-1,-1,-1],"loss_changes":[3.7556477E0,3.5677736E0,3.0989647E0,1.8649824E0,0E0,2.5190086E0,2.4268258E0,0E0,0E0,0E0,0E0,0E0,0E0],"parents":[2147483647,0,0,1,1,2,2,3,3,5,5,6,6],"right_children":[2,4,6,8,-1,10,12,-1,-1,-1,-1,-1,-1],"split_conditions":[1.1378194E-1,2.9697798E-2,1.3322188E-1,6.375791E-2,3.6439788E-1,1.4410828E-1,5.8413524E-2,1.4318582E-1,-1.13415256E-1,-1.383425E-1,9.998398E-2,2.680402E-1,-1.07567936E-1],"split_indices":[258,3577,2440,4969,0,490,2959,0,0,0,0,0,0],"split_type":[0,0,0,0,0,0,0,0,0,0,0,0,0],"sum_hessian":[1.2355989E2,1.1374149E1,1.1218574E2,9.580045E0,1.794105E0,1.0748838E2,4.697357E0,3.0837374E0,6.4963074E0,1.03876015E2,3.612372E0,2.5382247E0,2.1591322E0],"tree_param":{"num_deleted":"0","num_feature":"5000","num_nodes":"13","size_leaf_vector":"1"}},{"base_weights":[4.869827E-2,8.42503E-2,-2.6459402E-1,7.538442E-2,5.311942E-1,2.619468E-1,-3.030029E-1,3.0917637E-2,-1.11615725E-1,-1.12883456E-1,1.13930225E-1],"categories":[],"categories_nodes":[],"categories_segments":[],"categories_sizes":[],"default_left":[0,1,0,1,0,0,1,0,0,0,0],"id":74,"left_children":[1,3,5,7,-1,-1,9,-1,-1,-1,-1],"loss_changes":[6.7694974E0,7.8739443E0,2.9345798E0,6.2635994E0,0E0,0E0,2.8926415E0,0E0,0E0,0E0,0E0],"parents":[2147483647,0,0,1,1,2,2,3,3,6,6],"right_children":[2,4,6,8,-1,-1,10,-1,-1,-1,-1],"split_conditions":[5.853062E-2,1.5543398E-1,4.8513375E-2,8.5111156E-2,5.311942E-1,2.619468E-1,8.868207E-2,3.0917637E-2,-1.11615725E-1,-1.12883456E-1,1.13930225E-1],"split_indices":[1274,1148,1104,2816,0,0,1143,0,0,0,0],"split_type":[0,0,0,0,0,0,0,0,0,0,0],"sum_hessian":[6.0477277E2,5.437947E2,6.097809E1,5.419411E2,1.853557E0,1.309698E0,5.9668392E1,5.1253467E2,2.9406464E1,5.4696007E1,4.9723825E0],"tree_param":{"num_deleted":"0","num_feature":"5000","num_nodes":"11","size_leaf_vector":"1"}},{"base_weights":[4.2933725E-2,2.8334571E-2,4.4326043E-1,1.6344447E-2,1.5886511E-1,1.5683156E-1,9.954676E-2,1.2687154E-3,1.5457004E-1,1.3641495E-1,-1.3644855E-1],"categories":[],"categories_nodes":[],"categories_segments":[],"categories_sizes":[],"default_left":[1,1,1,1,0,0,0,0,0,0,0],"id":75,"left_children":[1,3,5,7,-1,-1,9,-1,-1,-1,-1],"loss_changes":[5.9736004E0,5.833732E0,8.2588625E-1,5.7754116E0,0E0,0E0,1.6062255E0,0E0,0E0,0E0,0E0],"parents":[2147483647,0,0,1,1,2,2,3,3,6,6],"right_children":[2,4,6,8,-1,-1,10,-1,-1,-1,-1],"split_conditions":[9.8178186E-2,1.02543935E-1,7.0313886E-2,1.0813702E-1,1.5886511E-1,1.5683156E-1,5.6078825E-2,1.2687154E-3,1.5457004E-1,1.3641495E-1,-1.3644855E-1],"split_indices":[3768,3336,1852,2403,0,0,1037,0,0,0,0],"split_type":[0,0,0,0,0,0,0,0,0,0,0],"sum_hessian":[1.02325006E3,9.8828015E2,3.4969925E1,9.658021E2,2.2478031E1,2.8575926E1,6.3939996E0,9.433731E2,2.2429005E1,4.0202537E0,2.3737462E0],"tree_param":{"num_deleted":"0","num_feature":"5000","num_nodes":"11","size_leaf_vector":"1"}},{"base_weights":[-5.221834E-2,7.872685E-4,-4.2166623E-1,-3.292818E-1,6.0157392E-2,-1.502684E-1,2.3284497E-2,1.8477233E-1,-1.2299914E-1,2.1510643E-1,6.3978024E-3,-1.201005E-1,1.9934618E-1],"categories":[],"categories_nodes":[],"categories_segments":[],"categories_sizes":[],"default_left":[1,0,1,0,0,0,0,0,0,0,0,0,0],"id":76,"left_children":[1,3,5,7,9,-1,11,-1,-1,-1,-1,-1,-1],"loss_changes":[6.273836E0,5.529495E0,1.2816739E0,3.2207408E0,6.029789E0,0E0,1.9627895E0,0E0,0E0,0E0,0E0,0E0,0E0],"parents":[2147483647,0,0,1,1,2,2,3,3,4,4,6,6],"right_children":[2,4,6,8,10,-1,12,-1,-1,-1,-1,-1,-1],"split_conditions":[5.2802194E-2,3.827976E-2,8.451079E-2,1.2972295E-1,9.3167596E-2,-1.502684E-1,6.280595E-2,1.8477233E-1,-1.2299914E-1,2.1510643E-1,6.3978024E-3,-1.201005E-1,1.9934618E-1],"split_indices":[2150,440,3740,294,2916,0,2442,0,0,0,0,0,0],"split_type":[0,0,0,0,0,0,0,0,0,0,0,0,0],"sum_hessian":[3.1935776E2,2.801603E2,3.919743E1,4.2017445E1,2.3814287E2,3.3709843E1,5.4875855E0,2.5540159E0,3.9463432E1,1.2662148E1,2.2548073E2,3.5282931E0,1.9592924E0],"tree_param":{"num_deleted":"0","num_feature":"5000","num_nodes":"13","size_leaf_vector":"1"}},{"base_weights":[-9.686185E-2,3.403569E-2,-3.3330813E-1,1.335723E-2,3.6679348E-1,1.224709E-1,-4.0017766E-1,5.27979E-2,-4.4533376E-2,-5.9764974E-2,4.2977956E-1,-1.2964948E-1,8.34138E-2],"categories":[],"categories_nodes":[],"categories_segments":[],"categories_sizes":[],"default_left":[1,1,0,0,0,0,1,0,0,0,0,0,0],"id":77,"left_children":[1,3,5,7,-1,9,11,-1,-1,-1,-1,-1,-1],"loss_changes":[6.9282904E0,3.481876E0,2.4789572E0,3.6723464E0,0E0,4.7690077E0,1.2865849E0,0E0,0E0,0E0,0E0,0E0,0E0],"parents":[2147483647,0,0,1,1,2,2,3,3,5,5,6,6],"right_children":[2,4,6,8,-1,10,12,-1,-1,-1,-1,-1,-1],"split_conditions":[3.3554357E-2,8.9415E-2,1.129506E-1,4.0880207E-2,3.6679348E-1,3.674671E-2,1.1484356E-1,5.27979E-2,-4.4533376E-2,-5.9764974E-2,4.2977956E-1,-1.2964948E-1,8.34138E-2],"split_indices":[212,433,3955,2241,0,4623,1003,0,0,0,0,0,0],"split_type":[0,0,0,0,0,0,0,0,0,0,0,0,0],"sum_hessian":[2.2248605E2,1.4375745E2,7.872861E1,1.4225165E2,1.5057961E0,9.9664345E0,6.876217E1,7.099756E1,7.12541E1,8.668769E0,1.297666E0,6.666679E1,2.095388E0],"tree_param":{"num_deleted":"0","num_feature":"5000","num_nodes":"13","size_leaf_vector":"1"}},{"base_weights":[-2.9381382E-1,-9.216717E-3,-4.1888943E-1,7.9288316E-1,-1.1978436E-1,-4.459608E-1,2.0273727E-1,4.758748E-3,3.3465597E-1,1.5760244E-1,-7.745847E-2,-1.4187056E-1,1.4092305E-1],"categories":[],"categories_nodes":[],"categories_segments":[],"categories_sizes":[],"default_left":[0,0,1,1,0,1,0,0,0,0,0,0,0],"id":78,"left_children":[1,3,5,7,9,11,-1,-1,-1,-1,-1,-1,-1],"loss_changes":[3.9494467E0,3.1927679E0,2.5590153E0,1.014993E0,2.8272307E0,1.5364513E0,0E0,0E0,0E0,0E0,0E0,0E0,0E0],"parents":[2147483647,0,0,1,1,2,2,3,3,4,4,5,5],"right_children":[2,4,6,8,10,12,-1,-1,-1,-1,-1,-1,-1],"split_conditions":[4.4687133E-2,1.2808572E-1,1.7736818E-1,3.9418392E-2,9.680291E-2,1.5819117E-1,2.0273727E-1,4.758748E-3,3.3465597E-1,1.5760244E-1,-7.745847E-2,-1.4187056E-1,1.4092305E-1],"split_indices":[3283,1159,465,1227,258,3838,0,0,0,0,0,0,0],"split_type":[0,0,0,0,0,0,0,0,0,0,0,0,0],"sum_hessian":[1.1005996E2,3.3929783E1,7.613017E1,3.3629122E0,3.056687E1,7.4848694E1,1.2814815E0,1.2420629E0,2.1208494E0,4.825335E0,2.5741535E1,7.3777306E1,1.0713885E0],"tree_param":{"num_deleted":"0","num_feature":"5000","num_nodes":"13","size_leaf_vector":"1"}},{"base_weights":[4.6468753E-2,8.701536E-2,-2.371345E-1,1.19420566E-1,-3.5121587E-1,-3.5381925E-1,2.2249556E-1,-8.9714915E-2,4.6218835E-2,-1.2223549E-1,2.1422282E-1,-1.2166726E-1,2.1748163E-1,2.8055635E-1,2.240409E-2],"categories":[],"categories_nodes":[],"categories_segments":[],"categories_sizes":[],"default_left":[0,1,0,1,1,1,0,0,0,0,0,0,0,0,0],"id":79,"left_children":[1,3,5,7,9,11,13,-1,-1,-1,-1,-1,-1,-1,-1],"loss_changes":[6.9911985E0,7.5839033E0,4.159738E0,6.622899E0,2.2039928E0,3.2223625E0,1.5974905E0,0E0,0E0,0E0,0E0,0E0,0E0,0E0,0E0],"parents":[2147483647,0,0,1,1,2,2,3,3,4,4,5,5,6,6],"right_children":[2,4,6,8,10,12,14,-1,-1,-1,-1,-1,-1,-1,-1],"split_conditions":[5.5856973E-2,7.4354336E-2,5.5076335E-2,2.2009315E-2,7.79446E-2,9.048819E-2,4.8513375E-2,-8.9714915E-2,4.6218835E-2,-1.2223549E-1,2.1422282E-1,-1.2166726E-1,2.1748163E-1,2.8055635E-1,2.240409E-2],"split_indices":[3451,2353,987,1781,211,3229,1104,0,0,0,0,0,0,0,0],"split_type":[0,0,0,0,0,0,0,0,0,0,0,0,0,0,0],"sum_hessian":[6.0518085E2,5.300877E2,7.509318E1,4.9426642E2,3.5821255E1,6.0072884E1,1.5020293E1,3.502956E1,4.5923685E2,3.480384E1,1.0174148E0,5.8237656E1,1.8352311E0,1.7341665E0,1.3286127E1],"tree_param":{"num_deleted":"0","num_feature":"5000","num_nodes":"15","size_leaf_vector":"1"}},{"base_weights":[3.0081308E-2,1.5256893E-2,4.274463E-1,4.7918713E-1,3.9428277E-3,1.591636E-1,9.062775E-2,-6.245569E-2,1.5901302E-1,-3.9653587E-3,1.0165343E-1,1.0065067E-1,-1.7779197E-1],"categories":[],"categories_nodes":[],"categories_segments":[],"categories_sizes":[],"default_left":[1,0,0,0,1,0,1,0,0,0,0,0,0],"id":80,"left_children":[1,3,5,7,9,-1,11,-1,-1,-1,-1,-1,-1],"loss_changes":[5.8601317E0,5.0430536E0,1.0904117E0,7.664385E-1,5.24585E0,0E0,1.6504267E0,0E0,0E0,0E0,0E0,0E0,0E0],"parents":[2147483647,0,0,1,1,2,2,3,3,4,4,6,6],"right_children":[2,4,6,8,10,-1,12,-1,-1,-1,-1,-1,-1],"split_conditions":[9.048826E-2,1.8216299E-1,5.693052E-2,9.534018E-2,7.566148E-2,1.591636E-1,7.252948E-2,-6.245569E-2,1.5901302E-1,-3.9653587E-3,1.0165343E-1,1.0065067E-1,-1.7779197E-1],"split_indices":[2651,3111,3845,4213,2895,0,1732,0,0,0,0,0,0],"split_type":[0,0,0,0,0,0,0,0,0,0,0,0,0],"sum_hessian":[9.949173E2,9.601361E2,3.4781204E1,2.1873318E1,9.382628E2,2.6737913E1,8.04329E0,1.0462724E0,2.0827044E1,8.9326715E2,4.499562E1,6.310612E0,1.7326779E0],"tree_param":{"num_deleted":"0","num_feature":"5000","num_nodes":"13","size_leaf_vector":"1"}},{"base_weights":[-3.2921713E-2,1.7444173E-2,-4.354249E-1,5.4557375E-3,4.8702493E-1,-4.6296588E-1,7.453845E-2,-6.780049E-2,2.5415396E-2,6.755101E-2,-1.4968449E-1],"categories":[],"categories_nodes":[],"categories_segments":[],"categories_sizes":[],"default_left":[1,1,1,0,0,0,0,0,0,0,0],"id":81,"left_children":[1,3,5,7,-1,9,-1,-1,-1,-1,-1],"loss_changes":[6.3198047E0,5.249303E0,7.622123E-1,4.924493E0,0E0,7.4929047E-1,0E0,0E0,0E0,0E0,0E0],"parents":[2147483647,0,0,1,1,2,2,3,3,5,5],"right_children":[2,4,6,8,-1,10,-1,-1,-1,-1,-1],"split_conditions":[5.300147E-2,1.8335485E-1,9.728922E-2,6.5681025E-2,4.8702493E-1,1.0099815E-1,7.453845E-2,-6.780049E-2,2.5415396E-2,6.755101E-2,-1.4968449E-1],"split_indices":[2150,608,1122,4924,0,3239,0,0,0,0,0],"split_type":[0,0,0,0,0,0,0,0,0,0,0],"sum_hessian":[3.1036908E2,2.7670163E2,3.366747E1,2.7561298E2,1.0886403E0,3.266318E1,1.0042884E0,6.975361E1,2.0585938E2,1.0031015E0,3.166008E1],"tree_param":{"num_deleted":"0","num_feature":"5000","num_nodes":"11","size_leaf_vector":"1"}},{"base_weights":[-9.2969514E-2,8.363695E-2,-2.266991E-1,-1.2115388E-2,6.311929E-1,4.6782157E-1,-2.7432805E-1,-3.7693612E-2,1.197216E-1,5.2205324E-1,9.780893E-2,-7.247489E-2,3.759667E-1,-9.980177E-2,8.096875E-2],"categories":[],"categories_nodes":[],"categories_segments":[],"categories_sizes":[],