{"learner":{"attributes":{},"feature_names":[],"feature_types":[],"gradient_booster":{"model":{"gbtree_model_param":{"num_parallel_tree":"1","num_trees":"1150"},"iteration_indptr":[0,5,10,15,20,25,30,35,40,45,50,55,60,65,70,75,80,85,90,95,100,105,110,115,120,125,130,135,140,145,150,155,160,165,170,175,180,185,190,195,200,205,210,215,220,225,230,235,240,245,250,255,260,265,270,275,280,285,290,295,300,305,310,315,320,325,330,335,340,345,350,355,360,365,370,375,380,385,390,395,400,405,410,415,420,425,430,435,440,445,450,455,460,465,470,475,480,485,490,495,500,505,510,515,520,525,530,535,540,545,550,555,560,565,570,575,580,585,590,595,600,605,610,615,620,625,630,635,640,645,650,655,660,665,670,675,680,685,690,695,700,705,710,715,720,725,730,735,740,745,750,755,760,765,770,775,780,785,790,795,800,805,810,815,820,825,830,835,840,845,850,855,860,865,870,875,880,885,890,895,900,905,910,915,920,925,930,935,940,945,950,955,960,965,970,975,980,985,990,995,1000,1005,1010,1015,1020,1025,1030,1035,1040,1045,1050,1055,1060,1065,1070,1075,1080,1085,1090,1095,1100,1105,1110,1115,1120,1125,1130,1135,1140,1145,1150],"tree_info":[0,1,2,3,4,0,1,2,3,4,0,1,2,3,4,0,1,2,3,4,0,1,2,3,4,0,1,2,3,4,0,1,2,3,4,0,1,2,3,4,0,1,2,3,4,0,1,2,3,4,0,1,2,3,4,0,1,2,3,4,0,1,2,3,4,0,1,2,3,4,0,1,2,3,4,0,1,2,3,4,0,1,2,3,4,0,1,2,3,4,0,1,2,3,4,0,1,2,3,4,0,1,2,3,4,0,1,2,3,4,0,1,2,3,4,0,1,2,3,4,0,1,2,3,4,0,1,2,3,4,0,1,2,3,4,0,1,2,3,4,0,1,2,3,4,0,1,2,3,4,0,1,2,3,4,0,1,2,3,4,0,1,2,3,4,0,1,2,3,4,0,1,2,3,4,0,1,2,3,4,0,1,2,3,4,0,1,2,3,4,0,1,2,3,4,0,1,2,3,4,0,1,2,3,4,0,1,2,3,4,0,1,2,3,4,0,1,2,3,4,0,1,2,3,4,0,1,2,3,4,0,1,2,3,4,0,1,2,3,4,0,1,2,3,4,0,1,2,3,4,0,1,2,3,4,0,1,2,3,4,0,1,2,3,4,0,1,2,3,4,0,1,2,3,4,0,1,2,3,4,0,1,2,3,4,0,1,2,3,4,0,1,2,3,4,0,1,2,3,4,0,1,2,3,4,0,1,2,3,4,0,1,2,3,4,0,1,2,3,4,0,1,2,3,4,0,1,2,3,4,0,1,2,3,4,0,1,2,3,4,0,1,2,3,4,0,1,2,3,4,0,1,2,3,4,0,1,2,3,4,0,1,2,3,4,0,1,2,3,4,0,1,2,3,4,0,1,2,3,4,0,1,2,3,4,0,1,2,3,4,0,1,2,3,4,0,1,2,3,4,0,1,2,3,4,0,1,2,3,4,0,1,2,3,4,0,1,2,3,4,0,1,2,3,4,0,1,2,3,4,0,1,2,3,4,0,1,2,3,4,0,1,2,3,4,0,1,2,3,4,0,1,2,3,4,0,1,2,3,4,0,1,2,3,4,0,1,2,3,4,0,1,2,3,4,0,1,2,3,4,0,1,2,3,4,0,1,2,3,4,0,1,2,3,4,0,1,2,3,4,0,1,2,3,4,0,1,2,3,4,0,1,2,3,4,0,1,2,3,4,0,1,2,3,4,0,1,2,3,4,0,1,2,3,4,0,1,2,3,4,0,1,2,3,4,0,1,2,3,4,0,1,2,3,4,0,1,2,3,4,0,1,2,3,4,0,1,2,3,4,0,1,2,3,4,0,1,2,3,4,0,1,2,3,4,0,1,2,3,4,0,1,2,3,4,0,1,2,3,4,0,1,2,3,4,0,1,2,3,4,0,1,2,3,4,0,1,2,3,4,0,1,2,3,4,0,1,2,3,4,0,1,2,3,4,0,1,2,3,4,0,1,2,3,4,0,1,2,3,4,0,1,2,3,4,0,1,2,3,4,0,1,2,3,4,0,1,2,3,4,0,1,2,3,4,0,1,2,3,4,0,1,2,3,4,0,1,2,3,4,0,1,2,3,4,0,1,2,3,4,0,1,2,3,4,0,1,2,3,4,0,1,2,3,4,0,1,2,3,4,0,1,2,3,4,0,1,2,3,4,0,1,2,3,4,0,1,2,3,4,0,1,2,3,4,0,1,2,3,4,0,1,2,3,4,0,1,2,3,4,0,1,2,3,4,0,1,2,3,4,0,1,2,3,4,0,1,2,3,4,0,1,2,3,4,0,1,2,3,4,0,1,2,3,4,0,1,2,3,4,0,1,2,3,4,0,1,2,3,4,0,1,2,3,4,0,1,2,3,4,0,1,2,3,4,0,1,2,3,4,0,1,2,3,4,0,1,2,3,4,0,1,2,3,4,0,1,2,3,4,0,1,2,3,4,0,1,2,3,4,0,1,2,3,4,0,1,2,3,4,0,1,2,3,4,0,1,2,3,4,0,1,2,3,4,0,1,2,3,4,0,1,2,3,4,0,1,2,3,4,0,1,2,3,4,0,1,2,3,4,0,1,2,3,4,0,1,2,3,4,0,1,2,3,4,0,1,2,3,4,0,1,2,3,4,0,1,2,3,4,0,1,2,3,4,0,1,2,3,4,0,1,2,3,4,0,1,2,3,4,0,1,2,3,4,0,1,2,3,4,0,1,2,3,4,0,1,2,3,4,0,1,2,3,4,0,1,2,3,4,0,1,2,3,4,0,1,2,3,4,0,1,2,3,4,0,1,2,3,4,0,1,2,3,4,0,1,2,3,4,0,1,2,3,4,0,1,2,3,4,0,1,2,3,4,0,1,2,3,4,0,1,2,3,4,0,1,2,3,4,0,1,2,3,4,0,1,2,3,4,0,1,2,3,4,0,1,2,3,4,0,1,2,3,4,0,1,2,3,4,0,1,2,3,4,0,1,2,3,4,0,1,2,3,4,0,1,2,3,4,0,1,2,3,4,0,1,2,3,4,0,1,2,3,4,0,1,2,3,4,0,1,2,3,4,0,1,2,3,4,0,1,2,3,4,0,1,2,3,4,0,1,2,3,4,0,1,2,3,4],"trees":[{"base_weights":[2.2531343E0,2.3488321E0,1.487793E0,2.3641176E0,-2.1459226E-2,1.6699355E0,3.288364E-1,7.287185E-1,2.8673044E-1,7.57764E-2,-1.4149484E-1,5.3093576E-1,-5.9803918E-2,4.5638683E-1,-6.3409563E-3],"categories":[],"categories_nodes":[],"categories_segments":[],"categories_sizes":[],"default_left":[0,1,1,1,0,1,0,0,0,0,0,0,0,0,0],"id":0,"left_children":[1,3,5,7,9,11,13,-1,-1,-1,-1,-1,-1,-1,-1],"loss_changes":[1.03757324E2,4.7146973E1,3.4382904E1,4.395996E1,1.2282752E0,1.9211823E1,9.713465E0,0E0,0E0,0E0,0E0,0E0,0E0,0E0,0E0],"parents":[2147483647,0,0,1,1,2,2,3,3,4,4,5,5,6,6],"right_children":[2,4,6,8,10,12,14,-1,-1,-1,-1,-1,-1,-1,-1],"split_conditions":[4.464802E-2,1.9917852E-1,9.199161E-2,1.2091172E-1,6.7853E-2,1.853586E-1,4.0985346E-2,7.287185E-1,2.8673044E-1,7.57764E-2,-1.4149484E-1,5.3093576E-1,-5.9803918E-2,4.5638683E-1,-6.3409563E-3],"split_indices":[4583,1260,4755,2439,423,1475,1617,0,0,0,0,0,0,0,0],"split_type":[0,0,0,0,0,0,0,0,0,0,0,0,0,0,0],"sum_hessian":[1.4633601E3,1.2988801E3,1.6448001E2,1.29056E3,8.320001E0,1.4176001E2,2.2720001E1,1.2675201E3,2.304E1,5.4400005E0,2.88E0,1.3664001E2,5.1200004E0,4.4800005E0,1.8240002E1],"tree_param":{"num_deleted":"0","num_feature":"5000","num_nodes":"15","size_leaf_vector":"1"}},{"base_weights":[-5.940258E-1,-5.987094E-1,9.5041317E-1,-6.711409E-2,-6.092921E-1,-1.0701755E-1,4.6264046E-1,3.5192308E-1,-5.4078013E-2,-1.8812561E-1,-3.4841828E-2],"categories":[],"categories_nodes":[],"categories_segments":[],"categories_sizes":[],"default_left":[1,0,0,0,1,0,0,0,0,0,0],"id":1,"left_children":[1,3,5,7,9,-1,-1,-1,-1,-1,-1],"loss_changes":[1.1224182E1,8.224182E0,4.0998125E0,4.213835E0,5.286804E0,0E0,0E0,0E0,0E0,0E0,0E0],"parents":[2147483647,0,0,1,1,2,2,3,3,4,4],"right_children":[2,4,6,8,10,-1,-1,-1,-1,-1,-1],"split_conditions":[1.5375909E-1,1.2873386E-1,3.3591483E-2,9.40643E-2,1.2727314E-1,-1.0701755E-1,4.6264046E-1,3.5192308E-1,-5.4078013E-2,-1.8812561E-1,-3.4841828E-2],"split_indices":[4715,2788,346,3160,2418,0,0,0,0,0,0],"split_type":[0,0,0,0,0,0,0,0,0,0,0],"sum_hessian":[1.4720001E3,1.4681602E3,3.8400002E0,2.8800001E1,1.4393601E3,1.2800001E0,2.5600002E0,1.6000001E0,2.7200003E1,1.4176001E3,2.1760002E1],"tree_param":{"num_deleted":"0","num_feature":"5000","num_nodes":"11","size_leaf_vector":"1"}},{"base_weights":[-5.920392E-1,3.6585364E-1,-6.013082E-1,6.389776E-2,4.330247E-1,2.5835866E-1,-6.086992E-1,2.9129213E-1,-7.961848E-2,-9.83871E-2,3.4507295E-1,-1.8648773E-1,2.0561796E-1],"categories":[],"categories_nodes":[],"categories_segments":[],"categories_sizes":[],"default_left":[0,1,0,0,0,1,1,0,0,0,0,0,0],"id":2,"left_children":[1,3,5,7,-1,9,11,-1,-1,-1,-1,-1,-1],"loss_changes":[1.3318237E1,4.6063724E0,9.443237E0,3.8747876E0,0E0,7.039405E0,5.4990234E0,0E0,0E0,0E0,0E0,0E0,0E0],"parents":[2147483647,0,0,1,1,2,2,3,3,5,5,6,6],"right_children":[2,4,6,8,-1,10,12,-1,-1,-1,-1,-1,-1],"split_conditions":[1.8175699E-1,4.9977195E-2,1.3582195E-1,4.5188833E-2,4.330247E-1,4.497991E-2,1.4071977E-1,2.9129213E-1,-7.961848E-2,-9.83871E-2,3.4507295E-1,-1.8648773E-1,2.0561796E-1],"split_indices":[2254,310,2418,1150,0,1850,4998,0,0,0,0,0,0],"split_type":[0,0,0,0,0,0,0,0,0,0,0,0,0],"sum_hessian":[1.4742401E3,1.3760001E1,1.4604801E3,1.152E1,2.2400002E0,1.2160001E1,1.4483201E3,2.5600002E0,8.960001E0,7.6800003E0,4.4800005E0,1.4457601E3,2.5600002E0],"tree_param":{"num_deleted":"0","num_feature":"5000","num_nodes":"13","size_leaf_vector":"1"}},{"base_weights":[-6.16455E-1,2.9429823E-1,-6.1847985E-1,-6.218519E-1,7.462686E-2,-3.5465118E-2,-1.900785E-1,3.969178E-1,-1.5947711E-1],"categories":[],"categories_nodes":[],"categories_segments":[],"categories_sizes":[],"default_left":[0,0,1,0,0,0,0,0,0],"id":3,"left_children":[1,-1,3,5,7,-1,-1,-1,-1],"loss_changes":[5.3276978E0,0E0,3.496582E0,9.348755E-1,6.5736322E0,0E0,0E0,0E0,0E0],"parents":[2147483647,0,0,2,2,3,3,4,4],"right_children":[2,-1,4,6,8,-1,-1,-1,-1],"split_conditions":[1.3651243E-1,2.9429823E-1,1.3885319E-1,1.3509327E-1,7.12555E-2,-3.5465118E-2,-1.900785E-1,3.969178E-1,-1.5947711E-1],"split_indices":[215,0,294,3969,1150,0,0,0,0],"split_type":[0,0,0,0,0,0,0,0,0],"sum_hessian":[1.4764801E3,1.2800001E0,1.4752001E3,1.4681602E3,7.0400004E0,4.1600003E0,1.4640001E3,1.9200001E0,5.1200004E0],"tree_param":{"num_deleted":"0","num_feature":"5000","num_nodes":"9","size_leaf_vector":"1"}},{"base_weights":[-4.4744027E-1,-5.4138047E-1,1.8134715E-1,-5.451461E-1,3.969178E-1,1.7647058E0,8.0026306E-2,1.985207E-1,-1.6806705E-1,5.884855E-1,1.8801369E-1,-8.203092E-2,1.3707864E-1],"categories":[],"categories_nodes":[],"categories_segments":[],"categories_sizes":[],"default_left":[1,1,0,0,0,0,1,0,0,0,0,0,0],"id":4,"left_children":[1,3,5,7,-1,9,11,-1,-1,-1,-1,-1,-1],"loss_changes":[8.746506E1,9.6406555E0,3.0821236E1,9.417358E0,0E0,9.975548E-1,2.3640568E1,0E0,0E0,0E0,0E0,0E0,0E0],"parents":[2147483647,0,0,1,1,2,2,3,3,5,5,6,6],"right_children":[2,4,6,8,-1,10,12,-1,-1,-1,-1,-1,-1],"split_conditions":[5.6643408E-2,2.0230924E-1,4.6892843E-1,9.386529E-2,3.969178E-1,1.0710747E-1,7.174806E-2,1.985207E-1,-1.6806705E-1,5.884855E-1,1.8801369E-1,-8.203092E-2,1.3707864E-1],"split_indices":[1727,2168,1260,4507,0,4601,4273,0,0,0,0,0,0],"split_type":[0,0,0,0,0,0,0,0,0,0,0,0,0],"sum_hessian":[1.4780801E3,1.2860801E3,1.9200002E2,1.28416E3,1.9200001E0,1.056E1,1.8144002E2,5.76E0,1.2784001E3,8.64E0,1.9200001E0,9.344001E1,8.800001E1],"tree_param":{"num_deleted":"0","num_feature":"5000","num_nodes":"13","size_leaf_vector":"1"}},{"base_weights":[1.1840774E0,1.2030481E0,5.797792E-1,1.2104615E0,-1.8101912E-2,8.468746E-1,-6.5044533E-3,3.7130666E-1,-2.1703465E-2,9.3053654E-2,-7.419791E-2,7.9102464E-2,3.6816567E-1,-1.3746876E-1,1.1230177E-1],"categories":[],"categories_nodes":[],"categories_segments":[],"categories_sizes":[],"default_left":[0,1,1,1,0,1,0,0,0,0,0,0,0,0,0],"id":5,"left_children":[1,3,5,7,9,11,13,-1,-1,-1,-1,-1,-1,-1,-1],"loss_changes":[2.3863037E1,1.8817627E1,1.0518995E1,1.8435547E1,1.0576731E0,9.450523E0,3.8288128E0,0E0,0E0,0E0,0E0,0E0,0E0,0E0,0E0],"parents":[2147483647,0,0,1,1,2,2,3,3,4,4,5,5,6,6],"right_children":[2,4,6,8,10,12,14,-1,-1,-1,-1,-1,-1,-1,-1],"split_conditions":[5.2202336E-2,1.9917852E-1,5.0714448E-2,1.653982E-1,6.7853E-2,2.299296E-2,7.386338E-2,3.7130666E-1,-2.1703465E-2,9.3053654E-2,-7.419791E-2,7.9102464E-2,3.6816567E-1,-1.3746876E-1,1.1230177E-1],"split_indices":[3595,1260,2844,1475,423,2578,1227,0,0,0,0,0,0,0,0],"split_type":[0,0,0,0,0,0,0,0,0,0,0,0,0,0,0],"sum_hessian":[2.1413784E3,2.0752397E3,6.613863E1,2.062726E3,1.2513789E1,4.5132828E1,2.1005804E1,2.0516704E3,1.105551E1,4.992662E0,7.5211277E0,1.7808098E1,2.7324728E1,9.518651E0,1.1487154E1],"tree_param":{"num_deleted":"0","num_feature":"5000","num_nodes":"15","size_leaf_vector":"1"}},{"base_weights":[-5.538138E-1,-5.601156E-1,9.436017E-1,-5.0227832E-2,-5.7472104E-1,-9.547798E-2,4.0702438E-1,-6.511684E-2,2.0187151E-1,-3.8437802E-2,-1.7772606E-1],"categories":[],"categories_nodes":[],"categories_segments":[],"categories_sizes":[],"default_left":[1,0,0,0,0,0,0,0,0,0,0],"id":6,"left_children":[1,3,5,7,9,-1,-1,-1,-1,-1,-1],"loss_changes":[1.1910919E1,8.921112E0,3.083911E0,4.1596475E0,4.113373E0,0E0,0E0,0E0,0E0,0E0,0E0],"parents":[2147483647,0,0,1,1,2,2,3,3,4,4],"right_children":[2,4,6,8,10,-1,-1,-1,-1,-1,-1],"split_conditions":[1.5375909E-1,1.4961427E-1,2.661334E-2,3.4921966E-2,1.7619932E-1,-9.547798E-2,4.0702438E-1,-6.511684E-2,2.0187151E-1,-3.8437802E-2,-1.7772606E-1],"split_indices":[4715,2788,4427,373,2418,0,0,0,0,0,0],"split_type":[0,0,0,0,0,0,0,0,0,0,0],"sum_hessian":[1.2052269E3,1.2007994E3,4.4275317E0,3.3561943E1,1.1672374E3,1.0977541E0,3.3297777E0,2.7871725E1,5.690217E0,2.0708298E1,1.1465292E3],"tree_param":{"num_deleted":"0","num_feature":"5000","num_nodes":"11","size_leaf_vector":"1"}},{"base_weights":[-5.5412716E-1,2.9849464E-1,-5.654733E-1,-2.780325E-1,6.945981E-1,3.0526903E-1,-5.7406694E-1,1.9684853E-1,-1.6136299E-1,-1.15272224E-1,2.850561E-1,-6.166902E-2,3.5596365E-1,1.0557075E-1,-1.7610689E-1],"categories":[],"categories_nodes":[],"categories_segments":[],"categories_sizes":[],"default_left":[0,1,0,0,0,0,0,0,0,0,0,0,0,0,0],"id":7,"left_children":[1,3,5,7,9,11,13,-1,-1,-1,-1,-1,-1,-1,-1],"loss_changes":[1.1889374E1,3.9760811E0,9.124664E0,2.0708365E0,2.954492E0,5.633291E0,3.8328247E0,0E0,0E0,0E0,0E0,0E0,0E0,0E0,0E0],"parents":[2147483647,0,0,1,1,2,2,3,3,4,4,5,5,6,6],"right_children":[2,4,6,8,10,12,14,-1,-1,-1,-1,-1,-1,-1,-1],"split_conditions":[1.8175699E-1,2.3875246E-2,1.3582195E-1,2.9565163E-2,3.166258E-2,2.7624179E-2,1.17858395E-1,1.9684853E-1,-1.6136299E-1,-1.15272224E-1,2.850561E-1,-6.166902E-2,3.5596365E-1,1.0557075E-1,-1.7610689E-1],"split_indices":[2254,4284,2418,2241,3628,653,1350,0,0,0,0,0,0,0,0],"split_type":[0,0,0,0,0,0,0,0,0,0,0,0,0,0,0],"sum_hessian":[1.2105573E3,1.5565455E1,1.1949917E3,6.4604197E0,9.105036E0,1.1341117E1,1.1836506E3,1.0450366E0,5.415383E0,1.5598541E0,7.5451818E0,7.6197944E0,3.721323E0,3.9000914E0,1.1797505E3],"tree_param":{"num_deleted":"0","num_feature":"5000","num_nodes":"15","size_leaf_vector":"1"}},{"base_weights":[-5.818488E-1,-5.8565325E-1,1.192216E-2,1.2677908E-1,-5.87227E-1,2.8846642E-1,-1.5545501E-1,-1.7935857E-1,6.2117208E-2],"categories":[],"categories_nodes":[],"categories_segments":[],"categories_sizes":[],"default_left":[1,0,0,0,1,0,0,0,0],"id":8,"left_children":[1,3,5,-1,7,-1,-1,-1,-1],"loss_changes":[2.7372131E0,2.1365967E0,4.7076426E0,0E0,9.107971E-1,0E0,0E0,0E0,0E0],"parents":[2147483647,0,0,1,1,2,2,4,4],"right_children":[2,4,6,-1,8,-1,-1,-1,-1],"split_conditions":[1.3885319E-1,1.3651243E-1,7.12555E-2,1.2677908E-1,1.6494614E-1,2.8846642E-1,-1.5545501E-1,-1.7935857E-1,6.2117208E-2],"split_indices":[1131,215,4692,0,609,0,0,0,0],"split_type":[0,0,0,0,0,0,0,0,0],"sum_hessian":[1.2076206E3,1.1999459E3,7.6746917E0,1.470078E0,1.1984758E3,2.4589965E0,5.215695E0,1.1974698E3,1.0060472E0],"tree_param":{"num_deleted":"0","num_feature":"5000","num_nodes":"9","size_leaf_vector":"1"}},{"base_weights":[-3.961656E-1,-4.875393E-1,1.8213007E-1,-5.023006E-1,5.219002E-1,3.5228688E-1,-1.7765814E-1,3.7672198E-1,-1.5455301E-1,4.0536347E-1,-9.711788E-2,1.4687148E-1,-1.5600878E-1],"categories":[],"categories_nodes":[],"categories_segments":[],"categories_sizes":[],"default_left":[1,1,0,0,0,0,0,0,0,0,0,0,0],"id":9,"left_children":[1,3,5,7,9,11,-1,-1,-1,-1,-1,-1,-1],"loss_changes":[6.628395E1,1.6385681E1,2.2538584E1,8.839386E0,1.1333716E1,1.5993084E1,0E0,0E0,0E0,0E0,0E0,0E0,0E0],"parents":[2147483647,0,0,1,1,2,2,3,3,4,4,5,5],"right_children":[2,4,6,8,10,12,-1,-1,-1,-1,-1,-1,-1],"split_conditions":[7.4000314E-2,1.2791508E-1,8.484666E-2,2.0403808E-1,1.0674499E-1,7.3746055E-2,-1.7765814E-1,3.7672198E-1,-1.5455301E-1,4.0536347E-1,-9.711788E-2,1.4687148E-1,-1.5600878E-1],"split_indices":[3606,3897,1287,2396,310,1727,0,0,0,0,0,0,0],"split_type":[0,0,0,0,0,0,0,0,0,0,0,0,0],"sum_hessian":[1.2517239E3,1.0810668E3,1.7065715E2,1.065981E3,1.5085742E1,1.400335E2,3.062365E1,2.0048122E0,1.0639762E3,7.398027E0,7.6877146E0,1.22191154E2,1.784234E1],"tree_param":{"num_deleted":"0","num_feature":"5000","num_nodes":"13","size_leaf_vector":"1"}},{"base_weights":[8.5745317E-1,8.914808E-1,6.012954E-1,1.4172679E-1,9.0217257E-1,6.878046E-1,1.8734522E-1,1.808579E-1,-7.43146E-2,-1.7297943E-1,2.7635917E-1,1.775131E-1,2.9381815E-1,-5.5936884E-2,1.5156813E-1],"categories":[],"categories_nodes":[],"categories_segments":[],"categories_sizes":[],"default_left":[0,0,0,0,0,0,0,0,0,0,0,0,0,0,0],"id":10,"left_children":[1,3,5,7,9,11,13,-1,-1,-1,-1,-1,-1,-1,-1],"loss_changes":[1.9235107E1,1.5906372E1,9.506096E0,5.241429E0,1.1880493E1,5.9156036E0,5.5872536E0,0E0,0E0,0E0,0E0,0E0,0E0,0E0,0E0],"parents":[2147483647,0,0,1,1,2,2,3,3,4,4,5,5,6,6],"right_children":[2,4,6,8,10,12,14,-1,-1,-1,-1,-1,-1,-1,-1],"split_conditions":[4.414088E-2,1.6809106E-1,5.5201568E-2,6.9348566E-2,1.7637357E-1,8.138302E-2,4.6335265E-2,1.808579E-1,-7.43146E-2,-1.7297943E-1,2.7635917E-1,1.775131E-1,2.9381815E-1,-5.5936884E-2,1.5156813E-1],"split_indices":[293,2418,95,635,609,4273,4284,0,0,0,0,0,0,0,0],"split_type":[0,0,0,0,0,0,0,0,0,0,0,0,0,0,0],"sum_hessian":[2.2672734E3,1.9992195E3,2.680541E2,2.8309101E1,1.9709103E3,2.2117119E2,4.6882896E1,1.2792019E1,1.5517082E1,4.8660417E0,1.9660443E3,1.6205899E2,5.9112198E1,2.152016E1,2.5362736E1],"tree_param":{"num_deleted":"0","num_feature":"5000","num_nodes":"15","size_leaf_vector":"1"}},{"base_weights":[-5.2443945E-1,7.352174E-1,-5.3171426E-1,-1.1118059E-1,3.7423E-1,-5.772348E-2,-5.4769444E-1,3.2053527E-1,-4.678329E-2,-1.696744E-1,4.3906183E-3],"categories":[],"categories_nodes":[],"categories_segments":[],"categories_sizes":[],"default_left":[0,0,0,0,0,0,1,0,0,0,0],"id":11,"left_children":[1,3,5,-1,-1,7,9,-1,-1,-1,-1],"loss_changes":[9.490082E0,3.7577512E0,7.450653E0,0E0,0E0,3.6967208E0,4.634918E0,0E0,0E0,0E0,0E0],"parents":[2147483647,0,0,1,1,2,2,5,5,6,6],"right_children":[2,4,6,-1,-1,8,10,-1,-1,-1,-1],"split_conditions":[1.8734507E-1,3.3591483E-2,1.4961427E-1,-1.1118059E-1,3.7423E-1,1.21186115E-1,1.3634224E-1,3.2053527E-1,-4.678329E-2,-1.696744E-1,4.3906183E-3],"split_indices":[4715,346,2788,0,0,30,2439,0,0,0,0],"split_type":[0,0,0,0,0,0,0,0,0,0,0],"sum_hessian":[9.919496E2,5.121265E0,9.868283E2,1.6623861E0,3.4588788E0,3.2335377E1,9.54493E2,1.7753308E0,3.0560045E1,9.400946E2,1.4398348E1],"tree_param":{"num_deleted":"0","num_feature":"5000","num_nodes":"11","size_leaf_vector":"1"}},{"base_weights":[-5.2646786E-1,2.1821404E-1,-5.385421E-1,-2.1929318E-1,6.064581E-1,9.545625E-2,-5.515119E-1,-1.595194E-1,1.3187598E-1,-1.2678613E-1,2.8738803E-1,3.409205E-1,-2.5699431E-2,3.6080778E-1,-1.69168E-1],"categories":[],"categories_nodes":[],"categories_segments":[],"categories_sizes":[],"default_left":[0,0,0,1,0,0,0,0,0,0,0,0,0,0,0],"id":12,"left_children":[1,3,5,7,9,11,13,-1,-1,-1,-1,-1,-1,-1,-1],"loss_changes":[8.992157E0,2.9288154E0,8.041504E0,1.9032288E0,3.4761255E0,3.8291888E0,5.8377075E0,0E0,0E0,0E0,0E0,0E0,0E0,0E0,0E0],"parents":[2147483647,0,0,1,1,2,2,3,3,4,4,5,5,6,6],"right_children":[2,4,6,8,10,12,14,-1,-1,-1,-1,-1,-1,-1,-1],"split_conditions":[1.5704592E-1,4.708396E-2,1.7098725E-1,3.1121902E-2,3.5956148E-2,9.31111E-2,2.3519564E-1,-1.595194E-1,1.3187598E-1,-1.2678613E-1,2.8738803E-1,3.409205E-1,-2.5699431E-2,3.6080778E-1,-1.69168E-1],"split_indices":[2254,4984,2418,3164,440,265,1208,0,0,0,0,0,0,0,0],"split_type":[0,0,0,0,0,0,0,0,0,0,0,0,0,0,0],"sum_hessian":[9.8600635E2,1.5459613E1,9.705467E2,7.4732604E0,7.9863524E0,1.9329079E1,9.5121765E2,5.232167E0,2.2410936E0,1.9160556E0,6.070297E0,2.109512E0,1.7219566E1,1.0384288E0,9.501792E2],"tree_param":{"num_deleted":"0","num_feature":"5000","num_nodes":"15","size_leaf_vector":"1"}},{"base_weights":[-5.555345E-1,1.6410929E-1,-5.583257E-1,-5.62691E-1,-1.6705278E-2,1.60835E-2,-1.7223698E-1,1.8937926E-1,-1.12132706E-1],"categories":[],"categories_nodes":[],"categories_segments":[],"categories_sizes":[],"default_left":[0,0,1,0,0,0,0,0,0],"id":13,"left_children":[1,-1,3,5,7,-1,-1,-1,-1],"loss_changes":[3.2825623E0,0E0,2.2957153E0,1.2323608E0,2.2031806E0,0E0,0E0,0E0,0E0],"parents":[2147483647,0,0,2,2,3,3,4,4],"right_children":[2,-1,4,6,8,-1,-1,-1,-1],"split_conditions":[1.3651243E-1,1.6410929E-1,1.3885319E-1,1.3509327E-1,3.2004975E-2,1.60835E-2,-1.7223698E-1,1.8937926E-1,-1.12132706E-1],"split_indices":[215,0,294,3969,3022,0,0,0,0],"split_type":[0,0,0,0,0,0,0,0,0],"sum_hessian":[9.7595807E2,1.9964283E0,9.739616E2,9.66136E2,7.8256464E0,3.079245E0,9.630567E2,2.5050306E0,5.320616E0],"tree_param":{"num_deleted":"0","num_feature":"5000","num_nodes":"9","size_leaf_vector":"1"}},{"base_weights":[-3.4372574E-1,-4.4846052E-1,1.8950693E-1,-4.6391672E-1,4.0273148E-1,3.064337E-1,-5.123646E-1,-1.4312229E-1,3.9630282E-1,-1.5447403E-1,2.8602844E-1,1.24003686E-1,-1.7513159E-1,5.5045146E-2,-1.6791601E-1],"categories":[],"categories_nodes":[],"categories_segments":[],"categories_sizes":[],"default_left":[1,1,0,1,0,0,0,0,0,0,0,0,0,0,0],"id":14,"left_children":[1,3,5,7,9,11,13,-1,-1,-1,-1,-1,-1,-1,-1],"loss_changes":[5.994802E1,1.1977615E1,1.4656282E1,8.897049E0,8.51113E0,1.3643542E1,7.7664614E-1,0E0,0E0,0E0,0E0,0E0,0E0,0E0,0E0],"parents":[2147483647,0,0,1,1,2,2,3,3,4,4,5,5,6,6],"right_children":[2,4,6,8,10,12,14,-1,-1,-1,-1,-1,-1,-1,-1],"split_conditions":[7.331584E-2,1.2791508E-1,7.3720396E-2,2.056252E-1,9.232481E-2,1.3621062E-1,1.827339E-1,-1.4312229E-1,3.9630282E-1,-1.5447403E-1,2.8602844E-1,1.24003686E-1,-1.7513159E-1,5.5045146E-2,-1.6791601E-1],"split_indices":[3606,3897,3533,1615,1889,346,3027,0,0,0,0,0,0,0,0],"split_type":[0,0,0,0,0,0,0,0,0,0,0,0,0,0,0],"sum_hessian":[1.0708918E3,8.95217E2,1.7567487E2,8.796982E2,1.5518843E1,1.5107094E2,2.4603928E1,8.777754E2,1.9227601E0,5.769148E0,9.749695E0,1.3613011E2,1.4940829E1,1.0903589E0,2.3513569E1],"tree_param":{"num_deleted":"0","num_feature":"5000","num_nodes":"15","size_leaf_vector":"1"}},{"base_weights":[6.8796533E-1,7.192032E-1,4.730947E-1,1.3340458E-2,7.2967345E-1,4.049794E-1,2.687649E-1,-1.14488915E-1,1.1719924E-1,-1.7666967E-1,2.2374809E-1,1.0335476E-1,2.529047E-1],"categories":[],"categories_nodes":[],"categories_segments":[],"categories_sizes":[],"default_left":[0,0,1,0,0,1,0,0,0,0,0,0,0],"id":15,"left_children":[1,3,5,7,9,11,-1,-1,-1,-1,-1,-1,-1],"loss_changes":[1.42196045E1,1.3972778E1,7.378002E0,4.278239E0,1.000708E1,6.4584465E0,0E0,0E0,0E0,0E0,0E0,0E0,0E0],"parents":[2147483647,0,0,1,1,2,2,3,3,4,4,5,5],"right_children":[2,4,6,8,10,12,-1,-1,-1,-1,-1,-1,-1],"split_conditions":[4.414088E-2,1.6809106E-1,9.618505E-2,6.456895E-2,1.6877818E-1,5.70043E-2,2.687649E-1,-1.14488915E-1,1.1719924E-1,-1.7666967E-1,2.2374809E-1,1.0335476E-1,2.529047E-1],"split_indices":[1130,2418,2739,1122,4715,683,0,0,0,0,0,0,0],"split_type":[0,0,0,0,0,0,0,0,0,0,0,0,0],"sum_hessian":[2.1682026E3,1.8909497E3,2.7725293E2,2.7672174E1,1.8632776E3,2.3930367E2,3.794927E1,1.350611E1,1.4166064E1,5.1349535E0,1.8581426E3,2.085944E2,3.070926E1],"tree_param":{"num_deleted":"0","num_feature":"5000","num_nodes":"13","size_leaf_vector":"1"}},{"base_weights":[-5.0134647E-1,5.667697E-1,-5.09424E-1,-1.0856391E-1,2.8611866E-1,-1.5433185E-2,-5.24878E-1,-1.04607E-1,2.386982E-1,2.957741E-1,-1.612248E-1],"categories":[],"categories_nodes":[],"categories_segments":[],"categories_sizes":[],"default_left":[0,0,0,0,0,0,0,0,0,0,0],"id":16,"left_children":[1,3,5,-1,-1,7,9,-1,-1,-1,-1],"loss_changes":[7.197403E0,2.555348E0,6.0631866E0,0E0,0E0,6.843799E0,4.809189E0,0E0,0E0,0E0,0E0],"parents":[2147483647,0,0,1,1,2,2,5,5,6,6],"right_children":[2,4,6,-1,-1,8,10,-1,-1,-1,-1],"split_conditions":[1.8734507E-1,3.3591483E-2,1.5329486E-1,-1.0856391E-1,2.8611866E-1,4.1617654E-2,6.6414624E-2,-1.04607E-1,2.386982E-1,2.957741E-1,-1.612248E-1],"split_indices":[4715,346,1107,0,0,4165,1720,0,0,0,0],"split_type":[0,0,0,0,0,0,0,0,0,0,0],"sum_hessian":[7.9976025E2,5.4835377E0,7.9427673E2,1.5853806E0,3.8981571E0,2.4155077E1,7.7012164E2,1.7530386E1,6.624691E0,1.2713331E0,7.688503E2],"tree_param":{"num_deleted":"0","num_feature":"5000","num_nodes":"11","size_leaf_vector":"1"}},{"base_weights":[-4.9607447E-1,1.1933813E-2,-5.170713E-1,-3.4225768E-1,3.21807E-1,1.1586271E-1,-5.32589E-1,-1.4927313E-1,8.7382875E-2,-1.345459E-1,1.6686733E-1,-1.14307605E-1,1.19985804E-1,3.6593506E-1,-1.6363631E-1],"categories":[],"categories_nodes":[],"categories_segments":[],"categories_sizes":[],"default_left":[0,0,0,1,0,1,0,0,0,0,0,0,0,0,0],"id":17,"left_children":[1,3,5,7,9,11,13,-1,-1,-1,-1,-1,-1,-1,-1],"loss_changes":[8.558426E0,3.710213E0,7.624237E0,1.601321E0,3.3371706E0,2.7683284E0,5.7531586E0,0E0,0E0,0E0,0E0,0E0,0E0,0E0,0E0],"parents":[2147483647,0,0,1,1,2,2,3,3,4,4,5,5,6,6],"right_children":[2,4,6,8,10,12,14,-1,-1,-1,-1,-1,-1,-1,-1],"split_conditions":[1.5694189E-1,3.8987312E-2,1.7098725E-1,4.9977195E-2,4.132961E-2,4.1078158E-2,2.282023E-1,-1.4927313E-1,8.7382875E-2,-1.345459E-1,1.6686733E-1,-1.14307605E-1,1.19985804E-1,3.6593506E-1,-1.6363631E-1],"split_indices":[2788,4340,2439,310,3845,3728,1208,0,0,0,0,0,0,0,0],"split_type":[0,0,0,0,0,0,0,0,0,0,0,0,0,0,0],"sum_hessian":[8.0078186E2,3.1801144E1,7.689807E2,1.4790633E1,1.701051E1,1.8247284E1,7.507334E2,1.2164999E1,2.6256344E0,3.6596527E0,1.3350858E1,6.4659534E0,1.178133E1,1.0076717E0,7.4972577E2],"tree_param":{"num_deleted":"0","num_feature":"5000","num_nodes":"15","size_leaf_vector":"1"}},{"base_weights":[-5.375509E-1,1.2698233E-1,-5.409387E-1,-5.475776E-1,-1.6121715E-1,6.344523E-2,-1.6740395E-1,-1.1385797E-1,2.4810572E-1],"categories":[],"categories_nodes":[],"categories_segments":[],"categories_sizes":[],"default_left":[0,0,1,0,0,0,0,0,0],"id":18,"left_children":[1,-1,3,5,7,-1,-1,-1,-1],"loss_changes":[2.774826E0,0E0,1.8946991E0,8.660126E-1,3.390735E0,0E0,0E0,0E0,0E0],"parents":[2147483647,0,0,2,2,3,3,4,4],"right_children":[2,-1,4,6,8,-1,-1,-1,-1],"split_conditions":[5.8974415E-2,1.2698233E-1,1.2143425E-1,1.4926213E-1,5.058303E-2,6.344523E-2,-1.6740395E-1,-1.1385797E-1,2.4810572E-1],"split_indices":[3239,0,1107,2149,1497,0,0,0,0],"split_type":[0,0,0,0,0,0,0,0,0],"sum_hessian":[7.8796716E2,2.3572283E0,7.856099E2,7.7167615E2,1.3933757E1,1.0398221E0,7.7063635E2,1.195038E1,1.9833766E0],"tree_param":{"num_deleted":"0","num_feature":"5000","num_nodes":"9","size_leaf_vector":"1"}},{"base_weights":[-3.0177355E-1,-4.0718943E-1,1.7618729E-1,-4.2401412E-1,3.3614752E-1,9.203847E-2,1.0807997E0,-1.30945E-1,5.018987E-1,2.5287727E-1,-1.1687075E-1,6.345356E-2,-1.4447376E-1,4.102033E-1,6.1579635E-3],"categories":[],"categories_nodes":[],"categories_segments":[],"categories_sizes":[],"default_left":[1,1,0,1,0,0,1,0,0,0,0,0,0,0,0],"id":19,"left_children":[1,3,5,7,9,11,13,-1,-1,-1,-1,-1,-1,-1,-1],"loss_changes":[4.5775887E1,9.440964E0,1.2431077E1,8.706726E0,6.350697E0,1.0053875E1,3.8713036E0,0E0,0E0,0E0,0E0,0E0,0E0,0E0,0E0],"parents":[2147483647,0,0,1,1,2,2,3,3,4,4,5,5,6,6],"right_children":[2,4,6,8,10,12,14,-1,-1,-1,-1,-1,-1,-1,-1],"split_conditions":[7.4479066E-2,1.2791508E-1,6.2928475E-2,1.6924526E-1,1.0674499E-1,7.114256E-2,9.7867556E-2,-1.30945E-1,5.018987E-1,2.5287727E-1,-1.1687075E-1,6.345356E-2,-1.4447376E-1,4.102033E-1,6.1579635E-3],"split_indices":[3606,3897,4547,1333,310,3669,1850,0,0,0,0,0,0,0,0],"split_type":[0,0,0,0,0,0,0,0,0,0,0,0,0,0,0],"sum_hessian":[9.061042E2,7.424929E2,1.6361125E2,7.2647943E2,1.6013538E1,1.5069505E2,1.2916207E1,7.254094E2,1.0699618E0,9.41133E0,6.6022086E0,1.2557678E2,2.5118269E1,1.0126324E1,2.7898834E0],"tree_param":{"num_deleted":"0","num_feature":"5000","num_nodes":"15","size_leaf_vector":"1"}},{"base_weights":[5.863797E-1,8.960452E-2,6.018462E-1,6.4079565E-1,-6.7219235E-2,6.4007264E-1,4.2092746E-1,2.3613855E-1,-7.974401E-2,2.2236656E-1,-6.593837E-2,2.7840303E-2,1.9884986E-1,2.2080268E-1,1.0352893E-1],"categories":[],"categories_nodes":[],"categories_segments":[],"categories_sizes":[],"default_left":[0,0,1,1,0,0,0,0,0,0,0,0,0,0,0],"id":20,"left_children":[1,3,5,7,9,11,13,-1,-1,-1,-1,-1,-1,-1,-1],"loss_changes":[1.4985474E1,5.2533307E0,1.2857727E1,1.8211393E0,5.8314676E0,1.0156555E1,8.00193E0,0E0,0E0,0E0,0E0,0E0,0E0,0E0,0E0],"parents":[2147483647,0,0,1,1,2,2,3,3,4,4,5,5,6,6],"right_children":[2,4,6,8,10,12,14,-1,-1,-1,-1,-1,-1,-1,-1],"split_conditions":[4.09624E-1,4.218718E-2,6.199442E-2,6.144541E-2,4.4465255E-2,1.8045476E-1,2.6461193E-1,2.3613855E-1,-7.974401E-2,2.2236656E-1,-6.593837E-2,2.7840303E-2,1.9884986E-1,2.2080268E-1,1.0352893E-1],"split_indices":[2788,3845,1287,1122,4603,2418,2739,0,0,0,0,0,0,0,0],"split_type":[0,0,0,0,0,0,0,0,0,0,0,0,0,0,0],"sum_hessian":[1.9563992E3,5.9276093E1,1.897123E3,1.2445964E1,4.6830128E1,1.5641047E3,3.3301837E2,1.0966138E1,1.479826E0,6.76668E0,4.006345E1,3.3364132E1,1.5307406E3,6.890605E1,2.641123E2],"tree_param":{"num_deleted":"0","num_feature":"5000","num_nodes":"15","size_leaf_vector":"1"}},{"base_weights":[-4.7970334E-1,3.9209247E-1,-4.9053398E-1,-8.293935E-2,4.2631102E-1,8.529908E-2,-5.0692254E-1,-1.4849377E-1,2.8177992E-1,-1.07513875E-1,1.9537489E-1,-1.5705958E-1,1.2619041E-1],"categories":[],"categories_nodes":[],"categories_segments":[],"categories_sizes":[],"default_left":[0,0,0,1,0,0,1,0,0,0,0,0,0],"id":21,"left_children":[1,3,5,7,-1,9,11,-1,-1,-1,-1,-1,-1],"loss_changes":[6.280533E0,4.161207E0,6.057724E0,3.172599E0,0E0,4.7213917E0,4.7936554E0,0E0,0E0,0E0,0E0,0E0,0E0],"parents":[2147483647,0,0,1,1,2,2,3,3,5,5,6,6],"right_children":[2,4,6,8,-1,10,12,-1,-1,-1,-1,-1,-1],"split_conditions":[1.3169767E-1,2.833087E-2,1.7219599E-1,5.423344E-2,4.2631102E-1,4.3631695E-2,1.5375909E-1,-1.4849377E-1,2.8177992E-1,-1.07513875E-1,1.9537489E-1,-1.5705958E-1,1.2619041E-1],"split_indices":[1479,1381,2439,1228,0,212,4715,0,0,0,0,0,0],"split_type":[0,0,0,0,0,0,0,0,0,0,0,0,0],"sum_hessian":[6.4379297E2,7.4679775E0,6.36325E2,5.6952667E0,1.7727107E0,1.7492666E1,6.1883234E2,4.433143E0,1.2621237E0,9.985116E0,7.50755E0,6.139205E2,4.9118795E0],"tree_param":{"num_deleted":"0","num_feature":"5000","num_nodes":"13","size_leaf_vector":"1"}},{"base_weights":[-4.8442978E-1,3.829414E-1,-4.901001E-1,-4.982856E-1,5.5607074E-1,-1.5708792E-1,-5.335636E-3,-1.1631651E-1,3.4117925E-1],"categories":[],"categories_nodes":[],"categories_segments":[],"categories_sizes":[],"default_left":[0,0,1,1,0,0,0,0,0],"id":22,"left_children":[1,-1,3,5,7,-1,-1,-1,-1],"loss_changes":[7.014328E0,0E0,5.8192596E0,5.1688385E0,3.3254993E0,0E0,0E0,0E0,0E0],"parents":[2147483647,0,0,2,2,3,3,4,4],"right_children":[2,-1,4,6,8,-1,-1,-1,-1],"split_conditions":[2.0428176E-1,3.829414E-1,1.3301656E-1,1.1415135E-1,3.7599996E-2,-1.5708792E-1,-5.335636E-3,-1.1631651E-1,3.4117925E-1],"split_indices":[1208,0,4962,2439,3669,0,0,0,0],"split_type":[0,0,0,0,0,0,0,0,0],"sum_hessian":[6.47576E2,1.3874996E0,6.461885E2,6.416914E2,4.4970517E0,6.200112E2,2.1680176E1,1.8073497E0,2.689702E0],"tree_param":{"num_deleted":"0","num_feature":"5000","num_nodes":"9","size_leaf_vector":"1"}},{"base_weights":[-5.2312815E-1,1.3863884E-1,-5.271657E-1,-5.312039E-1,1.7053416E-1,4.86773E-2,-1.6297244E-1,-1.0736092E-1,1.6718018E-1],"categories":[],"categories_nodes":[],"categories_segments":[],"categories_sizes":[],"default_left":[0,0,1,0,0,0,0,0,0],"id":23,"left_children":[1,-1,3,5,7,-1,-1,-1,-1],"loss_changes":[2.701416E0,0E0,1.8417969E0,1.4227905E0,1.0480286E0,0E0,0E0,0E0,0E0],"parents":[2147483647,0,0,2,2,3,3,4,4],"right_children":[2,-1,4,6,8,-1,-1,-1,-1],"split_conditions":[1.3651243E-1,1.3863884E-1,1.4458759E-1,1.3509327E-1,5.370994E-2,4.86773E-2,-1.6297244E-1,-1.0736092E-1,1.6718018E-1],"split_indices":[215,0,1483,3969,1227,0,0,0,0],"split_type":[0,0,0,0,0,0,0,0,0],"sum_hessian":[6.226472E2,2.1018767E0,6.2054535E2,6.172116E2,3.333739E0,2.560189E0,6.146514E2,1.4269044E0,1.9068346E0],"tree_param":{"num_deleted":"0","num_feature":"5000","num_nodes":"9","size_leaf_vector":"1"}},{"base_weights":[-2.4537794E-1,-3.9034876E-1,1.3655879E-1,-3.9872685E-1,4.489975E-1,-5.020559E-1,2.4420032E-1,5.4771915E-2,-1.2985799E-1,-1.6262983E-1,6.779595E-2,1.01031676E-1,-1.4775747E-1],"categories":[],"categories_nodes":[],"categories_segments":[],"categories_sizes":[],"default_left":[1,1,0,0,0,0,0,0,0,0,0,0,0],"id":24,"left_children":[1,3,5,7,-1,9,11,-1,-1,-1,-1,-1,-1],"loss_changes":[4.331685E1,9.428795E0,1.4951502E1,8.908867E0,0E0,8.281293E-1,1.1912552E1,0E0,0E0,0E0,0E0,0E0,0E0],"parents":[2147483647,0,0,1,1,2,2,3,3,5,5,6,6],"right_children":[2,4,6,8,-1,10,12,-1,-1,-1,-1,-1,-1],"split_conditions":[5.9962817E-2,1.6313766E-1,2.6461193E-1,1.5045059E-1,4.489975E-1,5.3458575E-2,7.3720396E-2,5.4771915E-2,-1.2985799E-1,-1.6262983E-1,6.779595E-2,1.01031676E-1,-1.4775747E-1],"split_indices":[1287,1448,2739,4507,0,308,3533,0,0,0,0,0,0],"split_type":[0,0,0,0,0,0,0,0,0,0,0,0,0],"sum_hessian":[7.803579E2,5.65638E2,2.1471988E2,5.638873E2,1.7506664E0,3.0443115E1,1.8427676E2,2.4933445E1,5.389539E2,2.9440619E1,1.0024967E0,1.6509808E2,1.9178682E1],"tree_param":{"num_deleted":"0","num_feature":"5000","num_nodes":"13","size_leaf_vector":"1"}},{"base_weights":[5.0553346E-1,5.5741984E-1,3.2472476E-1,-7.3780366E-3,5.6963277E-1,-1.2501451E-1,3.767985E-1,-1.3983023E-1,6.811747E-2,-1.7346689E-1,1.7554986E-1,6.432101E-2,-2.66845E-1,-8.136412E-2,1.2375785E-1],"categories":[],"categories_nodes":[],"categories_segments":[],"categories_sizes":[],"default_left":[0,0,0,0,0,1,0,0,0,0,0,0,0,0,0],"id":25,"left_children":[1,3,5,7,9,11,13,-1,-1,-1,-1,-1,-1,-1,-1],"loss_changes":[1.575885E1,9.101227E0,8.975929E0,3.1101558E0,9.0572815E0,1.0339199E1,6.4823E0,0E0,0E0,0E0,0E0,0E0,0E0,0E0,0E0],"parents":[2147483647,0,0,1,1,2,2,3,3,4,4,5,5,6,6],"right_children":[2,4,6,8,10,12,14,-1,-1,-1,-1,-1,-1,-1,-1],"split_conditions":[4.091002E-2,1.6809106E-1,7.81342E-2,5.211634E-2,1.8734507E-1,5.10101E-2,4.887291E-1,-1.3983023E-1,6.811747E-2,-1.7346689E-1,1.7554986E-1,6.432101E-2,-2.66845E-1,-8.136412E-2,1.2375785E-1],"split_indices":[293,2418,3606,2959,4715,430,3962,0,0,0,0,0,0,0,0],"split_type":[0,0,0,0,0,0,0,0,0,0,0,0,0,0,0],"sum_hessian":[1.69807E3,1.3178157E3,3.8025427E2,2.7901125E1,1.2899144E3,3.93141E1,3.409402E2,9.10747E0,1.8793655E1,6.2045784E0,1.28371E3,2.764819E1,1.1665909E1,1.4330196E1,3.2661E2],"tree_param":{"num_deleted":"0","num_feature":"5000","num_nodes":"15","size_leaf_vector":"1"}},{"base_weights":[-4.5403478E-1,2.9412627E-2,-4.81504E-1,3.5598636E-1,-2.901224E-1,-4.9261495E-1,4.6865815E-1,-1.7628137E-2,3.0149078E-1,-1.6073252E-1,1.3724948E-1,-1.5513766E-1,2.4916245E-2,-2.018855E-2,2.119137E-1],"categories":[],"categories_nodes":[],"categories_segments":[],"categories_sizes":[],"default_left":[0,0,1,0,0,1,0,0,0,0,0,0,0,0,0],"id":26,"left_children":[1,3,5,7,9,11,13,-1,-1,-1,-1,-1,-1,-1,-1],"loss_changes":[6.912483E0,3.1159856E0,5.4206085E0,3.911533E0,2.8919945E0,4.520195E0,7.95221E-1,0E0,0E0,0E0,0E0,0E0,0E0,0E0,0E0],"parents":[2147483647,0,0,1,1,2,2,3,3,4,4,5,5,6,6],"right_children":[2,4,6,8,10,12,14,-1,-1,-1,-1,-1,-1,-1,-1],"split_conditions":[1.4961427E-1,4.087285E-2,1.5375909E-1,2.9666347E-2,3.5398744E-2,1.3634224E-1,3.71671E-2,-1.7628137E-2,3.0149078E-1,-1.6073252E-1,1.3724948E-1,-1.5513766E-1,2.4916245E-2,-2.018855E-2,2.119137E-1],"split_indices":[2788,3669,4715,899,1274,2439,346,0,0,0,0,0,0,0,0],"split_type":[0,0,0,0,0,0,0,0,0,0,0,0,0,0,0],"sum_hessian":[5.184546E2,2.7870684E1,4.9058392E2,1.3727114E1,1.414357E1,4.8538947E2,5.1944733E0,8.84765E0,4.8794646E0,1.0932636E1,3.2109342E0,4.7231796E2,1.3071496E1,1.7538074E0,3.440666E0],"tree_param":{"num_deleted":"0","num_feature":"5000","num_nodes":"15","size_leaf_vector":"1"}},{"base_weights":[-4.4849366E-1,9.070316E-2,-4.7672054E-1,-2.698244E-1,3.958301E-1,-5.000555E-1,3.5941713E-2,1.7192577E-1,-1.19811185E-1,-7.53352E-2,2.2949612E-1,2.559446E-1,-1.5503909E-1,2.9959965E-1,-3.7822973E-2],"categories":[],"categories_nodes":[],"categories_segments":[],"categories_sizes":[],"default_left":[0,0,1,0,0,0,1,0,0,0,0,0,0,0,0],"id":27,"left_children":[1,3,5,7,9,11,13,-1,-1,-1,-1,-1,-1,-1,-1],"loss_changes":[7.9720383E0,3.0500581E0,5.941986E0,1.5397453E0,3.6007516E0,5.6726E0,3.5263822E0,0E0,0E0,0E0,0E0,0E0,0E0,0E0,0E0],"parents":[2147483647,0,0,1,1,2,2,3,3,4,4,5,5,6,6],"right_children":[2,4,6,8,10,12,14,-1,-1,-1,-1,-1,-1,-1,-1],"split_conditions":[1.3368846E-1,3.8987312E-2,1.12281285E-1,1.4213052E-1,4.9577445E-2,1.17858395E-1,2.42277E-2,1.7192577E-1,-1.19811185E-1,-7.53352E-2,2.2949612E-1,2.559446E-1,-1.5503909E-1,2.9959965E-1,-3.7822973E-2],"split_indices":[2788,4340,2440,407,4984,1350,653,0,0,0,0,0,0,0,0],"split_type":[0,0,0,0,0,0,0,0,0,0,0,0,0,0,0],"sum_hessian":[5.1995154E2,2.5755228E1,4.9419632E2,1.185888E1,1.3896348E1,4.7270468E2,2.1491636E1,1.0642184E0,1.07946615E1,5.068082E0,8.828266E0,2.2843037E0,4.7042038E2,2.3639767E0,1.912766E1],"tree_param":{"num_deleted":"0","num_feature":"5000","num_nodes":"15","size_leaf_vector":"1"}},{"base_weights":[-5.067231E-1,-3.4032874E-2,-5.190032E-1,-2.7753127E-1,2.0317745E-1,2.1542312E-1,-5.2304715E-1,2.0545241E-1,-1.5282081E-1,-9.41121E-2,2.1868801E-1,5.095667E-2,-1.6078138E-1],"categories":[],"categories_nodes":[],"categories_segments":[],"categories_sizes":[],"default_left":[0,1,0,0,0,0,0,0,0,0,0,0,0],"id":28,"left_children":[1,3,5,7,-1,9,11,-1,-1,-1,-1,-1,-1],"loss_changes":[2.8496552E0,2.4998639E0,1.5423737E0,2.6294408E0,0E0,1.1002378E0,1.4451447E0,0E0,0E0,0E0,0E0,0E0,0E0],"parents":[2147483647,0,0,1,1,2,2,3,3,5,5,6,6],"right_children":[2,4,6,8,-1,10,12,-1,-1,-1,-1,-1,-1],"split_conditions":[1.7619908E-1,5.6152698E-2,1.7240703E-1,7.0852906E-2,2.0317745E-1,4.191817E-2,1.2741074E-1,2.0545241E-1,-1.5282081E-1,-9.41121E-2,2.1868801E-1,5.095667E-2,-1.6078138E-1],"split_indices":[294,1150,4135,175,0,2194,531,0,0,0,0,0,0],"split_type":[0,0,0,0,0,0,0,0,0,0,0,0,0],"sum_hessian":[4.9296442E2,1.2578041E1,4.8038638E2,9.780422E0,2.7976184E0,2.3444078E0,4.7804196E2,1.4778935E0,8.302528E0,1.3348097E0,1.009598E0,2.5918949E0,4.7545007E2],"tree_param":{"num_deleted":"0","num_feature":"5000","num_nodes":"13","size_leaf_vector":"1"}},{"base_weights":[-2.0197226E-1,-3.8504496E-1,1.15678795E-1,-3.9393872E-1,4.144233E-1,-4.3833628E-1,2.0861717E-1,-1.2345401E-1,3.1850272E-1,-1.5035653E-1,2.154481E-1,8.8601865E-2,-1.3441472E-1],"categories":[],"categories_nodes":[],"categories_segments":[],"categories_sizes":[],"default_left":[1,1,0,1,0,1,0,0,0,0,0,0,0],"id":29,"left_children":[1,3,5,7,-1,9,11,-1,-1,-1,-1,-1,-1],"loss_changes":[3.9249825E1,7.1718063E0,1.2822534E1,7.0651627E0,0E0,2.5899148E0,1.1421458E1,0E0,0E0,0E0,0E0,0E0,0E0],"parents":[2147483647,0,0,1,1,2,2,3,3,5,5,6,6],"right_children":[2,4,6,8,-1,10,12,-1,-1,-1,-1,-1,-1],"split_conditions":[5.5527046E-2,1.383837E-1,2.6461193E-1,1.6313766E-1,4.144233E-1,1.6411142E-1,7.3746055E-2,-1.2345401E-1,3.1850272E-1,-1.5035653E-1,2.154481E-1,8.8601865E-2,-1.3441472E-1],"split_indices":[1287,2408,2739,231,0,4412,4252,0,0,0,0,0,0],"split_type":[0,0,0,0,0,0,0,0,0,0,0,0,0],"sum_hessian":[6.73172E2,4.2691483E2,2.4625716E2,4.255187E2,1.3961314E0,3.4842297E1,2.1141486E2,4.2305203E2,2.4666677E0,3.3798496E1,1.0437992E0,1.8823114E2,2.3183718E1],"tree_param":{"num_deleted":"0","num_feature":"5000","num_nodes":"13","size_leaf_vector":"1"}},{"base_weights":[4.4469965E-1,4.860898E-1,2.2277185E-1,4.9054286E-1,-3.3585328E-1,-1.7539227E-1,2.883383E-1,1.5056457E-1,-4.1226527E-1,1.521387E-1,-1.1378747E-1,1.168613E-1,2.9756397E-3],"categories":[],"categories_nodes":[],"categories_segments":[],"categories_sizes":[],"default_left":[0,1,0,1,0,0,0,0,0,0,0,0,0],"id":30,"left_children":[1,3,5,7,-1,9,11,-1,-1,-1,-1,-1,-1],"loss_changes":[1.3257568E1,9.202301E0,6.0697784E0,7.6762695E0,0E0,4.613776E0,5.235214E0,0E0,0E0,0E0,0E0,0E0,0E0],"parents":[2147483647,0,0,1,1,2,2,3,3,5,5,6,6],"right_children":[2,4,6,8,-1,10,12,-1,-1,-1,-1,-1,-1],"split_conditions":[4.4668827E-2,2.056252E-1,8.933358E-2,2.6344344E-1,-3.3585328E-1,1.1516368E-1,9.06188E-2,1.5056457E-1,-4.1226527E-1,1.521387E-1,-1.1378747E-1,1.168613E-1,2.9756397E-3],"split_indices":[293,1615,2497,906,0,1361,580,0,0,0,0,0,0],"split_type":[0,0,0,0,0,0,0,0,0,0,0,0,0],"sum_hessian":[1.4540833E3,1.2245171E3,2.295661E2,1.2217803E3,2.7367926E0,3.222132E1,1.9734479E2,1.220451E3,1.32926E0,6.9600844E0,2.5261236E1,1.4695448E2,5.0390305E1],"tree_param":{"num_deleted":"0","num_feature":"5000","num_nodes":"13","size_leaf_vector":"1"}},{"base_weights":[-4.3208206E-1,6.1910234E-2,-4.6686804E-1,-5.2486647E-2,7.802659E-1,4.219225E-1,-4.8067302E-1,9.885213E-2,-1.0392234E-1,1.7322946E-2,3.4781224E-1,-9.392862E-2,6.7941356E-1,7.360523E-2,-1.5082778E-1],"categories":[],"categories_nodes":[],"categories_segments":[],"categories_sizes":[],"default_left":[0,1,0,0,0,0,0,0,0,0,0,0,0,0,0],"id":31,"left_children":[1,3,5,7,9,11,13,-1,-1,-1,-1,-1,-1,-1,-1],"loss_changes":[7.242691E0,2.3829734E0,5.0161743E0,2.880775E0,9.716058E-1,9.295527E0,3.9852905E0,0E0,0E0,0E0,0E0,0E0,0E0,0E0,0E0],"parents":[2147483647,0,0,1,1,2,2,3,3,4,4,5,5,6,6],"right_children":[2,4,6,8,10,12,14,-1,-1,-1,-1,-1,-1,-1,-1],"split_conditions":[1.4961427E-1,4.515706E-2,1.1600892E-1,3.1901505E-2,5.893504E-2,2.7917545E-2,1.8986051E-1,9.885213E-2,-1.0392234E-1,1.7322946E-2,3.4781224E-1,-9.392862E-2,6.7941356E-1,7.360523E-2,-1.5082778E-1],"split_indices":[2788,1852,1793,670,3606,1984,4119,0,0,0,0,0,0,0,0],"split_type":[0,0,0,0,0,0,0,0,0,0,0,0,0,0,0],"sum_hessian":[4.1879623E2,2.7499474E1,3.9129675E2,2.4521416E1,2.9780571E0,5.5326204E0,3.8576413E2,1.0577444E1,1.3943973E1,1.3744392E0,1.6036179E0,4.530676E0,1.0019442E0,6.9486604E0,3.7881546E2],"tree_param":{"num_deleted":"0","num_feature":"5000","num_nodes":"15","size_leaf_vector":"1"}},{"base_weights":[-4.352387E-1,4.806872E-2,-4.6925357E-1,-2.3154216E-1,8.8011295E-1,2.7754566E-1,-4.7665814E-1,1.90077E-1,-1.2966049E-1,-1.09508745E-1,4.406105E-1,5.535628E-2,-1.5014529E-1],"categories":[],"categories_nodes":[],"categories_segments":[],"categories_sizes":[],"default_left":[0,0,0,0,1,0,0,0,0,0,0,0,0],"id":32,"left_children":[1,3,5,7,9,-1,11,-1,-1,-1,-1,-1,-1],"loss_changes":[6.8983154E0,6.812695E0,4.4252167E0,3.9138818E0,5.662577E0,0E0,4.092949E0,0E0,0E0,0E0,0E0,0E0,0E0],"parents":[2147483647,0,0,1,1,2,2,3,3,4,4,6,6],"right_children":[2,4,6,8,10,-1,12,-1,-1,-1,-1,-1,-1],"split_conditions":[4.187023E-2,2.6729496E-2,1.5333296E-1,6.7094624E-2,2.6601749E-2,2.7754566E-1,9.2866614E-2,1.90077E-1,-1.2966049E-1,-1.09508745E-1,4.406105E-1,5.535628E-2,-1.5014529E-1],"split_indices":[4273,2578,2533,459,688,0,1030,0,0,0,0,0,0],"split_type":[0,0,0,0,0,0,0,0,0,0,0,0,0],"sum_hessian":[4.1724228E2,2.7407269E1,3.89835E2,2.1053799E1,6.353471E0,1.4307803E0,3.8840424E2,3.477797E0,1.7576E1,2.1024222E0,4.251049E0,8.758957E0,3.7964526E2],"tree_param":{"num_deleted":"0","num_feature":"5000","num_nodes":"13","size_leaf_vector":"1"}},{"base_weights":[-4.94855E-1,-2.4445584E-2,-5.092248E-1,-2.5168258E-1,1.7216854E-1,2.5439247E-1,-5.142907E-1,1.8721734E-1,-1.4676729E-1,2.1629529E-1,-8.785435E-2,-3.470523E-2,-1.591445E-1],"categories":[],"categories_nodes":[],"categories_segments":[],"categories_sizes":[],"default_left":[0,1,0,0,0,0,0,0,0,0,0,0,0],"id":33,"left_children":[1,3,5,7,-1,9,11,-1,-1,-1,-1,-1,-1],"loss_changes":[2.631218E0,1.8340639E0,1.5986862E0,2.24509E0,0E0,9.8621166E-1,1.0730667E0,0E0,0E0,0E0,0E0,0E0,0E0],"parents":[2147483647,0,0,1,1,2,2,3,3,5,5,6,6],"right_children":[2,4,6,8,-1,10,12,-1,-1,-1,-1,-1,-1],"split_conditions":[1.7619908E-1,5.6703817E-2,1.3509327E-1,7.0852906E-2,1.7216854E-1,3.0803848E-2,1.4820535E-1,1.8721734E-1,-1.4676729E-1,2.1629529E-1,-8.785435E-2,-3.470523E-2,-1.591445E-1],"split_indices":[294,1104,3969,175,0,88,2418,0,0,0,0,0,0],"split_type":[0,0,0,0,0,0,0,0,0,0,0,0,0],"sum_hessian":[3.9009064E2,1.1643107E1,3.784475E2,8.814657E0,2.82845E0,2.1697676E0,3.7627774E2,1.4966223E0,7.3180346E0,1.0130669E0,1.1567006E0,7.209146E0,3.690686E2],"tree_param":{"num_deleted":"0","num_feature":"5000","num_nodes":"13","size_leaf_vector":"1"}},{"base_weights":[-1.4633478E-1,-3.4217504E-1,1.2137708E-1,8.829795E-1,-3.6216137E-1,1.9839068E-1,-4.4987774E-1,-9.997685E-2,4.3925184E-1,-1.1541748E-1,3.3879653E-1,8.080716E-2,-1.6486366E-1,1.3371184E-1,-1.5729922E-1],"categories":[],"categories_nodes":[],"categories_segments":[],"categories_sizes":[],"default_left":[1,0,0,1,1,0,1,0,0,0,0,0,0,0,0],"id":34,"left_children":[1,3,5,7,9,11,13,-1,-1,-1,-1,-1,-1,-1,-1],"loss_changes":[3.0911058E1,8.652515E0,1.1065348E1,4.353358E0,8.455215E0,1.0988706E1,1.9778705E0,0E0,0E0,0E0,0E0,0E0,0E0,0E0,0E0],"parents":[2147483647,0,0,1,1,2,2,3,3,4,4,5,5,6,6],"right_children":[2,4,6,8,10,12,14,-1,-1,-1,-1,-1,-1,-1,-1],"split_conditions":[5.576904E-2,2.5472773E-2,7.3746055E-2,2.2573525E-2,1.6955128E-1,5.630815E-2,3.7628837E-2,-9.997685E-2,4.3925184E-1,-1.1541748E-1,3.3879653E-1,8.080716E-2,-1.6486366E-1,1.3371184E-1,-1.5729922E-1],"split_indices":[4273,3359,1727,2961,4014,836,3065,0,0,0,0,0,0,0,0],"split_type":[0,0,0,0,0,0,0,0,0,0,0,0,0,0,0],"sum_hessian":[5.8779E2,3.393014E2,2.4848856E2,4.753193E0,3.3454822E2,2.1954355E2,2.8945007E1,1.6277667E0,3.1254263E0,3.3163123E2,2.9169977E0,2.019927E2,1.7550837E1,1.6074268E0,2.733758E1],"tree_param":{"num_deleted":"0","num_feature":"5000","num_nodes":"15","size_leaf_vector":"1"}},{"base_weights":[3.8135985E-1,4.380214E-1,1.927744E-1,4.4322932E-1,-3.088743E-1,2.431824E-1,-2.5547117E-1,-1.917272E-1,1.3716997E-1,1.7439027E-1,5.1482394E-2,-1.270053E-1,1.6918826E-1],"categories":[],"categories_nodes":[],"categories_segments":[],"categories_sizes":[],"default_left":[0,1,1,0,0,1,1,0,0,0,0,0,0],"id":35,"left_children":[1,3,5,7,-1,9,11,-1,-1,-1,-1,-1,-1],"loss_changes":[1.3372498E1,7.75943E0,6.6767845E0,7.0133514E0,0E0,6.348259E0,4.1532736E0,0E0,0E0,0E0,0E0,0E0,0E0],"parents":[2147483647,0,0,1,1,2,2,3,3,5,5,6,6],"right_children":[2,4,6,8,-1,10,12,-1,-1,-1,-1,-1,-1],"split_conditions":[4.6336588E-2,2.0230924E-1,9.034037E-2,1.6877818E-1,-3.088743E-1,3.323389E-2,6.638493E-2,-1.917272E-1,1.3716997E-1,1.7439027E-1,5.1482394E-2,-1.270053E-1,1.6918826E-1],"split_indices":[987,2168,2788,4715,0,4488,3181,0,0,0,0,0,0],"split_type":[0,0,0,0,0,0,0,0,0,0,0,0,0],"sum_hessian":[1.2583583E3,9.6661176E2,2.9174658E2,9.638461E2,2.7656145E0,2.6266565E2,2.908091E1,5.240307E0,9.5860583E2,4.725262E1,2.1541304E2,2.4666967E1,4.413941E0],"tree_param":{"num_deleted":"0","num_feature":"5000","num_nodes":"13","size_leaf_vector":"1"}},{"base_weights":[-4.0176663E-1,2.842757E-2,-4.5040002E-1,-1.0294373E-1,1.1305796E0,-4.8156983E-1,3.5807412E-2,4.8878435E-2,-1.2982412E-1,-8.9029565E-2,5.853897E-1,1.0655431E-1,-1.4973676E-1,3.4651482E-1,-3.8443204E-2],"categories":[],"categories_nodes":[],"categories_segments":[],"categories_sizes":[],"default_left":[0,0,1,0,1,0,0,0,0,0,0,0,0,0,0],"id":36,"left_children":[1,3,5,7,9,11,13,-1,-1,-1,-1,-1,-1,-1,-1],"loss_changes":[7.089836E0,5.2270827E0,4.623825E0,2.8248045E0,4.8714886E0,2.396164E0,3.5701604E0,0E0,0E0,0E0,0E0,0E0,0E0,0E0,0E0],"parents":[2147483647,0,0,1,1,2,2,3,3,4,4,5,5,6,6],"right_children":[2,4,6,8,10,12,14,-1,-1,-1,-1,-1,-1,-1,-1],"split_conditions":[9.151024E-2,3.0116614E-2,9.5959E-2,2.8493073E-2,2.8760698E-2,2.0878962E-1,4.899273E-2,4.8878435E-2,-1.2982412E-1,-8.9029565E-2,5.853897E-1,1.0655431E-1,-1.4973676E-1,3.4651482E-1,-3.8443204E-2],"split_indices":[1433,2094,2788,3418,1401,573,310,0,0,0,0,0,0,0,0],"split_type":[0,0,0,0,0,0,0,0,0,0,0,0,0,0,0],"sum_hessian":[3.3726117E2,3.4297024E1,3.0296414E2,3.1454407E1,2.8426187E0,2.847208E2,1.8243353E1,1.7601807E1,1.3852598E1,1.2386391E0,1.6039797E0,2.7703896E0,2.819504E2,1.5675036E0,1.667585E1],"tree_param":{"num_deleted":"0","num_feature":"5000","num_nodes":"15","size_leaf_vector":"1"}},{"base_weights":[-4.009833E-1,-9.895135E-2,-4.7934595E-1,3.395485E-1,-1.418415E-1,3.3092108E-1,-4.9687052E-1,-5.5930108E-2,2.821824E-1,-1.1358694E-1,2.4975877E-1,-1.5599969E-1,7.071772E-2],"categories":[],"categories_nodes":[],"categories_segments":[],"categories_sizes":[],"default_left":[1,0,0,0,1,1,1,0,0,0,0,0,0],"id":37,"left_children":[1,3,5,-1,7,9,11,-1,-1,-1,-1,-1,-1],"loss_changes":[7.9427757E0,3.839284E0,3.9669075E0,0E0,3.2398515E0,2.456627E0,2.912407E0,0E0,0E0,0E0,0E0,0E0,0E0],"parents":[2147483647,0,0,1,1,2,2,4,4,5,5,6,6],"right_children":[2,4,6,-1,8,10,12,-1,-1,-1,-1,-1,-1],"split_conditions":[2.5776973E-2,2.0428176E-1,9.31111E-2,3.395485E-1,1.1445422E-1,6.6110104E-2,1.5757759E-1,-5.5930108E-2,2.821824E-1,-1.1358694E-1,2.4975877E-1,-1.5599969E-1,7.071772E-2],"split_indices":[344,1208,265,0,380,4969,2439,0,0,0,0,0,0],"split_type":[0,0,0,0,0,0,0,0,0,0,0,0,0],"sum_hessian":[3.3659488E2,6.980587E1,2.66789E2,1.5326091E0,6.827326E1,5.2694035E0,2.6151962E2,6.651231E1,1.7609594E0,2.2553582E0,3.014045E0,2.5667398E2,4.845645E0],"tree_param":{"num_deleted":"0","num_feature":"5000","num_nodes":"13","size_leaf_vector":"1"}},{"base_weights":[-4.840702E-1,-4.9793413E-1,6.8230994E-2,1.19575985E-1,-5.0504535E-1,6.478322E-1,-3.2776096E-1,4.7926296E-2,-1.5597627E-1,-1.0326024E-3,3.1578797E-1,-1.2912616E-1,1.726475E-2],"categories":[],"categories_nodes":[],"categories_segments":[],"categories_sizes":[],"default_left":[1,0,0,0,0,1,1,0,0,0,0,0,0],"id":38,"left_children":[1,3,5,-1,7,9,11,-1,-1,-1,-1,-1,-1],"loss_changes":[2.414322E0,2.1180649E0,2.1613753E0,0E0,1.3481903E0,9.58181E-1,2.3375565E-1,0E0,0E0,0E0,0E0,0E0,0E0],"parents":[2147483647,0,0,1,1,2,2,4,4,5,5,6,6],"right_children":[2,4,6,-1,8,10,12,-1,-1,-1,-1,-1,-1],"split_conditions":[1.2143425E-1,5.8974415E-2,3.558678E-2,1.19575985E-1,1.2741074E-1,3.4089793E-2,6.459152E-2,4.7926296E-2,-1.5597627E-1,-1.0326024E-3,3.1578797E-1,-1.2912616E-1,1.726475E-2],"split_indices":[4532,4933,3505,0,531,460,1850,0,0,0,0,0,0],"split_type":[0,0,0,0,0,0,0,0,0,0,0,0,0],"sum_hessian":[3.09871E2,3.0237912E2,7.491909E0,1.9678425E0,3.0041125E2,2.782815E0,4.709094E0,2.6288955E0,2.9778238E2,1.4080299E0,1.3747852E0,3.6898568E0,1.0192373E0],"tree_param":{"num_deleted":"0","num_feature":"5000","num_nodes":"13","size_leaf_vector":"1"}},{"base_weights":[-1.1258302E-1,-3.325817E-1,1.1532591E-1,-3.4689873E-1,4.726088E-1,1.4026092E0,7.522475E-2,1.0359704E-1,-1.1850326E-1,6.4435935E-1,1.9742684E-1,-1.4972141E-1,4.699222E-2],"categories":[],"categories_nodes":[],"categories_segments":[],"categories_sizes":[],"default_left":[1,1,1,0,0,0,1,0,0,0,0,0,0],"id":39,"left_children":[1,3,5,7,-1,9,11,-1,-1,-1,-1,-1,-1],"loss_changes":[2.5989822E1,7.6411247E0,1.3056127E1,7.6342773E0,0E0,2.7330217E0,1.1159821E1,0E0,0E0,0E0,0E0,0E0,0E0],"parents":[2147483647,0,0,1,1,2,2,3,3,5,5,6,6],"right_children":[2,4,6,8,-1,10,12,-1,-1,-1,-1,-1,-1],"split_conditions":[5.288043E-2,1.383837E-1,3.3125103E-2,1.2418621E-1,4.726088E-1,7.767546E-2,4.3337572E-2,1.0359704E-1,-1.1850326E-1,6.4435935E-1,1.9742684E-1,-1.4972141E-1,4.699222E-2],"split_indices":[4273,2408,4510,4507,0,1850,346,0,0,0,0,0,0],"split_type":[0,0,0,0,0,0,0,0,0,0,0,0,0],"sum_hessian":[5.165836E2,2.626197E2,2.5396396E2,2.614466E2,1.1731042E0,6.6459584E0,2.4731801E2,1.4539598E1,2.4690698E2,2.4993315E0,4.146627E0,2.9596308E1,2.177217E2],"tree_param":{"num_deleted":"0","num_feature":"5000","num_nodes":"13","size_leaf_vector":"1"}},{"base_weights":[3.302334E-1,3.9737445E-1,1.66941E-1,-1.926978E-1,4.2256463E-1,-3.631129E-1,2.0098849E-1,1.6280921E-1,-9.689733E-2,-3.265241E-1,1.3079335E-1,-2.2520112E-1,7.333248E-2,6.680216E-2,-2.4131969E-1],"categories":[],"categories_nodes":[],"categories_segments":[],"categories_sizes":[],"default_left":[0,0,0,0,0,0,1,0,0,0,0,0,0,0,0],"id":40,"left_children":[1,3,5,7,9,11,13,-1,-1,-1,-1,-1,-1,-1,-1],"loss_changes":[1.1709503E1,1.1384102E1,5.7519846E0,3.0591416E0,7.2851105E0,4.559808E0,5.4759026E0,0E0,0E0,0E0,0E0,0E0,0E0,0E0,0E0],"parents":[2147483647,0,0,1,1,2,2,3,3,4,4,5,5,6,6],"right_children":[2,4,6,8,10,12,14,-1,-1,-1,-1,-1,-1,-1,-1],"split_conditions":[4.091002E-2,1.7619932E-1,1.06770135E-1,6.634858E-2,1.02775976E-1,6.596662E-2,1.2055984E-1,1.6280921E-1,-9.689733E-2,-3.265241E-1,1.3079335E-1,-2.2520112E-1,7.333248E-2,6.680216E-2,-2.4131969E-1],"split_indices":[1130,2418,3952,4410,1976,1287,1719,0,0,0,0,0,0,0,0],"split_type":[0,0,0,0,0,0,0,0,0,0,0,0,0,0,0],"sum_hessian":[1.0730831E3,7.5940466E2,3.1367853E2,3.0819397E1,7.2858527E2,1.8349356E1,2.9532916E2,4.04414E0,2.6775257E1,2.3349543E0,7.262503E2,1.1176851E1,7.1725054E0,2.908222E2,4.5069485E0],"tree_param":{"num_deleted":"0","num_feature":"5000","num_nodes":"15","size_leaf_vector":"1"}},{"base_weights":[-3.6905757E-1,-1.2503496E-1,-4.7091988E-1,-1.653078E-1,3.6474958E-1,2.8442386E-1,-1.5609223E-1,-6.2387563E-2,3.0011666E-1,-1.0127508E-1,3.0164742E-1],"categories":[],"categories_nodes":[],"categories_segments":[],"categories_sizes":[],"default_left":[1,1,0,1,0,1,0,0,0,0,0],"id":41,"left_children":[1,3,5,7,-1,9,-1,-1,-1,-1,-1],"loss_changes":[6.893223E0,4.651875E0,6.224041E0,3.9053588E0,0E0,4.9976945E0,0E0,0E0,0E0,0E0,0E0],"parents":[2147483647,0,0,1,1,2,2,3,3,5,5],"right_children":[2,4,6,8,-1,10,-1,-1,-1,-1,-1],"split_conditions":[2.7352914E-2,1.1273829E-1,1.7619932E-1,5.9027288E-2,3.6474958E-1,5.6533076E-2,-1.5609223E-1,-6.2387563E-2,3.0011666E-1,-1.0127508E-1,3.0164742E-1],"split_indices":[3244,1204,2418,1623,0,1889,0,0,0,0,0],"split_type":[0,0,0,0,0,0,0,0,0,0,0],"sum_hessian":[2.7868707E2,8.272871E1,1.9595836E2,8.113006E1,1.5986481E0,9.749893E0,1.8620847E2,7.924629E1,1.8837628E0,5.482089E0,4.2678037E0],"tree_param":{"num_deleted":"0","num_feature":"5000","num_nodes":"11","size_leaf_vector":"1"}},{"base_weights":[-3.9040324E-1,2.3854849E-1,-4.2521372E-1,3.6520854E-2,2.3152046E-1,-4.6358398E-1,1.1536804E-1,1.4071777E-1,-5.5581998E-2,3.041022E-1,-1.4479527E-1,1.4452405E-1,-7.2949246E-2],"categories":[],"categories_nodes":[],"categories_segments":[],"categories_sizes":[],"default_left":[0,0,1,0,0,0,0,0,0,0,0,0,0],"id":42,"left_children":[1,3,5,7,-1,9,11,-1,-1,-1,-1,-1,-1],"loss_changes":[6.178253E0,1.5704048E0,5.5161133E0,1.1991836E0,0E0,4.4830666E0,2.4334924E0,0E0,0E0,0E0,0E0,0E0,0E0],"parents":[2147483647,0,0,1,1,2,2,3,3,5,5,6,6],"right_children":[2,4,6,8,-1,10,12,-1,-1,-1,-1,-1,-1],"split_conditions":[1.8175699E-1,3.039849E-2,1.12281285E-1,4.1933894E-2,2.3152046E-1,2.0428176E-1,5.0123382E-2,1.4071777E-1,-5.5581998E-2,3.041022E-1,-1.4479527E-1,1.4452405E-1,-7.2949246E-2],"split_indices":[2254,1401,2418,3728,0,1208,1727,0,0,0,0,0,0],"split_type":[0,0,0,0,0,0,0,0,0,0,0,0,0],"sum_hessian":[2.7655466E2,1.4196747E1,2.623579E2,1.0998298E1,3.1984484E0,2.4510306E2,1.7254868E1,3.3612826E0,7.6370153E0,1.1877508E0,2.439153E2,8.412497E0,8.842371E0],"tree_param":{"num_deleted":"0","num_feature":"5000","num_nodes":"13","size_leaf_vector":"1"}},{"base_weights":[-4.731365E-1,1.1828434E-2,-4.9223503E-1,-1.2449522E-1,2.4748155E-1,1.22869566E-1,-5.002092E-1,1.4420567E-1,-5.5386744E-2,-7.7930265E-3,-1.5622056E-1],"categories":[],"categories_nodes":[],"categories_segments":[],"categories_sizes":[],"default_left":[0,0,0,0,0,0,0,0,0,0,0],"id":43,"left_children":[1,3,5,-1,7,-1,9,-1,-1,-1,-1],"loss_changes":[2.2943802E0,1.1242846E0,1.8984566E0,0E0,7.863409E-1,0E0,1.3305016E0,0E0,0E0,0E0,0E0],"parents":[2147483647,0,0,1,1,2,2,4,4,6,6],"right_children":[2,4,6,-1,8,-1,10,-1,-1,-1,-1],"split_conditions":[1.7619908E-1,3.1634755E-2,1.3509327E-1,-1.2449522E-1,1.3469136E-1,1.22869566E-1,1.4820535E-1,1.4420567E-1,-5.5386744E-2,-7.7930265E-3,-1.5622056E-1],"split_indices":[294,3241,3969,0,3838,0,2418,0,0,0,0],"split_type":[0,0,0,0,0,0,0,0,0,0,0],"sum_hessian":[2.4608803E2,9.338483E0,2.3674954E2,3.0932293E0,6.245254E0,1.6532718E0,2.3509628E2,4.0280623E0,2.2171915E0,5.8690886E0,2.2922719E2],"tree_param":{"num_deleted":"0","num_feature":"5000","num_nodes":"11","size_leaf_vector":"1"}},{"base_weights":[-6.783631E-2,-2.8581092E-1,1.277458E-1,-1.1047427E-1,-4.4616926E-1,2.035944E-1,-4.0034276E-1,-4.831126E-2,4.5534185E-1,2.2428839E-1,-1.4123291E-1,2.1025518E-1,2.9106794E-2,2.0033817E-1,-1.4082457E-1],"categories":[],"categories_nodes":[],"categories_segments":[],"categories_sizes":[],"default_left":[1,1,0,1,0,0,0,0,0,0,0,0,0,0,0],"id":44,"left_children":[1,3,5,7,9,11,13,-1,-1,-1,-1,-1,-1,-1,-1],"loss_changes":[1.9917343E1,6.1603355E0,9.9543915E0,8.445156E0,2.6358948E0,1.1293266E1,2.3338056E0,0E0,0E0,0E0,0E0,0E0,0E0,0E0,0E0],"parents":[2147483647,0,0,1,1,2,2,3,3,4,4,5,5,6,6],"right_children":[2,4,6,8,10,12,14,-1,-1,-1,-1,-1,-1,-1,-1],"split_conditions":[5.288043E-2,3.20675E-2,7.454787E-2,1.28444E-1,1.4268567E-1,7.81342E-2,1.4493363E-1,-4.831126E-2,4.5534185E-1,2.2428839E-1,-1.4123291E-1,2.1025518E-1,2.9106794E-2,2.0033817E-1,-1.4082457E-1],"split_indices":[4273,688,3669,2439,1536,3606,697,0,0,0,0,0,0,0,0],"split_type":[0,0,0,0,0,0,0,0,0,0,0,0,0,0,0],"sum_hessian":[4.6533658E2,2.1985202E2,2.4548456E2,1.0582802E2,1.1402401E2,2.151914E2,3.0293161E1,1.0363183E2,2.1961966E0,1.007419E0,1.1301659E2,3.8210613E1,1.7698079E2,1.1298727E0,2.9163288E1],"tree_param":{"num_deleted":"0","num_feature":"5000","num_nodes":"15","size_leaf_vector":"1"}},{"base_weights":[2.8272045E-1,3.3969006E-1,8.47689E-2,3.4606475E-1,-3.9977652E-1,3.693932E-2,1.6738573E-1,1.1282145E-1,-2.913521E-2,-2.239428E-1,1.874771E-2],"categories":[],"categories_nodes":[],"categories_segments":[],"categories_sizes":[],"default_left":[0,1,1,1,0,0,0,0,0,0,0],"id":45,"left_children":[1,3,5,7,-1,9,-1,-1,-1,-1,-1],"loss_changes":[1.0382011E1,7.99218E0,4.588278E0,7.558426E0,0E0,3.626137E0,0E0,0E0,0E0,0E0,0E0],"parents":[2147483647,0,0,1,1,2,2,3,3,5,5],"right_children":[2,4,6,8,-1,10,-1,-1,-1,-1,-1],"split_conditions":[4.3905325E-2,1.6774641E-1,7.617771E-2,1.1176101E-1,-3.9977652E-1,7.6795906E-2,1.6738573E-1,1.1282145E-1,-2.913521E-2,-2.239428E-1,1.874771E-2],"split_indices":[3244,3944,2739,2418,0,505,0,0,0,0,0],"split_type":[0,0,0,0,0,0,0,0,0,0,0],"sum_hessian":[9.221707E2,7.155286E2,2.0664207E2,7.1356287E2,1.9657644E0,1.8831184E2,1.8330233E1,6.7716473E2,3.6398132E1,4.9130077E0,1.8339883E2],"tree_param":{"num_deleted":"0","num_feature":"5000","num_nodes":"11","size_leaf_vector":"1"}},{"base_weights":[-3.4142822E-1,5.0677456E-2,-4.2071724E-1,-4.5067576E-1,3.5450763E-1,1.7189169E-1,-4.6571103E-1,4.7771454E-2,-1.5340973E-1,5.3167757E-2,3.8466978E-1,-6.2895685E-2,2.2288531E-1,-1.5058178E-1,9.778254E-3],"categories":[],"categories_nodes":[],"categories_segments":[],"categories_sizes":[],"default_left":[0,0,0,0,0,1,1,0,0,0,0,0,0,0,0],"id":46,"left_children":[1,3,5,7,9,11,13,-1,-1,-1,-1,-1,-1,-1,-1],"loss_changes":[7.2971897E0,6.2918596E0,5.2733994E0,5.753093E-1,3.9667654E0,3.209483E0,2.5426521E0,0E0,0E0,0E0,0E0,0E0,0E0,0E0,0E0],"parents":[2147483647,0,0,1,1,2,2,3,3,4,4,5,5,6,6],"right_children":[2,4,6,8,10,12,14,-1,-1,-1,-1,-1,-1,-1,-1],"split_conditions":[3.8321923E-2,3.1137193E-2,1.7619932E-1,6.824739E-2,2.7765948E-2,5.677179E-2,9.5959E-2,4.7771454E-2,-1.5340973E-1,5.3167757E-2,3.8466978E-1,-6.2895685E-2,2.2288531E-1,-1.5058178E-1,9.778254E-3],"split_indices":[3628,2911,2418,1228,2094,430,2788,0,0,0,0,0,0,0,0],"split_type":[0,0,0,0,0,0,0,0,0,0,0,0,0,0,0],"sum_hessian":[2.3302846E2,3.9256306E1,1.9377216E2,1.463071E1,2.4625595E1,1.3474915E1,1.8029724E2,1.0020571E0,1.3628653E1,2.1537716E1,3.087879E0,8.413695E0,5.061219E0,1.707033E2,9.593946E0],"tree_param":{"num_deleted":"0","num_feature":"5000","num_nodes":"15","size_leaf_vector":"1"}},{"base_weights":[-3.483245E-1,-3.32725E-2,-4.485662E-1,-2.106546E-1,3.3742177E-1,-4.8711714E-1,9.846E-2,2.155448E-1,-8.885492E-2,-9.825892E-2,2.0297003E-1,-1.521052E-1,1.5640561E-1,1.5529568E-1,-6.640617E-2],"categories":[],"categories_nodes":[],"categories_segments":[],"categories_sizes":[],"default_left":[1,0,1,0,1,1,1,0,0,0,0,0,0,0,0],"id":47,"left_children":[1,3,5,7,9,11,13,-1,-1,-1,-1,-1,-1,-1,-1],"loss_changes":[7.2497654E0,3.793046E0,3.7263412E0,3.0847201E0,4.2615166E0,2.1458015E0,1.7100873E0,0E0,0E0,0E0,0E0,0E0,0E0,0E0,0E0],"parents":[2147483647,0,0,1,1,2,2,3,3,4,4,5,5,6,6],"right_children":[2,4,6,8,10,12,14,-1,-1,-1,-1,-1,-1,-1,-1],"split_conditions":[2.5776973E-2,2.666858E-2,1.316778E-1,1.004352E-1,2.6601749E-2,1.4745282E-1,3.8294233E-2,2.155448E-1,-8.885492E-2,-9.825892E-2,2.0297003E-1,-1.521052E-1,1.5640561E-1,1.5529568E-1,-6.640617E-2],"split_indices":[344,2578,2418,92,688,4119,4488,0,0,0,0,0,0,0,0],"split_type":[0,0,0,0,0,0,0,0,0,0,0,0,0,0,0],"sum_hessian":[2.2903098E2,5.560395E1,1.7342702E2,3.790002E1,1.770393E1,1.6211192E2,1.1315099E1,2.4362712E0,3.546375E1,5.886515E0,1.1817415E1,1.607502E2,1.3617287E0,4.6563835E0,6.6587152E0],"tree_param":{"num_deleted":"0","num_feature":"5000","num_nodes":"15","size_leaf_vector":"1"}},{"base_weights":[-4.67159E-1,-7.273353E-4,-4.8905617E-1,-1.2373385E-1,2.4540716E-1,1.158756E-1,-4.9896693E-1,1.2841244E-1,-9.0162575E-2,-1.34390285E-2,-1.553429E-1],"categories":[],"categories_nodes":[],"categories_segments":[],"categories_sizes":[],"default_left":[0,0,0,0,1,0,0,0,0,0,0],"id":48,"left_children":[1,3,5,-1,7,-1,9,-1,-1,-1,-1],"loss_changes":[2.031498E0,1.0885282E0,1.8260269E0,0E0,7.7000356E-1,0E0,8.644905E-1,0E0,0E0,0E0,0E0],"parents":[2147483647,0,0,1,1,2,2,4,4,6,6],"right_children":[2,4,6,-1,8,-1,10,-1,-1,-1,-1],"split_conditions":[1.7619908E-1,3.1634755E-2,1.3509327E-1,-1.2373385E-1,6.337211E-2,1.158756E-1,1.0275647E-1,1.2841244E-1,-9.0162575E-2,-1.34390285E-2,-1.553429E-1],"split_indices":[294,3241,3969,0,1255,0,835,0,0,0,0],"split_type":[0,0,0,0,0,0,0,0,0,0,0],"sum_hessian":[1.9793759E2,8.9220495E0,1.8901555E2,3.1277826E0,5.794267E0,1.7104366E0,1.873051E2,4.5417886E0,1.2524785E0,4.2853093E0,1.8301979E2],"tree_param":{"num_deleted":"0","num_feature":"5000","num_nodes":"11","size_leaf_vector":"1"}},{"base_weights":[-3.0930378E-2,-2.2671132E-1,1.5511887E-1,-2.5041834E-1,8.875293E-1,2.0865478E-1,-4.7008345E-1,-8.1625365E-2,3.6635542E-1,6.784871E-1,-3.20873E-2,1.0501842E-1,-2.2522923E-2,7.263991E-2,-1.6060619E-1],"categories":[],"categories_nodes":[],"categories_segments":[],"categories_sizes":[],"default_left":[1,1,0,1,0,0,1,0,0,0,0,0,0,0,0],"id":49,"left_children":[1,3,5,7,9,11,13,-1,-1,-1,-1,-1,-1,-1,-1],"loss_changes":[1.5756471E1,5.7882423E0,7.5251956E0,5.493932E0,6.3526635E0,7.885701E0,8.380151E-1,0E0,0E0,0E0,0E0,0E0,0E0,0E0,0E0],"parents":[2147483647,0,0,1,1,2,2,3,3,4,4,5,5,6,6],"right_children":[2,4,6,8,10,12,14,-1,-1,-1,-1,-1,-1,-1,-1],"split_conditions":[5.5527046E-2,1.20230615E-1,7.105868E-2,1.6313766E-1,1.1360483E-1,9.5757596E-2,4.1693658E-2,-8.1625365E-2,3.6635542E-1,6.784871E-1,-3.20873E-2,1.0501842E-1,-2.2522923E-2,7.263991E-2,-1.6060619E-1],"split_indices":[1287,3967,4488,231,1821,3606,766,0,0,0,0,0,0,0,0],"split_type":[0,0,0,0,0,0,0,0,0,0,0,0,0,0,0],"sum_hessian":[4.306088E2,2.0971045E2,2.2089835E2,2.0610062E2,3.609823E0,2.0408856E2,1.6809792E1,2.0449239E2,1.6082394E0,1.0094544E0,2.6003687E0,1.3772751E2,6.636104E1,1.0042443E0,1.5805548E1],"tree_param":{"num_deleted":"0","num_feature":"5000","num_nodes":"15","size_leaf_vector":"1"}},{"base_weights":[2.4038085E-1,3.3124775E-1,1.1907331E-1,1.8835148E-1,4.8763987E-1,-1.2593915E0,1.3660133E-1,6.307163E-2,-2.7101868E-1,-2.103778E-1,1.5133595E-1,-6.963081E-2,-5.9412503E-1,2.5023118E-2,1.6041489E-1],"categories":[],"categories_nodes":[],"categories_segments":[],"categories_sizes":[],"default_left":[1,1,1,1,0,1,0,0,0,0,0,0,0,0,0],"id":50,"left_children":[1,3,5,7,9,11,13,-1,-1,-1,-1,-1,-1,-1,-1],"loss_changes":[8.992237E0,1.0364613E1,8.688197E0,5.071705E0,2.5831375E0,2.7667484E0,7.3691387E0,0E0,0E0,0E0,0E0,0E0,0E0,0E0,0E0],"parents":[2147483647,0,0,1,1,2,2,3,3,4,4,5,5,6,6],"right_children":[2,4,6,8,10,12,14,-1,-1,-1,-1,-1,-1,-1,-1],"split_conditions":[5.280332E-2,3.2438193E-2,3.2311726E-2,1.4667447E-1,2.070545E-1,4.577532E-2,1.3621062E-1,6.307163E-2,-2.7101868E-1,-2.103778E-1,1.5133595E-1,-6.963081E-2,-5.9412503E-1,2.5023118E-2,1.6041489E-1],"split_indices":[4273,688,830,567,3944,1831,346,0,0,0,0,0,0,0,0],"split_type":[0,0,0,0,0,0,0,0,0,0,0,0,0,0,0],"sum_hessian":[8.1836E2,4.668955E2,3.5146445E2,2.4512651E2,2.21769E2,3.52338E0,3.4794107E2,2.4179417E2,3.332336E0,1.0232207E0,2.2074579E2,1.9439465E0,1.5794336E0,3.0623938E2,4.1701687E1],"tree_param":{"num_deleted":"0","num_feature":"5000","num_nodes":"15","size_leaf_vector":"1"}},{"base_weights":[-3.1289846E-1,-4.8741985E-2,-4.490157E-1,-9.71205E-2,4.1472474E-1,-1.5414122E-1,1.5461254E-1,3.436828E-1,-4.110541E-2,1.5690464E-1,-9.090541E-2],"categories":[],"categories_nodes":[],"categories_segments":[],"categories_sizes":[],"default_left":[1,1,1,0,0,0,0,0,0,0,0],"id":51,"left_children":[1,3,5,7,-1,-1,9,-1,-1,-1,-1],"loss_changes":[7.018511E0,4.7456846E0,4.4705067E0,3.2114325E0,0E0,0E0,2.0738645E0,0E0,0E0,0E0,0E0],"parents":[2147483647,0,0,1,1,2,2,3,3,6,6],"right_children":[2,4,6,8,-1,-1,10,-1,-1,-1,-1],"split_conditions":[2.7352914E-2,1.1015798E-1,1.3634224E-1,1.4919834E-1,4.1472474E-1,-1.5414122E-1,7.271026E-2,3.436828E-1,-4.110541E-2,1.5690464E-1,-9.090541E-2],"split_indices":[3244,4283,2439,2785,0,0,430,0,0,0,0],"split_type":[0,0,0,0,0,0,0,0,0,0,0],"sum_hessian":[1.9480447E2,6.670712E1,1.2809735E2,6.53921E1,1.3150191E0,1.17306335E2,1.0791015E1,1.088238E0,6.430386E1,5.935955E0,4.8550596E0],"tree_param":{"num_deleted":"0","num_feature":"5000","num_nodes":"11","size_leaf_vector":"1"}},{"base_weights":[-3.3129317E-1,1.06237896E-1,-4.2183414E-1,3.5670975E-1,1.568733E-2,-4.531044E-1,1.04862176E-1,-2.0433545E-2,2.6937833E-1,-1.4206232E-1,2.1724352E-1,-1.225021E-1,1.0278698E-1],"categories":[],"categories_nodes":[],"categories_segments":[],"categories_sizes":[],"default_left":[0,0,1,0,1,1,0,0,0,0,0,0,0],"id":52,"left_children":[1,3,5,-1,7,9,11,-1,-1,-1,-1,-1,-1],"loss_changes":[7.707016E0,3.251569E0,2.690237E0,0E0,2.3767312E0,2.5716305E0,1.2882144E0,0E0,0E0,0E0,0E0,0E0,0E0],"parents":[2147483647,0,0,1,1,2,2,4,4,5,5,6,6],"right_children":[2,4,6,-1,8,10,12,-1,-1,-1,-1,-1,-1],"split_conditions":[2.9332142E-2,1.2275074E-1,1.016444E-1,3.5670975E-1,1.05442986E-1,1.4357267E-1,5.0159387E-2,-2.0433545E-2,2.6937833E-1,-1.4206232E-1,2.1724352E-1,-1.225021E-1,1.0278698E-1],"split_indices":[1381,1526,490,0,147,1159,4142,0,0,0,0,0,0],"split_type":[0,0,0,0,0,0,0,0,0,0,0,0,0],"sum_hessian":[1.9241914E2,3.2961643E1,1.594575E2,1.6516023E0,3.1310041E1,1.506529E2,8.80462E0,2.9428055E1,1.8819864E0,1.4962599E2,1.0268925E0,2.5376477E0,6.266972E0],"tree_param":{"num_deleted":"0","num_feature":"5000","num_nodes":"13","size_leaf_vector":"1"}},{"base_weights":[-4.5106238E-1,-4.7337776E-1,1.4279634E-1,9.704056E-2,-4.851267E-1,2.4736474E-1,-1.8293549E-1,1.0334593E-1,-1.5136407E-1,8.09546E-2,-1.2081415E-1],"categories":[],"categories_nodes":[],"categories_segments":[],"categories_sizes":[],"default_left":[1,0,0,0,0,0,0,0,0,0,0],"id":53,"left_children":[1,3,5,-1,7,-1,9,-1,-1,-1,-1],"loss_changes":[2.2154694E0,1.6091995E0,1.5932394E0,0E0,1.5878754E0,0E0,6.0967076E-1,0E0,0E0,0E0,0E0],"parents":[2147483647,0,0,1,1,2,2,4,4,6,6],"right_children":[2,4,6,-1,8,-1,10,-1,-1,-1,-1],"split_conditions":[1.2143425E-1,1.3509327E-1,4.138018E-2,9.704056E-2,5.8974415E-2,2.4736474E-1,7.12555E-2,1.0334593E-1,-1.5136407E-1,8.09546E-2,-1.2081415E-1],"split_indices":[1107,3969,4128,0,3239,0,4692,0,0,0,0],"split_type":[0,0,0,0,0,0,0,0,0,0,0],"sum_hessian":[1.6107686E2,1.5543883E2,5.63804E0,1.8919929E0,1.5354683E2,1.3593895E0,4.2786503E0,1.6574887E0,1.5188934E2,1.2997903E0,2.9788601E0],"tree_param":{"num_deleted":"0","num_feature":"5000","num_nodes":"11","size_leaf_vector":"1"}},{"base_weights":[1.2919419E-2,-2.9393658E-1,1.0609943E-1,6.957567E-1,-3.4968048E-1,1.6195993E0,8.158058E-2,9.663388E-3,2.798718E-1,-1.3424098E-1,7.8503795E-2,-8.5207835E-2,6.937284E-1,-7.787271E-2,5.7114992E-2],"categories":[],"categories_nodes":[],"categories_segments":[],"categories_sizes":[],"default_left":[1,0,1,0,1,1,1,0,0,0,0,0,0,0,0],"id":54,"left_children":[1,3,5,7,9,11,13,-1,-1,-1,-1,-1,-1,-1,-1],"loss_changes":[1.1570037E1,5.443858E0,1.1382579E1,7.607291E-1,5.050111E0,6.721442E0,1.0956894E1,0E0,0E0,0E0,0E0,0E0,0E0,0E0,0E0],"parents":[2147483647,0,0,1,1,2,2,3,3,4,4,5,5,6,6],"right_children":[2,4,6,8,10,12,14,-1,-1,-1,-1,-1,-1,-1,-1],"split_conditions":[3.2616872E-2,2.5472773E-2,2.4761083E-2,2.7005775E-2,6.136489E-2,3.4902267E-2,4.422824E-2,9.663388E-3,2.798718E-1,-1.3424098E-1,7.8503795E-2,-8.5207835E-2,6.937284E-1,-7.787271E-2,5.7114992E-2],"split_indices":[346,3359,1334,2886,116,1831,1287,0,0,0,0,0,0,0,0],"split_type":[0,0,0,0,0,0,0,0,0,0,0,0,0,0,0],"sum_hessian":[4.0255725E2,9.3265434E1,3.092918E2,4.360824E0,8.890461E1,3.8935804E0,3.0539822E2,1.3782284E0,2.9825957E0,7.761492E1,1.1289693E1,1.1455208E0,2.7480597E0,7.258614E1,2.3281209E2],"tree_param":{"num_deleted":"0","num_feature":"5000","num_nodes":"15","size_leaf_vector":"1"}},{"base_weights":[1.9129628E-1,1.21080816E-1,3.562622E-1,7.6684535E-2,4.312528E-1,3.7557608E-1,-3.6199945E-1,-2.4247758E-2,5.1739372E-2,-7.1136646E-2,1.3946821E-1,-8.945946E-2,1.23831816E-1],"categories":[],"categories_nodes":[],"categories_segments":[],"categories_sizes":[],"default_left":[0,1,1,0,0,0,0,0,0,0,0,0,0],"id":55,"left_children":[1,3,5,7,9,11,-1,-1,-1,-1,-1,-1,-1],"loss_changes":[8.525358E0,7.1330457E0,7.0128E0,6.6402082E0,1.2295275E0,4.56394E0,0E0,0E0,0E0,0E0,0E0,0E0,0E0],"parents":[2147483647,0,0,1,1,2,2,3,3,4,4,5,5],"right_children":[2,4,6,8,10,12,-1,-1,-1,-1,-1,-1,-1],"split_conditions":[1.5065536E-1,6.9284156E-2,1.991859E-1,9.609385E-2,1.4594738E-1,1.6809106E-1,-3.6199945E-1,-2.4247758E-2,5.1739372E-2,-7.1136646E-2,1.3946821E-1,-8.945946E-2,1.23831816E-1],"split_indices":[2241,1361,188,2497,3428,2418,0,0,0,0,0,0,0],"split_type":[0,0,0,0,0,0,0,0,0,0,0,0,0],"sum_hessian":[7.3873694E2,5.1939685E2,2.1934009E2,4.5545306E2,6.394377E1,2.1737605E2,1.964041E0,1.6998227E2,2.854708E2,2.1094658E0,6.183431E1,9.0829525E0,2.0829309E2],"tree_param":{"num_deleted":"0","num_feature":"5000","num_nodes":"13","size_leaf_vector":"1"}},{"base_weights":[-2.932707E-1,4.7936685E-2,-4.1208416E-1,-5.5268805E-2,9.316126E-1,-4.7289613E-1,1.4957628E-1,7.172522E-2,-1.0117335E-1,3.5230798E-1,3.480986E-2,2.1834344E-1,-1.5132798E-1,1.24805614E-1,-1.3216126E-1],"categories":[],"categories_nodes":[],"categories_segments":[],"categories_sizes":[],"default_left":[1,1,1,0,1,0,1,0,0,0,0,0,0,0,0],"id":56,"left_children":[1,3,5,7,9,11,13,-1,-1,-1,-1,-1,-1,-1,-1],"loss_changes":[6.876317E0,4.1170654E0,4.359049E0,3.3586898E0,7.3014593E-1,3.494463E0,2.1484728E0,0E0,0E0,0E0,0E0,0E0,0E0,0E0,0E0],"parents":[2147483647,0,0,1,1,2,2,3,3,4,4,5,5,6,6],"right_children":[2,4,6,8,10,12,14,-1,-1,-1,-1,-1,-1,-1,-1],"split_conditions":[2.5235383E-2,8.3551385E-2,1.2727314E-1,5.8057744E-2,2.204897E-2,1.278857E-1,5.839243E-2,7.172522E-2,-1.0117335E-1,3.5230798E-1,3.480986E-2,2.1834344E-1,-1.5132798E-1,1.24805614E-1,-1.3216126E-1],"split_indices":[4469,1204,2418,4467,1656,2820,310,0,0,0,0,0,0,0,0],"split_type":[0,0,0,0,0,0,0,0,0,0,0,0,0,0,0],"sum_hessian":[1.6813065E2,4.357859E1,1.2455205E2,3.9860672E1,3.7179163E0,1.1252663E2,1.202542E1,1.9511427E1,2.0349245E1,2.5953524E0,1.1225637E0,1.5881371E0,1.1093849E2,8.525924E0,3.4994967E0],"tree_param":{"num_deleted":"0","num_feature":"5000","num_nodes":"15","size_leaf_vector":"1"}},{"base_weights":[-3.0789384E-1,8.232657E-2,-4.1272277E-1,-6.924494E-2,6.5776265E-1,4.1155177E-1,-4.439316E-1,2.8089142E-1,-5.395925E-2,3.13163E-1,-1.01575926E-1,-9.693227E-2,2.3914E-1,1.6549256E-1,-1.4032146E-1],"categories":[],"categories_nodes":[],"categories_segments":[],"categories_sizes":[],"default_left":[0,1,0,0,1,1,0,0,0,0,0,0,0,0,0],"id":57,"left_children":[1,3,5,7,9,11,13,-1,-1,-1,-1,-1,-1,-1,-1],"loss_changes":[6.786397E0,3.1669693E0,3.5341644E0,3.2794576E0,3.104679E0,1.6815026E0,2.255888E0,0E0,0E0,0E0,0E0,0E0,0E0,0E0,0E0],"parents":[2147483647,0,0,1,1,2,2,3,3,4,4,5,5,6,6],"right_children":[2,4,6,8,10,12,14,-1,-1,-1,-1,-1,-1,-1,-1],"split_conditions":[2.7047016E-2,6.0565952E-2,9.31111E-2,1.1709943E-1,2.9825237E-2,6.6110104E-2,1.8727884E-1,2.8089142E-1,-5.395925E-2,3.13163E-1,-1.01575926E-1,-9.693227E-2,2.3914E-1,1.6549256E-1,-1.4032146E-1],"split_indices":[4427,2559,265,1218,88,4969,3806,0,0,0,0,0,0,0,0],"split_type":[0,0,0,0,0,0,0,0,0,0,0,0,0,0,0],"sum_hessian":[1.6407011E2,3.4788036E1,1.2928209E2,2.8231457E1,6.556581E0,4.271737E0,1.25010345E2,2.0279377E0,2.6203518E1,4.7509093E0,1.8056719E0,1.4938011E0,2.777936E0,1.4870821E0,1.2352326E2],"tree_param":{"num_deleted":"0","num_feature":"5000","num_nodes":"15","size_leaf_vector":"1"}},{"base_weights":[-4.443462E-1,-4.7082734E-1,1.7683382E-1,1.0808989E-1,-4.854748E-1,5.994843E-1,-7.189522E-2,9.615129E-2,-1.5208915E-1,2.768649E-1,5.781607E-3],"categories":[],"categories_nodes":[],"categories_segments":[],"categories_sizes":[],"default_left":[1,0,0,0,0,0,0,0,0,0,0],"id":58,"left_children":[1,3,5,-1,7,9,-1,-1,-1,-1,-1],"loss_changes":[2.2449684E0,1.6988583E0,1.2049772E0,0E0,1.471283E0,5.7254267E-1,0E0,0E0,0E0,0E0,0E0],"parents":[2147483647,0,0,1,1,2,2,4,4,5,5],"right_children":[2,4,6,-1,8,10,-1,-1,-1,-1,-1],"split_conditions":[1.2143425E-1,1.2741074E-1,3.558678E-2,1.0808989E-1,5.8974415E-2,3.7299078E-2,-7.189522E-2,9.615129E-2,-1.5208915E-1,2.768649E-1,5.781607E-3],"split_indices":[1107,531,3505,0,3239,1037,0,0,0,0,0],"split_type":[0,0,0,0,0,0,0,0,0,0,0],"sum_hessian":[1.304144E2,1.2531424E2,5.1001563E0,1.7809799E0,1.2353326E2,2.295446E0,2.8047104E0,1.6290245E0,1.21904236E2,1.13113E0,1.1643158E0],"tree_param":{"num_deleted":"0","num_feature":"5000","num_nodes":"11","size_leaf_vector":"1"}},{"base_weights":[2.3459336E-2,1.0659603E-1,-2.6441947E-1,8.7500826E-2,1.9135516E0,-3.2538792E-1,4.517705E-1,1.2411697E-2,2.3187214E-1,6.7947336E-2,8.190068E-1,2.4404222E-1,-1.1862497E-1],"categories":[],"categories_nodes":[],"categories_segments":[],"categories_sizes":[],"default_left":[0,1,1,1,0,0,0,0,0,0,0,0,0],"id":59,"left_children":[1,3,5,7,9,11,-1,-1,-1,-1,-1,-1,-1],"loss_changes":[9.266333E0,1.0191233E1,9.717922E0,9.356543E0,3.4355116E0,6.3672085E0,0E0,0E0,0E0,0E0,0E0,0E0,0E0],"parents":[2147483647,0,0,1,1,2,2,3,3,4,4,5,5],"right_children":[2,4,6,8,10,12,-1,-1,-1,-1,-1,-1,-1],"split_conditions":[1.5065536E-1,1.1052634E-1,1.653296E-1,7.2816886E-2,3.239367E-2,1.08761504E-1,4.517705E-1,1.2411697E-2,2.3187214E-1,6.7947336E-2,8.190068E-1,2.4404222E-1,-1.1862497E-1],"split_indices":[2241,811,2227,546,2108,265,0,0,0,0,0,0,0],"split_type":[0,0,0,0,0,0,0,0,0,0,0,0,0],"sum_hessian":[3.8499564E2,2.992149E2,8.578074E1,2.9712344E2,2.0914605E0,8.367199E1,2.108749E0,2.7878687E2,1.8336584E1,1.0592973E0,1.0321631E0,3.8521287E0,7.9819855E1],"tree_param":{"num_deleted":"0","num_feature":"5000","num_nodes":"13","size_leaf_vector":"1"}},{"base_weights":[1.6655268E-1,2.532987E-1,2.212644E-2,2.6196402E-1,-4.057331E-1,-2.4430132E-2,4.5053336E-1,-2.0961915E-1,8.437919E-2,6.8352337E-4,-2.4491908E-1,1.4976387E-1,-6.6918306E-2],"categories":[],"categories_nodes":[],"categories_segments":[],"categories_sizes":[],"default_left":[0,1,1,0,0,1,1,0,0,0,0,0,0],"id":60,"left_children":[1,3,5,7,-1,9,11,-1,-1,-1,-1,-1,-1],"loss_changes":[8.346525E0,6.0624084E0,5.0223145E0,5.9762516E0,0E0,4.7275558E0,7.772856E-1,0E0,0E0,0E0,0E0,0E0,0E0],"parents":[2147483647,0,0,1,1,2,2,3,3,5,5,6,6],"right_children":[2,4,6,8,-1,10,12,-1,-1,-1,-1,-1,-1],"split_conditions":[4.486093E-2,1.5496288E-1,5.9652753E-2,1.8734507E-1,-4.057331E-1,9.4064966E-2,8.7673165E-2,-2.0961915E-1,8.437919E-2,6.8352337E-4,-2.4491908E-1,1.4976387E-1,-6.6918306E-2],"split_indices":[987,31,2722,4715,0,418,1720,0,0,0,0,0,0],"split_type":[0,0,0,0,0,0,0,0,0,0,0,0,0],"sum_hessian":[6.6565576E2,4.154014E2,2.5025438E2,4.1397073E2,1.4306798E0,2.2657465E2,2.3679733E1,5.610631E0,4.083601E2,2.2003426E2,6.540385E0,2.2581785E1,1.0979483E0],"tree_param":{"num_deleted":"0","num_feature":"5000","num_nodes":"13","size_leaf_vector":"1"}},{"base_weights":[-2.6573458E-1,-3.2922145E-2,-4.4287974E-1,-8.093105E-2,7.878964E-1,1.8317123E-1,-4.647324E-1,1.6618206E-1,-4.3253016E-2,4.595416E-1,-8.779384E-2,-1.4742862E-1,7.309167E-2],"categories":[],"categories_nodes":[],"categories_segments":[],"categories_sizes":[],"default_left":[0,1,0,0,0,0,1,0,0,0,0,0,0],"id":61,"left_children":[1,3,5,7,9,-1,11,-1,-1,-1,-1,-1,-1],"loss_changes":[6.082613E0,2.623746E0,2.191677E0,2.4501166E0,3.281423E0,0E0,1.2019329E0,0E0,0E0,0E0,0E0,0E0,0E0],"parents":[2147483647,0,0,1,1,2,2,3,3,4,4,6,6],"right_children":[2,4,6,8,10,-1,12,-1,-1,-1,-1,-1,-1],"split_conditions":[3.033056E-2,1.00811705E-1,2.4480602E-1,1.259761E-1,3.814612E-2,1.8317123E-1,1.5123852E-1,1.6618206E-1,-4.3253016E-2,4.595416E-1,-8.779384E-2,-1.4742862E-1,7.309167E-2],"split_indices":[354,2531,1624,1479,4142,0,1107,0,0,0,0,0,0],"split_type":[0,0,0,0,0,0,0,0,0,0,0,0,0],"sum_hessian":[1.4684088E2,6.396325E1,8.287763E1,6.128042E1,2.682832E0,1.1568531E0,8.172078E1,4.728462E0,5.6551956E1,1.3680896E0,1.3147426E0,7.991961E1,1.8011727E0],"tree_param":{"num_deleted":"0","num_feature":"5000","num_nodes":"13","size_leaf_vector":"1"}},{"base_weights":[-2.7443427E-1,2.5249103E-1,-3.4688702E-1,-1.1186552E-1,7.708302E-1,1.933395E-1,-4.0569022E-1,2.1504483E-1,-9.590601E-2,-9.097655E-2,3.227451E-1,-9.7942665E-2,1.4401458E-1,-1.4065456E-1,5.1378973E-2],"categories":[],"categories_nodes":[],"categories_segments":[],"categories_sizes":[],"default_left":[0,0,0,0,1,0,1,0,0,0,0,0,0,0,0],"id":62,"left_children":[1,3,5,7,9,11,13,-1,-1,-1,-1,-1,-1,-1,-1],"loss_changes":[5.5386467E0,3.4551873E0,4.0793285E0,2.0997925E0,2.6166434E0,2.02232E0,3.7054424E0,0E0,0E0,0E0,0E0,0E0,0E0,0E0,0E0],"parents":[2147483647,0,0,1,1,2,2,3,3,4,4,5,5,6,6],"right_children":[2,4,6,8,10,12,14,-1,-1,-1,-1,-1,-1,-1,-1],"split_conditions":[4.213887E-2,2.8137488E-2,1.7450212E-1,8.12644E-2,2.4323873E-2,4.108783E-2,1.316778E-1,2.1504483E-1,-9.590601E-2,-9.097655E-2,3.227451E-1,-9.7942665E-2,1.4401458E-1,-1.4065456E-1,5.1378973E-2],"split_indices":[4273,899,490,2210,1202,3628,2439,0,0,0,0,0,0,0,0],"split_type":[0,0,0,0,0,0,0,0,0,0,0,0,0,0,0],"sum_hessian":[1.4178314E2,1.6838362E1,1.2494478E2,1.0348364E1,6.489998E0,1.2040494E1,1.1290428E2,1.5633879E0,8.784976E0,1.3667667E0,5.123231E0,4.178836E0,7.861658E0,1.0313634E2,9.767943E0],"tree_param":{"num_deleted":"0","num_feature":"5000","num_nodes":"15","size_leaf_vector":"1"}},{"base_weights":[-4.3018577E-1,5.9873704E-2,-4.6424386E-1,-1.5531096E-1,1.341329E-1,1.0111871E-1,-4.8227942E-1,1.24473386E-1,-1.2392108E-1,7.267186E-2,-1.5008506E-1],"categories":[],"categories_nodes":[],"categories_segments":[],"categories_sizes":[],"default_left":[0,1,0,0,0,0,0,0,0,0,0],"id":63,"left_children":[1,3,5,7,-1,-1,9,-1,-1,-1,-1],"loss_changes":[1.8284283E0,7.138213E-1,1.6093025E0,9.8317087E-1,0E0,0E0,8.1763077E-1,0E0,0E0,0E0,0E0],"parents":[2147483647,0,0,1,1,2,2,3,3,6,6],"right_children":[2,4,6,8,-1,-1,10,-1,-1,-1,-1],"split_conditions":[1.7619908E-1,5.6703817E-2,1.2741074E-1,7.0852906E-2,1.341329E-1,1.0111871E-1,1.4525121E-1,1.24473386E-1,-1.2392108E-1,7.267186E-2,-1.5008506E-1],"split_indices":[294,1104,531,175,0,0,2600,0,0,0,0],"split_type":[0,0,0,0,0,0,0,0,0,0,0],"sum_hessian":[1.0688387E2,6.8962517E0,9.9987625E1,4.7799835E0,2.1162684E0,1.8306711E0,9.815695E1,1.2801874E0,3.499796E0,1.0046458E0,9.7152306E1],"tree_param":{"num_deleted":"0","num_feature":"5000","num_nodes":"11","size_leaf_vector":"1"}},{"base_weights":[5.7646148E-2,-2.4484004E-1,1.56391E-1,4.3328357E-1,-3.291615E-1,-2.703237E-1,2.1724029E-1,2.54898E-1,-1.19184874E-1,-1.2058447E-1,1.7800158E-1,3.171469E-1,-1.2003569E-1,9.3214706E-2,-5.9893925E-2],"categories":[],"categories_nodes":[],"categories_segments":[],"categories_sizes":[],"default_left":[1,0,0,1,1,1,0,0,0,0,0,0,0,0,0],"id":64,"left_children":[1,3,5,7,9,11,13,-1,-1,-1,-1,-1,-1,-1,-1],"loss_changes":[1.1047243E1,5.35163E0,7.2894664E0,3.810954E0,5.1607466E0,6.092581E0,8.989778E0,0E0,0E0,0E0,0E0,0E0,0E0,0E0,0E0],"parents":[2147483647,0,0,1,1,2,2,3,3,4,4,5,5,6,6],"right_children":[2,4,6,8,10,12,14,-1,-1,-1,-1,-1,-1,-1,-1],"split_conditions":[3.483958E-2,2.7668508E-2,1.4199892E-1,2.3047082E-2,8.292244E-2,3.8909025E-2,7.454787E-2,2.54898E-1,-1.19184874E-1,-1.2058447E-1,1.7800158E-1,3.171469E-1,-1.2003569E-1,9.3214706E-2,-5.9893925E-2],"split_indices":[4252,911,1255,2108,365,2979,3669,0,0,0,0,0,0,0,0],"split_type":[0,0,0,0,0,0,0,0,0,0,0,0,0,0,0],"sum_hessian":[3.675751E2,9.009785E1,2.7747726E2,9.506547E0,8.05913E1,3.4200264E1,2.43277E2,6.3776755E0,3.1288717E0,7.5670296E1,4.921007E0,2.3009238E0,3.1899342E1,2.006606E2,4.2616398E1],"tree_param":{"num_deleted":"0","num_feature":"5000","num_nodes":"15","size_leaf_vector":"1"}},{"base_weights":[1.2053463E-1,1.5075827E-1,-2.6509964E-1,3.0737427E-1,7.659706E-2,-3.3552417E-1,3.5680556E-1,-1.013602E-1,1.0885159E-1,-2.246614E-1,3.2356687E-2,-2.2247657E-2,-1.697244E-1,1.776104E-1,-8.098498E-2],"categories":[],"categories_nodes":[],"categories_segments":[],"categories_sizes":[],"default_left":[1,1,1,0,0,0,1,0,0,0,0,0,0,0,0],"id":65,"left_children":[1,3,5,7,9,11,13,-1,-1,-1,-1,-1,-1,-1,-1],"loss_changes":[7.290102E0,6.6837454E0,2.1156332E0,5.9862766E0,9.508431E0,2.364297E0,8.732466E-1,0E0,0E0,0E0,0E0,0E0,0E0,0E0,0E0],"parents":[2147483647,0,0,1,1,2,2,3,3,4,4,5,5,6,6],"right_children":[2,4,6,8,10,12,14,-1,-1,-1,-1,-1,-1,-1,-1],"split_conditions":[8.719473E-2,3.580802E-2,6.6180654E-2,1.6809106E-1,3.611412E-1,7.236608E-2,3.6584266E-2,-1.013602E-1,1.0885159E-1,-2.246614E-1,3.2356687E-2,-2.2247657E-2,-1.697244E-1,1.776104E-1,-8.098498E-2],"split_indices":[2788,3164,3675,2418,1098,1617,272,0,0,0,0,0,0,0,0],"split_type":[0,0,0,0,0,0,0,0,0,0,0,0,0,0,0],"sum_hessian":[6.210477E2,5.7647614E2,4.4571587E1,1.8424243E2,3.922337E2,4.0451366E1,4.120222E0,1.282636E1,1.7141608E2,1.2887468E1,3.7934622E2,1.9092066E1,2.13593E1,3.0714486E0,1.0487735E0],"tree_param":{"num_deleted":"0","num_feature":"5000","num_nodes":"15","size_leaf_vector":"1"}},{"base_weights":[-2.229775E-1,-2.0692587E-2,-4.5322776E-1,-1.1243711E-1,4.867682E-1,-4.8411655E-1,1.18333995E-1,1.557238E-1,-5.3184286E-2,4.1575128E-1,-1.9243151E-2,6.904517E-2,-1.5263297E-1],"categories":[],"categories_nodes":[],"categories_segments":[],"categories_sizes":[],"default_left":[1,1,1,0,1,0,0,0,0,0,0,0,0],"id":66,"left_children":[1,3,5,7,9,11,-1,-1,-1,-1,-1,-1,-1],"loss_changes":[6.0601273E0,3.333131E0,1.7701492E0,2.4215717E0,5.371765E0,7.995186E-1,0E0,0E0,0E0,0E0,0E0,0E0,0E0],"parents":[2147483647,0,0,1,1,2,2,3,3,4,4,5,5],"right_children":[2,4,6,8,10,12,-1,-1,-1,-1,-1,-1,-1],"split_conditions":[3.0803287E-2,7.7935375E-2,1.7153054E-1,1.259761E-1,2.6031604E-2,1.2932496E-1,1.18333995E-1,1.557238E-1,-5.3184286E-2,4.1575128E-1,-1.9243151E-2,6.904517E-2,-1.5263297E-1],"split_indices":[95,1009,2418,1479,2094,17,0,0,0,0,0,0,0],"split_type":[0,0,0,0,0,0,0,0,0,0,0,0,0],"sum_hessian":[1.2931357E2,6.94173E1,5.9896263E1,5.9448036E1,9.969259E0,5.818426E1,1.7120017E0,4.720727E0,5.472731E1,3.2733185E0,6.695941E0,1.0174202E0,5.7166843E1],"tree_param":{"num_deleted":"0","num_feature":"5000","num_nodes":"13","size_leaf_vector":"1"}},{"base_weights":[-2.427375E-1,1.3501926E-1,-3.96992E-1,-1.2601776E-1,4.4430444E-1,-4.4931358E-1,6.265075E-2,-7.34839E-2,2.377675E-1,1.7978056E-1,-1.0873505E-1,-1.4735939E-1,7.797349E-2,1.7630477E-1,-8.961533E-2],"categories":[],"categories_nodes":[],"categories_segments":[],"categories_sizes":[],"default_left":[0,1,1,1,1,1,0,0,0,0,0,0,0,0,0],"id":67,"left_children":[1,3,5,7,9,11,13,-1,-1,-1,-1,-1,-1,-1,-1],"loss_changes":[7.2819843E0,3.0200524E0,2.1525354E0,2.340762E0,2.1889317E0,2.0179367E0,1.9896792E0,0E0,0E0,0E0,0E0,0E0,0E0,0E0,0E0],"parents":[2147483647,0,0,1,1,2,2,3,3,4,4,5,5,6,6],"right_children":[2,4,6,8,10,12,14,-1,-1,-1,-1,-1,-1,-1,-1],"split_conditions":[2.9589111E-2,3.4764078E-2,1.316778E-1,1.2435901E-1,5.5533536E-2,1.3856393E-1,4.4780828E-2,-7.34839E-2,2.377675E-1,1.7978056E-1,-1.0873505E-1,-1.4735939E-1,7.797349E-2,1.7630477E-1,-8.961533E-2],"split_indices":[1710,4273,2418,2533,1089,490,4499,0,0,0,0,0,0,0,0],"split_type":[0,0,0,0,0,0,0,0,0,0,0,0,0,0,0],"sum_hessian":[1.2304836E2,3.5713528E1,8.733483E1,1.9688751E1,1.6024776E1,7.842959E1,8.905245E0,1.8123001E1,1.5657496E0,1.3789497E1,2.2352788E0,7.513828E1,3.2913084E0,3.3868487E0,5.518396E0],"tree_param":{"num_deleted":"0","num_feature":"5000","num_nodes":"15","size_leaf_vector":"1"}},{"base_weights":[-4.1875854E-1,-4.390596E-1,1.496459E-1,8.595234E-2,-4.5855358E-1,1.6614527E-2,-1.4884992E-1],"categories":[],"categories_nodes":[],"categories_segments":[],"categories_sizes":[],"default_left":[1,0,0,0,0,0,0],"id":68,"left_children":[1,3,-1,-1,5,-1,-1],"loss_changes":[1.8732061E0,1.3709507E0,0E0,0E0,1.3334999E0,0E0,0E0],"parents":[2147483647,0,0,1,1,4,4],"right_children":[2,4,-1,-1,6,-1,-1],"split_conditions":[1.4125976E-1,1.2741074E-1,1.496459E-1,8.595234E-2,1.5002412E-1,1.6614527E-2,-1.4884992E-1],"split_indices":[4135,531,0,0,294,0,0],"split_type":[0,0,0,0,0,0,0],"sum_hessian":[8.879538E1,8.7362335E1,1.4330382E0,1.9459668E0,8.5416374E1,4.5953126E0,8.082106E1],"tree_param":{"num_deleted":"0","num_feature":"5000","num_nodes":"7","size_leaf_vector":"1"}},{"base_weights":[5.2951172E-2,-3.3581764E-1,9.90232E-2,6.5588397E-1,-4.2639074E-1,1.4035565E-1,-4.2322272E-1,-8.0394916E-2,3.5245815E-1,1.2065718E-1,-1.4673999E-1,3.4282144E-2,3.0573425E-1,1.4627242E-1,-1.54581E-1],"categories":[],"categories_nodes":[],"categories_segments":[],"categories_sizes":[],"default_left":[1,0,1,0,0,1,0,0,0,0,0,0,0,0,0],"id":69,"left_children":[1,3,5,7,9,11,13,-1,-1,-1,-1,-1,-1,-1,-1],"loss_changes":[6.350085E0,3.6563935E0,6.882162E0,1.9312035E0,1.767128E0,6.9638915E0,2.0114326E0,0E0,0E0,0E0,0E0,0E0,0E0,0E0,0E0],"parents":[2147483647,0,0,1,1,2,2,3,3,4,4,5,5,6,6],"right_children":[2,4,6,8,10,12,14,-1,-1,-1,-1,-1,-1,-1,-1],"split_conditions":[2.4481447E-2,9.1982044E-2,7.235622E-2,2.7774706E-2,1.245456E-1,1.0134568E-1,6.967083E-2,-8.0394916E-2,3.5245815E-1,1.2065718E-1,-1.4673999E-1,3.4282144E-2,3.0573425E-1,1.4627242E-1,-1.54581E-1],"split_indices":[3241,139,2298,344,697,1098,1104,0,0,0,0,0,0,0,0],"split_type":[0,0,0,0,0,0,0,0,0,0,0,0,0,0,0],"sum_hessian":[3.516716E2,3.6593796E1,3.150778E2,2.5401154E0,3.405368E1,2.9264783E2,2.2429972E1,1.0607909E0,1.4793245E0,1.7368064E0,3.2316875E1,2.845506E2,8.097207E0,1.4995569E0,2.0930414E1],"tree_param":{"num_deleted":"0","num_feature":"5000","num_nodes":"15","size_leaf_vector":"1"}},{"base_weights":[9.945462E-2,2.5996724E-1,2.9354159E-2,2.8044254E-1,-4.396195E-1,-7.791263E-2,1.4593436E-1,9.187128E-2,-3.5072887E-1,-7.728632E-2,1.9251043E-2,9.753536E-2,-1.5874742E-2],"categories":[],"categories_nodes":[],"categories_segments":[],"categories_sizes":[],"default_left":[0,1,0,1,0,0,0,0,0,0,0,0,0],"id":70,"left_children":[1,3,5,7,-1,9,11,-1,-1,-1,-1,-1,-1],"loss_changes":[6.4360795E0,6.463873E0,5.009964E0,5.478835E0,0E0,5.184244E0,6.621622E0,0E0,0E0,0E0,0E0,0E0,0E0],"parents":[2147483647,0,0,1,1,2,2,3,3,5,5,6,6],"right_children":[2,4,6,8,-1,10,12,-1,-1,-1,-1,-1,-1],"split_conditions":[7.683426E-2,2.6344344E-1,6.542542E-2,1.6662794E-1,-4.396195E-1,6.991599E-2,5.76871E-2,9.187128E-2,-3.5072887E-1,-7.728632E-2,1.9251043E-2,9.753536E-2,-1.5874742E-2],"split_indices":[2150,906,2241,231,0,423,1037,0,0,0,0,0,0],"split_type":[0,0,0,0,0,0,0,0,0,0,0,0,0],"sum_hessian":[5.7167206E2,1.7295033E2,3.9872174E2,1.717189E2,1.2314386E0,2.0782825E2,1.908935E2,1.7003867E2,1.6802293E0,9.224754E1,1.155807E2,1.0131285E2,8.958065E1],"tree_param":{"num_deleted":"0","num_feature":"5000","num_nodes":"13","size_leaf_vector":"1"}},{"base_weights":[-2.1070832E-1,4.1519206E-2,-4.1566318E-1,-6.35145E-2,9.054962E-1,-1.5126981E-1,5.71333E-2,1.3026538E-1,-5.329609E-2,4.7522494E-1,-2.0613777E-2,1.9792853E-1,-5.0966647E-2],"categories":[],"categories_nodes":[],"categories_segments":[],"categories_sizes":[],"default_left":[1,1,1,1,1,0,1,0,0,0,0,0,0],"id":71,"left_children":[1,3,5,7,9,-1,11,-1,-1,-1,-1,-1,-1],"loss_changes":[6.0309043E0,4.8724747E0,2.468461E0,2.7072015E0,3.7992702E0,0E0,1.4657402E0,0E0,0E0,0E0,0E0,0E0,0E0],"parents":[2147483647,0,0,1,1,2,2,3,3,4,4,6,6],"right_children":[2,4,6,8,10,-1,12,-1,-1,-1,-1,-1,-1],"split_conditions":[2.7357336E-2,6.4828895E-2,1.3634224E-1,2.00189E-2,2.7218493E-2,-1.5126981E-1,3.2148715E-2,1.3026538E-1,-5.329609E-2,4.7522494E-1,-2.0613777E-2,1.9792853E-1,-5.0966647E-2],"split_indices":[4583,2216,2418,1185,4469,0,2108,0,0,0,0,0,0],"split_type":[0,0,0,0,0,0,0,0,0,0,0,0,0],"sum_hessian":[1.15328766E2,5.205937E1,6.3269398E1,4.7242573E1,4.816795E0,5.4041557E1,9.2278385E0,8.206099E0,3.9036472E1,2.523285E0,2.29351E0,2.0152135E0,7.212625E0],"tree_param":{"num_deleted":"0","num_feature":"5000","num_nodes":"13","size_leaf_vector":"1"}},{"base_weights":[-1.9486952E-1,-8.543508E-4,-4.7514465E-1,3.070801E-1,-1.3310984E-1,-1.5112707E-1,4.0172722E-2,2.0533116E-3,2.587466E-1,-1.2527244E-1,5.6294892E-2],"categories":[],"categories_nodes":[],"categories_segments":[],"categories_sizes":[],"default_left":[1,0,1,0,0,0,0,0,0,0,0],"id":72,"left_children":[1,3,5,7,9,-1,-1,-1,-1,-1,-1],"loss_changes":[6.0520167E0,2.7603579E0,6.276312E-1,3.3050125E0,4.2571397E0,0E0,0E0,0E0,0E0,0E0,0E0],"parents":[2147483647,0,0,1,1,2,2,3,3,4,4],"right_children":[2,4,6,8,10,-1,-1,-1,-1,-1,-1],"split_conditions":[3.606791E-2,1.0032201E-1,1.5618497E-1,4.9255498E-2,4.9478013E-2,-1.5112707E-1,4.0172722E-2,2.0533116E-3,2.587466E-1,-1.2527244E-1,5.6294892E-2],"split_indices":[4142,4969,2788,2442,4469,0,0,0,0,0,0],"split_type":[0,0,0,0,0,0,0,0,0,0,0],"sum_hessian":[1.1030354E2,6.5775055E1,4.4528492E1,1.936502E1,4.6410034E1,4.3261024E1,1.2674656E0,1.3105356E1,6.2596655E0,2.461041E1,2.1799623E1],"tree_param":{"num_deleted":"0","num_feature":"5000","num_nodes":"11","size_leaf_vector":"1"}},{"base_weights":[-3.982213E-1,-4.350498E-1,3.5061947E-1,-4.5916265E-1,1.3838491E-1,2.5687444E-1,-4.074288E-2,6.0924057E-2,-1.4772408E-1],"categories":[],"categories_nodes":[],"categories_segments":[],"categories_sizes":[],"default_left":[1,1,0,0,0,0,0,0,0],"id":73,"left_children":[1,3,5,7,-1,-1,-1,-1,-1],"loss_changes":[2.2481833E0,1.7700443E0,1.0921631E0,1.2820463E0,0E0,0E0,0E0,0E0,0E0],"parents":[2147483647,0,0,1,1,2,2,3,3],"right_children":[2,4,6,8,-1,-1,-1,-1,-1],"split_conditions":[1.304991E-1,1.295945E-1,4.175084E-2,1.8793763E-1,1.3838491E-1,2.5687444E-1,-4.074288E-2,6.0924057E-2,-1.4772408E-1],"split_indices":[1107,3969,855,215,0,0,0,0,0],"split_type":[0,0,0,0,0,0,0,0,0],"sum_hessian":[7.498798E1,7.187229E1,3.1156895E0,7.0444466E1,1.4278253E0,1.1791587E0,1.9365307E0,2.3375766E0,6.810689E1],"tree_param":{"num_deleted":"0","num_feature":"5000","num_nodes":"9","size_leaf_vector":"1"}},{"base_weights":[5.885733E-2,-3.0641907E-1,1.1083895E-1,3.4630927E-1,-4.5981142E-1,6.9863266E-1,6.658193E-2,1.8125515E-1,-1.0399738E-1,-1.5688743E-1,4.920948E-3,3.0233786E-1,-7.8271836E-2,1.4608883E-2,4.3443897E-1],"categories":[],"categories_nodes":[],"categories_segments":[],"categories_sizes":[],"default_left":[1,0,1,1,1,0,1,0,0,0,0,0,0,0,0],"id":74,"left_children":[1,3,5,7,9,11,13,-1,-1,-1,-1,-1,-1,-1,-1],"loss_changes":[6.710378E0,4.5716786E0,7.980068E0,1.7290082E0,9.463191E-1,6.2645454E0,7.2393546E0,0E0,0E0,0E0,0E0,0E0,0E0,0E0,0E0],"parents":[2147483647,0,0,1,1,2,2,3,3,4,4,5,5,6,6],"right_children":[2,4,6,8,10,12,14,-1,-1,-1,-1,-1,-1,-1,-1],"split_conditions":[2.7101373E-2,2.7668508E-2,2.8122136E-2,2.3462959E-2,6.681303E-2,5.383021E-2,1.18452266E-1,1.8125515E-1,-1.0399738E-1,-1.5688743E-1,4.920948E-3,3.0233786E-1,-7.8271836E-2,1.4608883E-2,4.3443897E-1],"split_indices":[1190,911,2394,3022,1825,2911,4212,0,0,0,0,0,0,0,0],"split_type":[0,0,0,0,0,0,0,0,0,0,0,0,0,0,0],"sum_hessian":[3.5061865E2,4.3069965E1,3.0754868E2,7.956236E0,3.5113728E1,2.0499641E1,2.8704904E2,5.9461923E0,2.0100436E0,3.1429186E1,3.6845424E0,1.5663515E1,4.8361254E0,2.8417398E2,2.875065E0],"tree_param":{"num_deleted":"0","num_feature":"5000","num_nodes":"15","size_leaf_vector":"1"}},{"base_weights":[7.187388E-2,4.964486E-2,1.6228333E-1,2.0467823E-2,4.2211998E-1,-1.6896816E-1,1.238381E-2,1.4191945E-1,-1.3968237E-1],"categories":[],"categories_nodes":[],"categories_segments":[],"categories_sizes":[],"default_left":[1,1,0,0,1,0,0,0,0],"id":75,"left_children":[1,3,-1,5,7,-1,-1,-1,-1],"loss_changes":[5.598615E0,5.7037725E0,0E0,5.67281E0,1.6625447E0,0E0,0E0,0E0,0E0],"parents":[2147483647,0,0,1,1,3,3,4,4],"right_children":[2,4,-1,6,8,-1,-1,-1,-1],"split_conditions":[1.0523851E-1,7.329305E-2,1.6228333E-1,1.9157848E-1,1.5757759E-1,-1.6896816E-1,1.238381E-2,1.4191945E-1,-1.3968237E-1],"split_indices":[2399,2298,0,3720,2418,0,0,0,0],"split_type":[0,0,0,0,0,0,0,0,0],"sum_hessian":[5.488644E2,5.2463116E2,2.4233217E1,4.874989E2,3.713223E1,1.5610332E1,4.7188858E2,3.5844498E1,1.2877332E0],"tree_param":{"num_deleted":"0","num_feature":"5000","num_nodes":"9","size_leaf_vector":"1"}},{"base_weights":[-1.5930308E-1,2.0890107E-2,-4.2961416E-1,-1.4741102E-2,3.0761522E-1,1.9095688E-1,-1.507509E-1,-2.72001E-2,1.3886848E-1,-1.12129435E-1,2.819212E-1],"categories":[],"categories_nodes":[],"categories_segments":[],"categories_sizes":[],"default_left":[1,1,0,1,0,0,0,0,0,0,0],"id":76,"left_children":[1,3,5,7,-1,9,-1,-1,-1,-1,-1],"loss_changes":[5.2443104E0,2.3180628E0,1.821085E0,2.2853143E0,0E0,2.2987921E0,0E0,0E0,0E0,0E0,0E0],"parents":[2147483647,0,0,1,1,2,2,3,3,5,5],"right_children":[2,4,6,8,-1,10,-1,-1,-1,-1,-1],"split_conditions":[3.0803287E-2,1.2001176E-1,1.1364341E-1,6.535432E-2,3.0761522E-1,3.618869E-2,-1.507509E-1,-2.72001E-2,1.3886848E-1,-1.12129435E-1,2.819212E-1],"split_indices":[95,848,3955,4146,0,2789,0,0,0,0,0],"split_type":[0,0,0,0,0,0,0,0,0,0,0],"sum_hessian":[1.0648362E2,6.444584E1,4.2037785E1,6.315265E1,1.2931883E0,3.781959E0,3.8255825E1,5.5218235E1,7.934416E0,2.429881E0,1.3520782E0],"tree_param":{"num_deleted":"0","num_feature":"5000","num_nodes":"11","size_leaf_vector":"1"}},{"base_weights":[-1.856925E-1,-1.0012461E-2,-1.5014936E-1,-5.6098342E-2,9.592872E-1,7.092432E-2,-5.926239E-2,6.9534436E-2,3.7273562E-1],"categories":[],"categories_nodes":[],"categories_segments":[],"categories_sizes":[],"default_left":[1,1,0,0,0,0,0,0,0],"id":77,"left_children":[1,3,-1,5,7,-1,-1,-1,-1],"loss_changes":[5.4863863E0,2.9946241E0,0E0,2.5898023E0,3.0624938E-1,0E0,0E0,0E0,0E0],"parents":[2147483647,0,0,1,1,3,3,4,4],"right_children":[2,4,-1,6,8,-1,-1,-1,-1],"split_conditions":[3.606791E-2,7.169562E-2,-1.5014936E-1,1.0032201E-1,3.0530188E-2,7.092432E-2,-5.926239E-2,6.9534436E-2,3.7273562E-1],"split_indices":[4142,3228,0,4969,2886,0,0,0,0],"split_type":[0,0,0,0,0,0,0,0,0],"sum_hessian":[1.00948586E2,6.4832596E1,3.6115993E1,6.2789364E1,2.0432298E0,2.0109198E1,4.2680164E1,1.0338299E0,1.0093998E0],"tree_param":{"num_deleted":"0","num_feature":"5000","num_nodes":"9","size_leaf_vector":"1"}},{"base_weights":[-3.9713463E-1,2.678565E-1,-4.3305373E-1,-9.225813E-2,2.2029355E-1,1.3804731E-1,-4.6124613E-1,8.001179E-3,-1.4904237E-1],"categories":[],"categories_nodes":[],"categories_segments":[],"categories_sizes":[],"default_left":[0,0,0,0,0,0,0,0,0],"id":78,"left_children":[1,3,5,-1,-1,-1,7,-1,-1],"loss_changes":[1.6495295E0,1.2313247E0,1.739234E0,0E0,0E0,0E0,8.133917E-1,0E0,0E0],"parents":[2147483647,0,0,1,1,2,2,6,6],"right_children":[2,4,6,-1,-1,-1,8,-1,-1],"split_conditions":[1.0275647E-1,3.3465605E-2,1.3509327E-1,-9.225813E-2,2.2029355E-1,1.3804731E-1,9.54426E-2,8.001179E-3,-1.4904237E-1],"split_indices":[835,3854,3969,0,0,0,2403,0,0],"split_type":[0,0,0,0,0,0,0,0,0],"sum_hessian":[6.320249E1,2.9079897E0,6.0294502E1,1.4377743E0,1.4702154E0,1.3956451E0,5.8898857E1,3.1385598E0,5.5760296E1],"tree_param":{"num_deleted":"0","num_feature":"5000","num_nodes":"9","size_leaf_vector":"1"}},{"base_weights":[4.3532275E-2,7.570564E-2,-1.5776362E-1,-4.5617253E-1,1.1080068E-1,7.398165E-2,-1.5383811E-1,-7.8077085E-2,5.003502E-2],"categories":[],"categories_nodes":[],"categories_segments":[],"categories_sizes":[],"default_left":[1,1,0,0,0,0,0,0,0],"id":79,"left_children":[1,3,-1,5,7,-1,-1,-1,-1],"loss_changes":[6.3373203E0,6.229192E0,0E0,8.191867E-1,6.1224422E0,0E0,0E0,0E0,0E0],"parents":[2147483647,0,0,1,1,3,3,4,4],"right_children":[2,4,-1,6,8,-1,-1,-1,-1],"split_conditions":[9.221526E-2,2.0785768E-2,-1.5776362E-1,1.1083151E-1,1.4199892E-1,7.398165E-2,-1.5383811E-1,-7.8077085E-2,5.003502E-2],"split_indices":[2399,1190,0,1734,4706,0,0,0,0],"split_type":[0,0,0,0,0,0,0,0,0],"sum_hessian":[3.480736E2,3.3000568E2,1.8067917E1,1.9684328E1,3.1032135E2,1.010412E0,1.8673918E1,3.8856853E1,2.714645E2],"tree_param":{"num_deleted":"0","num_feature":"5000","num_nodes":"9","size_leaf_vector":"1"}},{"base_weights":[6.3923776E-2,3.8718347E-2,4.5444828E-1,4.6863753E-2,-4.243694E-1,5.3899314E-2,1.560973E-1,6.098276E-3,1.1906819E-1,1.190089E-1,-2.0048161E-1],"categories":[],"categories_nodes":[],"categories_segments":[],"categories_sizes":[],"default_left":[1,1,0,0,0,0,0,0,0,0,0],"id":80,"left_children":[1,3,5,7,-1,9,-1,-1,-1,-1,-1],"loss_changes":[5.128933E0,5.7991247E0,6.984143E-1,4.518879E0,0E0,1.470562E0,0E0,0E0,0E0,0E0,0E0],"parents":[2147483647,0,0,1,1,2,2,3,3,5,5],"right_children":[2,4,6,8,-1,10,-1,-1,-1,-1,-1],"split_conditions":[8.0001526E-2,1.6774641E-1,7.2015345E-2,5.69519E-2,-4.243694E-1,3.814441E-2,1.560973E-1,6.098276E-3,1.1906819E-1,1.190089E-1,-2.0048161E-1],"split_indices":[2816,3944,2844,1767,0,4518,0,0,0,0,0],"split_type":[0,0,0,0,0,0,0,0,0,0,0],"sum_hessian":[5.2184375E2,4.912372E2,3.0606537E1,4.8941687E2,1.8203496E0,4.076068E0,2.6530468E1,4.5489456E2,3.4522297E1,3.0739453E0,1.0021228E0],"tree_param":{"num_deleted":"0","num_feature":"5000","num_nodes":"11","size_leaf_vector":"1"}},{"base_weights":[-1.4062294E-1,3.4513563E-2,-4.4218495E-1,9.510378E-2,-1.3872053E-1,8.684766E-3,-1.4969099E-1,-2.7086854E-2,8.316918E-2,-1.1376361E-1,2.0197971E-1],"categories":[],"categories_nodes":[],"categories_segments":[],"categories_sizes":[],"default_left":[1,0,0,1,0,0,0,0,0,0,0],"id":81,"left_children":[1,3,5,7,-1,9,-1,-1,-1,-1,-1],"loss_changes":[5.271038E0,1.9372451E0,8.0706406E-1,1.9076791E0,0E0,1.3813545E0,0E0,0E0,0E0,0E0,0E0],"parents":[2147483647,0,0,1,1,2,2,3,3,5,5],"right_children":[2,4,6,8,-1,10,-1,-1,-1,-1,-1],"split_conditions":[3.069939E-2,3.5522252E-2,1.1364341E-1,3.5377063E-2,-1.3872053E-1,3.6533415E-2,-1.4969099E-1,-2.7086854E-2,8.316918E-2,-1.1376361E-1,2.0197971E-1],"split_indices":[987,354,3955,1421,0,2789,0,0,0,0,0],"split_type":[0,0,0,0,0,0,0,0,0,0,0],"sum_hessian":[9.8513855E1,6.2880592E1,3.5633263E1,5.666935E1,6.2112403E0,3.5474854E0,3.2085777E1,2.8084003E1,2.8585348E1,2.5105536E0,1.0369318E0],"tree_param":{"num_deleted":"0","num_feature":"5000","num_nodes":"11","size_leaf_vector":"1"}},{"base_weights":[-1.664252E-1,-1.7592555E-2,-4.593305E-1,2.3828885E-1,-1.3813654E-1,-1.4907688E-1,6.043131E-2,-4.0100683E-2,1.4360577E-1,-5.904618E-2,2.5725624E-1],"categories":[],"categories_nodes":[],"categories_segments":[],"categories_sizes":[],"default_left":[1,0,1,0,1,0,0,0,0,0,0],"id":82,"left_children":[1,3,5,7,9,-1,-1,-1,-1,-1,-1],"loss_changes":[4.11483E0,1.9992965E0,7.129717E-1,1.8489295E0,2.5568023E0,0E0,0E0,0E0,0E0,0E0,0E0],"parents":[2147483647,0,0,1,1,2,2,3,3,4,4],"right_children":[2,4,6,8,10,-1,-1,-1,-1,-1,-1],"split_conditions":[3.606791E-2,4.49709E-2,1.5618497E-1,2.764503E-2,1.1812995E-1,-1.4907688E-1,6.043131E-2,-4.0100683E-2,1.4360577E-1,-5.904618E-2,2.5725624E-1],"split_indices":[4142,4273,2788,899,3613,0,0,0,0,0,0],"split_type":[0,0,0,0,0,0,0,0,0,0,0],"sum_hessian":[9.357549E1,6.2750454E1,3.0825043E1,1.9781994E1,4.296846E1,2.974923E1,1.0758127E0,7.8054833E0,1.197651E1,4.1430534E1,1.5379263E0],"tree_param":{"num_deleted":"0","num_feature":"5000","num_nodes":"11","size_leaf_vector":"1"}},{"base_weights":[-3.6497188E-1,-4.7116944E-1,3.622308E-2,7.014125E-2,-1.5015939E-1,-1.2413055E-1,2.736226E-1,1.6785714E-1,-6.544006E-2],"categories":[],"categories_nodes":[],"categories_segments":[],"categories_sizes":[],"default_left":[0,0,0,0,0,0,0,0,0],"id":83,"left_children":[1,3,5,-1,-1,-1,7,-1,-1],"loss_changes":[2.4433956E0,7.8222084E-1,1.4631829E0,0E0,0E0,0E0,1.3291209E0,0E0,0E0],"parents":[2147483647,0,0,1,1,2,2,6,6],"right_children":[2,4,6,-1,-1,-1,8,-1,-1],"split_conditions":[1.1198855E-1,8.387387E-2,3.8099673E-2,7.014125E-2,-1.5015939E-1,-1.2413055E-1,4.0982783E-2,1.6785714E-1,-6.544006E-2],"split_indices":[987,3603,346,0,0,0,4488,0,0],"split_type":[0,0,0,0,0,0,0,0,0],"sum_hessian":[5.5948135E1,4.4100246E1,1.1847889E1,1.0026181E0,4.309763E1,3.8834355E0,7.9644537E0,5.0017953E0,2.9626586E0],"tree_param":{"num_deleted":"0","num_feature":"5000","num_nodes":"9","size_leaf_vector":"1"}},{"base_weights":[5.3427543E-2,-3.7828892E-1,8.6638235E-2,-4.5714372E-1,2.2339813E-1,7.492655E-2,1.2935302E0,-1.5211992E-1,7.069445E-2,2.0154499E-1,1.5363281E-2,5.221005E-1,6.948688E-2],"categories":[],"categories_nodes":[],"categories_segments":[],"categories_sizes":[],"default_left":[0,1,1,1,0,0,0,0,0,0,0,0,0],"id":84,"left_children":[1,3,5,7,-1,9,11,-1,-1,-1,-1,-1,-1],"loss_changes":[4.9454956E0,2.4949358E0,4.411832E0,7.9336786E-1,0E0,4.5268707E0,9.4914436E-1,0E0,0E0,0E0,0E0,0E0,0E0],"parents":[2147483647,0,0,1,1,2,2,3,3,5,5,6,6],"right_children":[2,4,6,8,-1,10,12,-1,-1,-1,-1,-1,-1],"split_conditions":[2.8780073E-1,9.087276E-2,1.6313766E-1,7.808426E-2,2.2339813E-1,1.933015E-1,3.9275587E-2,-1.5211992E-1,7.069445E-2,2.0154499E-1,1.5363281E-2,5.221005E-1,6.948688E-2],"split_indices":[1952,815,231,2333,0,1475,4165,0,0,0,0,0,0],"split_type":[0,0,0,0,0,0,0,0,0,0,0,0,0],"sum_hessian":[3.4164594E2,2.3662241E1,3.179837E2,2.2643171E1,1.0190709E0,3.1597952E2,2.0041847E0,2.1613781E1,1.02939E0,1.1668253E1,3.0431125E2,1.0039011E0,1.0002836E0],"tree_param":{"num_deleted":"0","num_feature":"5000","num_nodes":"13","size_leaf_vector":"1"}},{"base_weights":[3.9923463E-2,7.4116047E-3,3.5526606E-1,1.5422751E-1,-1.3271395E-2,4.2886108E-1,-1.4983897E-1,8.282929E-2,-1.5681729E-2,1.4900675E-1,-4.9221635E-2,-2.2205178E-1,1.19504206E-1],"categories":[],"categories_nodes":[],"categories_segments":[],"categories_sizes":[],"default_left":[1,0,1,0,0,1,1,0,0,0,0,0,0],"id":85,"left_children":[1,3,5,-1,7,9,11,-1,-1,-1,-1,-1,-1],"loss_changes":[5.171933E0,4.732407E0,1.8170414E0,0E0,4.8083367E0,1.5378261E0,2.395345E0,0E0,0E0,0E0,0E0,0E0,0E0],"parents":[2147483647,0,0,1,1,2,2,4,4,5,5,6,6],"right_children":[2,4,6,-1,8,10,12,-1,-1,-1,-1,-1,-1],"split_conditions":[6.7219645E-2,3.574558E-1,7.17416E-2,1.5422751E-1,1.4199892E-1,1.3731012E-1,4.2400245E-2,8.282929E-2,-1.5681729E-2,1.4900675E-1,-4.9221635E-2,-2.2205178E-1,1.19504206E-1],"split_indices":[1732,3528,4053,0,4706,2439,4307,0,0,0,0,0,0],"split_type":[0,0,0,0,0,0,0,0,0,0,0,0,0],"sum_hessian":[5.0371887E2,4.5756717E2,